<?xml version="1.0"?>
<opencv_storage>
<cascade>
  <stageType>BOOST</stageType>
  <featureType>LBP</featureType>
  <height>30</height>
  <width>30</width>
  <stageParams>
    <boostType>GAB</boostType>
    <minHitRate>9.9500000476837158e-01</minHitRate>
    <maxFalseAlarm>5.0000000000000000e-01</maxFalseAlarm>
    <weightTrimRate>9.4999999999999996e-01</weightTrimRate>
    <maxDepth>1</maxDepth>
    <maxWeakCount>100</maxWeakCount></stageParams>
  <featureParams>
    <maxCatCount>256</maxCatCount>
    <featSize>1</featSize></featureParams>
  <stageNum>15</stageNum>
  <stages>
    <!-- stage 0 -->
    <_>
      <maxWeakCount>3</maxWeakCount>
      <stageThreshold>-8.7202948331832886e-01</stageThreshold>
      <weakClassifiers>
        <_>
          <internalNodes>
            0 -1 36 -100729120 -10561544 -78082594 -12836 -73400584
            -1148460817 -1311816 -2097154</internalNodes>
          <leafValues>
            -8.0603194236755371e-01 7.8045952320098877e-01</leafValues></_>
        <_>
          <internalNodes>
            0 -1 25 -119734580 -6385410 -49495043 -10694819 -624230406
            -29900358 -69542658 -327682</internalNodes>
          <leafValues>
            -6.5455394983291626e-01 5.2999323606491089e-01</leafValues></_>
        <_>
          <internalNodes>
            0 -1 115 -582656681 -682264707 -270696577 1333075823
            -2622560 -591979 -16877669 -1910767786</internalNodes>
          <leafValues>
            -4.3631654977798462e-01 5.8855640888214111e-01</leafValues></_></weakClassifiers></_>
    <!-- stage 1 -->
    <_>
      <maxWeakCount>6</maxWeakCount>
      <stageThreshold>-1.1977503299713135e+00</stageThreshold>
      <weakClassifiers>
        <_>
          <internalNodes>
            0 -1 47 -73784 -131331 -515 -1 -268435474 -2 -1 -1</internalNodes>
          <leafValues>
            -5.2947103977203369e-01 7.5990039110183716e-01</leafValues></_>
        <_>
          <internalNodes>
            0 -1 2 -18940166 -187763750 -754584100 -2451462 -612106306
            -4380369 -217063426 -131076</internalNodes>
          <leafValues>
            -6.5008115768432617e-01 4.4045078754425049e-01</leafValues></_>
        <_>
          <internalNodes>
            0 -1 37 -2002125475 -290073091 -352199267 -107089127
            -1903166989 -1895947918 -1630292207 -290629163</internalNodes>
          <leafValues>
            -4.6722283959388733e-01 4.6160396933555603e-01</leafValues></_>
        <_>
          <internalNodes>
            0 -1 120 -764874032 -38158205 -787476336 1607665745
            -644310888 -6641512 482869914 1606378001</internalNodes>
          <leafValues>
            -5.5392301082611084e-01 3.4998458623886108e-01</leafValues></_>
        <_>
          <internalNodes>
            0 -1 127 -1061110956 -111369836 329146877 -550977191
            -647489568 -1232540032 -653474852 -6774784</internalNodes>
          <leafValues>
            -5.0704091787338257e-01 4.0084061026573181e-01</leafValues></_>
        <_>
          <internalNodes>
            0 -1 59 2008083839 -84233819 -359377755 -1197302951
            -209029468 -1168750224 -1433768976 -570229790</internalNodes>
          <leafValues>
            -4.8842483758926392e-01 3.9441064000129700e-01</leafValues></_></weakClassifiers></_>
    <!-- stage 2 -->
    <_>
      <maxWeakCount>8</maxWeakCount>
      <stageThreshold>-9.6879249811172485e-01</stageThreshold>
      <weakClassifiers>
        <_>
          <internalNodes>
            0 -1 75 -34678080 -2097451 -65587 -401441 -196865 -16386
            -7471361 -305</internalNodes>
          <leafValues>
            -4.5796459913253784e-01 6.7461830377578735e-01</leafValues></_>
        <_>
          <internalNodes>
            0 -1 17 -174202626 -573164746 -572596996 -1076192694
            -1182561296 -75300517 -74742792 -4456994</internalNodes>
          <leafValues>
            -6.1156451702117920e-01 4.0761628746986389e-01</leafValues></_>
        <_>
          <internalNodes>
            0 -1 89 -1582194541 -1243543225 -452576769 -1215196713
            -1513243713 -1081572968 -155079170 -1410924821</internalNodes>
          <leafValues>
            -4.2743757367134094e-01 4.5051300525665283e-01</leafValues></_>
        <_>
          <internalNodes>
            0 -1 73 -574038540 -547076267 -1070333955 -16600811
            -888627076 -1409810255 -192086820 -94307720</internalNodes>
          <leafValues>
            -4.4699695706367493e-01 4.0851816534996033e-01</leafValues></_>
        <_>
          <internalNodes>
            0 -1 38 -286436119 -16949248 -586033023 -1103316763
            -1877431300 -655867720 -283255871 -590801699</internalNodes>
          <leafValues>
            -4.3638959527015686e-01 4.0327382087707520e-01</leafValues></_>
        <_>
          <internalNodes>
            0 -1 160 -6246488 -91487840 -1390800511 -237300440
            -1360328694 -7683825 -7389205 -67168118</internalNodes>
          <leafValues>
            -4.7429925203323364e-01 3.9774858951568604e-01</leafValues></_>
        <_>
          <internalNodes>
            0 -1 125 -18098569 -16916866 626266193 463810143 2127873210
            -41127940 100204554 1519488787</internalNodes>
          <leafValues>
            -3.6055707931518555e-01 4.5638865232467651e-01</leafValues></_>
        <_>
          <internalNodes>
            0 -1 50 -1497376863 -1744465148 -690525347 -44595447
            -1457530451 -1885497087 -1232740303 -1434493688</internalNodes>
          <leafValues>
            -4.2937287688255310e-01 4.0249586105346680e-01</leafValues></_></weakClassifiers></_>
    <!-- stage 3 -->
    <_>
      <maxWeakCount>10</maxWeakCount>
      <stageThreshold>-6.6080021858215332e-01</stageThreshold>
      <weakClassifiers>
        <_>
          <internalNodes>
            0 -1 130 1375678481 1937715825 1605768095 -580159651
            -538969581 -262147 2126502395 -2177</internalNodes>
          <leafValues>
            -3.0040323734283447e-01 6.4641433954238892e-01</leafValues></_>
        <_>
          <internalNodes>
            0 -1 16 2113929215 -1073742081 -135334162 -284648346 -786497
            2013265910 -86838390 -1114113</internalNodes>
          <leafValues>
            -4.3049356341362000e-01 4.5021334290504456e-01</leafValues></_>
        <_>
          <internalNodes>
            0 -1 65 -1591500054 -1577507628 894686677 1460748513
            -2026918153 -1683500104 -645274689 1744560354</internalNodes>
          <leafValues>
            -5.6279039382934570e-01 2.9701089859008789e-01</leafValues></_>
        <_>
          <internalNodes>
            0 -1 71 2065340516 -1748487762 -1072394511 840053010
            -536229398 -361033688 -1373459584 -75235453</internalNodes>
          <leafValues>
            -5.8900189399719238e-01 2.8113290667533875e-01</leafValues></_>
        <_>
          <internalNodes>
            0 -1 105 -108995874 -1118261092 1358972120 353701386
            -1411467014 -1157578544 428280730 491234339</internalNodes>
          <leafValues>
            -5.2308791875839233e-01 3.1915014982223511e-01</leafValues></_>
        <_>
          <internalNodes>
            0 -1 171 -553808984 -1144406382 -536229680 2043779296
            -280395000 -3595634 -90208066 -29016</internalNodes>
          <leafValues>
            -4.2315047979354858e-01 3.8780769705772400e-01</leafValues></_>
        <_>
          <internalNodes>
            0 -1 73 -673718412 -184258059 -774762147 -49784505
            -1828170004 -863923755 -1430253092 -1895238664</internalNodes>
          <leafValues>
            -4.6142259240150452e-01 3.5532209277153015e-01</leafValues></_>
        <_>
          <internalNodes>
            0 -1 162 -1153915461 -1146996532 1095760368 -212739823
            529110175 -1684102519 249257364 -1074029504</internalNodes>
          <leafValues>
            -3.7674075365066528e-01 4.0513268113136292e-01</leafValues></_>
        <_>
          <internalNodes>
            0 -1 53 -871506160 -1529929692 -518884900 -10775799
            -501315440 -2002152935 160432280 -275820175</internalNodes>
          <leafValues>
            -4.5261695981025696e-01 3.3832088112831116e-01</leafValues></_>
        <_>
          <internalNodes>
            0 -1 128 -907713436 -754367883 -2096821308 -217816776
            -1425431825 -359757686 -1971065171 -269485064</internalNodes>
          <leafValues>
            -6.4441388845443726e-01 2.5839346647262573e-01</leafValues></_></weakClassifiers></_>
    <!-- stage 4 -->
    <_>
      <maxWeakCount>11</maxWeakCount>
      <stageThreshold>-1.1199624538421631e+00</stageThreshold>
      <weakClassifiers>
        <_>
          <internalNodes>
            0 -1 52 -286266846 -5296337 -1091725 -131282 -2099537
            -12632331 1599069711 -79691777</internalNodes>
          <leafValues>
            -4.5524790883064270e-01 6.0872501134872437e-01</leafValues></_>
        <_>
          <internalNodes>
            0 -1 20 2139094909 -65538 -613486772 2108652300 -147461
            -134283273 -2085141822 -8653873</internalNodes>
          <leafValues>
            -3.7962952256202698e-01 4.6067559719085693e-01</leafValues></_>
        <_>
          <internalNodes>
            0 -1 95 -788600070 -7077758 4194370 -875098225 -1697074294
            -123809150 807419968 -832836081</internalNodes>
          <leafValues>
            -5.4036563634872437e-01 2.9099351167678833e-01</leafValues></_>
        <_>
          <internalNodes>
            0 -1 173 -676336214 -1153698046 1601153634 -205803646
            -309338484 -279317221 -1076425841 -67372374</internalNodes>
          <leafValues>
            -3.1619194149971008e-01 4.8690018057823181e-01</leafValues></_>
        <_>
          <internalNodes>
            0 -1 46 -527982157 -33624065 894957659 -582119937 -840233025
            -1380044834 -985796609 -973864985</internalNodes>
          <leafValues>
            -3.3561161160469055e-01 4.6787792444229126e-01</leafValues></_>
        <_>
          <internalNodes>
            0 -1 83 1892451019 1421854437 -1065221933 2107392057
            1913717422 -1081470450 1001735234 -830348397</internalNodes>
          <leafValues>
            -3.8273426890373230e-01 4.0362572669982910e-01</leafValues></_>
        <_>
          <internalNodes>
            0 -1 111 1980211973 990085895 -620312206 1695338776
            1347951951 93823509 1103326255 87244854</internalNodes>
          <leafValues>
            -5.1524341106414795e-01 2.6781442761421204e-01</leafValues></_>
        <_>
          <internalNodes>
            0 -1 11 -666913742 -661759304 -1325519937 -76154179
            1559474412 1343157485 -525026161 -20972357</internalNodes>
          <leafValues>
            -3.2548478245735168e-01 4.6550530195236206e-01</leafValues></_>
        <_>
          <internalNodes>
            0 -1 121 1961545438 365047552 -657295106 -1216326144
            619188956 807926290 -54553377 619150126</internalNodes>
          <leafValues>
            -4.8428162932395935e-01 3.1338959932327271e-01</leafValues></_>
        <_>
          <internalNodes>
            0 -1 138 -645071212 -1155197017 -104337618 -430204
            -2000402184 267053215 -1632736938 -1172738347</internalNodes>
          <leafValues>
            -3.9577603340148926e-01 3.6657255887985229e-01</leafValues></_>
        <_>
          <internalNodes>
            0 -1 79 -1473602917 614904848 -1738198399 -1374953387
            680390906 -167929580 -2113664784 -56895131</internalNodes>
          <leafValues>
            -4.1377645730972290e-01 3.7498208880424500e-01</leafValues></_></weakClassifiers></_>
    <!-- stage 5 -->
    <_>
      <maxWeakCount>11</maxWeakCount>
      <stageThreshold>-1.2427210807800293e+00</stageThreshold>
      <weakClassifiers>
        <_>
          <internalNodes>
            0 -1 141 1999307779 359099699 2073958263 -33822857 340413763
            1433894715 1862162047 -33569685</internalNodes>
          <leafValues>
            -2.9166665673255920e-01 6.0632181167602539e-01</leafValues></_>
        <_>
          <internalNodes>
            0 -1 68 -3146847 -289411422 -1116960447 -500732765
            -1897275521 -327809 1844778973 -16779369</internalNodes>
          <leafValues>
            -3.2937222719192505e-01 5.1456278562545776e-01</leafValues></_>
        <_>
          <internalNodes>
            0 -1 6 2139085823 -1 -1686330138 -2409970 -37 -131073
            -146279445 -10521973</internalNodes>
          <leafValues>
            -3.3989813923835754e-01 4.5756736397743225e-01</leafValues></_>
        <_>
          <internalNodes>
            0 -1 118 -137103864 -1684589934 -539436900 -1507073537
            -908458326 -265232214 151694315 2147478475</internalNodes>
          <leafValues>
            -4.3534770607948303e-01 3.4029614925384521e-01</leafValues></_>
        <_>
          <internalNodes>
            0 -1 179 -805316827 -1527386180 -637571595 -1611342867
            -1350816495 939093356 -654288 -1053401</internalNodes>
          <leafValues>
            -3.7194594740867615e-01 3.9706349372863770e-01</leafValues></_>
        <_>
          <internalNodes>
            0 -1 165 -1314137174 -1717219528 1068088821 254508452
            923920058 2138030076 517471978 758857710</internalNodes>
          <leafValues>
            -3.2482019066810608e-01 4.2696756124496460e-01</leafValues></_>
        <_>
          <internalNodes>
            0 -1 26 -380574575 1703944369 -2130427041 63014255
            -1593668417 -1585409624 -1014765383 1710345151</internalNodes>
          <leafValues>
            -4.0131947398185730e-01 3.7120991945266724e-01</leafValues></_>
        <_>
          <internalNodes>
            0 -1 92 -507447058 -664697856 1629680146 1561838594
            993049596 -1977056960 2117134984 1179113730</internalNodes>
          <leafValues>
            -5.1230835914611816e-01 2.6707118749618530e-01</leafValues></_>
        <_>
          <internalNodes>
            0 -1 62 -241990258 1612059143 -1332669460 2139489 1073995859
            1549424942 -561837623 1912711703</internalNodes>
          <leafValues>
            -5.7567948102951050e-01 2.2889751195907593e-01</leafValues></_>
        <_>
          <internalNodes>
            0 -1 78 -1543183673 -1971716703 -1189829166 -1156464220
            -1372425985 -43869419 -1698815852 -546840765</internalNodes>
          <leafValues>
            -3.9071404933929443e-01 3.5604301095008850e-01</leafValues></_>
        <_>
          <internalNodes>
            0 -1 146 2004284366 2133280862 101200350 1388566018
            583401798 1644823308 1452489631 1164356616</internalNodes>
          <leafValues>
            -4.9123948812484741e-01 3.0338314175605774e-01</leafValues></_></weakClassifiers></_>
    <!-- stage 6 -->
    <_>
      <maxWeakCount>12</maxWeakCount>
      <stageThreshold>-8.2058423757553101e-01</stageThreshold>
      <weakClassifiers>
        <_>
          <internalNodes>
            0 -1 61 1022425836 -16843069 1727433441 -625805641 -17369090
            -8749058 -1697579836 -293544055</internalNodes>
          <leafValues>
            -2.9993042349815369e-01 5.3276354074478149e-01</leafValues></_>
        <_>
          <internalNodes>
            0 -1 88 -633361121 -67272903 801084383 -1077936353 -12591105
            -426054 -810756209 -1642565</internalNodes>
          <leafValues>
            -2.9941129684448242e-01 4.8044568300247192e-01</leafValues></_>
        <_>
          <internalNodes>
            0 -1 35 -42532870 -4751362 -1380909313 -46960394 -142869268
            -822122780 -134293249 -4743168</internalNodes>
          <leafValues>
            -2.8999769687652588e-01 4.6538001298904419e-01</leafValues></_>
        <_>
          <internalNodes>
            0 -1 147 -640287777 -136314899 -1404715009 -1611137284
            1553334204 -539170728 -607792177 -540025999</internalNodes>
          <leafValues>
            -2.7747213840484619e-01 4.7285178303718567e-01</leafValues></_>
        <_>
          <internalNodes>
            0 -1 77 -567164831 -78593 -551690795 -34275619 -85406493
            -18809130 2128325727 -16122433</internalNodes>
          <leafValues>
            -3.1590917706489563e-01 4.0300205349922180e-01</leafValues></_>
        <_>
          <internalNodes>
            0 -1 15 -819397327 -1645351298 265244629 -1881387245
            2145312701 -268505202 -2028040460 -858959941</internalNodes>
          <leafValues>
            -3.0727833509445190e-01 4.1474676132202148e-01</leafValues></_>
        <_>
          <internalNodes>
            0 -1 176 1369151768 -201489153 1544008084 -810031351
            -147388111 -1177020277 139139512 -34760812</internalNodes>
          <leafValues>
            -3.8436535000801086e-01 3.3857455849647522e-01</leafValues></_>
        <_>
          <internalNodes>
            0 -1 51 -836239437 -1910011391 -1589390924 -149203663
            1317716954 -342190059 1272255376 -397903918</internalNodes>
          <leafValues>
            -4.0613320469856262e-01 3.3308759331703186e-01</leafValues></_>
        <_>
          <internalNodes>
            0 -1 120 -210046288 -84295021 -782740388 1482146191
            -567661378 -629126509 299000474 1484718883</internalNodes>
          <leafValues>
            -4.9118053913116455e-01 2.5439205765724182e-01</leafValues></_>
        <_>
          <internalNodes>
            0 -1 98 -905150322 -1556068222 1078363597 -1959910717
            -1702123131 -2010210294 1225690433 -821372001</internalNodes>
          <leafValues>
            -5.2983886003494263e-01 2.5076726078987122e-01</leafValues></_>
        <_>
          <internalNodes>
            0 -1 86 -76088988 2131013689 -1073565481 2132717616
            -1741909632 -1987217159 -39132488 -73207014</internalNodes>
          <leafValues>
            -3.8255879282951355e-01 3.5125082731246948e-01</leafValues></_>
        <_>
          <internalNodes>
            0 -1 3 275895146 -1762112864 -469083507 704790598
            -1710246213 -1163769206 -1315706642 541107208</internalNodes>
          <leafValues>
            -5.8719778060913086e-01 1.9877046346664429e-01</leafValues></_></weakClassifiers></_>
    <!-- stage 7 -->
    <_>
      <maxWeakCount>14</maxWeakCount>
      <stageThreshold>-9.3916702270507812e-01</stageThreshold>
      <weakClassifiers>
        <_>
          <internalNodes>
            0 -1 67 -290722144 -291080215 -453151379 -118143759
            1273560699 -855638017 -581073667 -67284737</internalNodes>
          <leafValues>
            -2.0596061646938324e-01 5.7922834157943726e-01</leafValues></_>
        <_>
          <internalNodes>
            0 -1 129 -11150015 1397476175 -1702778145 -1969255477
            -1433425199 -2010144757 -1962308962 -385883437</internalNodes>
          <leafValues>
            -3.9650231599807739e-01 3.7003880739212036e-01</leafValues></_>
        <_>
          <internalNodes>
            0 -1 159 -136395894 -204212339 -339757413 -1220815989
            -538012790 -68404376 -633578549 -76551285</internalNodes>
          <leafValues>
            -2.9375860095024109e-01 4.5357635617256165e-01</leafValues></_>
        <_>
          <internalNodes>
            0 -1 7 -550978 1418384006 -136497 -96361309 -8520113
            -16794666 -325 -62392065</internalNodes>
          <leafValues>
            -3.4313941001892090e-01 3.9475777745246887e-01</leafValues></_>
        <_>
          <internalNodes>
            0 -1 123 -67183908 -258877481 -803733456 1171865691
            1880885946 -100095942 1289617418 1528822531</internalNodes>
          <leafValues>
            -4.9491754174232483e-01 2.2475782036781311e-01</leafValues></_>
        <_>
          <internalNodes>
            0 -1 139 -482094285 -377237105 2200021 1930383805 92309694
            1218572080 1553668104 535261754</internalNodes>
          <leafValues>
            -3.6091926693916321e-01 3.3328577876091003e-01</leafValues></_>
        <_>
          <internalNodes>
            0 -1 76 -1505238089 -1575997918 -586718682 -1312333426
            211130607 63228161 1341899364 -321928350</internalNodes>
          <leafValues>
            -3.6612114310264587e-01 3.2521545886993408e-01</leafValues></_>
        <_>
          <internalNodes>
            0 -1 18 -93070319 -742004433 25755667 167920727 -1987908933
            -1984773925 697535689 145226702</internalNodes>
          <leafValues>
            -3.5069572925567627e-01 3.5623520612716675e-01</leafValues></_>
        <_>
          <internalNodes>
            0 -1 19 -723934994 -1731181048 -540570817 -35666227
            -299679019 -120487674 -370715457 542343175</internalNodes>
          <leafValues>
            -3.6006274819374084e-01 3.4756201505661011e-01</leafValues></_>
        <_>
          <internalNodes>
            0 -1 153 -350572573 -1959279744 -887269965 -138465246
            -1049648652 221103811 -521168908 -839912459</internalNodes>
          <leafValues>
            -3.7451338768005371e-01 3.4475222229957581e-01</leafValues></_>
        <_>
          <internalNodes>
            0 -1 133 1421739074 1406255896 -2122165500 1979126579
            809025588 -1353711564 1200454904 -17499278</internalNodes>
          <leafValues>
            -4.8073396086692810e-01 2.5984314084053040e-01</leafValues></_>
        <_>
          <internalNodes>
            0 -1 87 -392454529 -1908685933 -2038333262 817254728
            -542497675 658739890 -2120056588 -659331197</internalNodes>
          <leafValues>
            -4.0155276656150818e-01 3.0613249540328979e-01</leafValues></_>
        <_>
          <internalNodes>
            0 -1 124 822540227 -1088231474 -370441020 -1388448480
            1557660846 1833891762 -473952785 -88974745</internalNodes>
          <leafValues>
            -3.2355892658233643e-01 3.9842793345451355e-01</leafValues></_>
        <_>
          <internalNodes>
            0 -1 85 272664112 1362785029 -1838308582 613550848
            -1585364080 -23722869 -539239792 1999862275</internalNodes>
          <leafValues>
            -5.2682501077651978e-01 2.3749838769435883e-01</leafValues></_></weakClassifiers></_>
    <!-- stage 8 -->
    <_>
      <maxWeakCount>14</maxWeakCount>
      <stageThreshold>-1.1060996055603027e+00</stageThreshold>
      <weakClassifiers>
        <_>
          <internalNodes>
            0 -1 100 -134628354 -67112962 -197281 -272760914 2145704958
            -4292610 1362449759 -80494590</internalNodes>
          <leafValues>
            -4.5086704194545746e-02 6.2173277139663696e-01</leafValues></_>
        <_>
          <internalNodes>
            0 -1 48 -525749829 -38143765 -277482115 -33729043 -823412889
            -1426063873 -570572937 -1922228997</internalNodes>
          <leafValues>
            -3.1561544537544250e-01 4.2100265622138977e-01</leafValues></_>
        <_>
          <internalNodes>
            0 -1 161 1874328254 -541196357 1577655332 -6335471
            1041760226 -1086359553 1476117177 -5505263</internalNodes>
          <leafValues>
            -3.1311511993408203e-01 3.9084154367446899e-01</leafValues></_>
        <_>
          <internalNodes>
            0 -1 145 -825278701 -804299661 -930882817 -1808150303
            -2000092590 -1399959381 -899803922 -310004417</internalNodes>
          <leafValues>
            -3.6684995889663696e-01 3.2335853576660156e-01</leafValues></_>
        <_>
          <internalNodes>
            0 -1 70 -698714905 1175652738 173173761 -75836198 -767015250
            645074962 540192256 -1348732661</internalNodes>
          <leafValues>
            -4.5152741670608521e-01 2.7286189794540405e-01</leafValues></_>
        <_>
          <internalNodes>
            0 -1 102 1096382221 1669681207 86541615 1070396954 143673445
            1426167951 1504009311 1974681653</internalNodes>
          <leafValues>
            -3.5811576247215271e-01 3.2940384745597839e-01</leafValues></_>
        <_>
          <internalNodes>
            0 -1 40 -736814011 -723699027 412091077 -1159740683
            690018459 -55574525 -746485837 -1634965111</internalNodes>
          <leafValues>
            -3.6722084879875183e-01 3.1168535351753235e-01</leafValues></_>
        <_>
          <internalNodes>
            0 -1 91 -616369185 -68685146 1996685030 1764215487
            -1073807362 -1372520452 2132926136 1869609343</internalNodes>
          <leafValues>
            -2.4835759401321411e-01 4.9686029553413391e-01</leafValues></_>
        <_>
          <internalNodes>
            0 -1 158 -1223719000 -722874216 -1073523863 1438319293
            339949746 -2101313338 965155130 1608467274</internalNodes>
          <leafValues>
            -4.2907774448394775e-01 2.9093092679977417e-01</leafValues></_>
        <_>
          <internalNodes>
            0 -1 137 -22100827 -1146464332 -122200400 -276066864
            -840920871 -1344798786 -815801025 -1073746505</internalNodes>
          <leafValues>
            -2.6959189772605896e-01 4.3779063224792480e-01</leafValues></_>
        <_>
          <internalNodes>
            0 -1 21 -32769 -102958406 -65794 -648480018 -134348833
            -889202818 -5 -133693622</internalNodes>
          <leafValues>
            -3.2660898566246033e-01 3.5178714990615845e-01</leafValues></_>
        <_>
          <internalNodes>
            0 -1 168 -340076134 -428671059 1772995115 -1439128032
            -52704025 1600076585 -8760865 -547101634</internalNodes>
          <leafValues>
            -2.9071313142776489e-01 3.9771261811256409e-01</leafValues></_>
        <_>
          <internalNodes>
            0 -1 90 -1507678080 -1987144432 -449690767 -954481183
            177290744 -886403016 438378712 1290499009</internalNodes>
          <leafValues>
            -5.9088319540023804e-01 2.0417515933513641e-01</leafValues></_>
        <_>
          <internalNodes>
            0 -1 10 1894670360 -1271390697 381621815 -105553307
            -990846764 -683286876 -1963016677 -1651649857</internalNodes>
          <leafValues>
            -3.3173072338104248e-01 3.7122151255607605e-01</leafValues></_></weakClassifiers></_>
    <!-- stage 9 -->
    <_>
      <maxWeakCount>14</maxWeakCount>
      <stageThreshold>-7.3936915397644043e-01</stageThreshold>
      <weakClassifiers>
        <_>
          <internalNodes>
            0 -1 114 958601741 529217107 203914463 -56410561 -11534641
            -152567841 -275834642 -353818421</internalNodes>
          <leafValues>
            -1.8442153930664062e-01 5.4583919048309326e-01</leafValues></_>
        <_>
          <internalNodes>
            0 -1 41 2010038239 -257 -537163425 -42112116 -278397441
            -33554433 -1218985521 -538449137</internalNodes>
          <leafValues>
            -1.7516143620014191e-01 6.1018019914627075e-01</leafValues></_>
        <_>
          <internalNodes>
            0 -1 99 -1074924562 -285474818 -285376529 -152043553
            -580530203 -1379324084 -841661245 -66</internalNodes>
          <leafValues>
            -3.1748148798942566e-01 3.5427805781364441e-01</leafValues></_>
        <_>
          <internalNodes>
            0 -1 56 1578941179 -702323157 2137533633 2146084581
            596656380 -1467326440 -677795927 -71287539</internalNodes>
          <leafValues>
            -3.8669165968894958e-01 2.9429486393928528e-01</leafValues></_>
        <_>
          <internalNodes>
            0 -1 140 1158478847 1735357239 592917375 1392603967
            998584410 1073084414 837841919 -75565186</internalNodes>
          <leafValues>
            -3.2147952914237976e-01 3.6298817396163940e-01</leafValues></_>
        <_>
          <internalNodes>
            0 -1 135 -956633676 -1211040812 1346952685 -484501108
            272684284 -1865895252 -1154831907 -922856248</internalNodes>
          <leafValues>
            -3.7208431959152222e-01 3.0794528126716614e-01</leafValues></_>
        <_>
          <internalNodes>
            0 -1 104 268485196 -115850644 1426080412 -1788362057
            -1301825542 -1207394219 1869718331 694397386</internalNodes>
          <leafValues>
            -5.2927488088607788e-01 2.3172394931316376e-01</leafValues></_>
        <_>
          <internalNodes>
            0 -1 28 -1328092946 -27841709 -1535524098 -174861614
            -795131383 405015809 -83297137 -130811893</internalNodes>
          <leafValues>
            -3.5321074724197388e-01 3.4852021932601929e-01</leafValues></_>
        <_>
          <internalNodes>
            0 -1 154 263990527 726658863 -1342259205 -4920308 -405282817
            1070034199 -436242496 -738212361</internalNodes>
          <leafValues>
            -2.9363980889320374e-01 3.8488107919692993e-01</leafValues></_>
        <_>
          <internalNodes>
            0 -1 24 -807549519 -576901311 -824185383 -1030971615
            254724078 -2166850 -1400380182 -515514454</internalNodes>
          <leafValues>
            -2.7557459473609924e-01 4.0244811773300171e-01</leafValues></_>
        <_>
          <internalNodes>
            0 -1 170 -209719320 -747471099 -17849462 -744322477
            -1493728371 -1893909591 -851498741 -306990622</internalNodes>
          <leafValues>
            -2.9761135578155518e-01 3.8443157076835632e-01</leafValues></_>
        <_>
          <internalNodes>
            0 -1 63 -451678210 -639633767 -801054672 -1080141983
            -502601724 -1741066104 -1974597055 474794577</internalNodes>
          <leafValues>
            -4.5655754208564758e-01 2.5077250599861145e-01</leafValues></_>
        <_>
          <internalNodes>
            0 -1 31 -1058546180 -1297463019 -485895915 -74841975
            212232728 209781025 1753497613 -2003524564</internalNodes>
          <leafValues>
            -4.6440148353576660e-01 2.5084206461906433e-01</leafValues></_>
        <_>
          <internalNodes>
            0 -1 108 -126687138 -1145007926 1258383458 -674132103
            146302328 1109555733 102838456 1382245371</internalNodes>
          <leafValues>
            -4.3657451868057251e-01 2.6422783732414246e-01</leafValues></_></weakClassifiers></_>
    <!-- stage 10 -->
    <_>
      <maxWeakCount>15</maxWeakCount>
      <stageThreshold>-8.5915112495422363e-01</stageThreshold>
      <weakClassifiers>
        <_>
          <internalNodes>
            0 -1 39 -541201684 -1091113235 -117643548 -90133779 -3604513
            -227770755 -270532609 -108933696</internalNodes>
          <leafValues>
            -2.5234898924827576e-01 5.2682924270629883e-01</leafValues></_>
        <_>
          <internalNodes>
            0 -1 103 1088618484 1744535295 -335847585 -402684222
            -998982156 -2005539466 -1130575873 -235691533</internalNodes>
          <leafValues>
            -2.6848933100700378e-01 4.1640198230743408e-01</leafValues></_>
        <_>
          <internalNodes>
            0 -1 144 -856746189 1363022119 -2002266030 2039695389
            -2003917485 -394180599 210357902 -34679469</internalNodes>
          <leafValues>
            -3.9563691616058350e-01 3.0637824535369873e-01</leafValues></_>
        <_>
          <internalNodes>
            0 -1 101 -1593850236 -177057323 -1066101261 1068635939
            -459306715 -1699175800 -1976987225 -2004829269</internalNodes>
          <leafValues>
            -4.1990140080451965e-01 2.5468245148658752e-01</leafValues></_>
        <_>
          <internalNodes>
            0 -1 93 -25000 -1157124063 -861909951 -475006333 -369896818
            -1194282838 -651116287 -1416369591</internalNodes>
          <leafValues>
            -4.2657423019409180e-01 2.4829475581645966e-01</leafValues></_>
        <_>
          <internalNodes>
            0 -1 177 -806377978 -610290287 -1924344720 -571222689
            698437530 2023039640 -365190224 -1345979666</internalNodes>
          <leafValues>
            -3.7033841013908386e-01 2.7587729692459106e-01</leafValues></_>
        <_>
          <internalNodes>
            0 -1 148 638968627 2115370428 -1083231391 121110333
            202489791 -1342591052 268389577 -274489867</internalNodes>
          <leafValues>
            -2.2162649035453796e-01 4.4779404997825623e-01</leafValues></_>
        <_>
          <internalNodes>
            0 -1 82 -1225654543 943186547 204777555 -705983381 -2031658
            -18518348 1475794130 2127789447</internalNodes>
          <leafValues>
            -3.0155414342880249e-01 3.6286199092864990e-01</leafValues></_>
        <_>
          <internalNodes>
            0 -1 64 -1485905007 -612178005 -1514486283 -277475853
            -1388385105 -2015576722 -162012075 -798175593</internalNodes>
          <leafValues>
            -2.8079938888549805e-01 3.9035809040069580e-01</leafValues></_>
        <_>
          <internalNodes>
            0 -1 30 -251275843 -575188639 167496740 1438507049
            -2059010081 475379156 211211505 7904577</internalNodes>
          <leafValues>
            -3.1248125433921814e-01 3.6538738012313843e-01</leafValues></_>
        <_>
          <internalNodes>
            0 -1 175 -361583080 -1288688552 -1274369541 11061391
            -1453940712 -1599477087 -1374256709 -1700624374</internalNodes>
          <leafValues>
            -3.7402915954589844e-01 3.1771507859230042e-01</leafValues></_>
        <_>
          <internalNodes>
            0 -1 149 236826403 882503348 -895617167 -541564983
            1835909047 -1890189315 -1397082705 -1881222662</internalNodes>
          <leafValues>
            -2.6275137066841125e-01 4.4175770878791809e-01</leafValues></_>
        <_>
          <internalNodes>
            0 -1 12 1931783749 687147245 61802217 871738614 -1151365569
            -268686276 1072402419 -8491298</internalNodes>
          <leafValues>
            -2.6467674970626831e-01 4.0934899449348450e-01</leafValues></_>
        <_>
          <internalNodes>
            0 -1 58 -176691210 -45332132 52843594 -1912290603 146903314
            -1852891062 -896519849 674291291</internalNodes>
          <leafValues>
            -4.7379112243652344e-01 2.3722259700298309e-01</leafValues></_>
        <_>
          <internalNodes>
            0 -1 157 1428918776 1459834992 -1450022525 -1249500799
            1697898891 -1690746742 -363871093 -305470589</internalNodes>
          <leafValues>
            -3.3520713448524475e-01 3.3981472253799438e-01</leafValues></_></weakClassifiers></_>
    <!-- stage 11 -->
    <_>
      <maxWeakCount>15</maxWeakCount>
      <stageThreshold>-8.0192768573760986e-01</stageThreshold>
      <weakClassifiers>
        <_>
          <internalNodes>
            0 -1 143 -300790330 2008170140 -1155243 -269131923
            -411935488 1040776974 -1087939212 1060630327</internalNodes>
          <leafValues>
            -2.8741091489791870e-01 4.9883893132209778e-01</leafValues></_>
        <_>
          <internalNodes>
            0 -1 9 -134291713 -556497666 1056695015 -55838137 -321
            -285477141 -134218897 -391387257</internalNodes>
          <leafValues>
            -2.4131453037261963e-01 4.5727577805519104e-01</leafValues></_>
        <_>
          <internalNodes>
            0 -1 66 -1431785549 -299325679 -183909072 -191241213
            -975978545 -49151709 1541751168 -268746256</internalNodes>
          <leafValues>
            -4.1933187842369080e-01 2.6612007617950439e-01</leafValues></_>
        <_>
          <internalNodes>
            0 -1 125 -789185441 2138963255 1414808154 -583149569
            -588985093 -2330628 -976809846 -271060213</internalNodes>
          <leafValues>
            -2.7080142498016357e-01 4.0673840045928955e-01</leafValues></_>
        <_>
          <internalNodes>
            0 -1 44 -1587363856 1931661305 -381944061 -35582549
            -772680207 -712006212 -1009401538 -1544322825</internalNodes>
          <leafValues>
            -3.1842344999313354e-01 3.3442813158035278e-01</leafValues></_>
        <_>
          <internalNodes>
            0 -1 43 -1936533764 725549467 2026954495 823547155
            -1092076864 -458161887 304712936 -1046949533</internalNodes>
          <leafValues>
            -3.4001362323760986e-01 3.2744023203849792e-01</leafValues></_>
        <_>
          <internalNodes>
            0 -1 142 1740907470 1933995095 133251550 1095077196
            551027246 1803393090 -805273444 1426632264</internalNodes>
          <leafValues>
            -4.7143051028251648e-01 2.1775861084461212e-01</leafValues></_>
        <_>
          <internalNodes>
            0 -1 29 -671098892 -1170226377 335970595 1527468355
            -1995197577 587436429 9552430 -1911063603</internalNodes>
          <leafValues>
            -4.0161776542663574e-01 2.6009508967399597e-01</leafValues></_>
        <_>
          <internalNodes>
            0 -1 126 1834585413 1841772535 -1477001857 -1480144 81380861
            -977011201 -1577077329 802896334</internalNodes>
          <leafValues>
            -2.5074765086174011e-01 4.2853093147277832e-01</leafValues></_>
        <_>
          <internalNodes>
            0 -1 169 -1290029126 51373816 16925683 1398924196 134986422
            25270981 42924587 992574384</internalNodes>
          <leafValues>
            -4.2246401309967041e-01 2.5750598311424255e-01</leafValues></_>
        <_>
          <internalNodes>
            0 -1 132 -227089706 -1120115811 1150427408 -1807382133
            412615870 -536338420 1159136010 641333115</internalNodes>
          <leafValues>
            -4.1827285289764404e-01 2.6112642884254456e-01</leafValues></_>
        <_>
          <internalNodes>
            0 -1 122 -1924991342 -70497280 -72068464 529809540
            -801086722 -397791135 -357510632 1245402315</internalNodes>
          <leafValues>
            -4.3753528594970703e-01 2.5785166025161743e-01</leafValues></_>
        <_>
          <internalNodes>
            0 -1 42 -577823179 2104366975 -1107493129 -1153941634
            964627471 -9536002 2133529876 -83297343</internalNodes>
          <leafValues>
            -3.0693188309669495e-01 3.7064033746719360e-01</leafValues></_>
        <_>
          <internalNodes>
            0 -1 117 1343228942 -1613730446 1187255568 1605047604
            951760310 -83574015 1787185830 593981731</internalNodes>
          <leafValues>
            -5.1911246776580811e-01 2.1961314976215363e-01</leafValues></_>
        <_>
          <internalNodes>
            0 -1 69 1545400456 -757825150 70125571 -1425632659 303087840
            319501081 -1042619584 -655691264</internalNodes>
          <leafValues>
            -5.4989826679229736e-01 1.9535055756568909e-01</leafValues></_></weakClassifiers></_>
    <!-- stage 12 -->
    <_>
      <maxWeakCount>16</maxWeakCount>
      <stageThreshold>-6.6080111265182495e-01</stageThreshold>
      <weakClassifiers>
        <_>
          <internalNodes>
            0 -1 49 -269750367 1006210878 268169173 -46280854 -268448257
            -1086435393 -1526866547 -181407761</internalNodes>
          <leafValues>
            -7.4122235178947449e-02 5.8786892890930176e-01</leafValues></_>
        <_>
          <internalNodes>
            0 -1 34 -1275201537 1072103125 -139408147 -41571827
            1744829391 -1887440897 -1319911217 -9970609</internalNodes>
          <leafValues>
            -1.7531125247478485e-01 5.3604423999786377e-01</leafValues></_>
        <_>
          <internalNodes>
            0 -1 172 -422082644 1439871283 1416212706 1438369330
            -1198543829 1756959294 -326421973 -815558142</internalNodes>
          <leafValues>
            -3.5050377249717712e-01 2.9320007562637329e-01</leafValues></_>
        <_>
          <internalNodes>
            0 -1 97 -253973809 -107597712 -1002911535 1709075275
            -1141656689 -1141210178 -944309504 -71836789</internalNodes>
          <leafValues>
            -3.1094145774841309e-01 3.1795367598533630e-01</leafValues></_>
        <_>
          <internalNodes>
            0 -1 5 285463359 302104783 -1794329924 -324230450 1179
            134218770 -1048124462 -218521094</internalNodes>
          <leafValues>
            -4.9634316563606262e-01 1.7656314373016357e-01</leafValues></_>
        <_>
          <internalNodes>
            0 -1 150 -157891010 -667436031 759158011 -315361921
            -1736518459 -16853513 1151257087 -2100225</internalNodes>
          <leafValues>
            -1.8265257775783539e-01 5.4350417852401733e-01</leafValues></_>
        <_>
          <internalNodes>
            0 -1 116 -95317950 1080959220 -1852040666 2144252715
            -52586069 -1264918292 -1983088136 -807864101</internalNodes>
          <leafValues>
            -4.2362406849861145e-01 2.4168133735656738e-01</leafValues></_>
        <_>
          <internalNodes>
            0 -1 178 757546806 -1080417922 -820836164 -1721801840
            -1853312137 1913701752 -1516301395 -1124129404</internalNodes>
          <leafValues>
            -3.6383616924285889e-01 2.9837608337402344e-01</leafValues></_>
        <_>
          <internalNodes>
            0 -1 119 -1328939002 -1213582422 1829251378 -1115073392
            1411389832 883070626 1787489006 618868775</internalNodes>
          <leafValues>
            -5.1881414651870728e-01 2.0819008350372314e-01</leafValues></_>
        <_>
          <internalNodes>
            0 -1 14 2125854259 -3149833 -957364601 130834329 -1289748547
            -1903403298 1272788665 -821197125</internalNodes>
          <leafValues>
            -2.8642940521240234e-01 4.0149515867233276e-01</leafValues></_>
        <_>
          <internalNodes>
            0 -1 57 -571374392 -1527019321 2130806041 -16802741 8708992
            -59637754 -803726328 -627732449</internalNodes>
          <leafValues>
            -3.4086713194847107e-01 3.1694900989532471e-01</leafValues></_>
        <_>
          <internalNodes>
            0 -1 166 -521214276 865772713 -1127428129 -1459437123
            -53571859 -250721694 -1925110872 -340021701</internalNodes>
          <leafValues>
            -3.3088961243629456e-01 3.1814855337142944e-01</leafValues></_>
        <_>
          <internalNodes>
            0 -1 132 -680106300 -799526720 -588760064 1470579383
            1423712796 1660969480 1355940354 1186967547</internalNodes>
          <leafValues>
            -5.4322886466979980e-01 2.0527416467666626e-01</leafValues></_>
        <_>
          <internalNodes>
            0 -1 23 2131212986 -49283054 1527363099 496730114 1753578915
            -385844348 1216411387 766473882</internalNodes>
          <leafValues>
            -3.2569521665573120e-01 3.1858193874359131e-01</leafValues></_>
        <_>
          <internalNodes>
            0 -1 152 587212091 -1089667139 -215765265 -404685074
            205335467 -1569734727 730213529 -1412961351</internalNodes>
          <leafValues>
            -2.7960330247879028e-01 3.7983000278472900e-01</leafValues></_>
        <_>
          <internalNodes>
            0 -1 0 -480408850 -2017948350 1056324860 -541561244
            -747114564 -1360147724 66912106 -941568948</internalNodes>
          <leafValues>
            -3.0132186412811279e-01 3.4917104244232178e-01</leafValues></_></weakClassifiers></_>
    <!-- stage 13 -->
    <_>
      <maxWeakCount>18</maxWeakCount>
      <stageThreshold>-6.8673092126846313e-01</stageThreshold>
      <weakClassifiers>
        <_>
          <internalNodes>
            0 -1 74 -1599889231 -1577087041 -178210827 -239235394
            -982143233 -168165377 -2075791873 -1512077643</internalNodes>
          <leafValues>
            -9.4357512891292572e-02 5.6515032052993774e-01</leafValues></_>
        <_>
          <internalNodes>
            0 -1 4 294848894 1359413265 -720693508 -37219354 696322238
            34668697 210998766 -543737041</internalNodes>
          <leafValues>
            -4.9868807196617126e-01 2.3508094251155853e-01</leafValues></_>
        <_>
          <internalNodes>
            0 -1 96 -71841211 -137065376 -621347594 -33634249 -152160
            -592952287 -412039173 -1885661949</internalNodes>
          <leafValues>
            -3.0661639571189880e-01 3.2164528965950012e-01</leafValues></_>
        <_>
          <internalNodes>
            0 -1 33 -787406606 -1000544412 1342263398 2103273677 721735
            -1293612539 -2128379869 5574475</internalNodes>
          <leafValues>
            -3.7586098909378052e-01 2.6042523980140686e-01</leafValues></_>
        <_>
          <internalNodes>
            0 -1 106 282739898 -1115099964 1427793562 -1088296191
            203973033 2132894711 -628611137 1995537159</internalNodes>
          <leafValues>
            -3.6267045140266418e-01 2.8148093819618225e-01</leafValues></_>
        <_>
          <internalNodes>
            0 -1 167 923720670 53961476 537625415 528047444 1045081045
            10060195 1938506191 1059815264</internalNodes>
          <leafValues>
            -4.6588549017906189e-01 2.1125590801239014e-01</leafValues></_>
        <_>
          <internalNodes>
            0 -1 151 -930205353 1193871231 -830179335 8255275
            -1343350830 -1073859777 -1657090 -731924545</internalNodes>
          <leafValues>
            -2.9607450962066650e-01 3.5883209109306335e-01</leafValues></_>
        <_>
          <internalNodes>
            0 -1 113 -806998092 -135299077 -319291939 -1649221324
            -59318787 -479084639 -45036035 -303468361</internalNodes>
          <leafValues>
            -3.0938452482223511e-01 3.2336106896400452e-01</leafValues></_>
        <_>
          <internalNodes>
            0 -1 13 -558171087 2100228027 199953563 -2039627843
            -296843526 -1344344833 1586288158 -118894609</internalNodes>
          <leafValues>
            -2.4115467071533203e-01 4.1206219792366028e-01</leafValues></_>
        <_>
          <internalNodes>
            0 -1 174 -1024466202 -153767845 127306402 -85992681
            323930862 1444522133 -1432671576 -113461762</internalNodes>
          <leafValues>
            -3.2410934567451477e-01 3.2341477274894714e-01</leafValues></_>
        <_>
          <internalNodes>
            0 -1 55 -1349794553 1780778754 -413019311 -286876858
            87287857 -61177821 581309232 -34878655</internalNodes>
          <leafValues>
            -4.0721374750137329e-01 2.6430597901344299e-01</leafValues></_>
        <_>
          <internalNodes>
            0 -1 155 704648371 -1843493408 -1084908589 -890583351
            755253167 -1148595791 747088553 166946880</internalNodes>
          <leafValues>
            -3.8258135318756104e-01 2.9090991616249084e-01</leafValues></_>
        <_>
          <internalNodes>
            0 -1 32 1718680528 -1252474643 13682618 -788333882 273476288
            491938217 -1425407358 722488855</internalNodes>
          <leafValues>
            -4.7900462150573730e-01 2.0448450744152069e-01</leafValues></_>
        <_>
          <internalNodes>
            0 -1 109 856760450 33882114 268634115 319885826 -1153395722
            707887104 19202451 -2070456328</internalNodes>
          <leafValues>
            -4.4832211732864380e-01 2.1741166710853577e-01</leafValues></_>
        <_>
          <internalNodes>
            0 -1 94 -391853039 -318889901 -1350057711 -1008856043
            176708264 -1162923610 1925759505 -1677763661</internalNodes>
          <leafValues>
            -3.1364592909812927e-01 3.2913413643836975e-01</leafValues></_>
        <_>
          <internalNodes>
            0 -1 164 -811630680 -1332410578 -2046033839 -777662367
            -1876240087 2056432029 977603648 805453894</internalNodes>
          <leafValues>
            -4.5801937580108643e-01 2.4238632619380951e-01</leafValues></_>
        <_>
          <internalNodes>
            0 -1 107 -648022026 -205000158 -13630892 479842399
            1141531570 -1201110959 1539005322 1276769536</internalNodes>
          <leafValues>
            -3.8476842641830444e-01 2.7521380782127380e-01</leafValues></_>
        <_>
          <internalNodes>
            0 -1 131 753991602 -1253011404 -231979592 -1325576192
            -1770217300 -1143581541 468488410 556880329</internalNodes>
          <leafValues>
            -4.9753937125205994e-01 2.1224837005138397e-01</leafValues></_></weakClassifiers></_>
    <!-- stage 14 -->
    <_>
      <maxWeakCount>18</maxWeakCount>
      <stageThreshold>-1.1458691358566284e+00</stageThreshold>
      <weakClassifiers>
        <_>
          <internalNodes>
            0 -1 136 -2097200557 1398766463 -696364709 1392506494
            -1746978975 -713067138 -757238913 -957415558</internalNodes>
          <leafValues>
            -1.6074654459953308e-01 5.2247059345245361e-01</leafValues></_>
        <_>
          <internalNodes>
            0 -1 45 -526274053 -50596422 -974258241 -637716997
            -1364215981 -286802435 -34603017 -810526735</internalNodes>
          <leafValues>
            -2.6944687962532043e-01 3.6019021272659302e-01</leafValues></_>
        <_>
          <internalNodes>
            0 -1 72 -1861586878 151392584 17987025 2073744850 193177992
            302522666 -620364848 -4485217</internalNodes>
          <leafValues>
            -4.1684114933013916e-01 2.4506446719169617e-01</leafValues></_>
        <_>
          <internalNodes>
            0 -1 84 -318788375 -570652655 -285229057 -4666283 1600349375
            -21730267 -1476395805 -2002139995</internalNodes>
          <leafValues>
            -2.9679170250892639e-01 3.2649618387222290e-01</leafValues></_>
        <_>
          <internalNodes>
            0 -1 8 -17827073 -22094614 -54621 -38951221 -13 -1076006185
            -37001 -1407978761</internalNodes>
          <leafValues>
            -2.4976736307144165e-01 3.8377389311790466e-01</leafValues></_>
        <_>
          <internalNodes>
            0 -1 22 1087545882 -721695249 216962395 1370970291
            -1751280462 182771934 -1643342309 -1196495985</internalNodes>
          <leafValues>
            -3.0221283435821533e-01 3.3683428168296814e-01</leafValues></_>
        <_>
          <internalNodes>
            0 -1 78 -1427387673 -1366069760 -348025640 -763000640
            239651235 -295792166 1322201572 -86787121</internalNodes>
          <leafValues>
            -3.6632943153381348e-01 2.6872578263282776e-01</leafValues></_>
        <_>
          <internalNodes>
            0 -1 110 -59284433 1565485625 -51087814 1569688615
            -1225300234 -1368109836 -2788297 -107714813</internalNodes>
          <leafValues>
            -2.8131181001663208e-01 3.5058665275573730e-01</leafValues></_>
        <_>
          <internalNodes>
            0 -1 163 -644175894 -1859375024 1949487225 -40889328
            1007559483 -1553010297 856371984 1130566672</internalNodes>
          <leafValues>
            -4.6529218554496765e-01 2.0942614972591400e-01</leafValues></_>
        <_>
          <internalNodes>
            0 -1 112 -967126156 1689940233 -1860299265 999985501
            -87625731 -16531237 603210680 -4299405</internalNodes>
          <leafValues>
            -3.3433517813682556e-01 2.9678431153297424e-01</leafValues></_>
        <_>
          <internalNodes>
            0 -1 54 -1884553477 -1092632849 -33755951 -50811139
            2084890109 -855843329 -1110581515 -816259899</internalNodes>
          <leafValues>
            -2.2281922399997711e-01 4.3044739961624146e-01</leafValues></_>
        <_>
          <internalNodes>
            0 -1 80 -641392424 -46558870 1812286483 2140136451 -86969416
            546642361 -1146814075 2076295296</internalNodes>
          <leafValues>
            -3.8024741411209106e-01 2.6815959811210632e-01</leafValues></_>
        <_>
          <internalNodes>
            0 -1 156 1444632383 1376950023 1094739210 1896220179
            919382815 376129615 -488453570 619181694</internalNodes>
          <leafValues>
            -3.8048321008682251e-01 2.7080586552619934e-01</leafValues></_>
        <_>
          <internalNodes>
            0 -1 134 258996023 1127145407 -1347436617 2135928456
            1101892767 1425473508 358555551 -1051013174</internalNodes>
          <leafValues>
            -2.4349187314510345e-01 4.1362085938453674e-01</leafValues></_>
        <_>
          <internalNodes>
            0 -1 60 286798292 135078256 1570642900 -825253210
            -1593272196 -400359134 2050376909 -973632318</internalNodes>
          <leafValues>
            -4.0427881479263306e-01 2.5177496671676636e-01</leafValues></_>
        <_>
          <internalNodes>
            0 -1 27 527317779 -88802701 1702724215 -781104942
            -1073815617 -1929486981 1300973257 1234896159</internalNodes>
          <leafValues>
            -2.7356514334678650e-01 3.7966820597648621e-01</leafValues></_>
        <_>
          <internalNodes>
            0 -1 1 -85794562 240707796 320931114 155881932 1935103626
            -577240829 965852134 120433320</internalNodes>
          <leafValues>
            -4.0259280800819397e-01 2.5562518835067749e-01</leafValues></_>
        <_>
          <internalNodes>
            0 -1 81 -362553619 -289420114 -66670883 2131988199
            1020032495 -1235990895 2121690583 -617354130</internalNodes>
          <leafValues>
            -2.8204572200775146e-01 3.7582370638847351e-01</leafValues></_></weakClassifiers></_></stages>
  <features>
    <_>
      <rect>
        0 4 4 5</rect></_>
    <_>
      <rect>
        0 6 4 5</rect></_>
    <_>
      <rect>
        0 6 10 8</rect></_>
    <_>
      <rect>
        0 13 4 5</rect></_>
    <_>
      <rect>
        0 14 10 3</rect></_>
    <_>
      <rect>
        0 15 9 5</rect></_>
    <_>
      <rect>
        0 17 10 4</rect></_>
    <_>
      <rect>
        0 18 6 3</rect></_>
    <_>
      <rect>
        0 18 7 3</rect></_>
    <_>
      <rect>
        0 19 7 3</rect></_>
    <_>
      <rect>
        1 1 9 3</rect></_>
    <_>
      <rect>
        2 1 9 3</rect></_>
    <_>
      <rect>
        2 3 5 4</rect></_>
    <_>
      <rect>
        2 3 8 4</rect></_>
    <_>
      <rect>
        2 4 9 3</rect></_>
    <_>
      <rect>
        2 4 9 4</rect></_>
    <_>
      <rect>
        2 14 8 4</rect></_>
    <_>
      <rect>
        2 15 9 3</rect></_>
    <_>
      <rect>
        3 4 7 3</rect></_>
    <_>
      <rect>
        3 14 3 4</rect></_>
    <_>
      <rect>
        3 14 9 5</rect></_>
    <_>
      <rect>
        3 15 5 5</rect></_>
    <_>
      <rect>
        4 0 8 4</rect></_>
    <_>
      <rect>
        4 5 3 3</rect></_>
    <_>
      <rect>
        4 6 7 3</rect></_>
    <_>
      <rect>
        4 9 7 5</rect></_>
    <_>
      <rect>
        5 4 6 4</rect></_>
    <_>
      <rect>
        5 6 5 2</rect></_>
    <_>
      <rect>
        5 21 4 2</rect></_>
    <_>
      <rect>
        6 2 8 9</rect></_>
    <_>
      <rect>
        6 8 2 3</rect></_>
    <_>
      <rect>
        6 10 3 4</rect></_>
    <_>
      <rect>
        6 17 2 4</rect></_>
    <_>
      <rect>
        6 18 4 3</rect></_>
    <_>
      <rect>
        6 19 7 3</rect></_>
    <_>
      <rect>
        6 21 7 3</rect></_>
    <_>
      <rect>
        7 5 6 8</rect></_>
    <_>
      <rect>
        7 8 3 4</rect></_>
    <_>
      <rect>
        7 12 4 3</rect></_>
    <_>
      <rect>
        7 14 4 3</rect></_>
    <_>
      <rect>
        7 15 4 2</rect></_>
    <_>
      <rect>
        7 16 7 4</rect></_>
    <_>
      <rect>
        7 21 1 2</rect></_>
    <_>
      <rect>
        7 23 5 2</rect></_>
    <_>
      <rect>
        8 1 3 3</rect></_>
    <_>
      <rect>
        8 7 3 4</rect></_>
    <_>
      <rect>
        8 7 4 3</rect></_>
    <_>
      <rect>
        8 7 5 6</rect></_>
    <_>
      <rect>
        8 8 3 4</rect></_>
    <_>
      <rect>
        8 9 5 2</rect></_>
    <_>
      <rect>
        8 10 2 3</rect></_>
    <_>
      <rect>
        8 11 2 2</rect></_>
    <_>
      <rect>
        8 11 5 2</rect></_>
    <_>
      <rect>
        8 12 2 2</rect></_>
    <_>
      <rect>
        8 12 4 3</rect></_>
    <_>
      <rect>
        8 13 2 1</rect></_>
    <_>
      <rect>
        8 13 4 3</rect></_>
    <_>
      <rect>
        8 14 2 2</rect></_>
    <_>
      <rect>
        8 15 2 4</rect></_>
    <_>
      <rect>
        8 15 4 3</rect></_>
    <_>
      <rect>
        8 15 7 5</rect></_>
    <_>
      <rect>
        8 16 4 2</rect></_>
    <_>
      <rect>
        8 18 3 2</rect></_>
    <_>
      <rect>
        8 20 4 3</rect></_>
    <_>
      <rect>
        9 8 4 2</rect></_>
    <_>
      <rect>
        9 10 3 2</rect></_>
    <_>
      <rect>
        9 11 2 2</rect></_>
    <_>
      <rect>
        9 11 2 3</rect></_>
    <_>
      <rect>
        9 13 2 2</rect></_>
    <_>
      <rect>
        9 15 4 2</rect></_>
    <_>
      <rect>
        9 16 4 2</rect></_>
    <_>
      <rect>
        9 17 4 2</rect></_>
    <_>
      <rect>
        9 17 5 2</rect></_>
    <_>
      <rect>
        9 21 2 3</rect></_>
    <_>
      <rect>
        10 9 3 2</rect></_>
    <_>
      <rect>
        10 10 4 4</rect></_>
    <_>
      <rect>
        10 11 1 1</rect></_>
    <_>
      <rect>
        10 11 2 4</rect></_>
    <_>
      <rect>
        10 12 1 1</rect></_>
    <_>
      <rect>
        10 13 1 2</rect></_>
    <_>
      <rect>
        10 13 3 2</rect></_>
    <_>
      <rect>
        10 14 2 2</rect></_>
    <_>
      <rect>
        10 14 3 2</rect></_>
    <_>
      <rect>
        10 15 3 2</rect></_>
    <_>
      <rect>
        10 16 2 2</rect></_>
    <_>
      <rect>
        10 19 3 2</rect></_>
    <_>
      <rect>
        10 21 2 3</rect></_>
    <_>
      <rect>
        10 26 4 1</rect></_>
    <_>
      <rect>
        11 8 4 3</rect></_>
    <_>
      <rect>
        11 9 2 2</rect></_>
    <_>
      <rect>
        11 11 1 2</rect></_>
    <_>
      <rect>
        11 12 2 2</rect></_>
    <_>
      <rect>
        11 13 2 2</rect></_>
    <_>
      <rect>
        11 13 3 2</rect></_>
    <_>
      <rect>
        11 14 1 2</rect></_>
    <_>
      <rect>
        11 14 3 2</rect></_>
    <_>
      <rect>
        11 15 2 2</rect></_>
    <_>
      <rect>
        11 15 3 2</rect></_>
    <_>
      <rect>
        11 15 4 2</rect></_>
    <_>
      <rect>
        11 15 5 3</rect></_>
    <_>
      <rect>
        11 16 5 4</rect></_>
    <_>
      <rect>
        11 17 2 2</rect></_>
    <_>
      <rect>
        11 21 4 2</rect></_>
    <_>
      <rect>
        11 23 4 2</rect></_>
    <_>
      <rect>
        12 12 2 2</rect></_>
    <_>
      <rect>
        12 13 2 2</rect></_>
    <_>
      <rect>
        12 14 1 1</rect></_>
    <_>
      <rect>
        12 14 2 2</rect></_>
    <_>
      <rect>
        12 15 2 1</rect></_>
    <_>
      <rect>
        12 15 5 3</rect></_>
    <_>
      <rect>
        12 16 2 2</rect></_>
    <_>
      <rect>
        12 21 4 2</rect></_>
    <_>
      <rect>
        12 23 2 2</rect></_>
    <_>
      <rect>
        12 23 3 2</rect></_>
    <_>
      <rect>
        13 9 2 2</rect></_>
    <_>
      <rect>
        13 9 4 4</rect></_>
    <_>
      <rect>
        13 11 2 3</rect></_>
    <_>
      <rect>
        13 12 1 2</rect></_>
    <_>
      <rect>
        13 12 2 2</rect></_>
    <_>
      <rect>
        13 13 1 1</rect></_>
    <_>
      <rect>
        13 13 2 2</rect></_>
    <_>
      <rect>
        13 14 1 1</rect></_>
    <_>
      <rect>
        13 14 1 2</rect></_>
    <_>
      <rect>
        13 14 2 2</rect></_>
    <_>
      <rect>
        13 15 1 1</rect></_>
    <_>
      <rect>
        13 15 2 2</rect></_>
    <_>
      <rect>
        13 22 3 2</rect></_>
    <_>
      <rect>
        13 23 1 2</rect></_>
    <_>
      <rect>
        14 3 3 9</rect></_>
    <_>
      <rect>
        14 8 3 5</rect></_>
    <_>
      <rect>
        14 9 3 3</rect></_>
    <_>
      <rect>
        14 13 1 2</rect></_>
    <_>
      <rect>
        14 14 2 2</rect></_>
    <_>
      <rect>
        14 17 2 2</rect></_>
    <_>
      <rect>
        14 23 3 1</rect></_>
    <_>
      <rect>
        14 24 2 2</rect></_>
    <_>
      <rect>
        15 11 3 2</rect></_>
    <_>
      <rect>
        15 13 1 1</rect></_>
    <_>
      <rect>
        15 14 1 1</rect></_>
    <_>
      <rect>
        15 20 4 2</rect></_>
    <_>
      <rect>
        16 5 4 5</rect></_>
    <_>
      <rect>
        16 8 2 4</rect></_>
    <_>
      <rect>
        16 9 4 3</rect></_>
    <_>
      <rect>
        16 13 2 3</rect></_>
    <_>
      <rect>
        17 7 2 4</rect></_>
    <_>
      <rect>
        17 9 2 3</rect></_>
    <_>
      <rect>
        17 10 4 3</rect></_>
    <_>
      <rect>
        17 11 4 6</rect></_>
    <_>
      <rect>
        17 21 3 2</rect></_>
    <_>
      <rect>
        17 22 3 2</rect></_>
    <_>
      <rect>
        18 2 2 3</rect></_>
    <_>
      <rect>
        18 8 2 4</rect></_>
    <_>
      <rect>
        18 20 3 2</rect></_>
    <_>
      <rect>
        19 16 3 2</rect></_>
    <_>
      <rect>
        19 19 3 1</rect></_>
    <_>
      <rect>
        19 20 2 2</rect></_>
    <_>
      <rect>
        20 10 2 2</rect></_>
    <_>
      <rect>
        20 10 3 4</rect></_>
    <_>
      <rect>
        21 5 3 7</rect></_>
    <_>
      <rect>
        21 6 3 4</rect></_>
    <_>
      <rect>
        21 6 3 5</rect></_>
    <_>
      <rect>
        21 12 3 5</rect></_>
    <_>
      <rect>
        21 16 2 3</rect></_>
    <_>
      <rect>
        21 17 2 3</rect></_>
    <_>
      <rect>
        21 17 3 4</rect></_>
    <_>
      <rect>
        22 4 2 8</rect></_>
    <_>
      <rect>
        22 8 2 3</rect></_>
    <_>
      <rect>
        22 12 2 5</rect></_>
    <_>
      <rect>
        23 1 2 7</rect></_>
    <_>
      <rect>
        23 7 2 7</rect></_>
    <_>
      <rect>
        23 9 2 3</rect></_>
    <_>
      <rect>
        23 9 2 4</rect></_>
    <_>
      <rect>
        23 10 2 3</rect></_>
    <_>
      <rect>
        23 11 2 2</rect></_>
    <_>
      <rect>
        23 13 2 2</rect></_>
    <_>
      <rect>
        24 10 1 2</rect></_>
    <_>
      <rect>
        24 11 2 4</rect></_>
    <_>
      <rect>
        24 13 2 2</rect></_>
    <_>
      <rect>
        24 16 1 2</rect></_>
    <_>
      <rect>
        26 14 1 1</rect></_></features></cascade>
</opencv_storage>
