<?xml version="1.0"?>
<opencv_storage>
<cascade>
  <stageType>BOOST</stageType>
  <featureType>LBP</featureType>
  <height>30</height>
  <width>30</width>
  <stageParams>
    <boostType>GAB</boostType>
    <minHitRate>9.9500000476837158e-01</minHitRate>
    <maxFalseAlarm>5.0000000000000000e-01</maxFalseAlarm>
    <weightTrimRate>9.4999999999999996e-01</weightTrimRate>
    <maxDepth>1</maxDepth>
    <maxWeakCount>100</maxWeakCount></stageParams>
  <featureParams>
    <maxCatCount>256</maxCatCount>
    <featSize>1</featSize></featureParams>
  <stageNum>15</stageNum>
  <stages>
    <!-- stage 0 -->
    <_>
      <maxWeakCount>5</maxWeakCount>
      <stageThreshold>-1.0801916122436523e+00</stageThreshold>
      <weakClassifiers>
        <_>
          <internalNodes>
            0 -1 37 -2687256 -65812 -606240 -65572 -8454210 -1048580
            -196644 -65540</internalNodes>
          <leafValues>
            -7.1226418018341064e-01 7.4535316228866577e-01</leafValues></_>
        <_>
          <internalNodes>
            0 -1 115 1598873224 1058012853 -272662976 -41947145
            -548617846 -10576161 -1076974929 -69217297</internalNodes>
          <leafValues>
            -4.9724632501602173e-01 5.2728515863418579e-01</leafValues></_>
        <_>
          <internalNodes>
            0 -1 29 -122470324 582317529 -989784433 -1986404557 -8136513
            -68886087 -93470261 -14427144</internalNodes>
          <leafValues>
            -4.4424000382423401e-01 4.3097218871116638e-01</leafValues></_>
        <_>
          <internalNodes>
            0 -1 143 -6890498 -1233632144 90494757 -1097332636
            -886511473 -1695889248 -1438065667 -71767660</internalNodes>
          <leafValues>
            -4.5338755846023560e-01 3.8650748133659363e-01</leafValues></_>
        <_>
          <internalNodes>
            0 -1 170 -309964721 1059145899 344129821 118063388 419590466
            -94689278 -125385981 -1945133809</internalNodes>
          <leafValues>
            -4.3067082762718201e-01 4.1158866882324219e-01</leafValues></_></weakClassifiers></_>
    <!-- stage 1 -->
    <_>
      <maxWeakCount>9</maxWeakCount>
      <stageThreshold>-1.1539167165756226e+00</stageThreshold>
      <weakClassifiers>
        <_>
          <internalNodes>
            0 -1 56 -75563316 -20 -16843276 -1 -69468502 -70692
            -268439558 -1</internalNodes>
          <leafValues>
            -4.6505516767501831e-01 7.0417380332946777e-01</leafValues></_>
        <_>
          <internalNodes>
            0 -1 83 -56041996 -640887602 -410516337 -9776561 -1155872305
            -612194288 -606295091 -1115156</internalNodes>
          <leafValues>
            -5.6365084648132324e-01 3.9283221960067749e-01</leafValues></_>
        <_>
          <internalNodes>
            0 -1 35 -864468772 582178041 -249332871 -1080739491
            -304358227 -1228818350 -668947266 -1096548458</internalNodes>
          <leafValues>
            -4.5840209722518921e-01 3.5291483998298645e-01</leafValues></_>
        <_>
          <internalNodes>
            0 -1 194 -1614972033 -1308319088 -440708309 -625184496
            2101366817 -326354665 2131973509 -33719427</internalNodes>
          <leafValues>
            -4.2051458358764648e-01 3.9695096015930176e-01</leafValues></_>
        <_>
          <internalNodes>
            0 -1 111 -543263361 898650536 -1017896529 537398054
            2123057484 1845889227 -475844466 851141631</internalNodes>
          <leafValues>
            -4.2563572525978088e-01 3.6111024022102356e-01</leafValues></_>
        <_>
          <internalNodes>
            0 -1 136 419746002 -593169156 -229866991 -538455543
            261015938 -540213092 -2054357361 -1615939073</internalNodes>
          <leafValues>
            -3.8414180278778076e-01 3.7932890653610229e-01</leafValues></_>
        <_>
          <internalNodes>
            0 -1 64 -638231232 1305027332 826497350 -810220952
            -879012032 -81723253 -338981997 -539736252</internalNodes>
          <leafValues>
            -5.0969165563583374e-01 2.7354076504707336e-01</leafValues></_>
        <_>
          <internalNodes>
            0 -1 27 -196203858 617381065 -2109701475 1526464655
            -16733985 -569700326 -55903269 149707676</internalNodes>
          <leafValues>
            -5.5310171842575073e-01 2.2072978317737579e-01</leafValues></_>
        <_>
          <internalNodes>
            0 -1 175 -704851105 1071280031 2111823651 -1657811009
            1845305129 1064992739 -1628700757 -376631482</internalNodes>
          <leafValues>
            -3.1075200438499451e-01 4.5649302005767822e-01</leafValues></_></weakClassifiers></_>
    <!-- stage 2 -->
    <_>
      <maxWeakCount>11</maxWeakCount>
      <stageThreshold>-1.1788216829299927e+00</stageThreshold>
      <weakClassifiers>
        <_>
          <internalNodes>
            0 -1 5 -1377542 -134288648 -90132784 -17629954 -540930 -28
            -17104898 -66</internalNodes>
          <leafValues>
            -4.1954708099365234e-01 6.2563627958297729e-01</leafValues></_>
        <_>
          <internalNodes>
            0 -1 95 -67113016 -551682251 -1575007 2143289335 -555955062
            -77660523 -1089474581 -273</internalNodes>
          <leafValues>
            -4.3973925709724426e-01 4.5640274882316589e-01</leafValues></_>
        <_>
          <internalNodes>
            0 -1 141 -33574436 -597866280 2110144920 1576982781
            1132911610 -1079066438 -608277511 -1359291940</internalNodes>
          <leafValues>
            -4.3825873732566833e-01 3.2189810276031494e-01</leafValues></_>
        <_>
          <internalNodes>
            0 -1 19 -184728556 707910068 -1937649523 -1928750820
            -1174377045 -1550743544 -1206919763 -1100547119</internalNodes>
          <leafValues>
            -4.3117406964302063e-01 2.8456202149391174e-01</leafValues></_>
        <_>
          <internalNodes>
            0 -1 153 -555876609 891942832 -269557965 1059909411
            1592874754 -1073939043 -286165245 1302328107</internalNodes>
          <leafValues>
            -3.1682449579238892e-01 3.8497734069824219e-01</leafValues></_>
        <_>
          <internalNodes>
            0 -1 100 1775586832 1514333489 -295382772 -6583300
            -1398539591 -359858004 -871380855 -254448</internalNodes>
          <leafValues>
            -5.6825917959213257e-01 2.0581369102001190e-01</leafValues></_>
        <_>
          <internalNodes>
            0 -1 155 1426609218 722674538 -1924965973 799051979
            1510689056 -1142259576 2139802024 -1902521198</internalNodes>
          <leafValues>
            -4.9739328026771545e-01 2.5195717811584473e-01</leafValues></_>
        <_>
          <internalNodes>
            0 -1 22 -677053217 -668213617 2128920013 -1887056357
            -721556266 -1690337644 -856886198 -1471189595</internalNodes>
          <leafValues>
            -2.9628166556358337e-01 4.0793141722679138e-01</leafValues></_>
        <_>
          <internalNodes>
            0 -1 123 -2147243509 -1307406049 -795103969 -585370285
            -960736980 -232030007 741140607 -1422461361</internalNodes>
          <leafValues>
            -3.3407694101333618e-01 3.5193732380867004e-01</leafValues></_>
        <_>
          <internalNodes>
            0 -1 16 1853151967 -787386597 -442886147 -70058316 536632782
            -1389905944 -272655161 -1399310228</internalNodes>
          <leafValues>
            -2.6561287045478821e-01 4.3487462401390076e-01</leafValues></_>
        <_>
          <internalNodes>
            0 -1 127 2014397511 442101318 -79616613 1033341196
            -364713430 -73346872 -450703953 777976159</internalNodes>
          <leafValues>
            -3.8923826813697815e-01 3.0860218405723572e-01</leafValues></_></weakClassifiers></_>
    <!-- stage 3 -->
    <_>
      <maxWeakCount>14</maxWeakCount>
      <stageThreshold>-9.4015449285507202e-01</stageThreshold>
      <weakClassifiers>
        <_>
          <internalNodes>
            0 -1 116 -74130240 -71438660 -268552608 2113920717
            -540614962 -14963092 -611778902 -2099218</internalNodes>
          <leafValues>
            -4.0174379944801331e-01 5.7640272378921509e-01</leafValues></_>
        <_>
          <internalNodes>
            0 -1 70 1450659020 236706581 -301665797 791933915 -284966198
            -15519232 -1467748830 -1424925205</internalNodes>
          <leafValues>
            -4.6130102872848511e-01 3.4581711888313293e-01</leafValues></_>
        <_>
          <internalNodes>
            0 -1 197 -100862601 -2502611 -1815883241 -272768768
            1537763805 -912596305 462232733 -1078100667</internalNodes>
          <leafValues>
            -3.6625501513481140e-01 3.6075112223625183e-01</leafValues></_>
        <_>
          <internalNodes>
            0 -1 68 -337879074 -76131764 -1283041931 -1089861821
            -493317776 1972323081 -2098287063 -1343296811</internalNodes>
          <leafValues>
            -4.3271449208259583e-01 2.7307519316673279e-01</leafValues></_>
        <_>
          <internalNodes>
            0 -1 57 -79442085 -547365091 -8400981 -216279158 1317808906
            1325190573 2103037899 -101331007</internalNodes>
          <leafValues>
            -2.7949047088623047e-01 3.9980724453926086e-01</leafValues></_>
        <_>
          <internalNodes>
            0 -1 85 1500401474 51802573 177788857 -1156541103
            -1866079502 -876351006 -479667237 886227137</internalNodes>
          <leafValues>
            -4.5503968000411987e-01 2.1789297461509705e-01</leafValues></_>
        <_>
          <internalNodes>
            0 -1 67 -1346434228 -288623826 405211140 1589493975
            2123380912 -1106888513 -1430255328 -96664816</internalNodes>
          <leafValues>
            -4.7851803898811340e-01 2.3387752473354340e-01</leafValues></_>
        <_>
          <internalNodes>
            0 -1 34 1587605463 -1253026942 -17367313 1606108199
            2008547324 -1918919299 -272957452 -1931807144</internalNodes>
          <leafValues>
            -3.1153610348701477e-01 3.2748565077781677e-01</leafValues></_>
        <_>
          <internalNodes>
            0 -1 185 1272917275 1059554852 1214374206 489096204
            -829751040 -2109726325 -1943984871 -1907138529</internalNodes>
          <leafValues>
            -4.2010965943336487e-01 2.4595399200916290e-01</leafValues></_>
        <_>
          <internalNodes>
            0 -1 76 503597374 -1103871938 -65764137 -1168583138
            -1202393259 -158990053 -1400068331 678083634</internalNodes>
          <leafValues>
            -4.7668090462684631e-01 2.1996667981147766e-01</leafValues></_>
        <_>
          <internalNodes>
            0 -1 120 -1356425293 1309671740 -1221451580 -1317914611
            -1295979934 -1414516700 -574432879 -1665386452</internalNodes>
          <leafValues>
            -3.9751073718070984e-01 2.6126724481582642e-01</leafValues></_>
        <_>
          <internalNodes>
            0 -1 180 950780544 -1759619788 1428614168 990962448 59712188
            -1686036848 1715046541 1073201823</internalNodes>
          <leafValues>
            -4.0523102879524231e-01 2.4939329922199249e-01</leafValues></_>
        <_>
          <internalNodes>
            0 -1 178 -2622548 386712112 -787884899 -223362056 1512794114
            1848158352 143346195 1278429255</internalNodes>
          <leafValues>
            -5.0524687767028809e-01 2.0013840496540070e-01</leafValues></_>
        <_>
          <internalNodes>
            0 -1 61 202941159 -2048640577 -1092825743 -967879
            -1939010881 -553826561 1458704286 -1427848312</internalNodes>
          <leafValues>
            -3.1560367345809937e-01 3.5085695981979370e-01</leafValues></_></weakClassifiers></_>
    <!-- stage 4 -->
    <_>
      <maxWeakCount>13</maxWeakCount>
      <stageThreshold>-9.6222823858261108e-01</stageThreshold>
      <weakClassifiers>
        <_>
          <internalNodes>
            0 -1 77 -1316033886 -1087635553 -85021984 -5398 -11558962
            1594883946 -540156753 -540025601</internalNodes>
          <leafValues>
            -3.9555007219314575e-01 6.0246461629867554e-01</leafValues></_>
        <_>
          <internalNodes>
            0 -1 153 -547487889 487454464 -270033151 -1363169347
            1554142995 2147286486 -17174613 -285223009</internalNodes>
          <leafValues>
            -3.1174659729003906e-01 4.8721006512641907e-01</leafValues></_>
        <_>
          <internalNodes>
            0 -1 28 -663237442 147065152 -2113143421 -1392426469
            -115810918 -1184821247 -1795036197 -1638932961</internalNodes>
          <leafValues>
            -3.6982890963554382e-01 3.2640320062637329e-01</leafValues></_>
        <_>
          <internalNodes>
            0 -1 206 -409239484 -348449419 -1377916975 -110599055
            -690911616 -13321872 -562113982 -875722569</internalNodes>
          <leafValues>
            -3.0116468667984009e-01 3.6737388372421265e-01</leafValues></_>
        <_>
          <internalNodes>
            0 -1 193 2124539667 1032895104 -1027274627 799863752
            88686609 -2121572347 136796753 2069377297</internalNodes>
          <leafValues>
            -5.3052306175231934e-01 1.6193842887878418e-01</leafValues></_>
        <_>
          <internalNodes>
            0 -1 174 2133482562 -1919233295 -1868395054 -1877322897
            -1959919445 817320138 732581019 -1363164706</internalNodes>
          <leafValues>
            -3.8469707965850830e-01 2.8456649184226990e-01</leafValues></_>
        <_>
          <internalNodes>
            0 -1 143 -237583618 -411959072 1204043885 -700574471
            -2128604253 -1381197656 -887326331 -556884008</internalNodes>
          <leafValues>
            -3.7326446175575256e-01 2.8817790746688843e-01</leafValues></_>
        <_>
          <internalNodes>
            0 -1 147 -262223792 374359133 -1093394395 238182451
            -534156034 -1639414771 -1329556627 -32266913</internalNodes>
          <leafValues>
            -3.5552963614463806e-01 2.9046234488487244e-01</leafValues></_>
        <_>
          <internalNodes>
            0 -1 125 1442923086 1702950778 1318883427 1579278729
            -2012734749 -924374794 169328890 1606488623</internalNodes>
          <leafValues>
            -3.3414259552955627e-01 2.9679366946220398e-01</leafValues></_>
        <_>
          <internalNodes>
            0 -1 72 2060703199 513596702 -4194761 712961983 -428940658
            -21326536 -786551 1907554295</internalNodes>
          <leafValues>
            -2.2144675254821777e-01 4.6676263213157654e-01</leafValues></_>
        <_>
          <internalNodes>
            0 -1 50 1861782596 -2050396016 -1996361455 -37682925
            -288125957 1804163216 186229535 -25990369</internalNodes>
          <leafValues>
            -3.3838745951652527e-01 3.3480438590049744e-01</leafValues></_>
        <_>
          <internalNodes>
            0 -1 161 -420548850 1657799046 1204954668 -1208679798
            -1896970696 -337970796 -925759298 896683246</internalNodes>
          <leafValues>
            -4.1793304681777954e-01 2.5925675034523010e-01</leafValues></_>
        <_>
          <internalNodes>
            0 -1 157 -103809104 386005560 -649729785 -22553137
            1910638592 2125873792 -1949421817 -933110333</internalNodes>
          <leafValues>
            -4.5476043224334717e-01 2.2928638756275177e-01</leafValues></_></weakClassifiers></_>
    <!-- stage 5 -->
    <_>
      <maxWeakCount>16</maxWeakCount>
      <stageThreshold>-8.9636635780334473e-01</stageThreshold>
      <weakClassifiers>
        <_>
          <internalNodes>
            0 -1 20 -134492470 -32801 -17187112 -16385 -19005750
            -270012425 -21 -679481409</internalNodes>
          <leafValues>
            -2.2115384042263031e-01 6.2755101919174194e-01</leafValues></_>
        <_>
          <internalNodes>
            0 -1 119 1462689416 -83015596 -255583520 -73673833
            -750429233 -637105624 -537995057 -605299781</internalNodes>
          <leafValues>
            -4.3766486644744873e-01 3.3319491147994995e-01</leafValues></_>
        <_>
          <internalNodes>
            0 -1 71 1221971531 1528128785 -1726361157 -16461672
            1082522114 1209655381 1941170171 -514469636</internalNodes>
          <leafValues>
            -3.3983302116394043e-01 3.1363210082054138e-01</leafValues></_>
        <_>
          <internalNodes>
            0 -1 199 750778367 159448968 -1936541448 -1924081360
            328036805 1457115456 725274945 954295845</internalNodes>
          <leafValues>
            -4.1665893793106079e-01 2.4161122739315033e-01</leafValues></_>
        <_>
          <internalNodes>
            0 -1 98 -1601968793 108605255 1178533870 639694122
            -1310220999 -25735345 -964759564 -25428745</internalNodes>
          <leafValues>
            -2.9266417026519775e-01 3.5425856709480286e-01</leafValues></_>
        <_>
          <internalNodes>
            0 -1 151 -237080353 320831239 -355571813 -1868047990
            1575779844 2129639268 -676921557 -158865957</internalNodes>
          <leafValues>
            -2.8651490807533264e-01 3.3536288142204285e-01</leafValues></_>
        <_>
          <internalNodes>
            0 -1 86 1218448608 1044779466 -108989805 511546530
            -234128416 1931477040 -467403448 1945129540</internalNodes>
          <leafValues>
            -4.9913248419761658e-01 1.8809328973293304e-01</leafValues></_>
        <_>
          <internalNodes>
            0 -1 181 -82899002 1057115927 536688720 2004004246 93799608
            -92291252 616467644 -1090519812</internalNodes>
          <leafValues>
            -2.7431800961494446e-01 3.3483329415321350e-01</leafValues></_>
        <_>
          <internalNodes>
            0 -1 202 -1759733441 1039187444 -71449 -537035272
            -1791224654 746383352 661214635 -588294696</internalNodes>
          <leafValues>
            -3.0019819736480713e-01 3.1521356105804443e-01</leafValues></_>
        <_>
          <internalNodes>
            0 -1 163 -1568931892 -827679090 -1963324264 -97331534
            -965091604 -538575780 -303338328 -17309913</internalNodes>
          <leafValues>
            -3.0594116449356079e-01 3.2478964328765869e-01</leafValues></_>
        <_>
          <internalNodes>
            0 -1 55 -1007424740 1377785779 -1020233437 34652557
            1095486286 1414176883 -290339794 1386341215</internalNodes>
          <leafValues>
            -4.0585565567016602e-01 2.3479349911212921e-01</leafValues></_>
        <_>
          <internalNodes>
            0 -1 66 1177004703 1273243553 -67138243 -1584104669
            -1067629634 199528168 1706472315 -1559509621</internalNodes>
          <leafValues>
            -2.7218273282051086e-01 3.7262913584709167e-01</leafValues></_>
        <_>
          <internalNodes>
            0 -1 40 170321179 67958082 -1056636847 1909644022
            -1456998105 149932507 -1939748069 538099809</internalNodes>
          <leafValues>
            -4.2506724596023560e-01 2.3049487173557281e-01</leafValues></_>
        <_>
          <internalNodes>
            0 -1 190 -1913395326 836495222 -1392363680 1310179479
            1119747778 -1949052863 -1714829145 892855638</internalNodes>
          <leafValues>
            -3.6170154809951782e-01 2.6588624715805054e-01</leafValues></_>
        <_>
          <internalNodes>
            0 -1 159 -229678180 1057103649 -4279304 2038615090
            -461387849 -2100912259 -927775275 -605028997</internalNodes>
          <leafValues>
            -2.3746621608734131e-01 4.0457269549369812e-01</leafValues></_>
        <_>
          <internalNodes>
            0 -1 179 -184941054 -2082751781 396047858 -1114577984
            -494059361 -107433973 1219299035 -856961597</internalNodes>
          <leafValues>
            -3.3064585924148560e-01 2.9326304793357849e-01</leafValues></_></weakClassifiers></_>
    <!-- stage 6 -->
    <_>
      <maxWeakCount>15</maxWeakCount>
      <stageThreshold>-7.5527340173721313e-01</stageThreshold>
      <weakClassifiers>
        <_>
          <internalNodes>
            0 -1 173 -277480637 -33719044 -554215644 -1065235 1230263665
            1702674295 1442665813 -537133193</internalNodes>
          <leafValues>
            -1.3879311084747314e-01 6.3097828626632690e-01</leafValues></_>
        <_>
          <internalNodes>
            0 -1 23 -7932178 1286541762 -296852209 -1599930111
            -761315137 791351681 -2073624089 619688395</internalNodes>
          <leafValues>
            -4.2319586873054504e-01 3.4442627429962158e-01</leafValues></_>
        <_>
          <internalNodes>
            0 -1 52 2002112206 1746375416 589998467 629658537 1676917199
            -615263773 -96945873 -1278084111</internalNodes>
          <leafValues>
            -4.1991510987281799e-01 2.8045994043350220e-01</leafValues></_>
        <_>
          <internalNodes>
            0 -1 73 1188258767 1382012979 -244594775 -1692020445
            1485881802 1910020430 -254625056 1942081671</internalNodes>
          <leafValues>
            -3.1275841593742371e-01 2.9975926876068115e-01</leafValues></_>
        <_>
          <internalNodes>
            0 -1 224 -1177575673 -1680395654 628355051 -79700322
            811001841 -299391083 -1007799424 -2101263</internalNodes>
          <leafValues>
            -2.3332315683364868e-01 3.9232584834098816e-01</leafValues></_>
        <_>
          <internalNodes>
            0 -1 62 1666449149 -1055468973 441066028 2080806727
            -2105409013 -401538941 1178641733 1139235343</internalNodes>
          <leafValues>
            -3.1191384792327881e-01 3.1303980946540833e-01</leafValues></_>
        <_>
          <internalNodes>
            0 -1 36 848946690 1076908861 -1273975489 440860779
            -238045132 18908081 -1581602515 1958183403</internalNodes>
          <leafValues>
            -4.4693663716316223e-01 1.9865514338016510e-01</leafValues></_>
        <_>
          <internalNodes>
            0 -1 192 -2065313818 -1814584945 281578562 -2121629514
            1741758884 1532977376 565274081 1148548535</internalNodes>
          <leafValues>
            -4.3934804201126099e-01 1.8901549279689789e-01</leafValues></_>
        <_>
          <internalNodes>
            0 -1 121 -584834 1964900592 355658752 1248757834 -1951731442
            -1869019102 2072232036 -135886096</internalNodes>
          <leafValues>
            -5.5148273706436157e-01 1.7569248378276825e-01</leafValues></_>
        <_>
          <internalNodes>
            0 -1 152 1565346922 -1109671542 -259991296 -1865301625
            -464827894 -536194975 -128924794 -1845530490</internalNodes>
          <leafValues>
            -3.7216740846633911e-01 2.4011355638504028e-01</leafValues></_>
        <_>
          <internalNodes>
            0 -1 12 -324679001 1894199280 -201859015 -150177276
            1080473073 -254451225 1609920913 -471837063</internalNodes>
          <leafValues>
            -2.8298982977867126e-01 3.3323925733566284e-01</leafValues></_>
        <_>
          <internalNodes>
            0 -1 166 1252982462 -456876648 1628529398 -1781598
            -1072043044 1519061440 -385315398 1871960352</internalNodes>
          <leafValues>
            -3.0378815531730652e-01 2.9509302973747253e-01</leafValues></_>
        <_>
          <internalNodes>
            0 -1 225 -1163143613 -340267211 984087229 -538118239
            1853696726 -42139707 1572488276 -1385146627</internalNodes>
          <leafValues>
            -2.7662253379821777e-01 3.2183080911636353e-01</leafValues></_>
        <_>
          <internalNodes>
            0 -1 218 1872497058 1246269269 -1320040240 910563212 998231
            -623848817 1413628161 -134354218</internalNodes>
          <leafValues>
            -3.2516559958457947e-01 2.9674997925758362e-01</leafValues></_>
        <_>
          <internalNodes>
            0 -1 4 -1575655406 1245182802 291547515 -108543850
            -180667910 589949603 402940065 -2134188092</internalNodes>
          <leafValues>
            -3.3610242605209351e-01 2.6796913146972656e-01</leafValues></_></weakClassifiers></_>
    <!-- stage 7 -->
    <_>
      <maxWeakCount>17</maxWeakCount>
      <stageThreshold>-9.0023916959762573e-01</stageThreshold>
      <weakClassifiers>
        <_>
          <internalNodes>
            0 -1 48 -287811848 -693047554 -65543 -196616 -725251
            -8462338 -270369028 -4263940</internalNodes>
          <leafValues>
            -3.3876812458038330e-01 4.8488563299179077e-01</leafValues></_>
        <_>
          <internalNodes>
            0 -1 108 -16823041 1018920503 -34083205 263585556 -286372374
            -1090732441 -1434457169 650084239</internalNodes>
          <leafValues>
            -3.2585227489471436e-01 3.5238751769065857e-01</leafValues></_>
        <_>
          <internalNodes>
            0 -1 186 265153407 -244994376 1359183965 -203732463
            1421363575 -13049028 1944806717 -374423451</internalNodes>
          <leafValues>
            -3.4757769107818604e-01 2.8344440460205078e-01</leafValues></_>
        <_>
          <internalNodes>
            0 -1 38 1561542872 246644045 -465527539 102883089 -106792827
            -166375256 -1072169871 503544072</internalNodes>
          <leafValues>
            -4.7222337126731873e-01 2.0319743454456329e-01</leafValues></_>
        <_>
          <internalNodes>
            0 -1 11 -598273 -1253574019 -240465361 1904469727 -11010882
            -1090650385 -859288374 2144263247</internalNodes>
          <leafValues>
            -1.9116480648517609e-01 4.8875632882118225e-01</leafValues></_>
        <_>
          <internalNodes>
            0 -1 26 -285278793 -67690593 -563183683 -15556609 -687874577
            -71418465 -33827177 -319167553</internalNodes>
          <leafValues>
            -2.3615087568759918e-01 4.4329220056533813e-01</leafValues></_>
        <_>
          <internalNodes>
            0 -1 216 774791070 -48325298 -1059910700 -405869218
            566753275 -909182679 405356628 801000789</internalNodes>
          <leafValues>
            -3.4320518374443054e-01 2.7214401960372925e-01</leafValues></_>
        <_>
          <internalNodes>
            0 -1 130 853102794 404738062 -779025269 788642178 -391034738
            -78552703 -957881461 601987184</internalNodes>
          <leafValues>
            -3.9771026372909546e-01 2.3282364010810852e-01</leafValues></_>
        <_>
          <internalNodes>
            0 -1 101 684851201 671490190 863111647 -1074231908
            2044294029 -1182750501 -1081376785 -407033726</internalNodes>
          <leafValues>
            -3.5195383429527283e-01 2.4438406527042389e-01</leafValues></_>
        <_>
          <internalNodes>
            0 -1 217 174221815 165850871 -1480722723 -637740681
            687825341 1505512950 1543350713 -1780160004</internalNodes>
          <leafValues>
            -2.3970274627208710e-01 3.6863198876380920e-01</leafValues></_>
        <_>
          <internalNodes>
            0 -1 92 2074640181 -1624600721 -134803525 935100357
            1342065877 -109086726 1316867278 -332727764</internalNodes>
          <leafValues>
            -2.2669768333435059e-01 3.9425793290138245e-01</leafValues></_>
        <_>
          <internalNodes>
            0 -1 226 808761264 -211536125 195819933 -42991719 954179488
            -67767387 1210865133 -44468271</internalNodes>
          <leafValues>
            -2.7228280901908875e-01 3.5823106765747070e-01</leafValues></_>
        <_>
          <internalNodes>
            0 -1 105 -740426161 -182845552 2136997875 -1615466503
            -629500525 -539861166 2146684346 -45312781</internalNodes>
          <leafValues>
            -2.0782504975795746e-01 4.1208583116531372e-01</leafValues></_>
        <_>
          <internalNodes>
            0 -1 203 482462689 -50261683 1360512947 -46308973
            -1197374768 -85096031 -2139021904 614537824</internalNodes>
          <leafValues>
            -4.2135256528854370e-01 2.0865096151828766e-01</leafValues></_>
        <_>
          <internalNodes>
            0 -1 180 -1468259552 461384297 2078002392 91368352 575341972
            -674659704 1143668955 494920239</internalNodes>
          <leafValues>
            -4.6279516816139221e-01 1.8243719637393951e-01</leafValues></_>
        <_>
          <internalNodes>
            0 -1 24 1315194299 -1984668525 -1611149339 1709469157
            -318853955 -2030569493 -806920984 -877062064</internalNodes>
          <leafValues>
            -2.7281573414802551e-01 3.3245152235031128e-01</leafValues></_>
        <_>
          <internalNodes>
            0 -1 205 1059008375 -1722335427 -1079577053 -7517421
            -1770426745 -136900737 -1254772816 -4154364</internalNodes>
          <leafValues>
            -2.6665145158767700e-01 3.3732202649116516e-01</leafValues></_></weakClassifiers></_>
    <!-- stage 8 -->
    <_>
      <maxWeakCount>19</maxWeakCount>
      <stageThreshold>-8.3009928464889526e-01</stageThreshold>
      <weakClassifiers>
        <_>
          <internalNodes>
            0 -1 59 -606736758 522186015 2134900363 -1357926709
            1339018634 1330642679 -547565589 -143720769</internalNodes>
          <leafValues>
            -2.1888412535190582e-01 5.3948271274566650e-01</leafValues></_>
        <_>
          <internalNodes>
            0 -1 131 -36244394 833768375 -250284885 -1934720609
            1922203400 2038022416 -594938582 905701323</internalNodes>
          <leafValues>
            -3.6975175142288208e-01 2.8746864199638367e-01</leafValues></_>
        <_>
          <internalNodes>
            0 -1 1 -625221942 233558158 -1071806436 -1827338546
            -878444705 -374794166 51043022 -1961230614</internalNodes>
          <leafValues>
            -4.7419601678848267e-01 2.0660063624382019e-01</leafValues></_>
        <_>
          <internalNodes>
            0 -1 196 -821039302 -118228385 -906498728 -77201505 93559962
            -1652564197 1941308669 1030727615</internalNodes>
          <leafValues>
            -2.2526568174362183e-01 3.9001226425170898e-01</leafValues></_>
        <_>
          <internalNodes>
            0 -1 160 -750387222 -648220428 -532523519 1539638499
            -1551137022 -1467250578 -624956541 -169930838</internalNodes>
          <leafValues>
            -3.1248226761817932e-01 2.8609973192214966e-01</leafValues></_>
        <_>
          <internalNodes>
            0 -1 161 -354425012 2115164229 -43070548 1940004902
            -890697575 -1145117782 -1444429604 -231240901</internalNodes>
          <leafValues>
            -3.0081650614738464e-01 2.8887271881103516e-01</leafValues></_>
        <_>
          <internalNodes>
            0 -1 112 975855140 -1173184395 -381555197 118587712
            -527742944 1864523925 1780729062 251093334</internalNodes>
          <leafValues>
            -4.5270684361457825e-01 1.7663706839084625e-01</leafValues></_>
        <_>
          <internalNodes>
            0 -1 2 -330283440 572585178 1614360667 1669468861
            -2127391233 -443404149 -1149045908 -503387968</internalNodes>
          <leafValues>
            -3.5972678661346436e-01 2.2090624272823334e-01</leafValues></_>
        <_>
          <internalNodes>
            0 -1 7 -608300946 -34664322 -1870397048 795283506 270246033
            -1166606205 13074653 1212629651</internalNodes>
          <leafValues>
            -3.1206038594245911e-01 2.9379647970199585e-01</leafValues></_>
        <_>
          <internalNodes>
            0 -1 99 -87077150 1131874534 -1493089801 1335840290
            134960032 646480902 -1820128305 -107128556</internalNodes>
          <leafValues>
            -3.1756150722503662e-01 2.9366466403007507e-01</leafValues></_>
        <_>
          <internalNodes>
            0 -1 118 -1440558850 -1432301456 -1541263231 1756647829
            947601787 -1388816336 -851685137 1280110737</internalNodes>
          <leafValues>
            -4.8962789773941040e-01 1.7258182168006897e-01</leafValues></_>
        <_>
          <internalNodes>
            0 -1 114 -520826053 943298609 701868195 981915054 1346398242
            2019674365 1096408215 868271472</internalNodes>
          <leafValues>
            -3.8901743292808533e-01 2.4482843279838562e-01</leafValues></_>
        <_>
          <internalNodes>
            0 -1 198 -805970467 615906616 -1502610333 -1726892333
            39073214 111558459 1626512500 -1058537481</internalNodes>
          <leafValues>
            -2.5103804469108582e-01 3.5826012492179871e-01</leafValues></_>
        <_>
          <internalNodes>
            0 -1 158 -999389408 -1961748480 -1049353190 871828617
            -1063829017 1915368335 1289440501 83611806</internalNodes>
          <leafValues>
            -3.9811280369758606e-01 2.1278600394725800e-01</leafValues></_>
        <_>
          <internalNodes>
            0 -1 74 -47882955 -332910876 -1083572739 1538568032
            259923407 -146850306 -723012241 -387727881</internalNodes>
          <leafValues>
            -2.4941338598728180e-01 3.4539434313774109e-01</leafValues></_>
        <_>
          <internalNodes>
            0 -1 189 -1722510590 -134102016 -2138767342 348901402
            -1861897297 1254376144 1748753098 751257199</internalNodes>
          <leafValues>
            -2.9561063647270203e-01 3.0251982808113098e-01</leafValues></_>
        <_>
          <internalNodes>
            0 -1 135 -522796830 996196960 1008978676 -7545460 213861383
            -1398364596 -649078060 -485003467</internalNodes>
          <leafValues>
            -2.9211273789405823e-01 2.9790687561035156e-01</leafValues></_>
        <_>
          <internalNodes>
            0 -1 169 1456270462 1952420629 1162244867 -1575906295
            1411189504 1491697704 -103961822 -442438877</internalNodes>
          <leafValues>
            -3.3010685443878174e-01 2.6905134320259094e-01</leafValues></_>
        <_>
          <internalNodes>
            0 -1 139 728564346 1761141893 1687866561 -419441453
            2075461087 481921561 1655348377 1186460345</internalNodes>
          <leafValues>
            -3.6664697527885437e-01 2.4539323151111603e-01</leafValues></_></weakClassifiers></_>
    <!-- stage 9 -->
    <_>
      <maxWeakCount>19</maxWeakCount>
      <stageThreshold>-8.0491888523101807e-01</stageThreshold>
      <weakClassifiers>
        <_>
          <internalNodes>
            0 -1 78 -105939460 -352630808 -1074201124 -273490451
            -33555482 -9048088 -240131 -26158444</internalNodes>
          <leafValues>
            -1.9515477120876312e-01 5.0731056928634644e-01</leafValues></_>
        <_>
          <internalNodes>
            0 -1 193 926021631 -3891620 -553648137 -1212451 1440177527
            -277086825 -8215 -2115585</internalNodes>
          <leafValues>
            -1.9635191559791565e-01 4.5215067267417908e-01</leafValues></_>
        <_>
          <internalNodes>
            0 -1 97 269284307 -1400720334 -2001448433 -493827492
            -1417367069 -1142980557 -1307838210 -68884835</internalNodes>
          <leafValues>
            -3.8401848077774048e-01 2.4034458398818970e-01</leafValues></_>
        <_>
          <internalNodes>
            0 -1 69 1559252190 1986396181 -1258195111 1061643605
            1753545524 -66330619 -402435197 762541831</internalNodes>
          <leafValues>
            -3.9942079782485962e-01 2.2657142579555511e-01</leafValues></_>
        <_>
          <internalNodes>
            0 -1 107 -572523239 -607334691 -1857105485 -590487313
            1208813635 -894941175 242228449 -875165472</internalNodes>
          <leafValues>
            -3.1886959075927734e-01 2.7841922640800476e-01</leafValues></_>
        <_>
          <internalNodes>
            0 -1 18 -9990185 -700547334 -153 -33572050 -137 -570761281
            -285213185 -288359681</internalNodes>
          <leafValues>
            -2.2329802811145782e-01 4.4558042287826538e-01</leafValues></_>
        <_>
          <internalNodes>
            0 -1 65 1286123039 587067299 -1895865097 -109314771
            1118617515 1836367619 -988829889 -495259614</internalNodes>
          <leafValues>
            -2.6928183436393738e-01 3.1564605236053467e-01</leafValues></_>
        <_>
          <internalNodes>
            0 -1 129 1919710815 1035451967 -295244115 805027581
            2113801999 -1143085773 1642523654 -1234832158</internalNodes>
          <leafValues>
            -2.6441639661788940e-01 3.1212097406387329e-01</leafValues></_>
        <_>
          <internalNodes>
            0 -1 215 1202381297 524217784 -675287213 512739317 248451579
            -1400141251 -285258881 -806346250</internalNodes>
          <leafValues>
            -2.4509157240390778e-01 3.5294231772422791e-01</leafValues></_>
        <_>
          <internalNodes>
            0 -1 211 1063749422 1037457867 -167280312 -325623282
            159915518 -1617296411 1270413009 778977217</internalNodes>
          <leafValues>
            -3.4088703989982605e-01 2.2707472741603851e-01</leafValues></_>
        <_>
          <internalNodes>
            0 -1 46 -149535956 780599501 -255396321 -2067524845
            -1307544808 -1817706224 81887267 1148129610</internalNodes>
          <leafValues>
            -4.1971829533576965e-01 2.0041418075561523e-01</leafValues></_>
        <_>
          <internalNodes>
            0 -1 182 -1058290256 -1261426893 197935324 2041725346
            277119205 966417570 212469930 -21198792</internalNodes>
          <leafValues>
            -3.5014498233795166e-01 2.3669117689132690e-01</leafValues></_>
        <_>
          <internalNodes>
            0 -1 33 -2100441106 -680450947 -1065251745 -321348722
            -1984702499 -1180847829 2095078616 -975084508</internalNodes>
          <leafValues>
            -3.0860176682472229e-01 2.7683380246162415e-01</leafValues></_>
        <_>
          <internalNodes>
            0 -1 51 -463196384 -1566033655 -175934595 -74304253
            -1670240073 605339904 -1440847075 -469189845</internalNodes>
          <leafValues>
            -3.6664947867393494e-01 2.2558519244194031e-01</leafValues></_>
        <_>
          <internalNodes>
            0 -1 144 1785900226 1041678428 461689058 -2018409464
            1551909022 1588643924 -1452500533 1704677207</internalNodes>
          <leafValues>
            -3.2687595486640930e-01 2.5437235832214355e-01</leafValues></_>
        <_>
          <internalNodes>
            0 -1 213 497613755 -1327452270 -2117045985 1728446800
            2045391106 -960718846 9114985 616060232</internalNodes>
          <leafValues>
            -3.9305612444877625e-01 2.1919128298759460e-01</leafValues></_>
        <_>
          <internalNodes>
            0 -1 134 -1605538078 -1080718947 -1593760703 950735721
            437256722 35817648 1243826321 288366226</internalNodes>
          <leafValues>
            -4.3182215094566345e-01 1.9905468821525574e-01</leafValues></_>
        <_>
          <internalNodes>
            0 -1 82 20878801 -1000287834 -872394223 -1527185108
            -1816980526 1508378652 1099039488 -1810026008</internalNodes>
          <leafValues>
            -3.8472312688827515e-01 2.1273618936538696e-01</leafValues></_>
        <_>
          <internalNodes>
            0 -1 179 1618092416 859379415 -640052068 -1074133456
            739975589 972781882 610732371 946032599</internalNodes>
          <leafValues>
            -4.4809040427207947e-01 1.9003345072269440e-01</leafValues></_></weakClassifiers></_>
    <!-- stage 10 -->
    <_>
      <maxWeakCount>20</maxWeakCount>
      <stageThreshold>-7.9144555330276489e-01</stageThreshold>
      <weakClassifiers>
        <_>
          <internalNodes>
            0 -1 133 1327475968 775925565 -1067103 938917887 1541102914
            1985503226 1049452483 -1698904186</internalNodes>
          <leafValues>
            -3.1400001049041748e-01 4.6279999613761902e-01</leafValues></_>
        <_>
          <internalNodes>
            0 -1 30 -67586 -521842209 1021734319 1241976851 -1702984534
            715850905 771868170 1737166921</internalNodes>
          <leafValues>
            -3.6035120487213135e-01 2.5420856475830078e-01</leafValues></_>
        <_>
          <internalNodes>
            0 -1 200 477429567 1610408920 -1853103393 -1045886412
            478693651 1216604707 1720911928 -593036912</internalNodes>
          <leafValues>
            -3.5001471638679504e-01 2.3413957655429840e-01</leafValues></_>
        <_>
          <internalNodes>
            0 -1 43 1364483796 840167573 -1644104543 168161313 -77477246
            1896881800 -1400856448 722264662</internalNodes>
          <leafValues>
            -3.8277116417884827e-01 2.2080861032009125e-01</leafValues></_>
        <_>
          <internalNodes>
            0 -1 3 1784687188 -381632168 285250411 -2016488269
            -376409095 -151480094 723634872 -297607069</internalNodes>
          <leafValues>
            -3.7233579158782959e-01 2.0609262585639954e-01</leafValues></_>
        <_>
          <internalNodes>
            0 -1 79 1364254264 -1073606365 1436048468 -1337174143
            67146606 859966022 1503166365 1350587168</internalNodes>
          <leafValues>
            -5.1669812202453613e-01 1.4405433833599091e-01</leafValues></_>
        <_>
          <internalNodes>
            0 -1 122 -258830154 -654245710 -25794815 1195901376
            -2012992798 -1464598352 -1155304636 -1141923058</internalNodes>
          <leafValues>
            -3.8431185483932495e-01 1.8956157565116882e-01</leafValues></_>
        <_>
          <internalNodes>
            0 -1 204 -2089556013 1793465594 -1146000575 1539143008
            250239419 -1778615937 -1506976657 1824194207</internalNodes>
          <leafValues>
            -2.4961839616298676e-01 3.1523433327674866e-01</leafValues></_>
        <_>
          <internalNodes>
            0 -1 90 2113621245 -357373185 -1075020419 -1086583557
            -1364197979 -7571978 246377966 264240918</internalNodes>
          <leafValues>
            -2.4537369608879089e-01 3.0225402116775513e-01</leafValues></_>
        <_>
          <internalNodes>
            0 -1 44 432386717 1957429111 1576959291 -166276625
            1440192382 -112633867 -1241516162 -197270464</internalNodes>
          <leafValues>
            -2.5831800699234009e-01 3.1337708234786987e-01</leafValues></_>
        <_>
          <internalNodes>
            0 -1 144 -1303872292 -2096207848 26620887 -147583469
            -2111389684 974410176 -180462422 84363587</internalNodes>
          <leafValues>
            -3.1319600343704224e-01 2.5053489208221436e-01</leafValues></_>
        <_>
          <internalNodes>
            0 -1 128 1930029999 -249692640 1044361065 -46268487 98311587
            -654704643 1610325358 -839199291</internalNodes>
          <leafValues>
            -2.2817604243755341e-01 3.6733579635620117e-01</leafValues></_>
        <_>
          <internalNodes>
            0 -1 88 1181221888 212075927 1956139799 704822529 2135178081
            1196032552 1257549425 711998739</internalNodes>
          <leafValues>
            -6.1693263053894043e-01 1.4352868497371674e-01</leafValues></_>
        <_>
          <internalNodes>
            0 -1 126 -852314594 1352126609 -1039508697 -1606348515
            1476501532 153038848 -239037634 358740259</internalNodes>
          <leafValues>
            -3.9227619767189026e-01 1.9710946083068848e-01</leafValues></_>
        <_>
          <internalNodes>
            0 -1 219 -721970907 -570954629 -361283587 -922284423
            1294985456 293316592 -705861689 -1352019146</internalNodes>
          <leafValues>
            -2.4136461317539215e-01 3.4208476543426514e-01</leafValues></_>
        <_>
          <internalNodes>
            0 -1 15 -344474002 -604426243 -1417713747 -1112469974
            1358400498 -1108295723 393305289 -789200424</internalNodes>
          <leafValues>
            -2.3002514243125916e-01 3.6631464958190918e-01</leafValues></_>
        <_>
          <internalNodes>
            0 -1 181 -285335220 395993878 -694267240 1060676992
            549571996 1044943624 204210364 515215714</internalNodes>
          <leafValues>
            -4.1153243184089661e-01 1.9275549054145813e-01</leafValues></_>
        <_>
          <internalNodes>
            0 -1 49 1402547210 1522565133 1368775167 2133703037
            1615860082 2055766488 9500892 -267038500</internalNodes>
          <leafValues>
            -3.7633714079856873e-01 2.1396996080875397e-01</leafValues></_>
        <_>
          <internalNodes>
            0 -1 164 -1962797586 1359790537 1627598852 1260814989
            -159190088 -1609842508 1273965125 -1973524640</internalNodes>
          <leafValues>
            -4.3774738907814026e-01 1.8996074795722961e-01</leafValues></_>
        <_>
          <internalNodes>
            0 -1 110 1506411296 -821549913 -149945464 522221264
            -666620540 1224786060 -308242008 -365627546</internalNodes>
          <leafValues>
            -3.5495534539222717e-01 2.2774218022823334e-01</leafValues></_></weakClassifiers></_>
    <!-- stage 11 -->
    <_>
      <maxWeakCount>21</maxWeakCount>
      <stageThreshold>-1.0319594144821167e+00</stageThreshold>
      <weakClassifiers>
        <_>
          <internalNodes>
            0 -1 32 -1614365490 311393272 -1561919921 581959279
            -367043422 -75630665 1760241198 -487627539</internalNodes>
          <leafValues>
            -1.4664897322654724e-01 4.9432450532913208e-01</leafValues></_>
        <_>
          <internalNodes>
            0 -1 201 -942678049 799118116 -351275545 -1380009504
            1686131461 -645010387 1680075089 2076167271</internalNodes>
          <leafValues>
            -2.8871780633926392e-01 2.8545343875885010e-01</leafValues></_>
        <_>
          <internalNodes>
            0 -1 39 1968689868 1912807829 285583452 -1112148595
            -1968989216 604715151 -1415237416 942947184</internalNodes>
          <leafValues>
            -4.9722471833229065e-01 1.6201041638851166e-01</leafValues></_>
        <_>
          <internalNodes>
            0 -1 94 355456742 1066750323 -511346457 559239963
            -2100145205 1941057665 -477575445 1266416108</internalNodes>
          <leafValues>
            -3.5291060805320740e-01 2.2055290639400482e-01</leafValues></_>
        <_>
          <internalNodes>
            0 -1 184 -455419312 1578319423 -504827033 1593276383
            -304548357 -1373866194 -947913281 -67918989</internalNodes>
          <leafValues>
            -2.1591261029243469e-01 3.3487600088119507e-01</leafValues></_>
        <_>
          <internalNodes>
            0 -1 103 1918507096 -148266995 835752695 809523581
            -598976648 -301463264 704675698 -56955341</internalNodes>
          <leafValues>
            -3.4975183010101318e-01 1.9731380045413971e-01</leafValues></_>
        <_>
          <internalNodes>
            0 -1 173 -276989125 -293997348 1609880967 -1091617203
            1633476079 -939638818 -536947233 -43024905</internalNodes>
          <leafValues>
            -1.4913155138492584e-01 4.5623275637626648e-01</leafValues></_>
        <_>
          <internalNodes>
            0 -1 75 496916991 -1766871314 -403763267 -39391002
            1996162551 -297894274 -595856163 -328597673</internalNodes>
          <leafValues>
            -2.3344855010509491e-01 3.3115708827972412e-01</leafValues></_>
        <_>
          <internalNodes>
            0 -1 89 -1910575249 2103230412 -14054997 -60948917
            -682595662 671055673 1460981233 1490340104</internalNodes>
          <leafValues>
            -2.4908220767974854e-01 2.9267844557762146e-01</leafValues></_>
        <_>
          <internalNodes>
            0 -1 10 1213743184 37393408 721606409 -1891286448 -418127431
            268476825 -1023379800 237008690</internalNodes>
          <leafValues>
            -5.0460404157638550e-01 1.3956077396869659e-01</leafValues></_>
        <_>
          <internalNodes>
            0 -1 162 -715761182 -115666348 -383909564 769524300
            -265114886 -1853226842 695188261 -392254834</internalNodes>
          <leafValues>
            -3.8725748658180237e-01 1.8817165493965149e-01</leafValues></_>
        <_>
          <internalNodes>
            0 -1 163 -366820868 -183328300 1561727672 1475641386
            1243013560 -79130496 -1382391302 2002230290</internalNodes>
          <leafValues>
            -2.9352462291717529e-01 2.6335400342941284e-01</leafValues></_>
        <_>
          <internalNodes>
            0 -1 208 1762573073 -237054586 -754693717 911595678
            -909147729 -1653527652 1065771911 1535648912</internalNodes>
          <leafValues>
            -2.8273251652717590e-01 2.6318427920341492e-01</leafValues></_>
        <_>
          <internalNodes>
            0 -1 58 805707219 944939163 -2097105397 -1252876774
            2020108546 -611759722 -199806127 70591743</internalNodes>
          <leafValues>
            -3.5014918446540833e-01 2.0532114803791046e-01</leafValues></_>
        <_>
          <internalNodes>
            0 -1 210 686150348 -71963933 -269357362 1067712171
            -2014329875 1442459574 1862366599 -104983877</internalNodes>
          <leafValues>
            -2.1951089799404144e-01 3.4493348002433777e-01</leafValues></_>
        <_>
          <internalNodes>
            0 -1 191 -1059986060 876071237 -1524626408 -2079141558
            1816792130 1095616611 1253909858 1349594983</internalNodes>
          <leafValues>
            -4.3846476078033447e-01 1.7608891427516937e-01</leafValues></_>
        <_>
          <internalNodes>
            0 -1 47 1611838879 148423626 319949192 -327679698 663816246
            -807729138 -1457292468 -327753358</internalNodes>
          <leafValues>
            -3.4064087271690369e-01 2.3814484477043152e-01</leafValues></_>
        <_>
          <internalNodes>
            0 -1 188 -1669931585 -340918274 -1073741910 -50462785
            -84109854 -824803738 -4224005 -841237326</internalNodes>
          <leafValues>
            -1.7947667837142944e-01 4.4926321506500244e-01</leafValues></_>
        <_>
          <internalNodes>
            0 -1 221 -2021527808 -1693169449 -2084292624 -2058931766
            -1433349035 -1084579662 -1398570943 -2065111716</internalNodes>
          <leafValues>
            -3.3308389782905579e-01 2.2885186970233917e-01</leafValues></_>
        <_>
          <internalNodes>
            0 -1 8 1628903650 -1295265769 369122703 -720874112 134473850
            2134182001 -427635612 -1402484438</internalNodes>
          <leafValues>
            -3.1467610597610474e-01 2.4484446644783020e-01</leafValues></_>
        <_>
          <internalNodes>
            0 -1 187 565850036 1889233094 1128466608 392039833
            -1784249960 693683402 -2010181493 -46953680</internalNodes>
          <leafValues>
            -2.8795066475868225e-01 2.6976466178894043e-01</leafValues></_></weakClassifiers></_>
    <!-- stage 12 -->
    <_>
      <maxWeakCount>23</maxWeakCount>
      <stageThreshold>-7.1551299095153809e-01</stageThreshold>
      <weakClassifiers>
        <_>
          <internalNodes>
            0 -1 54 1586814588 716746748 -1616888839 982284217
            -285348121 -151011843 -1397801116 781155799</internalNodes>
          <leafValues>
            -1.9128328561782837e-01 4.6985927224159241e-01</leafValues></_>
        <_>
          <internalNodes>
            0 -1 42 425176095 -614746276 -8394359 -1179193575 1322651400
            -593707048 1440649211 -170072199</internalNodes>
          <leafValues>
            -2.3762239515781403e-01 3.0802863836288452e-01</leafValues></_>
        <_>
          <internalNodes>
            0 -1 93 1068126463 973680707 -972159472 211288834 -288200194
            -1094614272 -397806197 -1983522495</internalNodes>
          <leafValues>
            -3.1087541580200195e-01 2.3355089128017426e-01</leafValues></_>
        <_>
          <internalNodes>
            0 -1 0 -74653986 -104869738 361091103 -583548180 353089434
            -1180535911 1141297372 2139204590</internalNodes>
          <leafValues>
            -3.3752301335334778e-01 2.0735841989517212e-01</leafValues></_>
        <_>
          <internalNodes>
            0 -1 156 -268436109 1849097942 2139085852 -823176124
            -7807497 -53858336 -2106241 -268455282</internalNodes>
          <leafValues>
            -1.6978780925273895e-01 4.4034251570701599e-01</leafValues></_>
        <_>
          <internalNodes>
            0 -1 148 -52957589 420692392 1233766427 -1715836548
            549972146 -2008530400 -393337702 1812744327</internalNodes>
          <leafValues>
            -2.7561846375465393e-01 2.4670480191707611e-01</leafValues></_>
        <_>
          <internalNodes>
            0 -1 13 -1793702316 651806609 1627484167 862007444
            -164566474 1362227755 -41890605 777712168</internalNodes>
          <leafValues>
            -3.5559573769569397e-01 1.9156070053577423e-01</leafValues></_>
        <_>
          <internalNodes>
            0 -1 149 -1764035204 2038370715 -1896728671 336214047
            -1175049460 1721315336 1859158786 697262853</internalNodes>
          <leafValues>
            -3.5019493103027344e-01 1.9218941032886505e-01</leafValues></_>
        <_>
          <internalNodes>
            0 -1 145 1488150974 33620381 67256325 479859081 311001968
            -1743650809 1653177765 -720466528</internalNodes>
          <leafValues>
            -3.4965044260025024e-01 2.0723962783813477e-01</leafValues></_>
        <_>
          <internalNodes>
            0 -1 161 -1563758836 777004625 830955280 -1179645416
            -1998385763 -1373186904 -1399059212 1025695670</internalNodes>
          <leafValues>
            -3.9762187004089355e-01 1.8462008237838745e-01</leafValues></_>
        <_>
          <internalNodes>
            0 -1 214 -547559436 -34967568 -1762199467 -1124221192
            1155035827 -6636043 2110684991 -561990</internalNodes>
          <leafValues>
            -2.1448512375354767e-01 3.4770911931991577e-01</leafValues></_>
        <_>
          <internalNodes>
            0 -1 182 -1574165472 1063021972 -1885363972 934282296
            548674989 -173676079 162202874 -30418054</internalNodes>
          <leafValues>
            -2.7343997359275818e-01 2.6908770203590393e-01</leafValues></_>
        <_>
          <internalNodes>
            0 -1 135 677880398 -1629443408 373447871 2100446240
            -2136995441 177465479 -369912491 -880050358</internalNodes>
          <leafValues>
            -3.0443733930587769e-01 2.4958856403827667e-01</leafValues></_>
        <_>
          <internalNodes>
            0 -1 223 -1525941765 -1858339073 -1506050923 -610800671
            809354699 2008538506 1877985673 -523307270</internalNodes>
          <leafValues>
            -1.6998223960399628e-01 4.2395943403244019e-01</leafValues></_>
        <_>
          <internalNodes>
            0 -1 171 1443910928 949623197 1090916515 470352145
            1103652900 -933721758 -604402398 1559495750</internalNodes>
          <leafValues>
            -4.6726104617118835e-01 1.6938605904579163e-01</leafValues></_>
        <_>
          <internalNodes>
            0 -1 45 525093847 -1213600073 -289655560 -1141051650
            -1633130638 -1107888265 -514023438 -1403617924</internalNodes>
          <leafValues>
            -2.4639384448528290e-01 3.0593994259834290e-01</leafValues></_>
        <_>
          <internalNodes>
            0 -1 31 89560574 282329118 285230740 -759949304 1091623332
            565640 114105222 2003151904</internalNodes>
          <leafValues>
            -4.9871850013732910e-01 1.6564737260341644e-01</leafValues></_>
        <_>
          <internalNodes>
            0 -1 106 222587500 415959657 -1937420352 2085603724
            1085807330 -1602217889 -1609999230 1210342058</internalNodes>
          <leafValues>
            -4.0514045953750610e-01 1.6996327042579651e-01</leafValues></_>
        <_>
          <internalNodes>
            0 -1 154 1948022034 -1332618236 -1869010541 -1779169577
            62997326 -471293558 -1047797940 -1897463723</internalNodes>
          <leafValues>
            -3.4509062767028809e-01 2.1140173077583313e-01</leafValues></_>
        <_>
          <internalNodes>
            0 -1 9 85249082 1221775423 1094832511 -491777721 -1557022285
            -379535301 1106317842 -2003918654</internalNodes>
          <leafValues>
            -3.0851590633392334e-01 2.4106486141681671e-01</leafValues></_>
        <_>
          <internalNodes>
            0 -1 124 1542626582 1511700391 2062974779 1548205939
            -370753638 1903556606 1819800986 -403851625</internalNodes>
          <leafValues>
            -2.3421737551689148e-01 3.2986328005790710e-01</leafValues></_>
        <_>
          <internalNodes>
            0 -1 6 -2038564497 1354819300 2013255184 1675909832
            296982767 1533238878 1165358688 -145997838</internalNodes>
          <leafValues>
            -2.7030324935913086e-01 2.8249460458755493e-01</leafValues></_>
        <_>
          <internalNodes>
            0 -1 132 -1495042699 -93270746 -613061635 -1624087462
            -1882827099 920014268 -1342291942 -359282595</internalNodes>
          <leafValues>
            -2.1694312989711761e-01 3.4315508604049683e-01</leafValues></_></weakClassifiers></_>
    <!-- stage 13 -->
    <_>
      <maxWeakCount>20</maxWeakCount>
      <stageThreshold>-6.4550179243087769e-01</stageThreshold>
      <weakClassifiers>
        <_>
          <internalNodes>
            0 -1 91 1506330442 503709360 1862245504 -1425707457
            1607819146 1601822685 1608507371 964026225</internalNodes>
          <leafValues>
            -1.9636963307857513e-01 4.6741855144500732e-01</leafValues></_>
        <_>
          <internalNodes>
            0 -1 25 -991271585 730985504 -284794725 19058013 -644132645
            671590560 -1668562597 74702063</internalNodes>
          <leafValues>
            -3.1675511598587036e-01 2.4372635781764984e-01</leafValues></_>
        <_>
          <internalNodes>
            0 -1 104 1920102991 374982848 -531008693 916027554
            -123575730 1881309546 1715560936 857469507</internalNodes>
          <leafValues>
            -3.6770436167716980e-01 1.9747368991374969e-01</leafValues></_>
        <_>
          <internalNodes>
            0 -1 140 -176753926 -201289510 977437325 -60914097
            -341802109 -921501687 1796008893 -741551112</internalNodes>
          <leafValues>
            -3.5502055287361145e-01 2.1365635097026825e-01</leafValues></_>
        <_>
          <internalNodes>
            0 -1 165 -1065169412 689865688 -1979022375 -214940912
            1216889276 -99039496 -1466954840 1042806823</internalNodes>
          <leafValues>
            -2.7936843037605286e-01 2.5945815443992615e-01</leafValues></_>
        <_>
          <internalNodes>
            0 -1 137 -1076142369 805240570 -633332 -539001041
            -1237390253 -1124532366 -268544033 -1345325170</internalNodes>
          <leafValues>
            -1.7625868320465088e-01 4.1560482978820801e-01</leafValues></_>
        <_>
          <internalNodes>
            0 -1 80 -1013027593 -1727983600 -1526615197 -1256373762
            839127743 708182147 915134960 -729553357</internalNodes>
          <leafValues>
            -3.0268797278404236e-01 2.8106230497360229e-01</leafValues></_>
        <_>
          <internalNodes>
            0 -1 207 -545919170 -858268558 -66063 -53641353 972111615
            -1091733770 2147423621 1841169974</internalNodes>
          <leafValues>
            -2.6382815837860107e-01 2.8061407804489136e-01</leafValues></_>
        <_>
          <internalNodes>
            0 -1 53 1851699163 -60817411 -1348956239 1545686782
            1073449755 -1261863283 -302166447 1574488962</internalNodes>
          <leafValues>
            -1.8993796408176422e-01 3.9394894242286682e-01</leafValues></_>
        <_>
          <internalNodes>
            0 -1 81 1432581195 -1372784278 673500173 -288812535
            671218473 2030602399 26477195 -402749252</internalNodes>
          <leafValues>
            -2.8520342707633972e-01 2.6374763250350952e-01</leafValues></_>
        <_>
          <internalNodes>
            0 -1 172 -864949458 712096432 168748208 -1982326855
            159400179 -1599534456 -1970758566 235032748</internalNodes>
          <leafValues>
            -2.8287675976753235e-01 2.7790716290473938e-01</leafValues></_>
        <_>
          <internalNodes>
            0 -1 87 1175875652 1829986343 -1240328837 135382289
            1637498559 270567504 1736643264 1995657863</internalNodes>
          <leafValues>
            -3.7939110398292542e-01 1.9182404875755310e-01</leafValues></_>
        <_>
          <internalNodes>
            0 -1 212 1687641939 34786325 -1998340247 649244677
            1917799681 1636630691 -760219602 -1536035370</internalNodes>
          <leafValues>
            -3.3166229724884033e-01 2.4279791116714478e-01</leafValues></_>
        <_>
          <internalNodes>
            0 -1 159 -429657696 -1667319967 -1241529923 -1145852854
            1860685653 -176885763 -2000728673 -1175220233</internalNodes>
          <leafValues>
            -2.2663667798042297e-01 3.5566678643226624e-01</leafValues></_>
        <_>
          <internalNodes>
            0 -1 63 -179570411 -1781075556 -268091123 1183996322
            1611743377 1394806808 -2013127858 139191974</internalNodes>
          <leafValues>
            -3.0636978149414062e-01 2.5677874684333801e-01</leafValues></_>
        <_>
          <internalNodes>
            0 -1 176 748095269 -1144971427 -153532418 -1242347618
            -744005710 -107262172 -150895987 -357137266</internalNodes>
          <leafValues>
            -2.4468225240707397e-01 3.2597544789314270e-01</leafValues></_>
        <_>
          <internalNodes>
            0 -1 167 -709906749 -1267372267 1869857055 -1288625421
            -556563557 -33702008 -46694961 -314371866</internalNodes>
          <leafValues>
            -2.1322011947631836e-01 4.0381804108619690e-01</leafValues></_>
        <_>
          <internalNodes>
            0 -1 138 -1170512786 -1881927154 -1571756842 -686814694
            1884751693 1235354141 -1187345293 1567179611</internalNodes>
          <leafValues>
            -3.0502685904502869e-01 2.7664479613304138e-01</leafValues></_>
        <_>
          <internalNodes>
            0 -1 117 -663050320 993382455 407934339 419267027 1789398250
            1213825751 -2004872498 961855682</internalNodes>
          <leafValues>
            -3.2415992021560669e-01 2.5820627808570862e-01</leafValues></_>
        <_>
          <internalNodes>
            0 -1 3 -304683436 -2099113443 474605155 -521521414
            -483150925 -1064238416 -1031668933 -508514064</internalNodes>
          <leafValues>
            -3.8200855255126953e-01 2.1871642768383026e-01</leafValues></_></weakClassifiers></_>
    <!-- stage 14 -->
    <_>
      <maxWeakCount>23</maxWeakCount>
      <stageThreshold>-7.0363765954971313e-01</stageThreshold>
      <weakClassifiers>
        <_>
          <internalNodes>
            0 -1 177 1967741720 522043198 -31457379 -25301123 1201625362
            -540098685 -70547691 -402669767</internalNodes>
          <leafValues>
            -1.2500000000000000e-01 4.7596153616905212e-01</leafValues></_>
        <_>
          <internalNodes>
            0 -1 168 -1354631678 -54526236 -536945328 -1208533027
            -2236959 -536870914 -134324772 -592545</internalNodes>
          <leafValues>
            -2.6417627930641174e-01 2.9305732250213623e-01</leafValues></_>
        <_>
          <internalNodes>
            0 -1 113 313153612 -2013047655 -443415403 240923410
            -277789202 1671512849 1740688843 244440477</internalNodes>
          <leafValues>
            -4.4719263911247253e-01 1.5123009681701660e-01</leafValues></_>
        <_>
          <internalNodes>
            0 -1 109 1951553097 858972383 -1657539829 654430770
            -2144120054 338722936 -394168152 628389184</internalNodes>
          <leafValues>
            -4.2194098234176636e-01 1.4832949638366699e-01</leafValues></_>
        <_>
          <internalNodes>
            0 -1 84 -1909985381 -41988111 -374084833 -1224348997
            -2140694117 -1263845735 -2058557131 -1995759061</internalNodes>
          <leafValues>
            -1.8990148603916168e-01 3.5149246454238892e-01</leafValues></_>
        <_>
          <internalNodes>
            0 -1 14 199927576 -134069301 35771655 1999696671 -926319173
            -338812914 -494105666 -322664003</internalNodes>
          <leafValues>
            -2.9007941484451294e-01 2.3704102635383606e-01</leafValues></_>
        <_>
          <internalNodes>
            0 -1 220 -1089499974 -608454853 1051438007 -205541862
            -1915114051 -1244740172 -1510888011 -320093277</internalNodes>
          <leafValues>
            -1.7963624000549316e-01 3.7989780306816101e-01</leafValues></_>
        <_>
          <internalNodes>
            0 -1 195 -438829065 -310919363 -1392607761 -33853956
            -1078162001 -1074389123 -153117217 -292558161</internalNodes>
          <leafValues>
            -1.4598958194255829e-01 6.1296218633651733e-01</leafValues></_>
        <_>
          <internalNodes>
            0 -1 146 1768390143 1609088996 557602295 -1657898144
            191080388 2117008741 12451889 -976487477</internalNodes>
          <leafValues>
            -1.8098880350589752e-01 3.7202250957489014e-01</leafValues></_>
        <_>
          <internalNodes>
            0 -1 17 -420030081 -146554978 -303186842 -708642961
            -2030341665 -67387430 -1761637233 -34768739</internalNodes>
          <leafValues>
            -1.7664960026741028e-01 4.1207405924797058e-01</leafValues></_>
        <_>
          <internalNodes>
            0 -1 137 -271945985 -1107362056 -668532 -805306843
            -333161385 1056628604 -268503593 -589622734</internalNodes>
          <leafValues>
            -2.2380554676055908e-01 3.0567315220832825e-01</leafValues></_>
        <_>
          <internalNodes>
            0 -1 150 -285345201 1192263192 -280167880 -38208538
            -580923149 -1152065560 2090786777 -861653900</internalNodes>
          <leafValues>
            -2.3726616799831390e-01 3.1080260872840881e-01</leafValues></_>
        <_>
          <internalNodes>
            0 -1 142 -833425746 420520362 8297747 1897005590 -2137237446
            -124346272 -926168602 100137427</internalNodes>
          <leafValues>
            -2.9371660947799683e-01 2.5554713606834412e-01</leafValues></_>
        <_>
          <internalNodes>
            0 -1 183 21215484 -355064292 -1307404323 -273493696
            -2064615248 -1943238379 529222349 -1392874328</internalNodes>
          <leafValues>
            -3.0385169386863708e-01 2.5240257382392883e-01</leafValues></_>
        <_>
          <internalNodes>
            0 -1 180 -504634464 -1173197424 -464590536 320866832
            1708344461 -1622024024 1143668791 830202175</internalNodes>
          <leafValues>
            -3.4932193160057068e-01 2.1449317038059235e-01</leafValues></_>
        <_>
          <internalNodes>
            0 -1 102 -234884577 -709071245 1323212319 -83931295
            -1208094723 -51249218 -629393734 -249832257</internalNodes>
          <leafValues>
            -1.6272152960300446e-01 4.8187428712844849e-01</leafValues></_>
        <_>
          <internalNodes>
            0 -1 60 1094977530 1141310615 -32875428 -671035341 482300924
            872501776 1591363269 -217046832</internalNodes>
          <leafValues>
            -4.2975679039955139e-01 1.8788146972656250e-01</leafValues></_>
        <_>
          <internalNodes>
            0 -1 227 -110151849 2010218395 1069469295 -747637889
            -977534744 -820339010 -304947490 -942792818</internalNodes>
          <leafValues>
            -2.0657269656658173e-01 3.7650829553604126e-01</leafValues></_>
        <_>
          <internalNodes>
            0 -1 209 -940341466 -188285401 2137688430 -1783375954
            -216270906 -407538698 -2056278616 -1015364121</internalNodes>
          <leafValues>
            -2.4590599536895752e-01 3.2294633984565735e-01</leafValues></_>
        <_>
          <internalNodes>
            0 -1 41 673267908 873710992 -2130689225 -250562944
            -478022893 1635880960 840007696 984718112</internalNodes>
          <leafValues>
            -4.2825666069984436e-01 1.8391624093055725e-01</leafValues></_>
        <_>
          <internalNodes>
            0 -1 21 548092924 1522031168 -201124649 -11352039 1780937300
            598161435 147322309 259391100</internalNodes>
          <leafValues>
            -3.1862178444862366e-01 2.3409487307071686e-01</leafValues></_>
        <_>
          <internalNodes>
            0 -1 96 746986170 178934728 -376421191 -295559167
            -1030593505 -351643647 1714630666 774466571</internalNodes>
          <leafValues>
            -4.8849070072174072e-01 1.6593569517135620e-01</leafValues></_>
        <_>
          <internalNodes>
            0 -1 222 791645483 -2082435212 -2115311503 -1969933692
            -336238765 -896141365 -1104163280 -2235262</internalNodes>
          <leafValues>
            -2.5931051373481750e-01 3.0210748314857483e-01</leafValues></_></weakClassifiers></_></stages>
  <features>
    <_>
      <rect>
        0 0 10 8</rect></_>
    <_>
      <rect>
        0 2 10 8</rect></_>
    <_>
      <rect>
        0 4 8 4</rect></_>
    <_>
      <rect>
        0 5 8 4</rect></_>
    <_>
      <rect>
        1 3 7 4</rect></_>
    <_>
      <rect>
        1 5 9 8</rect></_>
    <_>
      <rect>
        1 10 3 2</rect></_>
    <_>
      <rect>
        1 11 6 4</rect></_>
    <_>
      <rect>
        1 11 7 4</rect></_>
    <_>
      <rect>
        2 3 7 4</rect></_>
    <_>
      <rect>
        2 5 6 4</rect></_>
    <_>
      <rect>
        2 8 7 4</rect></_>
    <_>
      <rect>
        2 10 3 2</rect></_>
    <_>
      <rect>
        3 4 6 4</rect></_>
    <_>
      <rect>
        3 5 3 3</rect></_>
    <_>
      <rect>
        3 11 3 2</rect></_>
    <_>
      <rect>
        3 11 3 3</rect></_>
    <_>
      <rect>
        3 12 3 3</rect></_>
    <_>
      <rect>
        3 12 5 5</rect></_>
    <_>
      <rect>
        4 5 5 4</rect></_>
    <_>
      <rect>
        4 6 8 6</rect></_>
    <_>
      <rect>
        4 8 2 2</rect></_>
    <_>
      <rect>
        4 9 5 3</rect></_>
    <_>
      <rect>
        4 9 5 4</rect></_>
    <_>
      <rect>
        4 10 2 3</rect></_>
    <_>
      <rect>
        4 10 3 4</rect></_>
    <_>
      <rect>
        4 11 3 3</rect></_>
    <_>
      <rect>
        4 11 3 5</rect></_>
    <_>
      <rect>
        5 4 4 5</rect></_>
    <_>
      <rect>
        5 5 5 4</rect></_>
    <_>
      <rect>
        5 9 5 4</rect></_>
    <_>
      <rect>
        5 9 6 6</rect></_>
    <_>
      <rect>
        5 10 5 3</rect></_>
    <_>
      <rect>
        5 11 2 2</rect></_>
    <_>
      <rect>
        5 12 3 5</rect></_>
    <_>
      <rect>
        6 3 4 5</rect></_>
    <_>
      <rect>
        6 5 5 2</rect></_>
    <_>
      <rect>
        6 5 6 7</rect></_>
    <_>
      <rect>
        6 6 4 4</rect></_>
    <_>
      <rect>
        6 8 8 6</rect></_>
    <_>
      <rect>
        6 16 2 2</rect></_>
    <_>
      <rect>
        7 2 4 5</rect></_>
    <_>
      <rect>
        7 7 7 3</rect></_>
    <_>
      <rect>
        7 8 4 3</rect></_>
    <_>
      <rect>
        7 11 2 2</rect></_>
    <_>
      <rect>
        7 11 3 2</rect></_>
    <_>
      <rect>
        7 11 4 3</rect></_>
    <_>
      <rect>
        7 18 2 1</rect></_>
    <_>
      <rect>
        8 1 3 9</rect></_>
    <_>
      <rect>
        8 1 7 5</rect></_>
    <_>
      <rect>
        8 4 3 3</rect></_>
    <_>
      <rect>
        8 6 2 2</rect></_>
    <_>
      <rect>
        8 6 4 4</rect></_>
    <_>
      <rect>
        8 7 6 4</rect></_>
    <_>
      <rect>
        8 8 3 4</rect></_>
    <_>
      <rect>
        8 8 5 2</rect></_>
    <_>
      <rect>
        8 8 5 5</rect></_>
    <_>
      <rect>
        8 8 6 3</rect></_>
    <_>
      <rect>
        8 9 2 3</rect></_>
    <_>
      <rect>
        8 9 5 3</rect></_>
    <_>
      <rect>
        8 9 6 7</rect></_>
    <_>
      <rect>
        8 16 1 2</rect></_>
    <_>
      <rect>
        8 16 5 4</rect></_>
    <_>
      <rect>
        8 18 3 4</rect></_>
    <_>
      <rect>
        9 0 7 7</rect></_>
    <_>
      <rect>
        9 1 4 3</rect></_>
    <_>
      <rect>
        9 3 3 2</rect></_>
    <_>
      <rect>
        9 3 7 7</rect></_>
    <_>
      <rect>
        9 4 2 8</rect></_>
    <_>
      <rect>
        9 6 2 4</rect></_>
    <_>
      <rect>
        9 6 3 4</rect></_>
    <_>
      <rect>
        9 6 5 4</rect></_>
    <_>
      <rect>
        9 7 4 3</rect></_>
    <_>
      <rect>
        9 7 5 3</rect></_>
    <_>
      <rect>
        9 8 2 2</rect></_>
    <_>
      <rect>
        9 9 2 2</rect></_>
    <_>
      <rect>
        9 9 2 3</rect></_>
    <_>
      <rect>
        9 12 4 2</rect></_>
    <_>
      <rect>
        9 12 4 4</rect></_>
    <_>
      <rect>
        9 12 5 5</rect></_>
    <_>
      <rect>
        9 14 6 2</rect></_>
    <_>
      <rect>
        9 16 2 2</rect></_>
    <_>
      <rect>
        9 18 3 1</rect></_>
    <_>
      <rect>
        10 0 2 10</rect></_>
    <_>
      <rect>
        10 0 4 3</rect></_>
    <_>
      <rect>
        10 3 4 5</rect></_>
    <_>
      <rect>
        10 4 2 4</rect></_>
    <_>
      <rect>
        10 5 3 2</rect></_>
    <_>
      <rect>
        10 6 2 2</rect></_>
    <_>
      <rect>
        10 6 5 4</rect></_>
    <_>
      <rect>
        10 7 2 4</rect></_>
    <_>
      <rect>
        10 7 4 4</rect></_>
    <_>
      <rect>
        10 8 2 2</rect></_>
    <_>
      <rect>
        10 9 2 3</rect></_>
    <_>
      <rect>
        10 10 3 2</rect></_>
    <_>
      <rect>
        10 10 4 3</rect></_>
    <_>
      <rect>
        10 11 2 2</rect></_>
    <_>
      <rect>
        10 13 2 2</rect></_>
    <_>
      <rect>
        10 15 1 1</rect></_>
    <_>
      <rect>
        11 0 6 7</rect></_>
    <_>
      <rect>
        11 0 6 9</rect></_>
    <_>
      <rect>
        11 6 1 1</rect></_>
    <_>
      <rect>
        11 6 2 1</rect></_>
    <_>
      <rect>
        11 6 2 2</rect></_>
    <_>
      <rect>
        11 6 3 3</rect></_>
    <_>
      <rect>
        11 6 4 4</rect></_>
    <_>
      <rect>
        11 6 5 5</rect></_>
    <_>
      <rect>
        11 6 6 4</rect></_>
    <_>
      <rect>
        11 7 2 3</rect></_>
    <_>
      <rect>
        11 7 3 3</rect></_>
    <_>
      <rect>
        11 8 1 1</rect></_>
    <_>
      <rect>
        11 8 3 2</rect></_>
    <_>
      <rect>
        11 9 2 2</rect></_>
    <_>
      <rect>
        11 9 2 3</rect></_>
    <_>
      <rect>
        11 9 4 2</rect></_>
    <_>
      <rect>
        11 10 3 3</rect></_>
    <_>
      <rect>
        11 11 3 3</rect></_>
    <_>
      <rect>
        11 11 4 2</rect></_>
    <_>
      <rect>
        11 12 2 2</rect></_>
    <_>
      <rect>
        11 12 3 2</rect></_>
    <_>
      <rect>
        11 12 4 4</rect></_>
    <_>
      <rect>
        11 14 3 2</rect></_>
    <_>
      <rect>
        11 14 4 2</rect></_>
    <_>
      <rect>
        12 1 3 3</rect></_>
    <_>
      <rect>
        12 5 3 2</rect></_>
    <_>
      <rect>
        12 5 4 5</rect></_>
    <_>
      <rect>
        12 6 3 2</rect></_>
    <_>
      <rect>
        12 7 2 3</rect></_>
    <_>
      <rect>
        12 7 4 4</rect></_>
    <_>
      <rect>
        12 8 2 2</rect></_>
    <_>
      <rect>
        12 8 2 3</rect></_>
    <_>
      <rect>
        12 8 3 2</rect></_>
    <_>
      <rect>
        12 9 1 1</rect></_>
    <_>
      <rect>
        12 11 3 2</rect></_>
    <_>
      <rect>
        12 11 4 3</rect></_>
    <_>
      <rect>
        12 12 1 1</rect></_>
    <_>
      <rect>
        12 12 2 2</rect></_>
    <_>
      <rect>
        12 12 4 4</rect></_>
    <_>
      <rect>
        12 13 1 1</rect></_>
    <_>
      <rect>
        12 13 2 1</rect></_>
    <_>
      <rect>
        12 13 2 2</rect></_>
    <_>
      <rect>
        12 13 2 3</rect></_>
    <_>
      <rect>
        12 14 1 1</rect></_>
    <_>
      <rect>
        12 14 2 2</rect></_>
    <_>
      <rect>
        12 15 1 1</rect></_>
    <_>
      <rect>
        12 16 3 2</rect></_>
    <_>
      <rect>
        12 19 2 1</rect></_>
    <_>
      <rect>
        13 5 2 2</rect></_>
    <_>
      <rect>
        13 6 3 4</rect></_>
    <_>
      <rect>
        13 7 2 2</rect></_>
    <_>
      <rect>
        13 7 3 4</rect></_>
    <_>
      <rect>
        13 8 2 2</rect></_>
    <_>
      <rect>
        13 8 2 3</rect></_>
    <_>
      <rect>
        13 8 3 3</rect></_>
    <_>
      <rect>
        13 9 2 2</rect></_>
    <_>
      <rect>
        13 9 2 3</rect></_>
    <_>
      <rect>
        13 9 4 6</rect></_>
    <_>
      <rect>
        13 11 3 2</rect></_>
    <_>
      <rect>
        13 12 1 1</rect></_>
    <_>
      <rect>
        13 13 1 1</rect></_>
    <_>
      <rect>
        13 13 2 2</rect></_>
    <_>
      <rect>
        13 14 1 1</rect></_>
    <_>
      <rect>
        13 14 2 2</rect></_>
    <_>
      <rect>
        13 15 1 1</rect></_>
    <_>
      <rect>
        13 15 2 2</rect></_>
    <_>
      <rect>
        13 16 1 1</rect></_>
    <_>
      <rect>
        13 18 1 1</rect></_>
    <_>
      <rect>
        14 1 4 4</rect></_>
    <_>
      <rect>
        14 6 3 6</rect></_>
    <_>
      <rect>
        14 7 2 2</rect></_>
    <_>
      <rect>
        14 7 2 3</rect></_>
    <_>
      <rect>
        14 8 2 2</rect></_>
    <_>
      <rect>
        14 8 3 4</rect></_>
    <_>
      <rect>
        14 8 3 5</rect></_>
    <_>
      <rect>
        14 9 1 3</rect></_>
    <_>
      <rect>
        14 9 2 2</rect></_>
    <_>
      <rect>
        14 10 1 1</rect></_>
    <_>
      <rect>
        14 11 2 2</rect></_>
    <_>
      <rect>
        14 11 3 2</rect></_>
    <_>
      <rect>
        14 12 1 1</rect></_>
    <_>
      <rect>
        14 13 1 1</rect></_>
    <_>
      <rect>
        14 14 1 1</rect></_>
    <_>
      <rect>
        14 15 1 1</rect></_>
    <_>
      <rect>
        14 18 1 1</rect></_>
    <_>
      <rect>
        15 3 2 3</rect></_>
    <_>
      <rect>
        15 7 1 3</rect></_>
    <_>
      <rect>
        15 12 3 3</rect></_>
    <_>
      <rect>
        15 14 1 1</rect></_>
    <_>
      <rect>
        15 14 4 5</rect></_>
    <_>
      <rect>
        16 0 3 5</rect></_>
    <_>
      <rect>
        16 5 3 3</rect></_>
    <_>
      <rect>
        16 6 2 3</rect></_>
    <_>
      <rect>
        16 7 3 2</rect></_>
    <_>
      <rect>
        16 9 2 4</rect></_>
    <_>
      <rect>
        16 9 2 5</rect></_>
    <_>
      <rect>
        16 9 3 7</rect></_>
    <_>
      <rect>
        17 6 3 5</rect></_>
    <_>
      <rect>
        17 7 2 7</rect></_>
    <_>
      <rect>
        17 9 2 2</rect></_>
    <_>
      <rect>
        17 9 2 3</rect></_>
    <_>
      <rect>
        17 10 2 4</rect></_>
    <_>
      <rect>
        17 11 2 2</rect></_>
    <_>
      <rect>
        17 12 2 4</rect></_>
    <_>
      <rect>
        17 14 1 2</rect></_>
    <_>
      <rect>
        17 17 2 2</rect></_>
    <_>
      <rect>
        18 3 4 4</rect></_>
    <_>
      <rect>
        18 4 2 3</rect></_>
    <_>
      <rect>
        18 6 3 6</rect></_>
    <_>
      <rect>
        18 6 4 4</rect></_>
    <_>
      <rect>
        18 7 2 2</rect></_>
    <_>
      <rect>
        18 8 2 2</rect></_>
    <_>
      <rect>
        18 10 3 3</rect></_>
    <_>
      <rect>
        18 12 1 1</rect></_>
    <_>
      <rect>
        18 13 2 3</rect></_>
    <_>
      <rect>
        18 14 3 5</rect></_>
    <_>
      <rect>
        18 17 2 2</rect></_>
    <_>
      <rect>
        19 8 2 4</rect></_>
    <_>
      <rect>
        19 17 1 1</rect></_>
    <_>
      <rect>
        19 20 2 2</rect></_>
    <_>
      <rect>
        20 6 2 3</rect></_>
    <_>
      <rect>
        20 9 2 3</rect></_>
    <_>
      <rect>
        20 12 2 2</rect></_>
    <_>
      <rect>
        20 13 1 1</rect></_>
    <_>
      <rect>
        20 13 2 2</rect></_>
    <_>
      <rect>
        21 9 2 2</rect></_>
    <_>
      <rect>
        21 12 1 2</rect></_>
    <_>
      <rect>
        21 16 3 3</rect></_>
    <_>
      <rect>
        24 12 2 3</rect></_></features></cascade>
</opencv_storage>
