<?xml version="1.0"?>
<opencv_storage>
<cascade>
  <stageType>BOOST</stageType>
  <featureType>LBP</featureType>
  <height>30</height>
  <width>30</width>
  <stageParams>
    <boostType>GAB</boostType>
    <minHitRate>9.9500000476837158e-01</minHitRate>
    <maxFalseAlarm>5.0000000000000000e-01</maxFalseAlarm>
    <weightTrimRate>9.4999999999999996e-01</weightTrimRate>
    <maxDepth>1</maxDepth>
    <maxWeakCount>100</maxWeakCount></stageParams>
  <featureParams>
    <maxCatCount>256</maxCatCount>
    <featSize>1</featSize></featureParams>
  <stageNum>15</stageNum>
  <stages>
    <!-- stage 0 -->
    <_>
      <maxWeakCount>5</maxWeakCount>
      <stageThreshold>-1.0378638505935669e+00</stageThreshold>
      <weakClassifiers>
        <_>
          <internalNodes>
            0 -1 31 -328032 -37823750 -69650 -258 -292 -65543 -4114 -2</internalNodes>
          <leafValues>
            -7.2528737783432007e-01 7.6572769880294800e-01</leafValues></_>
        <_>
          <internalNodes>
            0 -1 124 1949323408 -140885328 -1681899727 -6299085
            -616694564 -2651909 -81137857 -268439639</internalNodes>
          <leafValues>
            -5.1691108942031860e-01 4.9813550710678101e-01</leafValues></_>
        <_>
          <internalNodes>
            0 -1 59 -1432685569 -1447493633 -889454593 -1246105601
            -302985217 -457441297 -601424385 -1348534531</internalNodes>
          <leafValues>
            -4.1555640101432800e-01 4.4077160954475403e-01</leafValues></_>
        <_>
          <internalNodes>
            0 -1 125 -107896120 -174540136 571007234 -485819504
            -836650500 -89405208 -1155470340 -1192560388</internalNodes>
          <leafValues>
            -5.5736148357391357e-01 2.9459199309349060e-01</leafValues></_>
        <_>
          <internalNodes>
            0 -1 12 -123792004 -15142910 -1324343380 1351406028
            -610587748 -1196912438 -904537936 -1087725144</internalNodes>
          <leafValues>
            -4.9574980139732361e-01 3.2529899477958679e-01</leafValues></_></weakClassifiers></_>
    <!-- stage 1 -->
    <_>
      <maxWeakCount>9</maxWeakCount>
      <stageThreshold>-1.0990985631942749e+00</stageThreshold>
      <weakClassifiers>
        <_>
          <internalNodes>
            0 -1 27 -66840 -2 -84 -609 -16777218 -1 -66 -2</internalNodes>
          <leafValues>
            -5.1878857612609863e-01 6.9362103939056396e-01</leafValues></_>
        <_>
          <internalNodes>
            0 -1 94 -1079329880 -1414887030 -714547721 -1862213
            -41952265 -282951349 -1313875301 -575684673</internalNodes>
          <leafValues>
            -4.5433503389358521e-01 4.4551071524620056e-01</leafValues></_>
        <_>
          <internalNodes>
            0 -1 186 -170571436 -1039031868 -1266624139 -926170712
            -474981683 -773134199 -87129729 -71508740</internalNodes>
          <leafValues>
            -5.9657800197601318e-01 2.7793368697166443e-01</leafValues></_>
        <_>
          <internalNodes>
            0 -1 79 778487547 -1104506147 612073295 -404334854
            1073165229 -1073769165 -310427425 -386797785</internalNodes>
          <leafValues>
            -3.1178799271583557e-01 4.2663285136222839e-01</leafValues></_>
        <_>
          <internalNodes>
            0 -1 202 -540027147 321459026 -1073821569 -47155840
            -1111368503 -1125976579 -1941290568 -845297680</internalNodes>
          <leafValues>
            -2.9306158423423767e-01 4.3769451975822449e-01</leafValues></_>
        <_>
          <internalNodes>
            0 -1 178 -664759025 -586956400 689529623 1574418354
            -1668543255 -73874768 -668964862 -579476543</internalNodes>
          <leafValues>
            -3.9957785606384277e-01 3.1904673576354980e-01</leafValues></_>
        <_>
          <internalNodes>
            0 -1 73 -1460895049 76415062 -1855851745 -1166209485
            2010393335 783297736 -1172794787 -1899692699</internalNodes>
          <leafValues>
            -4.4870719313621521e-01 2.8403541445732117e-01</leafValues></_>
        <_>
          <internalNodes>
            0 -1 206 -137079376 878608574 -243847210 -661138972
            -771079103 -917532001 132190561 -1619048445</internalNodes>
          <leafValues>
            -4.8725792765617371e-01 2.7623704075813293e-01</leafValues></_>
        <_>
          <internalNodes>
            0 -1 198 262080345 -1445285379 -267220583 -1895955418
            -568584639 1857810073 1141191696 -1359452464</internalNodes>
          <leafValues>
            -4.3400233983993530e-01 2.9434487223625183e-01</leafValues></_></weakClassifiers></_>
    <!-- stage 2 -->
    <_>
      <maxWeakCount>11</maxWeakCount>
      <stageThreshold>-9.7914338111877441e-01</stageThreshold>
      <weakClassifiers>
        <_>
          <internalNodes>
            0 -1 2 -37029126 -16843014 -16781446 -524290 -67174914
            -196610 -16386 -2</internalNodes>
          <leafValues>
            -4.2652329802513123e-01 6.2736940383911133e-01</leafValues></_>
        <_>
          <internalNodes>
            0 -1 95 -537798192 -576849548 -309915119 -3225727 -70526471
            -1347712482 731905723 -1343292453</internalNodes>
          <leafValues>
            -4.5058596134185791e-01 4.3910226225852966e-01</leafValues></_>
        <_>
          <internalNodes>
            0 -1 173 -545984171 -604907725 961646615 -805845739
            -2011670436 -1456698741 -558330618 -67276988</internalNodes>
          <leafValues>
            -4.2544016242027283e-01 3.6335939168930054e-01</leafValues></_>
        <_>
          <internalNodes>
            0 -1 41 -2010448905 148951573 723218833 -1412184867
            142779379 -1970100215 -813304489 -2003633807</internalNodes>
          <leafValues>
            -4.6020805835723877e-01 2.9059332609176636e-01</leafValues></_>
        <_>
          <internalNodes>
            0 -1 115 1160435160 -2116468736 1075237064 -1644299520
            -1752583718 -1013577587 818461436 -587443715</internalNodes>
          <leafValues>
            -5.1181018352508545e-01 2.3278458416461945e-01</leafValues></_>
        <_>
          <internalNodes>
            0 -1 201 -1625752587 2042106673 1297383927 -1078416048
            -395990019 -895882250 -1074231091 -1459819488</internalNodes>
          <leafValues>
            -3.5085922479629517e-01 3.6686456203460693e-01</leafValues></_>
        <_>
          <internalNodes>
            0 -1 113 -1659525616 232783903 -1570745970 176429293
            -1862764072 -906755890 1536793853 -1694830177</internalNodes>
          <leafValues>
            -4.8248529434204102e-01 2.4937449395656586e-01</leafValues></_>
        <_>
          <internalNodes>
            0 -1 66 1122155963 1043524415 1873804669 -1157746126
            -816337047 -354451585 -1111640165 -17092588</internalNodes>
          <leafValues>
            -3.1330969929695129e-01 3.6069470643997192e-01</leafValues></_>
        <_>
          <internalNodes>
            0 -1 176 -1072772572 1395689057 67735253 504768305 612880812
            387418497 1101777346 -18918981</internalNodes>
          <leafValues>
            -3.7375849485397339e-01 3.1912931799888611e-01</leafValues></_>
        <_>
          <internalNodes>
            0 -1 210 -608463 -1476595719 -403013701 -1879527434
            -506838764 -319918283 -46371244 -63275769</internalNodes>
          <leafValues>
            -3.2733994722366333e-01 3.4875175356864929e-01</leafValues></_>
        <_>
          <internalNodes>
            0 -1 72 -1805452068 -1086306088 -619596425 -1239661604
            -565597456 -103172427 1787902020 -1136999756</internalNodes>
          <leafValues>
            -3.7488678097724915e-01 3.1662628054618835e-01</leafValues></_></weakClassifiers></_>
    <!-- stage 3 -->
    <_>
      <maxWeakCount>16</maxWeakCount>
      <stageThreshold>-8.3441430330276489e-01</stageThreshold>
      <weakClassifiers>
        <_>
          <internalNodes>
            0 -1 29 -1908994 -4522242 -1048587 -1048577 -131090
            -33685513 -1056146 -4098</internalNodes>
          <leafValues>
            -2.8893905878067017e-01 5.9413433074951172e-01</leafValues></_>
        <_>
          <internalNodes>
            0 -1 96 -560772080 -44047917 1359716115 -771898379
            -1432364834 -1717988960 -1702188738 -354418982</internalNodes>
          <leafValues>
            -4.4983041286468506e-01 3.4747344255447388e-01</leafValues></_>
        <_>
          <internalNodes>
            0 -1 77 -1428167937 -1193544677 -32417441 -2009111229
            -1176677379 -94207999 -64251154 -1935161792</internalNodes>
          <leafValues>
            -3.6350747942924500e-01 3.2456925511360168e-01</leafValues></_>
        <_>
          <internalNodes>
            0 -1 129 -571158635 972488627 -268774105 -542902622
            -570653539 -25362433 -16996210 -1074532409</internalNodes>
          <leafValues>
            -2.7279725670814514e-01 3.8781434297561646e-01</leafValues></_>
        <_>
          <internalNodes>
            0 -1 53 41937567 -927019753 -1343049985 456928050
            -1695261201 -862879779 775702005 -116893</internalNodes>
          <leafValues>
            -2.8432247042655945e-01 3.7126484513282776e-01</leafValues></_>
        <_>
          <internalNodes>
            0 -1 180 -890353146 1607914856 -2129474136 14959760
            1208273480 -1080516534 -223024924 -122634108</internalNodes>
          <leafValues>
            -4.9400988221168518e-01 2.0454671978950500e-01</leafValues></_>
        <_>
          <internalNodes>
            0 -1 241 -680453280 -183077679 -242917675 -48801487
            -1491585994 -22910669 -97352223 -11504267</internalNodes>
          <leafValues>
            -3.5750401020050049e-01 2.9123815894126892e-01</leafValues></_>
        <_>
          <internalNodes>
            0 -1 184 628359166 536600255 -1505991001 188590814
            -1074974787 -826356040 -1897971707 -37901709</internalNodes>
          <leafValues>
            -2.7279040217399597e-01 3.7412378191947937e-01</leafValues></_>
        <_>
          <internalNodes>
            0 -1 28 238243679 -600292012 -1514145834 1564202269
            -755705921 -708955051 -1326059921 -333768939</internalNodes>
          <leafValues>
            -2.4986062943935394e-01 3.9364850521087646e-01</leafValues></_>
        <_>
          <internalNodes>
            0 -1 217 -98574635 -1079407959 1878806941 -686791296
            1024501181 -44495156 -1000221272 -1613665364</internalNodes>
          <leafValues>
            -2.5354722142219543e-01 3.9174401760101318e-01</leafValues></_>
        <_>
          <internalNodes>
            0 -1 196 -732505352 -1899183705 1400933145 -733961547
            1999141172 -218262277 -393571552 -1409275372</internalNodes>
          <leafValues>
            -5.1052743196487427e-01 2.1764430403709412e-01</leafValues></_>
        <_>
          <internalNodes>
            0 -1 172 1435624903 2131095219 368080659 -1883301579
            -1781444359 -917595 -1629692711 -285213401</internalNodes>
          <leafValues>
            -2.7350357174873352e-01 4.1180181503295898e-01</leafValues></_>
        <_>
          <internalNodes>
            0 -1 161 -798307550 -1093707578 -2113886691 673882783
            -2111009644 735721659 -2121924449 1779366843</internalNodes>
          <leafValues>
            -3.8269722461700439e-01 2.8217989206314087e-01</leafValues></_>
        <_>
          <internalNodes>
            0 -1 224 639871767 -596935043 -1426114699 1677311657
            880231427 -16941251 943210139 -169210</internalNodes>
          <leafValues>
            -2.6417976617813110e-01 4.1818994283676147e-01</leafValues></_>
        <_>
          <internalNodes>
            0 -1 219 -345428695 -1722850115 1360566613 -449707942
            1577078235 -375012339 581627883 -1123929835</internalNodes>
          <leafValues>
            -3.2568192481994629e-01 3.1382900476455688e-01</leafValues></_>
        <_>
          <internalNodes>
            0 -1 82 1649314312 38297626 -465541219 244006999 1236926962
            705795713 -1291741437 2018870232</internalNodes>
          <leafValues>
            -6.0707575082778931e-01 1.7834098637104034e-01</leafValues></_></weakClassifiers></_>
    <!-- stage 4 -->
    <_>
      <maxWeakCount>16</maxWeakCount>
      <stageThreshold>-1.0738444328308105e+00</stageThreshold>
      <weakClassifiers>
        <_>
          <internalNodes>
            0 -1 34 -1138866 -537919745 -135334748 -134218070 -34082849
            2113863671 -150994949 -169904165</internalNodes>
          <leafValues>
            -3.7358489632606506e-01 5.8820861577987671e-01</leafValues></_>
        <_>
          <internalNodes>
            0 -1 152 1459713300 -356678141 -276517069 -550523081
            -94597634 -303169537 -281094661 -37748817</internalNodes>
          <leafValues>
            -3.4095332026481628e-01 3.6247217655181885e-01</leafValues></_>
        <_>
          <internalNodes>
            0 -1 102 -1342310455 -1107304449 -570565124 -8692240
            2146435071 -65619 -1072505346 1560528223</internalNodes>
          <leafValues>
            -2.8476095199584961e-01 4.0191364288330078e-01</leafValues></_>
        <_>
          <internalNodes>
            0 -1 65 -1877476866 -1709075998 -669606662 -93589056
            268509328 1394147529 -704097761 -654443041</internalNodes>
          <leafValues>
            -3.6819106340408325e-01 2.8044968843460083e-01</leafValues></_>
        <_>
          <internalNodes>
            0 -1 178 1522925503 -38732110 -675811977 1606410096
            -1798042423 -38428737 -856896497 -94513917</internalNodes>
          <leafValues>
            -2.5316709280014038e-01 4.0202042460441589e-01</leafValues></_>
        <_>
          <internalNodes>
            0 -1 169 -561191046 1043195656 -894161921 -546820505
            -1610645633 -1883766849 2092859355 -60817537</internalNodes>
          <leafValues>
            -2.6999503374099731e-01 3.8558197021484375e-01</leafValues></_>
        <_>
          <internalNodes>
            0 -1 236 -164223979 1446731820 -503611113 -1625353800
            -1444066695 -1416745075 -913374356 -1412859</internalNodes>
          <leafValues>
            -3.2441967725753784e-01 3.1420773267745972e-01</leafValues></_>
        <_>
          <internalNodes>
            0 -1 78 -1443110033 -1460218141 -807051436 1725681392
            1333891685 -1953781653 -2028227052 -776714220</internalNodes>
          <leafValues>
            -3.2487380504608154e-01 3.1937104463577271e-01</leafValues></_>
        <_>
          <internalNodes>
            0 -1 26 -1074796546 1899364322 -454186986 2033557606
            1568669674 75005700 2087967374 -1926249233</internalNodes>
          <leafValues>
            -2.9960262775421143e-01 3.3396175503730774e-01</leafValues></_>
        <_>
          <internalNodes>
            0 -1 176 -957660976 -523152298 447891925 1903372446
            1695362471 1245131202 1714501847 2080364311</internalNodes>
          <leafValues>
            -3.1440466642379761e-01 3.1107044219970703e-01</leafValues></_>
        <_>
          <internalNodes>
            0 -1 76 1761447903 741856851 1276203164 -396513529
            -1449401745 560077123 -402104371 -1332348925</internalNodes>
          <leafValues>
            -3.3165469765663147e-01 3.2729762792587280e-01</leafValues></_>
        <_>
          <internalNodes>
            0 -1 195 -63464125 1064400305 2037280628 -1209014666
            247451188 -1082753484 -1224872872 -319112141</internalNodes>
          <leafValues>
            -3.0288302898406982e-01 3.4090954065322876e-01</leafValues></_>
        <_>
          <internalNodes>
            0 -1 215 579841591 217000545 -318767883 -358420786 484317781
            -1097728721 -455278540 -1939386140</internalNodes>
          <leafValues>
            -3.1398436427116394e-01 3.2525846362113953e-01</leafValues></_>
        <_>
          <internalNodes>
            0 -1 35 1145044439 -1699347073 1577053933 -583885533
            1711263092 -1720296068 -1174569371 -285508233</internalNodes>
          <leafValues>
            -2.6720339059829712e-01 4.0500819683074951e-01</leafValues></_>
        <_>
          <internalNodes>
            0 -1 214 1900475266 246394730 2147203635 -302537429
            396832564 -608503880 -30474757 -1985908821</internalNodes>
          <leafValues>
            -2.6287379860877991e-01 3.9041420817375183e-01</leafValues></_>
        <_>
          <internalNodes>
            0 -1 92 -1060512360 -568598057 570627841 -1978862017
            -1163671494 -1416527232 -1962221010 -1948884134</internalNodes>
          <leafValues>
            -3.6194711923599243e-01 2.9340150952339172e-01</leafValues></_></weakClassifiers></_>
    <!-- stage 5 -->
    <_>
      <maxWeakCount>15</maxWeakCount>
      <stageThreshold>-8.9810407161712646e-01</stageThreshold>
      <weakClassifiers>
        <_>
          <internalNodes>
            0 -1 32 -269491474 -1343230097 -9523671 -273813585
            2070935183 -95945012 -1048625 -538443777</internalNodes>
          <leafValues>
            -2.7472528815269470e-01 5.9808611869812012e-01</leafValues></_>
        <_>
          <internalNodes>
            0 -1 69 -137625741 -563228893 153102752 1560389393 923462923
            255737402 67314226 218348851</internalNodes>
          <leafValues>
            -3.4505197405815125e-01 3.7662950158119202e-01</leafValues></_>
        <_>
          <internalNodes>
            0 -1 163 -246023792 -641383552 -919910196 -283422070
            -1947869048 -929726291 -218445760 -318899549</internalNodes>
          <leafValues>
            -4.1114294528961182e-01 2.4974884092807770e-01</leafValues></_>
        <_>
          <internalNodes>
            0 -1 43 1469816606 -907074913 294860032 -652279401
            -1708932661 -2134242661 -383702262 -1087380578</internalNodes>
          <leafValues>
            -4.0223580598831177e-01 2.5764837861061096e-01</leafValues></_>
        <_>
          <internalNodes>
            0 -1 146 -71698440 -877462749 1881339285 9454339 -1920991253
            1690267733 -34155391 1355007483</internalNodes>
          <leafValues>
            -3.0290830135345459e-01 3.1893667578697205e-01</leafValues></_>
        <_>
          <internalNodes>
            0 -1 52 -965742123 -1935083609 2147351791 -208218123
            1029175379 -1289553033 493878374 -113644189</internalNodes>
          <leafValues>
            -2.7511462569236755e-01 3.4530153870582581e-01</leafValues></_>
        <_>
          <internalNodes>
            0 -1 147 -11013592 -1196167053 -414526302 957400026
            -734006924 30490785 -233898049 -517741625</internalNodes>
          <leafValues>
            -3.1801578402519226e-01 2.9271885752677917e-01</leafValues></_>
        <_>
          <internalNodes>
            0 -1 109 1950334245 -241529090 1694334551 -491085138
            -1108484143 -1107923350 -51057552 -21075366</internalNodes>
          <leafValues>
            -2.6270750164985657e-01 3.6406803131103516e-01</leafValues></_>
        <_>
          <internalNodes>
            0 -1 158 1405864606 1490972327 -2000519570 -1366771071
            -926933632 -841691164 1153042396 -285216769</internalNodes>
          <leafValues>
            -2.9730248451232910e-01 3.4067133069038391e-01</leafValues></_>
        <_>
          <internalNodes>
            0 -1 37 -440566567 -1848792216 -285812486 301986234
            -17891340 1549139929 -71336125 -175654945</internalNodes>
          <leafValues>
            -2.6807963848114014e-01 3.8030275702476501e-01</leafValues></_>
        <_>
          <internalNodes>
            0 -1 61 -588411715 33345430 -16985293 -584086083 -20595209
            352263758 -278940235 -37384369</internalNodes>
          <leafValues>
            -2.2947874665260315e-01 4.1883486509323120e-01</leafValues></_>
        <_>
          <internalNodes>
            0 -1 155 2130990931 -1624166912 -375493476 1566948917
            -1589602836 1182072804 1830771774 -1126695021</internalNodes>
          <leafValues>
            -2.9017752408981323e-01 3.5398694872856140e-01</leafValues></_>
        <_>
          <internalNodes>
            0 -1 203 585621267 -294747792 -1951673516 345779092
            -2101350572 -615798849 -2133572892 -1460903896</internalNodes>
          <leafValues>
            -3.3099582791328430e-01 2.9272824525833130e-01</leafValues></_>
        <_>
          <internalNodes>
            0 -1 143 274440448 151192862 1916280848 48724674 -1023425656
            -1435899239 2055979648 -127009723</internalNodes>
          <leafValues>
            -4.8684081435203552e-01 1.9905160367488861e-01</leafValues></_>
        <_>
          <internalNodes>
            0 -1 133 -787495965 -1257564489 776535103 791756211
            381285822 -545456903 1004322779 -287318569</internalNodes>
          <leafValues>
            -1.9394554197788239e-01 5.6720662117004395e-01</leafValues></_></weakClassifiers></_>
    <!-- stage 6 -->
    <_>
      <maxWeakCount>18</maxWeakCount>
      <stageThreshold>-8.3278614282608032e-01</stageThreshold>
      <weakClassifiers>
        <_>
          <internalNodes>
            0 -1 19 -303042578 2147332077 2142240685 -143659521
            -268587009 -2248707 -16921106 -73729</internalNodes>
          <leafValues>
            -2.0022124052047729e-01 5.6345421075820923e-01</leafValues></_>
        <_>
          <internalNodes>
            0 -1 83 1206891502 732898719 2052600088 720344487 -922492533
            -107806325 -363634535 -84979269</internalNodes>
          <leafValues>
            -3.3180323243141174e-01 3.1154280900955200e-01</leafValues></_>
        <_>
          <internalNodes>
            0 -1 192 -772420097 2035679231 -16777353 2145910753
            1693733967 -721009 -319103997 -189662506</internalNodes>
          <leafValues>
            -2.6605173945426941e-01 3.5563078522682190e-01</leafValues></_>
        <_>
          <internalNodes>
            0 -1 70 -4211926 169051690 -546222600 892420499 -112242718
            -282427381 -207690902 -989338077</internalNodes>
          <leafValues>
            -3.0117350816726685e-01 2.9992705583572388e-01</leafValues></_>
        <_>
          <internalNodes>
            0 -1 115 1896979953 1428275504 1502035420 -78171392 1295291
            75546633 -835929378 -330238483</internalNodes>
          <leafValues>
            -3.9845520257949829e-01 2.0715083181858063e-01</leafValues></_>
        <_>
          <internalNodes>
            0 -1 87 -1494546857 2121740287 767457071 -1395590409
            -1493467777 -1388462642 -67551465 -155517317</internalNodes>
          <leafValues>
            -2.2109441459178925e-01 3.8172060251235962e-01</leafValues></_>
        <_>
          <internalNodes>
            0 -1 174 1109836290 492454150 -1776049616 2032740356
            1109487747 318980754 272580895 1064826074</internalNodes>
          <leafValues>
            -4.0176910161972046e-01 2.0903709530830383e-01</leafValues></_>
        <_>
          <internalNodes>
            0 -1 136 1784851174 1578961367 -871595322 -582186274
            543689049 -2001104743 672088835 -1430598907</internalNodes>
          <leafValues>
            -3.9804989099502563e-01 2.0690651237964630e-01</leafValues></_>
        <_>
          <internalNodes>
            0 -1 9 -142627670 -5263882 648726766 1639829226 -89158197
            -1080657215 1154119906 -278937398</internalNodes>
          <leafValues>
            -2.1508406102657318e-01 3.9836183190345764e-01</leafValues></_>
        <_>
          <internalNodes>
            0 -1 154 889602566 68659971 -1362541223 956465440 385905082
            -1568440126 -477955594 1456534178</internalNodes>
          <leafValues>
            -4.4537466764450073e-01 1.9363574683666229e-01</leafValues></_>
        <_>
          <internalNodes>
            0 -1 182 -1712331473 1993356735 673784112 547934854
            -1060019482 -640941078 -1180397920 -2136946233</internalNodes>
          <leafValues>
            -3.4201216697692871e-01 2.6137706637382507e-01</leafValues></_>
        <_>
          <internalNodes>
            0 -1 64 1323782077 -2004495369 1804853607 1610867201
            49335227 1506969758 1545642192 606491110</internalNodes>
          <leafValues>
            -4.0448543429374695e-01 2.3017045855522156e-01</leafValues></_>
        <_>
          <internalNodes>
            0 -1 58 335724448 2051199892 -100487681 -1849118462
            -2113209677 -1818945207 807268064 -218648237</internalNodes>
          <leafValues>
            -3.1418299674987793e-01 2.7887669205665588e-01</leafValues></_>
        <_>
          <internalNodes>
            0 -1 233 -405558360 1573359709 -1207855973 -2115956158
            1504122144 -693772278 1384685568 -1010347805</internalNodes>
          <leafValues>
            -2.9418841004371643e-01 3.1133070588111877e-01</leafValues></_>
        <_>
          <internalNodes>
            0 -1 67 -716588555 2016670795 -871314866 -2118925244
            -1879012200 948904370 748769530 1080792207</internalNodes>
          <leafValues>
            -2.9148384928703308e-01 3.0507704615592957e-01</leafValues></_>
        <_>
          <internalNodes>
            0 -1 251 1903159120 -742166582 -134336903 1792488678
            -11619099 -833102372 -54913392 -575741</internalNodes>
          <leafValues>
            -2.6743525266647339e-01 3.3581709861755371e-01</leafValues></_>
        <_>
          <internalNodes>
            0 -1 153 -520936822 284680110 1694215915 -176378334
            -40128093 720887231 -1505933349 -37751325</internalNodes>
          <leafValues>
            -2.4585941433906555e-01 3.6013251543045044e-01</leafValues></_>
        <_>
          <internalNodes>
            0 -1 15 -1731199370 -100347222 -1556039828 1503641742
            -1333059136 -920616958 -1861100011 -552732210</internalNodes>
          <leafValues>
            -3.8158920407295227e-01 2.3608775436878204e-01</leafValues></_></weakClassifiers></_>
    <!-- stage 7 -->
    <_>
      <maxWeakCount>19</maxWeakCount>
      <stageThreshold>-7.1195530891418457e-01</stageThreshold>
      <weakClassifiers>
        <_>
          <internalNodes>
            0 -1 50 -297074689 -1980235793 -738459649 -1178603777
            -688409257 -136339457 -808427665 -1891664002</internalNodes>
          <leafValues>
            -2.7006173506379128e-02 6.0739433765411377e-01</leafValues></_>
        <_>
          <internalNodes>
            0 -1 103 1401509337 -1862197153 -94703924 -796912 403055595
            838862858 -92078852 1493193173</internalNodes>
          <leafValues>
            -4.2426240444183350e-01 2.7694341540336609e-01</leafValues></_>
        <_>
          <internalNodes>
            0 -1 207 -2307620 -566445089 -2122110081 -1489516663
            -811508915 -360175443 -1574868363 -1082166704</internalNodes>
          <leafValues>
            -4.1445413231849670e-01 2.2102887928485870e-01</leafValues></_>
        <_>
          <internalNodes>
            0 -1 85 1247160861 1498985983 -2127222701 2032278387
            1926894510 -1097922663 2047437811 -286249440</internalNodes>
          <leafValues>
            -3.4357774257659912e-01 2.4012738466262817e-01</leafValues></_>
        <_>
          <internalNodes>
            0 -1 229 -1441717993 360445205 -709731 -1691105001
            -386200559 -7401191 -1195542339 -61610206</internalNodes>
          <leafValues>
            -2.8829184174537659e-01 2.9044964909553528e-01</leafValues></_>
        <_>
          <internalNodes>
            0 -1 232 1435456977 -1919860463 -785684008 -1785683800
            -107490887 -922838585 -1038234691 -1915993944</internalNodes>
          <leafValues>
            -2.9403328895568848e-01 2.8404951095581055e-01</leafValues></_>
        <_>
          <internalNodes>
            0 -1 175 1601532383 -4194509 -287441041 1571813203 502824269
            -1096941641 -1627513302 -198670</internalNodes>
          <leafValues>
            -2.2403697669506073e-01 3.7566670775413513e-01</leafValues></_>
        <_>
          <internalNodes>
            0 -1 190 -1561254819 46550879 -606920961 -1555395042
            -1144452931 1856919715 -1119272962 -369489932</internalNodes>
          <leafValues>
            -3.0818986892700195e-01 2.8566420078277588e-01</leafValues></_>
        <_>
          <internalNodes>
            0 -1 141 -1877899079 -1744714050 -788522812 664895882
            33600656 -336895862 -1633989496 -1327638477</internalNodes>
          <leafValues>
            -2.9698866605758667e-01 2.8076201677322388e-01</leafValues></_>
        <_>
          <internalNodes>
            0 -1 237 -1339619803 387709717 911399379 -1721746848
            -1836489115 -821862725 695348668 -841073531</internalNodes>
          <leafValues>
            -2.9707640409469604e-01 2.8761050105094910e-01</leafValues></_>
        <_>
          <internalNodes>
            0 -1 157 -802829789 -1218441882 -475336685 2021604366
            1109741243 518446751 -289583571 1006598655</internalNodes>
          <leafValues>
            -2.5803321599960327e-01 3.3660587668418884e-01</leafValues></_>
        <_>
          <internalNodes>
            0 -1 98 -1416638529 -1152966868 -315097313 -1144990274
            -2085695555 -1115930630 2145154255 -1478428877</internalNodes>
          <leafValues>
            -2.4102820456027985e-01 3.5234898328781128e-01</leafValues></_>
        <_>
          <internalNodes>
            0 -1 5 -478162770 -44345169 1425287423 602649843 536517837
            -1906348513 -1085636447 -628845626</internalNodes>
          <leafValues>
            -2.4006609618663788e-01 3.4900903701782227e-01</leafValues></_>
        <_>
          <internalNodes>
            0 -1 167 134888278 937635801 -818979335 -1653424195
            892631092 2142809973 -63098947 -1093027324</internalNodes>
          <leafValues>
            -2.7449902892112732e-01 3.1104275584220886e-01</leafValues></_>
        <_>
          <internalNodes>
            0 -1 244 -757882640 1028882878 -1625967689 2033196191
            735846546 162398727 171770296 704652680</internalNodes>
          <leafValues>
            -3.6989653110504150e-01 2.2475126385688782e-01</leafValues></_>
        <_>
          <internalNodes>
            0 -1 93 -56578883 -1452929473 1810739737 1845373227
            -1477608641 2104930175 -312736213 -502470580</internalNodes>
          <leafValues>
            -2.8997498750686646e-01 3.1424713134765625e-01</leafValues></_>
        <_>
          <internalNodes>
            0 -1 222 -1361409610 972216210 -209061070 -3227165
            1767869109 1808887527 -522552470 -249134572</internalNodes>
          <leafValues>
            -3.0415213108062744e-01 2.8809288144111633e-01</leafValues></_>
        <_>
          <internalNodes>
            0 -1 20 206656178 -1271227303 1022755896 396973845
            -353943364 450641886 1168445146 -1422933434</internalNodes>
          <leafValues>
            -2.7442377805709839e-01 3.1403860449790955e-01</leafValues></_>
        <_>
          <internalNodes>
            0 -1 57 212484469 2019364635 1241194421 532224491 753810383
            -109085192 -1644521233 -1359083232</internalNodes>
          <leafValues>
            -2.9266196489334106e-01 3.0531415343284607e-01</leafValues></_></weakClassifiers></_>
    <!-- stage 8 -->
    <_>
      <maxWeakCount>20</maxWeakCount>
      <stageThreshold>-7.4252343177795410e-01</stageThreshold>
      <weakClassifiers>
        <_>
          <internalNodes>
            0 -1 30 -284169494 -1416647796 -3145811 -1065239 1877469142
            -1375215892 -1075380233 -307232785</internalNodes>
          <leafValues>
            -1.4806111156940460e-01 5.2396464347839355e-01</leafValues></_>
        <_>
          <internalNodes>
            0 -1 106 -71829061 -1391636467 -1625624182 1629012305
            -1878387150 34275374 1225613554 84146101</internalNodes>
          <leafValues>
            -3.3481499552726746e-01 2.7212312817573547e-01</leafValues></_>
        <_>
          <internalNodes>
            0 -1 117 328304381 -1543399243 -230648596 1720049963
            -1412742978 -124108658 -978600376 -523370531</internalNodes>
          <leafValues>
            -2.9574730992317200e-01 2.6677632331848145e-01</leafValues></_>
        <_>
          <internalNodes>
            0 -1 130 -356587723 1414496677 -844384397 1737399495
            66206156 -1441103734 -1465182462 -374359923</internalNodes>
          <leafValues>
            -2.9894661903381348e-01 2.8015708923339844e-01</leafValues></_>
        <_>
          <internalNodes>
            0 -1 160 1560552962 2067312656 -846577636 -775966426
            836059472 -658980719 668748424 -575802749</internalNodes>
          <leafValues>
            -4.4093793630599976e-01 1.7453978955745697e-01</leafValues></_>
        <_>
          <internalNodes>
            0 -1 227 -1278100494 1429035389 -1870014056 -204256221
            -70618894 -1246608455 -2087920850 -1264910409</internalNodes>
          <leafValues>
            -2.8540471196174622e-01 2.7856001257896423e-01</leafValues></_>
        <_>
          <internalNodes>
            0 -1 133 -787220993 -2055137865 475724919 -1347179213
            -1260653389 -1343431432 2042478559 -1358960261</internalNodes>
          <leafValues>
            -1.5286476910114288e-01 5.0659310817718506e-01</leafValues></_>
        <_>
          <internalNodes>
            0 -1 166 -100672528 -802570966 -1099491140 -307233158
            1040179697 -1890610123 -1661569831 -477112921</internalNodes>
          <leafValues>
            -2.1602696180343628e-01 3.5837006568908691e-01</leafValues></_>
        <_>
          <internalNodes>
            0 -1 142 1159227281 1177714980 -1525398597 1171889024
            -1875271475 -746057577 -1205282814 -51110669</internalNodes>
          <leafValues>
            -3.0002290010452271e-01 2.7629214525222778e-01</leafValues></_>
        <_>
          <internalNodes>
            0 -1 191 1671686830 2122813833 -1311067616 -1085424177
            1708019746 329416879 1621847618 -36714363</internalNodes>
          <leafValues>
            -4.0324243903160095e-01 1.9822473824024200e-01</leafValues></_>
        <_>
          <internalNodes>
            0 -1 74 -1216406192 1578172699 1889022212 1603024462
            -1316252961 -1952317298 -1031565298 787253260</internalNodes>
          <leafValues>
            -4.0860226750373840e-01 2.1014705300331116e-01</leafValues></_>
        <_>
          <internalNodes>
            0 -1 239 -412952272 1211104761 2130063165 -465776785
            -684183085 -1905339409 -1883441694 -352337025</internalNodes>
          <leafValues>
            -2.4970450997352600e-01 3.4427681565284729e-01</leafValues></_>
        <_>
          <internalNodes>
            0 -1 10 -1993112562 -706097348 1082856120 1663673608
            -183596388 -1006130359 277552808 551918110</internalNodes>
          <leafValues>
            -3.1941920518875122e-01 2.5745138525962830e-01</leafValues></_>
        <_>
          <internalNodes>
            0 -1 250 569098031 1054810085 -705716945 -642138194
            -1522721904 2117447529 549360792 1320627854</internalNodes>
          <leafValues>
            -2.3994392156600952e-01 3.4288975596427917e-01</leafValues></_>
        <_>
          <internalNodes>
            0 -1 49 -1003952201 -1375793569 -1627615877 -1116145676
            -127461506 217866238 -1393291404 -337214257</internalNodes>
          <leafValues>
            -2.5213265419006348e-01 3.2271811366081238e-01</leafValues></_>
        <_>
          <internalNodes>
            0 -1 225 60135329 548373071 -2122015871 29770020 1142116357
            107371138 -496569192 1677766274</internalNodes>
          <leafValues>
            -3.7561312317848206e-01 2.2650261223316193e-01</leafValues></_>
        <_>
          <internalNodes>
            0 -1 134 -113229051 856540708 -432165107 -1726238840
            1463764910 -824127800 1867462382 -1288714834</internalNodes>
          <leafValues>
            -2.7010390162467957e-01 3.0368673801422119e-01</leafValues></_>
        <_>
          <internalNodes>
            0 -1 181 -16847478 -362747970 -1510589258 -514000878
            1349889598 -839459718 -593867298 -218771837</internalNodes>
          <leafValues>
            -2.6716911792755127e-01 3.2337027788162231e-01</leafValues></_>
        <_>
          <internalNodes>
            0 -1 89 -928529408 571005890 -1324076048 1021597586
            1756586609 174176388 777867376 120365299</internalNodes>
          <leafValues>
            -5.0394803285598755e-01 1.6992177069187164e-01</leafValues></_>
        <_>
          <internalNodes>
            0 -1 18 2022242799 941420616 -1333330902 1493778866
            -1339321433 2031632645 1623734767 750842854</internalNodes>
          <leafValues>
            -3.1317141652107239e-01 2.6268428564071655e-01</leafValues></_></weakClassifiers></_>
    <!-- stage 9 -->
    <_>
      <maxWeakCount>20</maxWeakCount>
      <stageThreshold>-9.2170929908752441e-01</stageThreshold>
      <weakClassifiers>
        <_>
          <internalNodes>
            0 -1 4 1002176494 -135282753 -19 -589826 -140509188 -458753
            -18 2130706262</internalNodes>
          <leafValues>
            -1.3446475565433502e-01 4.9373322725296021e-01</leafValues></_>
        <_>
          <internalNodes>
            0 -1 46 1137268988 271890930 -1183776578 1360388819
            -1006600005 587760899 -1476292401 345343</internalNodes>
          <leafValues>
            -3.1535854935646057e-01 2.6319700479507446e-01</leafValues></_>
        <_>
          <internalNodes>
            0 -1 100 -2140413186 730125083 341868696 144220037
            -1069497669 -90701823 1929970205 785043923</internalNodes>
          <leafValues>
            -4.6260952949523926e-01 1.6790053248405457e-01</leafValues></_>
        <_>
          <internalNodes>
            0 -1 44 1556086751 -737000137 -51503555 -80572629 -160600849
            -244951725 2055167559 -63727245</internalNodes>
          <leafValues>
            -2.1469736099243164e-01 3.6804518103599548e-01</leafValues></_>
        <_>
          <internalNodes>
            0 -1 171 822105168 -574668583 3186723 -1142078941
            -1714863912 -2138472055 1082976671 -1431658069</internalNodes>
          <leafValues>
            -4.3432423472404480e-01 1.8254925310611725e-01</leafValues></_>
        <_>
          <internalNodes>
            0 -1 86 1569551136 414636291 860294417 -1229532078
            1890691087 -458184529 -1195236715 -1091058736</internalNodes>
          <leafValues>
            -3.5982826352119446e-01 1.8687319755554199e-01</leafValues></_>
        <_>
          <internalNodes>
            0 -1 165 -631618556 605310769 -1507453796 -536457442
            -1986442998 1520048803 -1911187266 -290587656</internalNodes>
          <leafValues>
            -3.2121422886848450e-01 2.3276568949222565e-01</leafValues></_>
        <_>
          <internalNodes>
            0 -1 150 -683541178 -2144469145 -2004884194 1236138751
            -1666977825 -137740807 -973491569 -633668877</internalNodes>
          <leafValues>
            -2.3777484893798828e-01 3.1399154663085938e-01</leafValues></_>
        <_>
          <internalNodes>
            0 -1 185 -858786444 -2011545590 -652496673 -1208985436
            688461245 -360516799 1469664104 -1190135836</internalNodes>
          <leafValues>
            -2.9006385803222656e-01 2.5823867321014404e-01</leafValues></_>
        <_>
          <internalNodes>
            0 -1 194 1308614638 369031157 -285212801 -268567193
            -589996722 -1613627477 -1199641237 -154852494</internalNodes>
          <leafValues>
            -2.4457404017448425e-01 3.0905047059059143e-01</leafValues></_>
        <_>
          <internalNodes>
            0 -1 234 294778815 834753815 1438730623 907298837 613498999
            1941026958 -1843969833 134498240</internalNodes>
          <leafValues>
            -3.3743476867675781e-01 2.2366002202033997e-01</leafValues></_>
        <_>
          <internalNodes>
            0 -1 156 1906944448 408568324 295835034 63613136 -979064072
            587793032 260620232 1686654432</internalNodes>
          <leafValues>
            -6.4810246229171753e-01 1.2155171483755112e-01</leafValues></_>
        <_>
          <internalNodes>
            0 -1 138 -1067022960 862036246 1973117501 928630416
            268518032 2080800866 -2094367606 985129459</internalNodes>
          <leafValues>
            -2.9763829708099365e-01 2.5984305143356323e-01</leafValues></_>
        <_>
          <internalNodes>
            0 -1 16 -55637862 1405428906 519357491 -541868185
            -1225162066 -1439179249 -2065362811 -41955695</internalNodes>
          <leafValues>
            -2.2029314935207367e-01 3.6202320456504822e-01</leafValues></_>
        <_>
          <internalNodes>
            0 -1 231 1560803120 1309382098 -735472136 -2108976872
            -873682508 294493111 994852207 -1248427486</internalNodes>
          <leafValues>
            -2.9658189415931702e-01 2.7276170253753662e-01</leafValues></_>
        <_>
          <internalNodes>
            0 -1 60 -895441743 722522516 1611706786 -1592675567
            -1599979015 295743616 -1341119887 -1286503774</internalNodes>
          <leafValues>
            -3.2724100351333618e-01 2.5605759024620056e-01</leafValues></_>
        <_>
          <internalNodes>
            0 -1 123 -794174636 -672722720 1427610712 2128584852
            -1031177228 -1628396139 -981247927 -2146839774</internalNodes>
          <leafValues>
            -3.1171327829360962e-01 2.6115050911903381e-01</leafValues></_>
        <_>
          <internalNodes>
            0 -1 137 352416920 -1985081183 1096286484 -2053794889
            -1878814312 -2121105344 -2145906007 -822281943</internalNodes>
          <leafValues>
            -3.5681369900703430e-01 2.3707817494869232e-01</leafValues></_>
        <_>
          <internalNodes>
            0 -1 127 -805076988 -1870476020 822319572 2081792002
            -1031605069 482959626 268985274 528537219</internalNodes>
          <leafValues>
            -3.5186877846717834e-01 2.2320722043514252e-01</leafValues></_>
        <_>
          <internalNodes>
            0 -1 245 67493635 485357036 1996175157 -70260563 -654512469
            -646776349 -1918234695 -71198934</internalNodes>
          <leafValues>
            -2.1969661116600037e-01 3.8108190894126892e-01</leafValues></_></weakClassifiers></_>
    <!-- stage 10 -->
    <_>
      <maxWeakCount>23</maxWeakCount>
      <stageThreshold>-7.5383460521697998e-01</stageThreshold>
      <weakClassifiers>
        <_>
          <internalNodes>
            0 -1 40 -956631177 96190463 -131089 17034751 -59310106
            -1378615811 -256641539 -893395249</internalNodes>
          <leafValues>
            1.6498994082212448e-02 5.5732572078704834e-01</leafValues></_>
        <_>
          <internalNodes>
            0 -1 189 1945179472 -1228205812 -1060879309 -1614069741
            -360105846 -1063081792 13208618 584041778</internalNodes>
          <leafValues>
            -4.1598993539810181e-01 2.0312979817390442e-01</leafValues></_>
        <_>
          <internalNodes>
            0 -1 48 -803624518 -1717337983 -62293616 -586107655
            -1178611862 -44979913 -117114218 -100012153</internalNodes>
          <leafValues>
            -2.7256950736045837e-01 2.7468082308769226e-01</leafValues></_>
        <_>
          <internalNodes>
            0 -1 135 965799705 1385201797 -2127575058 -1762516670
            92862601 -1704851167 -1439893822 -389191695</internalNodes>
          <leafValues>
            -3.2825002074241638e-01 2.2710284590721130e-01</leafValues></_>
        <_>
          <internalNodes>
            0 -1 99 150973042 1021086654 806363496 136102485 1662944067
            -11927296 -1325299437 -92356525</internalNodes>
          <leafValues>
            -4.2951431870460510e-01 1.5958358347415924e-01</leafValues></_>
        <_>
          <internalNodes>
            0 -1 228 829496826 -1645139958 1969844255 -1366783085
            171530701 -207060877 1110908429 1246042443</internalNodes>
          <leafValues>
            -3.1409212946891785e-01 2.2537486255168915e-01</leafValues></_>
        <_>
          <internalNodes>
            0 -1 81 184204287 -624257078 620898375 330766520 1401325162
            -532471679 1463800335 -1716379792</internalNodes>
          <leafValues>
            -3.3686825633049011e-01 2.0802436769008636e-01</leafValues></_>
        <_>
          <internalNodes>
            0 -1 179 -766524800 1882436918 -1483335844 2071627890
            34202796 -1676831940 824429758 -20713001</internalNodes>
          <leafValues>
            -2.8269636631011963e-01 2.5783997774124146e-01</leafValues></_>
        <_>
          <internalNodes>
            0 -1 212 -1320204363 -601344717 -1989014028 -188563418
            456546373 -1826960356 -173663966 -123019358</internalNodes>
          <leafValues>
            -2.8601634502410889e-01 2.4827755987644196e-01</leafValues></_>
        <_>
          <internalNodes>
            0 -1 71 1513778352 151551490 -518442121 -1614262106
            144304185 38395905 803356741 1873343538</internalNodes>
          <leafValues>
            -3.3630034327507019e-01 2.2297149896621704e-01</leafValues></_>
        <_>
          <internalNodes>
            0 -1 36 1311735795 443694141 -362044289 -541163979
            -822102162 1953554346 -654541217 -730649221</internalNodes>
          <leafValues>
            -2.4585315585136414e-01 2.9911997914314270e-01</leafValues></_>
        <_>
          <internalNodes>
            0 -1 7 -161628466 -1177430605 -2072075202 1600550110
            -1938498930 -288567845 804165292 -914049779</internalNodes>
          <leafValues>
            -2.3344953358173370e-01 3.2646268606185913e-01</leafValues></_>
        <_>
          <internalNodes>
            0 -1 240 -1553063119 1318229297 -833960041 801083813
            191318886 -911441201 -1432279997 -2000882910</internalNodes>
          <leafValues>
            -2.8114435076713562e-01 2.6707538962364197e-01</leafValues></_>
        <_>
          <internalNodes>
            0 -1 144 -945623815 -198070622 -277747723 1898044195
            -1107378950 -1090519047 -318779768 1425142271</internalNodes>
          <leafValues>
            -2.3556211590766907e-01 3.2554647326469421e-01</leafValues></_>
        <_>
          <internalNodes>
            0 -1 51 -822743279 -1263698947 -16663 -17940489 1409236477
            -1241579585 -947921931 -17740444</internalNodes>
          <leafValues>
            -2.2472873330116272e-01 3.3378216624259949e-01</leafValues></_>
        <_>
          <internalNodes>
            0 -1 187 -317488120 -194291313 1086384131 -1454303659
            -768278313 -657801189 1322125827 -656833136</internalNodes>
          <leafValues>
            -2.9400351643562317e-01 2.7118316292762756e-01</leafValues></_>
        <_>
          <internalNodes>
            0 -1 199 -249578574 -201158646 -668617774 2043826312
            -787349579 1478213857 1066222493 1558563645</internalNodes>
          <leafValues>
            -2.9842594265937805e-01 2.7539730072021484e-01</leafValues></_>
        <_>
          <internalNodes>
            0 -1 13 -869842776 -1610510138 1079529472 -1962757633
            -1859572577 416090230 680650410 -2004313072</internalNodes>
          <leafValues>
            -3.3988150954246521e-01 2.2110164165496826e-01</leafValues></_>
        <_>
          <internalNodes>
            0 -1 177 36876751 760790993 1341115195 1071406891 208567227
            -1125517379 1610565967 -290586717</internalNodes>
          <leafValues>
            -2.0047920942306519e-01 4.0047672390937805e-01</leafValues></_>
        <_>
          <internalNodes>
            0 -1 249 204408738 -1237477661 -37799208 -697435865
            -1068435766 1861245819 1156738888 -1147496798</internalNodes>
          <leafValues>
            -2.5610306859016418e-01 3.0755478143692017e-01</leafValues></_>
        <_>
          <internalNodes>
            0 -1 90 1738074955 -176455720 2143043571 786980205
            2104197087 -9797828 -138496661 -560082998</internalNodes>
          <leafValues>
            -2.1928335726261139e-01 3.5955667495727539e-01</leafValues></_>
        <_>
          <internalNodes>
            0 -1 213 1816106383 1705852845 -822202715 -1409450118
            -14857081 -595609757 -994154177 -334902526</internalNodes>
          <leafValues>
            -2.3493465781211853e-01 3.4805959463119507e-01</leafValues></_>
        <_>
          <internalNodes>
            0 -1 158 1364445892 1523771518 448802534 1135061818
            -615590792 -1669935187 -1632197538 -1158459921</internalNodes>
          <leafValues>
            -2.6370969414710999e-01 2.9785212874412537e-01</leafValues></_></weakClassifiers></_>
    <!-- stage 11 -->
    <_>
      <maxWeakCount>22</maxWeakCount>
      <stageThreshold>-7.4657416343688965e-01</stageThreshold>
      <weakClassifiers>
        <_>
          <internalNodes>
            0 -1 126 606105344 -1691160699 -808563437 -1918439677
            1606301224 -70254594 1006624987 -1714621330</internalNodes>
          <leafValues>
            -2.0383274555206299e-01 4.6042868494987488e-01</leafValues></_>
        <_>
          <internalNodes>
            0 -1 97 -539520033 -679608355 -302418444 -167911471
            -1563886882 -269221938 -266797226 1499154265</internalNodes>
          <leafValues>
            -2.3629517853260040e-01 3.2077291607856750e-01</leafValues></_>
        <_>
          <internalNodes>
            0 -1 33 1464252414 -720438306 151061523 1562640524
            -2146205222 -350236662 65760 -1525841381</internalNodes>
          <leafValues>
            -3.2868266105651855e-01 2.3455977439880371e-01</leafValues></_>
        <_>
          <internalNodes>
            0 -1 80 -1575752962 -1332126917 -2095338021 173437760
            1795267969 -1456209696 -74878464 -1533367160</internalNodes>
          <leafValues>
            -4.0999335050582886e-01 1.7946234345436096e-01</leafValues></_>
        <_>
          <internalNodes>
            0 -1 193 -212626688 -735850236 -975990735 -1181417183
            571538088 -82786016 -1307311046 -11184106</internalNodes>
          <leafValues>
            -2.9012882709503174e-01 2.3785835504531860e-01</leafValues></_>
        <_>
          <internalNodes>
            0 -1 58 201389536 -616513040 -713549483 -1319587364
            -498082664 2070454384 -1717370890 -1603241103</internalNodes>
          <leafValues>
            -3.5036379098892212e-01 1.8496301770210266e-01</leafValues></_>
        <_>
          <internalNodes>
            0 -1 3 1183489578 -719722932 2026009034 -2027049788
            1269402064 -759714158 -146667508 180889600</internalNodes>
          <leafValues>
            -3.6811831593513489e-01 2.0264242589473724e-01</leafValues></_>
        <_>
          <internalNodes>
            0 -1 91 -269029431 -101756977 2067246843 1838938715
            2133196798 -8601601 2147330043 -38797320</internalNodes>
          <leafValues>
            -1.7283560335636139e-01 4.4551607966423035e-01</leafValues></_>
        <_>
          <internalNodes>
            0 -1 238 -1823999741 -1787729947 -989888625 52643732
            -396583161 -1141393886 -20928597 -1080478789</internalNodes>
          <leafValues>
            -1.8678501248359680e-01 4.0551981329917908e-01</leafValues></_>
        <_>
          <internalNodes>
            0 -1 122 218773436 184590593 -1756556865 2078735062
            -1660229833 -603809097 -1808739022 -869306117</internalNodes>
          <leafValues>
            -2.6826491951942444e-01 2.7536955475807190e-01</leafValues></_>
        <_>
          <internalNodes>
            0 -1 178 -816787809 -34472265 1339944205 1610604355
            -1930044257 -554262602 1557982347 -86182413</internalNodes>
          <leafValues>
            -1.6935031116008759e-01 4.0789481997489929e-01</leafValues></_>
        <_>
          <internalNodes>
            0 -1 23 1745724060 -1891165095 1904431476 -816768960
            1664181079 1787674659 -261916721 -819011450</internalNodes>
          <leafValues>
            -3.4371200203895569e-01 2.1995644271373749e-01</leafValues></_>
        <_>
          <internalNodes>
            0 -1 180 -764482804 -992763822 1930463680 4378780 1225059208
            -169869028 -876305730 -84154473</internalNodes>
          <leafValues>
            -2.7510398626327515e-01 2.7187818288803101e-01</leafValues></_>
        <_>
          <internalNodes>
            0 -1 162 1499187964 1402061334 -1995296708 -1560180218
            -1960644340 -1291706360 186835546 -50468307</internalNodes>
          <leafValues>
            -2.8792110085487366e-01 2.6059266924858093e-01</leafValues></_>
        <_>
          <internalNodes>
            0 -1 25 1249726666 1447955833 -1375748917 -143550999
            1224503708 2073811961 -277772832 2042485181</internalNodes>
          <leafValues>
            -2.6085302233695984e-01 2.7643942832946777e-01</leafValues></_>
        <_>
          <internalNodes>
            0 -1 105 83501946 979283359 912326793 1957753830 -1555602995
            -1465266130 -1274409377 -77821872</internalNodes>
          <leafValues>
            -3.4278708696365356e-01 2.2394651174545288e-01</leafValues></_>
        <_>
          <internalNodes>
            0 -1 211 -234498249 268968161 -2091543971 23920651
            -738115584 2086219792 -388473841 1219499042</internalNodes>
          <leafValues>
            -3.8453716039657593e-01 1.8514175713062286e-01</leafValues></_>
        <_>
          <internalNodes>
            0 -1 197 -25725776 -1341681141 -1860486934 1929443354
            1757633788 139889357 -124107895 1100063425</internalNodes>
          <leafValues>
            -3.4628227353096008e-01 2.1827498078346252e-01</leafValues></_>
        <_>
          <internalNodes>
            0 -1 235 -974793633 -31858818 1247755334 2003824999
            -1437491029 -1210606658 -963461463 -1174197669</internalNodes>
          <leafValues>
            -1.8856838345527649e-01 4.1906422376632690e-01</leafValues></_>
        <_>
          <internalNodes>
            0 -1 159 1610798543 -587174144 386877201 2031330942
            1919390127 -1309696085 1853584731 -836780188</internalNodes>
          <leafValues>
            -2.1462881565093994e-01 3.5617253184318542e-01</leafValues></_>
        <_>
          <internalNodes>
            0 -1 121 483152320 1476956563 -921075430 850561080 545797729
            983320577 -1597951892 807789559</internalNodes>
          <leafValues>
            -3.9551144838333130e-01 2.0018550753593445e-01</leafValues></_>
        <_>
          <internalNodes>
            0 -1 75 -2079980532 402845697 -989621887 -543317109
            -2096496250 -1214114158 1049057653 -1711984781</internalNodes>
          <leafValues>
            -3.8315048813819885e-01 1.9683390855789185e-01</leafValues></_></weakClassifiers></_>
    <!-- stage 12 -->
    <_>
      <maxWeakCount>23</maxWeakCount>
      <stageThreshold>-7.1798682212829590e-01</stageThreshold>
      <weakClassifiers>
        <_>
          <internalNodes>
            0 -1 21 133676927 150613822 -67112988 298909310 -155389967
            15433597 -1090584710 1172307270</internalNodes>
          <leafValues>
            -1.2627986073493958e-01 4.8180815577507019e-01</leafValues></_>
        <_>
          <internalNodes>
            0 -1 84 1494439901 34604556 -615244336 -104008495 1612208264
            268435488 818084986 151639831</internalNodes>
          <leafValues>
            -2.9256099462509155e-01 2.6409855484962463e-01</leafValues></_>
        <_>
          <internalNodes>
            0 -1 139 -342579791 300815063 -1281898561 -1151958110
            2388173 329973866 1856546822 -1715604827</internalNodes>
          <leafValues>
            -2.6880127191543579e-01 2.7429449558258057e-01</leafValues></_>
        <_>
          <internalNodes>
            0 -1 221 219645748 1063170207 428162483 -1213598634
            560990292 -65306089 -1058552708 -1493856541</internalNodes>
          <leafValues>
            -3.3333468437194824e-01 2.2479148209095001e-01</leafValues></_>
        <_>
          <internalNodes>
            0 -1 218 -688813318 -1285039499 1882915314 -1116750989
            -772350890 -1615776902 -352339241 -335814793</internalNodes>
          <leafValues>
            -1.9873121380805969e-01 3.3974710106849670e-01</leafValues></_>
        <_>
          <internalNodes>
            0 -1 132 1373247602 842927043 73590962 12619944 -661598056
            -1732374391 -1601128308 -1367419009</internalNodes>
          <leafValues>
            -3.8966226577758789e-01 1.7366293072700500e-01</leafValues></_>
        <_>
          <internalNodes>
            0 -1 216 -403832025 210262371 -1785343557 -298864017
            -1710337488 645960339 -1120280609 -531236117</internalNodes>
          <leafValues>
            -2.8120794892311096e-01 2.4634496867656708e-01</leafValues></_>
        <_>
          <internalNodes>
            0 -1 183 2144861666 2013134639 -330629 -1146774655
            -708449052 -993067329 -941686865 -919339757</internalNodes>
          <leafValues>
            -2.1255700290203094e-01 3.4397798776626587e-01</leafValues></_>
        <_>
          <internalNodes>
            0 -1 151 -1253506 -1408304383 -268567814 -1098645649
            -86320139 -1376944281 -2031370290 -54034851</internalNodes>
          <leafValues>
            -1.9040790200233459e-01 3.6163210868835449e-01</leafValues></_>
        <_>
          <internalNodes>
            0 -1 170 278073458 -1626641591 222306482 -726257661
            1082863806 1912621226 1556829387 -1682712198</internalNodes>
          <leafValues>
            -3.6756014823913574e-01 2.0201550424098969e-01</leafValues></_>
        <_>
          <internalNodes>
            0 -1 119 1785606140 681914045 -1380995330 -1095001078
            -1395913139 -504660235 -1095043282 -26225396</internalNodes>
          <leafValues>
            -2.5427863001823425e-01 2.8517314791679382e-01</leafValues></_>
        <_>
          <internalNodes>
            0 -1 149 1197592227 1205726453 -1371899089 1891068989
            -919934234 1582470505 1323363739 -614231373</internalNodes>
          <leafValues>
            -2.0059300959110260e-01 3.6529788374900818e-01</leafValues></_>
        <_>
          <internalNodes>
            0 -1 88 -199184484 -268282920 936811371 -76807004 1779441709
            530039206 404779592 2123069796</internalNodes>
          <leafValues>
            -2.9608848690986633e-01 2.5126674771308899e-01</leafValues></_>
        <_>
          <internalNodes>
            0 -1 56 1541495830 -1131382599 269812510 1991655130
            -1870397421 1829767243 -1698168819 1720789010</internalNodes>
          <leafValues>
            -3.7476119399070740e-01 1.8927428126335144e-01</leafValues></_>
        <_>
          <internalNodes>
            0 -1 17 -50340385 1429411129 -1494471374 -4492069 184483282
            -121710113 -1600747841 -369110869</internalNodes>
          <leafValues>
            -1.5568035840988159e-01 5.0945174694061279e-01</leafValues></_>
        <_>
          <internalNodes>
            0 -1 110 2104570258 759245569 1496404438 1433482504
            1611622072 966983943 -2400154 88207667</internalNodes>
          <leafValues>
            -3.6981004476547241e-01 2.2195284068584442e-01</leafValues></_>
        <_>
          <internalNodes>
            0 -1 148 -1942978441 1599675828 -1556087689 -469960780
            -1315823887 -1152060046 1031335084 -201596167</internalNodes>
          <leafValues>
            -2.2049954533576965e-01 3.4988346695899963e-01</leafValues></_>
        <_>
          <internalNodes>
            0 -1 145 -1494295568 -562036764 -274412111 -47982774
            -553884021 -16842951 -1666409501 -1460538493</internalNodes>
          <leafValues>
            -2.5166729092597961e-01 3.0207154154777527e-01</leafValues></_>
        <_>
          <internalNodes>
            0 -1 120 -831869569 876608803 -1545142097 -1268453551
            -1896125313 671084414 -861574710 -55581209</internalNodes>
          <leafValues>
            -1.8491013348102570e-01 4.1827592253684998e-01</leafValues></_>
        <_>
          <internalNodes>
            0 -1 246 -638073578 674431302 1294622940 -1064870177
            -1735742298 -1800320857 972045848 -274430336</internalNodes>
          <leafValues>
            -2.8258731961250305e-01 2.7879327535629272e-01</leafValues></_>
        <_>
          <internalNodes>
            0 -1 112 -466442314 -1108317420 1104033992 -1227444038
            413987515 -1634085501 -1459470314 -324016121</internalNodes>
          <leafValues>
            -2.7173960208892822e-01 2.7105265855789185e-01</leafValues></_>
        <_>
          <internalNodes>
            0 -1 230 -1823332828 -1676704421 -1061016900 268585047
            -395753819 -1928822332 -2112929455 431439477</internalNodes>
          <leafValues>
            -4.3111988902091980e-01 1.8607202172279358e-01</leafValues></_>
        <_>
          <internalNodes>
            0 -1 8 -1951554038 445622418 -2104457950 -1996479831
            -1019172438 -124640622 3841253 210542788</internalNodes>
          <leafValues>
            -4.1430413722991943e-01 1.9246464967727661e-01</leafValues></_></weakClassifiers></_>
    <!-- stage 13 -->
    <_>
      <maxWeakCount>23</maxWeakCount>
      <stageThreshold>-6.8222129344940186e-01</stageThreshold>
      <weakClassifiers>
        <_>
          <internalNodes>
            0 -1 55 171402615 272371506 1803104237 33565732 1039888359
            1083637235 -59318403 540045616</internalNodes>
          <leafValues>
            -2.2807016968727112e-01 4.4913551211357117e-01</leafValues></_>
        <_>
          <internalNodes>
            0 -1 209 1353993100 -502688661 306695925 -1215748897
            317675799 -349860465 -68453264 -76552601</internalNodes>
          <leafValues>
            -3.6756366491317749e-01 2.1749489009380341e-01</leafValues></_>
        <_>
          <internalNodes>
            0 -1 114 117101977 -1646619983 1382011772 2079788706 1150877
            142803675 -1903410450 -1090685323</internalNodes>
          <leafValues>
            -2.7480652928352356e-01 2.5729265809059143e-01</leafValues></_>
        <_>
          <internalNodes>
            0 -1 47 -585900038 830771208 -133035586 298440863
            -1039957445 -1995341525 -1173050663 -937625362</internalNodes>
          <leafValues>
            -2.9359623789787292e-01 2.3739200830459595e-01</leafValues></_>
        <_>
          <internalNodes>
            0 -1 128 1846963127 -1919594569 -269516619 -1761628377
            -196565569 -1241522177 -1695024964 -811729164</internalNodes>
          <leafValues>
            -1.7578400671482086e-01 3.8040804862976074e-01</leafValues></_>
        <_>
          <internalNodes>
            0 -1 104 -1878670375 1091579905 1320341642 -55454091
            281156496 -1006632960 2101137598 1124752807</internalNodes>
          <leafValues>
            -3.2115995883941650e-01 2.0194226503372192e-01</leafValues></_>
        <_>
          <internalNodes>
            0 -1 63 -1400650296 235882847 19869971 -790529267 673683
            -1901518693 -1342060009 -1157100534</internalNodes>
          <leafValues>
            -3.7080794572830200e-01 1.8000227212905884e-01</leafValues></_>
        <_>
          <internalNodes>
            0 -1 202 1625801725 1562587826 -1612727299 -885967288
            1777356024 -1100302987 -906338820 1572330652</internalNodes>
          <leafValues>
            -2.3682354390621185e-01 2.8182741999626160e-01</leafValues></_>
        <_>
          <internalNodes>
            0 -1 242 1147523883 -2093040193 -9618053 2105126703
            -599473140 1816615961 -958224225 -556471509</internalNodes>
          <leafValues>
            -1.9484928250312805e-01 3.4823906421661377e-01</leafValues></_>
        <_>
          <internalNodes>
            0 -1 111 1572267838 -459996160 -447733729 -472845904
            2091962878 2038562947 -402558224 -437984941</internalNodes>
          <leafValues>
            -2.4415741860866547e-01 2.8759670257568359e-01</leafValues></_>
        <_>
          <internalNodes>
            0 -1 247 -976753666 -584570503 1023389245 335208046
            -1501329232 -1828991048 254542849 195014058</internalNodes>
          <leafValues>
            -2.1077597141265869e-01 3.2741004228591919e-01</leafValues></_>
        <_>
          <internalNodes>
            0 -1 220 -1879753468 406434827 1074308367 228163687
            744768189 -528203750 1162746857 718343504</internalNodes>
          <leafValues>
            -4.3215379118919373e-01 1.6347514092922211e-01</leafValues></_>
        <_>
          <internalNodes>
            0 -1 22 -781929507 365445251 300646873 459021755 34128074
            987103712 -813395958 465957032</internalNodes>
          <leafValues>
            -2.7318581938743591e-01 2.5212654471397400e-01</leafValues></_>
        <_>
          <internalNodes>
            0 -1 108 -228655690 758465877 1142376876 546446217 12628714
            1217432725 -2036315486 1721912531</internalNodes>
          <leafValues>
            -3.4573996067047119e-01 2.0872738957405090e-01</leafValues></_>
        <_>
          <internalNodes>
            0 -1 0 2115930330 1663746830 -532605794 -460615655
            -796262251 1926460050 172746813 1120416460</internalNodes>
          <leafValues>
            -3.2633423805236816e-01 2.1677067875862122e-01</leafValues></_>
        <_>
          <internalNodes>
            0 -1 188 -1032262252 -299456553 45755667 -1876082764
            1704639900 -1230438792 703929534 -1086333477</internalNodes>
          <leafValues>
            -2.1256653964519501e-01 3.3718252182006836e-01</leafValues></_>
        <_>
          <internalNodes>
            0 -1 131 -252183785 -239358043 2059331510 -1100323409
            -931212083 -823050249 -655471393 -1573141</internalNodes>
          <leafValues>
            -1.4261646568775177e-01 4.7860780358314514e-01</leafValues></_>
        <_>
          <internalNodes>
            0 -1 45 -981273332 -1391896180 83972354 53984642 545325056
            529436811 16908553 857378867</internalNodes>
          <leafValues>
            -3.4137049317359924e-01 2.2585707902908325e-01</leafValues></_>
        <_>
          <internalNodes>
            0 -1 140 1356737104 741869193 -533190421 -811326716
            -1604007795 -1181204871 -1979798785 800767933</internalNodes>
          <leafValues>
            -3.4314337372779846e-01 2.0329555869102478e-01</leafValues></_>
        <_>
          <internalNodes>
            0 -1 226 984575362 44179650 1076710873 115347547 -2104463102
            915925428 -1278159418 40898848</internalNodes>
          <leafValues>
            -4.6177652478218079e-01 1.5276511013507843e-01</leafValues></_>
        <_>
          <internalNodes>
            0 -1 38 142363840 2021795835 1981561306 1010222983 -90546327
            1591972519 -1967646368 -1599288130</internalNodes>
          <leafValues>
            -3.2209616899490356e-01 2.1800152957439423e-01</leafValues></_>
        <_>
          <internalNodes>
            0 -1 164 -1845328936 1073741843 151736809 -2120588830
            -109016162 466977 865889106 59003633</internalNodes>
          <leafValues>
            -3.7855267524719238e-01 1.9819751381874084e-01</leafValues></_>
        <_>
          <internalNodes>
            0 -1 107 581380479 1318100255 -370663401 -354261872
            -1843147787 -1085044343 -1934000047 -128546716</internalNodes>
          <leafValues>
            -3.1556949019432068e-01 2.4470232427120209e-01</leafValues></_></weakClassifiers></_>
    <!-- stage 14 -->
    <_>
      <maxWeakCount>23</maxWeakCount>
      <stageThreshold>-7.0397907495498657e-01</stageThreshold>
      <weakClassifiers>
        <_>
          <internalNodes>
            0 -1 6 539684334 -1523716531 -1804011523 -974197169
            -687088133 -1940959748 1014300041 -2044425070</internalNodes>
          <leafValues>
            -1.0996118932962418e-01 4.8720252513885498e-01</leafValues></_>
        <_>
          <internalNodes>
            0 -1 205 387120383 917556419 -2003826481 785288003
            1208971809 1208568006 268829943 736414804</internalNodes>
          <leafValues>
            -3.0982583761215210e-01 2.3341475427150726e-01</leafValues></_>
        <_>
          <internalNodes>
            0 -1 62 -277921836 -733525567 -787851940 -1311109155
            1107673703 10094760 556774345 -6382756</internalNodes>
          <leafValues>
            -3.6911880970001221e-01 1.9242182374000549e-01</leafValues></_>
        <_>
          <internalNodes>
            0 -1 54 1357902588 -918291198 491069766 82301086 1
            -2147479420 -1610317483 402718927</internalNodes>
          <leafValues>
            -3.5881018638610840e-01 1.8379394710063934e-01</leafValues></_>
        <_>
          <internalNodes>
            0 -1 223 5261172 -1454714669 -1874618917 -988755699
            -485864955 2025103394 -121769121 988819014</internalNodes>
          <leafValues>
            -3.3778992295265198e-01 1.8921720981597900e-01</leafValues></_>
        <_>
          <internalNodes>
            0 -1 116 -2083334991 838074169 1803398637 -272648190
            -570917699 -589627401 -131845 -87189513</internalNodes>
          <leafValues>
            -1.8625487387180328e-01 3.5617679357528687e-01</leafValues></_>
        <_>
          <internalNodes>
            0 -1 1 -903026434 -1466702655 17007852 -368999750
            -1882378224 -792686456 2109410190 -1999857959</internalNodes>
          <leafValues>
            -2.8775247931480408e-01 2.3149967193603516e-01</leafValues></_>
        <_>
          <internalNodes>
            0 -1 11 -961569622 1418138844 -2042602166 2132955447
            -385441606 -814397246 269529787 475077087</internalNodes>
          <leafValues>
            -2.7854275703430176e-01 2.4149611592292786e-01</leafValues></_>
        <_>
          <internalNodes>
            0 -1 101 2062872718 -1313815505 1947492668 248025428
            286990602 1003753602 814809139 550917044</internalNodes>
          <leafValues>
            -4.6647337079048157e-01 1.3714341819286346e-01</leafValues></_>
        <_>
          <internalNodes>
            0 -1 39 319798712 -1152728993 688017939 -7596077 -351689559
            503581464 -661853611 -1910221070</internalNodes>
          <leafValues>
            -2.7377173304557800e-01 2.4518407881259918e-01</leafValues></_>
        <_>
          <internalNodes>
            0 -1 42 550145407 329451792 -1731077628 1803670196
            1815532408 812385537 770949196 -936160923</internalNodes>
          <leafValues>
            -2.9432755708694458e-01 2.2290970385074615e-01</leafValues></_>
        <_>
          <internalNodes>
            0 -1 200 -276900270 1403693920 1727527726 -209158518
            473904245 267974380 -142607921 725347784</internalNodes>
          <leafValues>
            -2.5712594389915466e-01 2.7116793394088745e-01</leafValues></_>
        <_>
          <internalNodes>
            0 -1 204 -1899363324 1822263694 -1031009346 538184107
            -1201978884 789014690 -1180614884 -1108809196</internalNodes>
          <leafValues>
            -3.4456408023834229e-01 2.0493045449256897e-01</leafValues></_>
        <_>
          <internalNodes>
            0 -1 118 -1604150260 -2107415452 823822496 971490504
            1656816077 -1063646747 -389323187 1606403840</internalNodes>
          <leafValues>
            -2.9532006382942200e-01 2.3711587488651276e-01</leafValues></_>
        <_>
          <internalNodes>
            0 -1 243 1852836151 -232542209 -1325526093 -721973841
            -439824707 -1638057026 -1698955381 -906379350</internalNodes>
          <leafValues>
            -1.8752296268939972e-01 3.9497432112693787e-01</leafValues></_>
        <_>
          <internalNodes>
            0 -1 68 -385623051 -1391320443 1922603466 -1069168275
            -215244047 1543504514 1154838490 1758069895</internalNodes>
          <leafValues>
            -2.9023560881614685e-01 2.5148579478263855e-01</leafValues></_>
        <_>
          <internalNodes>
            0 -1 179 -892670778 1901793084 847961616 -1436602718
            889998730 894262797 -1209037714 -3170274</internalNodes>
          <leafValues>
            -2.4681657552719116e-01 2.9447025060653687e-01</leafValues></_>
        <_>
          <internalNodes>
            0 -1 24 1917050978 1842216244 -578226924 -1056899068
            1874004737 -1088802639 724587777 -1951270474</internalNodes>
          <leafValues>
            -3.2577347755432129e-01 2.2429041564464569e-01</leafValues></_>
        <_>
          <internalNodes>
            0 -1 208 -1028471040 286270999 -2063365197 1468154499
            547226281 -365979106 553652380 1006041362</internalNodes>
          <leafValues>
            -3.0171856284141541e-01 2.4972489476203918e-01</leafValues></_>
        <_>
          <internalNodes>
            0 -1 248 -589471995 1962896218 -50876642 -680615957 6780804
            1098771273 -1714094627 -642342096</internalNodes>
          <leafValues>
            -2.3268568515777588e-01 3.1918522715568542e-01</leafValues></_>
        <_>
          <internalNodes>
            0 -1 227 2060532146 -1663159206 -2054481676 -607889126
            -776872464 73401476 -1014317962 -1877868244</internalNodes>
          <leafValues>
            -3.2647144794464111e-01 2.1797408163547516e-01</leafValues></_>
        <_>
          <internalNodes>
            0 -1 14 1561067430 -875875395 -1472057154 708896206
            1345339386 292649257 848499902 -557102460</internalNodes>
          <leafValues>
            -2.7216628193855286e-01 2.7493649721145630e-01</leafValues></_>
        <_>
          <internalNodes>
            0 -1 168 1220746803 -381545981 1412039408 -978972229
            948114039 1009304595 -1853029788 632206407</internalNodes>
          <leafValues>
            -3.5247743129730225e-01 2.1973688900470734e-01</leafValues></_></weakClassifiers></_></stages>
  <features>
    <_>
      <rect>
        0 0 2 7</rect></_>
    <_>
      <rect>
        0 2 1 4</rect></_>
    <_>
      <rect>
        0 3 10 9</rect></_>
    <_>
      <rect>
        0 4 2 6</rect></_>
    <_>
      <rect>
        0 4 10 7</rect></_>
    <_>
      <rect>
        0 7 2 4</rect></_>
    <_>
      <rect>
        0 8 8 3</rect></_>
    <_>
      <rect>
        0 10 2 2</rect></_>
    <_>
      <rect>
        0 10 2 4</rect></_>
    <_>
      <rect>
        0 11 2 2</rect></_>
    <_>
      <rect>
        0 11 3 3</rect></_>
    <_>
      <rect>
        0 12 4 4</rect></_>
    <_>
      <rect>
        0 12 9 6</rect></_>
    <_>
      <rect>
        0 13 3 3</rect></_>
    <_>
      <rect>
        0 14 2 2</rect></_>
    <_>
      <rect>
        1 9 8 7</rect></_>
    <_>
      <rect>
        1 11 2 3</rect></_>
    <_>
      <rect>
        1 14 3 4</rect></_>
    <_>
      <rect>
        1 19 8 3</rect></_>
    <_>
      <rect>
        2 7 9 4</rect></_>
    <_>
      <rect>
        2 12 2 3</rect></_>
    <_>
      <rect>
        2 12 5 3</rect></_>
    <_>
      <rect>
        2 14 3 5</rect></_>
    <_>
      <rect>
        3 1 6 7</rect></_>
    <_>
      <rect>
        3 6 6 4</rect></_>
    <_>
      <rect>
        3 13 2 4</rect></_>
    <_>
      <rect>
        3 16 6 3</rect></_>
    <_>
      <rect>
        4 7 8 5</rect></_>
    <_>
      <rect>
        4 10 3 4</rect></_>
    <_>
      <rect>
        5 2 6 9</rect></_>
    <_>
      <rect>
        5 3 6 6</rect></_>
    <_>
      <rect>
        5 5 7 7</rect></_>
    <_>
      <rect>
        5 6 6 5</rect></_>
    <_>
      <rect>
        5 10 4 6</rect></_>
    <_>
      <rect>
        5 11 7 3</rect></_>
    <_>
      <rect>
        5 12 3 3</rect></_>
    <_>
      <rect>
        5 13 2 2</rect></_>
    <_>
      <rect>
        5 14 5 3</rect></_>
    <_>
      <rect>
        5 19 1 1</rect></_>
    <_>
      <rect>
        5 21 5 3</rect></_>
    <_>
      <rect>
        6 6 3 6</rect></_>
    <_>
      <rect>
        6 7 3 4</rect></_>
    <_>
      <rect>
        6 9 2 4</rect></_>
    <_>
      <rect>
        6 11 8 3</rect></_>
    <_>
      <rect>
        6 12 2 3</rect></_>
    <_>
      <rect>
        6 12 4 4</rect></_>
    <_>
      <rect>
        6 16 5 3</rect></_>
    <_>
      <rect>
        6 17 5 2</rect></_>
    <_>
      <rect>
        6 18 7 4</rect></_>
    <_>
      <rect>
        7 2 4 4</rect></_>
    <_>
      <rect>
        7 6 3 5</rect></_>
    <_>
      <rect>
        7 9 3 2</rect></_>
    <_>
      <rect>
        7 10 2 2</rect></_>
    <_>
      <rect>
        7 12 2 4</rect></_>
    <_>
      <rect>
        7 12 4 5</rect></_>
    <_>
      <rect>
        7 13 2 3</rect></_>
    <_>
      <rect>
        7 17 3 2</rect></_>
    <_>
      <rect>
        7 22 1 2</rect></_>
    <_>
      <rect>
        7 24 3 2</rect></_>
    <_>
      <rect>
        8 3 2 8</rect></_>
    <_>
      <rect>
        8 3 4 4</rect></_>
    <_>
      <rect>
        8 5 4 3</rect></_>
    <_>
      <rect>
        8 5 7 8</rect></_>
    <_>
      <rect>
        8 7 7 5</rect></_>
    <_>
      <rect>
        8 10 2 1</rect></_>
    <_>
      <rect>
        8 13 4 3</rect></_>
    <_>
      <rect>
        8 16 2 2</rect></_>
    <_>
      <rect>
        8 17 4 3</rect></_>
    <_>
      <rect>
        8 17 5 3</rect></_>
    <_>
      <rect>
        8 17 5 4</rect></_>
    <_>
      <rect>
        8 20 6 3</rect></_>
    <_>
      <rect>
        8 23 4 2</rect></_>
    <_>
      <rect>
        8 24 3 2</rect></_>
    <_>
      <rect>
        9 6 3 3</rect></_>
    <_>
      <rect>
        9 6 7 6</rect></_>
    <_>
      <rect>
        9 8 1 3</rect></_>
    <_>
      <rect>
        9 9 2 1</rect></_>
    <_>
      <rect>
        9 9 2 2</rect></_>
    <_>
      <rect>
        9 10 1 1</rect></_>
    <_>
      <rect>
        9 10 1 2</rect></_>
    <_>
      <rect>
        9 10 2 2</rect></_>
    <_>
      <rect>
        9 11 1 4</rect></_>
    <_>
      <rect>
        9 11 3 1</rect></_>
    <_>
      <rect>
        9 11 3 3</rect></_>
    <_>
      <rect>
        9 14 5 5</rect></_>
    <_>
      <rect>
        9 15 1 3</rect></_>
    <_>
      <rect>
        9 17 2 2</rect></_>
    <_>
      <rect>
        9 19 1 1</rect></_>
    <_>
      <rect>
        9 24 3 2</rect></_>
    <_>
      <rect>
        9 25 3 1</rect></_>
    <_>
      <rect>
        10 1 6 6</rect></_>
    <_>
      <rect>
        10 3 6 5</rect></_>
    <_>
      <rect>
        10 6 6 6</rect></_>
    <_>
      <rect>
        10 7 3 2</rect></_>
    <_>
      <rect>
        10 7 3 5</rect></_>
    <_>
      <rect>
        10 7 5 5</rect></_>
    <_>
      <rect>
        10 8 5 4</rect></_>
    <_>
      <rect>
        10 10 6 6</rect></_>
    <_>
      <rect>
        10 11 1 2</rect></_>
    <_>
      <rect>
        10 11 2 2</rect></_>
    <_>
      <rect>
        10 12 2 2</rect></_>
    <_>
      <rect>
        10 12 2 3</rect></_>
    <_>
      <rect>
        10 12 4 6</rect></_>
    <_>
      <rect>
        10 13 4 4</rect></_>
    <_>
      <rect>
        10 15 4 4</rect></_>
    <_>
      <rect>
        10 16 1 2</rect></_>
    <_>
      <rect>
        10 17 4 4</rect></_>
    <_>
      <rect>
        10 18 1 1</rect></_>
    <_>
      <rect>
        10 19 3 2</rect></_>
    <_>
      <rect>
        10 20 1 1</rect></_>
    <_>
      <rect>
        10 20 5 3</rect></_>
    <_>
      <rect>
        11 8 3 2</rect></_>
    <_>
      <rect>
        11 12 1 1</rect></_>
    <_>
      <rect>
        11 12 2 2</rect></_>
    <_>
      <rect>
        11 12 3 3</rect></_>
    <_>
      <rect>
        11 12 3 4</rect></_>
    <_>
      <rect>
        11 13 3 2</rect></_>
    <_>
      <rect>
        11 14 2 2</rect></_>
    <_>
      <rect>
        11 16 1 1</rect></_>
    <_>
      <rect>
        11 17 1 1</rect></_>
    <_>
      <rect>
        11 17 3 3</rect></_>
    <_>
      <rect>
        11 19 2 1</rect></_>
    <_>
      <rect>
        11 22 3 2</rect></_>
    <_>
      <rect>
        11 24 3 2</rect></_>
    <_>
      <rect>
        12 8 3 4</rect></_>
    <_>
      <rect>
        12 10 2 4</rect></_>
    <_>
      <rect>
        12 10 3 2</rect></_>
    <_>
      <rect>
        12 11 2 1</rect></_>
    <_>
      <rect>
        12 11 3 2</rect></_>
    <_>
      <rect>
        12 11 3 3</rect></_>
    <_>
      <rect>
        12 11 4 3</rect></_>
    <_>
      <rect>
        12 12 1 1</rect></_>
    <_>
      <rect>
        12 12 1 2</rect></_>
    <_>
      <rect>
        12 12 1 3</rect></_>
    <_>
      <rect>
        12 12 2 1</rect></_>
    <_>
      <rect>
        12 12 3 3</rect></_>
    <_>
      <rect>
        12 12 5 2</rect></_>
    <_>
      <rect>
        12 13 1 3</rect></_>
    <_>
      <rect>
        12 13 2 1</rect></_>
    <_>
      <rect>
        12 13 3 2</rect></_>
    <_>
      <rect>
        12 14 1 1</rect></_>
    <_>
      <rect>
        12 14 2 2</rect></_>
    <_>
      <rect>
        12 14 3 2</rect></_>
    <_>
      <rect>
        12 15 2 1</rect></_>
    <_>
      <rect>
        12 15 2 2</rect></_>
    <_>
      <rect>
        12 15 3 2</rect></_>
    <_>
      <rect>
        12 16 2 2</rect></_>
    <_>
      <rect>
        12 21 5 2</rect></_>
    <_>
      <rect>
        12 26 1 1</rect></_>
    <_>
      <rect>
        13 0 4 4</rect></_>
    <_>
      <rect>
        13 6 3 2</rect></_>
    <_>
      <rect>
        13 7 3 2</rect></_>
    <_>
      <rect>
        13 9 2 3</rect></_>
    <_>
      <rect>
        13 10 1 1</rect></_>
    <_>
      <rect>
        13 10 2 2</rect></_>
    <_>
      <rect>
        13 11 2 2</rect></_>
    <_>
      <rect>
        13 11 2 4</rect></_>
    <_>
      <rect>
        13 12 1 1</rect></_>
    <_>
      <rect>
        13 12 1 2</rect></_>
    <_>
      <rect>
        13 12 2 1</rect></_>
    <_>
      <rect>
        13 12 2 2</rect></_>
    <_>
      <rect>
        13 13 1 1</rect></_>
    <_>
      <rect>
        13 13 1 2</rect></_>
    <_>
      <rect>
        13 13 2 2</rect></_>
    <_>
      <rect>
        13 13 3 3</rect></_>
    <_>
      <rect>
        13 14 1 1</rect></_>
    <_>
      <rect>
        13 23 3 2</rect></_>
    <_>
      <rect>
        13 25 1 1</rect></_>
    <_>
      <rect>
        13 25 3 1</rect></_>
    <_>
      <rect>
        14 6 3 3</rect></_>
    <_>
      <rect>
        14 9 2 2</rect></_>
    <_>
      <rect>
        14 9 2 3</rect></_>
    <_>
      <rect>
        14 10 2 3</rect></_>
    <_>
      <rect>
        14 11 2 3</rect></_>
    <_>
      <rect>
        14 12 1 1</rect></_>
    <_>
      <rect>
        14 12 2 3</rect></_>
    <_>
      <rect>
        14 13 1 1</rect></_>
    <_>
      <rect>
        14 13 2 1</rect></_>
    <_>
      <rect>
        14 13 2 2</rect></_>
    <_>
      <rect>
        14 14 1 1</rect></_>
    <_>
      <rect>
        14 15 1 1</rect></_>
    <_>
      <rect>
        14 16 1 1</rect></_>
    <_>
      <rect>
        14 17 1 1</rect></_>
    <_>
      <rect>
        14 18 4 3</rect></_>
    <_>
      <rect>
        14 19 2 2</rect></_>
    <_>
      <rect>
        14 23 2 2</rect></_>
    <_>
      <rect>
        15 0 2 10</rect></_>
    <_>
      <rect>
        15 0 4 4</rect></_>
    <_>
      <rect>
        15 2 2 2</rect></_>
    <_>
      <rect>
        15 7 2 4</rect></_>
    <_>
      <rect>
        15 8 1 1</rect></_>
    <_>
      <rect>
        15 12 2 1</rect></_>
    <_>
      <rect>
        15 13 2 2</rect></_>
    <_>
      <rect>
        15 14 1 1</rect></_>
    <_>
      <rect>
        15 14 2 2</rect></_>
    <_>
      <rect>
        15 15 1 1</rect></_>
    <_>
      <rect>
        15 16 1 2</rect></_>
    <_>
      <rect>
        15 20 3 3</rect></_>
    <_>
      <rect>
        15 21 1 1</rect></_>
    <_>
      <rect>
        15 21 3 2</rect></_>
    <_>
      <rect>
        15 21 4 2</rect></_>
    <_>
      <rect>
        15 23 1 2</rect></_>
    <_>
      <rect>
        15 23 2 2</rect></_>
    <_>
      <rect>
        15 26 1 1</rect></_>
    <_>
      <rect>
        16 9 1 1</rect></_>
    <_>
      <rect>
        16 9 3 2</rect></_>
    <_>
      <rect>
        16 10 2 3</rect></_>
    <_>
      <rect>
        16 11 2 3</rect></_>
    <_>
      <rect>
        16 12 1 1</rect></_>
    <_>
      <rect>
        16 12 2 2</rect></_>
    <_>
      <rect>
        16 16 1 2</rect></_>
    <_>
      <rect>
        16 16 2 3</rect></_>
    <_>
      <rect>
        16 18 1 1</rect></_>
    <_>
      <rect>
        16 18 2 2</rect></_>
    <_>
      <rect>
        16 18 3 3</rect></_>
    <_>
      <rect>
        16 21 1 1</rect></_>
    <_>
      <rect>
        16 22 2 1</rect></_>
    <_>
      <rect>
        16 23 2 2</rect></_>
    <_>
      <rect>
        17 5 3 3</rect></_>
    <_>
      <rect>
        17 8 1 2</rect></_>
    <_>
      <rect>
        17 9 1 2</rect></_>
    <_>
      <rect>
        17 11 1 1</rect></_>
    <_>
      <rect>
        17 13 1 1</rect></_>
    <_>
      <rect>
        17 15 1 2</rect></_>
    <_>
      <rect>
        17 16 2 3</rect></_>
    <_>
      <rect>
        17 17 3 2</rect></_>
    <_>
      <rect>
        17 17 3 3</rect></_>
    <_>
      <rect>
        17 19 4 2</rect></_>
    <_>
      <rect>
        18 9 3 5</rect></_>
    <_>
      <rect>
        18 11 1 1</rect></_>
    <_>
      <rect>
        18 11 1 2</rect></_>
    <_>
      <rect>
        18 18 2 3</rect></_>
    <_>
      <rect>
        18 20 2 3</rect></_>
    <_>
      <rect>
        19 4 2 3</rect></_>
    <_>
      <rect>
        19 10 2 2</rect></_>
    <_>
      <rect>
        19 10 3 5</rect></_>
    <_>
      <rect>
        19 12 1 2</rect></_>
    <_>
      <rect>
        19 15 1 1</rect></_>
    <_>
      <rect>
        19 16 2 3</rect></_>
    <_>
      <rect>
        19 20 1 2</rect></_>
    <_>
      <rect>
        19 21 1 1</rect></_>
    <_>
      <rect>
        20 15 3 4</rect></_>
    <_>
      <rect>
        20 17 2 2</rect></_>
    <_>
      <rect>
        20 20 1 1</rect></_>
    <_>
      <rect>
        21 6 2 4</rect></_>
    <_>
      <rect>
        21 15 2 3</rect></_>
    <_>
      <rect>
        21 16 3 3</rect></_>
    <_>
      <rect>
        22 7 2 5</rect></_>
    <_>
      <rect>
        22 8 2 2</rect></_>
    <_>
      <rect>
        23 13 2 3</rect></_>
    <_>
      <rect>
        24 13 2 2</rect></_>
    <_>
      <rect>
        24 15 2 3</rect></_></features></cascade>
</opencv_storage>
