<?xml version="1.0"?>
<opencv_storage>
<cascade>
  <stageType>BOOST</stageType>
  <featureType>LBP</featureType>
  <height>30</height>
  <width>30</width>
  <stageParams>
    <boostType>GAB</boostType>
    <minHitRate>9.9500000476837158e-01</minHitRate>
    <maxFalseAlarm>5.0000000000000000e-01</maxFalseAlarm>
    <weightTrimRate>9.4999999999999996e-01</weightTrimRate>
    <maxDepth>1</maxDepth>
    <maxWeakCount>100</maxWeakCount></stageParams>
  <featureParams>
    <maxCatCount>256</maxCatCount>
    <featSize>1</featSize></featureParams>
  <stageNum>15</stageNum>
  <stages>
    <!-- stage 0 -->
    <_>
      <maxWeakCount>7</maxWeakCount>
      <stageThreshold>-1.1399933099746704e+00</stageThreshold>
      <weakClassifiers>
        <_>
          <internalNodes>
            0 -1 11 -50689400 -463106 731909884 -1458436 -67108936 -276
            -67440646 -262162</internalNodes>
          <leafValues>
            -6.1379307508468628e-01 7.2018778324127197e-01</leafValues></_>
        <_>
          <internalNodes>
            0 -1 23 -660183374 -63266 1059757919 531172863 -1076428809
            -50331652 -1087840257 -1356137028</internalNodes>
          <leafValues>
            -4.7413182258605957e-01 4.8897099494934082e-01</leafValues></_>
        <_>
          <internalNodes>
            0 -1 137 -42510337 -9994493 -709868163 -38716321 -271286305
            -1367933101 1948648843 -335395825</internalNodes>
          <leafValues>
            -3.7144908308982849e-01 5.9305524826049805e-01</leafValues></_>
        <_>
          <internalNodes>
            0 -1 110 1456591568 -696807203 1142690129 -421722093
            -198143763 -31679813 -85059969 -335580117</internalNodes>
          <leafValues>
            -4.0918937325477600e-01 4.4287294149398804e-01</leafValues></_>
        <_>
          <internalNodes>
            0 -1 2 -550961676 -837129845 1359481504 -149777280 -72762556
            -73418056 -317427072 -8197456</internalNodes>
          <leafValues>
            -5.6226778030395508e-01 2.9126808047294617e-01</leafValues></_>
        <_>
          <internalNodes>
            0 -1 118 2022375903 -1135275634 -1851668033 -1162841853
            302078942 1536075978 -515850294 -1249671933</internalNodes>
          <leafValues>
            -4.2443180084228516e-01 3.8210391998291016e-01</leafValues></_>
        <_>
          <internalNodes>
            0 -1 17 412131484 -587149236 -1659890404 -1210053996
            1024106488 -48168295 -1157439360 -661647408</internalNodes>
          <leafValues>
            -4.0780839323997498e-01 3.8128879666328430e-01</leafValues></_></weakClassifiers></_>
    <!-- stage 1 -->
    <_>
      <maxWeakCount>10</maxWeakCount>
      <stageThreshold>-9.1680353879928589e-01</stageThreshold>
      <weakClassifiers>
        <_>
          <internalNodes>
            0 -1 34 -291068754 -1089532019 -96190467 -1103151303
            -1121140737 -5275649 -55788065 -91231953</internalNodes>
          <leafValues>
            -3.0689328908920288e-01 6.8263781070709229e-01</leafValues></_>
        <_>
          <internalNodes>
            0 -1 1 -35652870 -73412550 -385856576 -100969090 -1683760752
            -106198166 -88876552 -1350</internalNodes>
          <leafValues>
            -4.7389489412307739e-01 4.2249143123626709e-01</leafValues></_>
        <_>
          <internalNodes>
            0 -1 140 1602179327 2071925791 -168919553 -80080341
            -17408545 -764657 -1002156593 -1860023285</internalNodes>
          <leafValues>
            -3.9899978041648865e-01 4.9599438905715942e-01</leafValues></_>
        <_>
          <internalNodes>
            0 -1 64 1558011356 1509888472 -302416387 -1726656111
            -302648065 1040186879 768483247 -1936994849</internalNodes>
          <leafValues>
            -3.6657738685607910e-01 4.1717004776000977e-01</leafValues></_>
        <_>
          <internalNodes>
            0 -1 172 1518249984 -576942566 1775430768 -1957291318
            179508396 -877678149 1674065984 -1997784464</internalNodes>
          <leafValues>
            -5.6137204170227051e-01 2.6788693666458130e-01</leafValues></_>
        <_>
          <internalNodes>
            0 -1 232 -1437596295 1549590001 -642731649 -1634184936
            -556826639 -1633185289 -1948484643 -1466368588</internalNodes>
          <leafValues>
            -4.2770093679428101e-01 3.0941763520240784e-01</leafValues></_>
        <_>
          <internalNodes>
            0 -1 105 -230076335 -138971183 1037940639 -1948673133
            -17434376 -571213449 1862213375 -17434721</internalNodes>
          <leafValues>
            -2.9628241062164307e-01 4.5961105823516846e-01</leafValues></_>
        <_>
          <internalNodes>
            0 -1 164 -545792076 822090144 -609095272 338753936
            -1708232459 -116250231 -659795716 -1129386728</internalNodes>
          <leafValues>
            -4.0869149565696716e-01 3.3129918575286865e-01</leafValues></_>
        <_>
          <internalNodes>
            0 -1 135 1997004255 -679668515 2095125597 -1318102529
            1816577531 -335560866 297891235 -56541057</internalNodes>
          <leafValues>
            -2.5416654348373413e-01 5.3895747661590576e-01</leafValues></_>
        <_>
          <internalNodes>
            0 -1 103 -721635364 -112676651 2131612157 -850038331
            1435550388 -661216080 -1459081820 -1268490380</internalNodes>
          <leafValues>
            -4.4835150241851807e-01 3.3906871080398560e-01</leafValues></_></weakClassifiers></_>
    <!-- stage 2 -->
    <_>
      <maxWeakCount>12</maxWeakCount>
      <stageThreshold>-9.4315749406814575e-01</stageThreshold>
      <weakClassifiers>
        <_>
          <internalNodes>
            0 -1 31 -295507730 -1073803618 -1364295947 -1347474945
            -168890370 -65796 -269549825 -1414547522</internalNodes>
          <leafValues>
            -3.0475693941116333e-01 6.3200390338897705e-01</leafValues></_>
        <_>
          <internalNodes>
            0 -1 159 1945326047 -67142730 -71421089 1918006847
            -1465901618 -1108967553 -994963958 -81637629</internalNodes>
          <leafValues>
            -3.7208232283592224e-01 4.7080707550048828e-01</leafValues></_>
        <_>
          <internalNodes>
            0 -1 13 -2041911617 -1893006975 -1775906625 -360102063
            1778576059 -876090935 -955461409 -5507577</internalNodes>
          <leafValues>
            -3.5863718390464783e-01 3.9984139800071716e-01</leafValues></_>
        <_>
          <internalNodes>
            0 -1 145 -717562372 -111128779 -262183 -1020003503
            -715852340 -9593387 -50426369 -917755</internalNodes>
          <leafValues>
            -3.4129855036735535e-01 4.2649707198143005e-01</leafValues></_>
        <_>
          <internalNodes>
            0 -1 136 -680069932 -162113450 1192650101 391260758
            1375793401 -216854518 -260045433 -1063124915</internalNodes>
          <leafValues>
            -4.4569781422615051e-01 3.0243510007858276e-01</leafValues></_>
        <_>
          <internalNodes>
            0 -1 3 -177013258 -343560032 -1927127130 -1903407476
            -1593517425 -355890534 -1160848898 -1565991638</internalNodes>
          <leafValues>
            -5.0028300285339355e-01 2.5116360187530518e-01</leafValues></_>
        <_>
          <internalNodes>
            0 -1 79 2079473653 1932441229 1531951007 1838470070
            -476499563 -1090017230 1775184180 -1422524016</internalNodes>
          <leafValues>
            -4.2046117782592773e-01 3.0166655778884888e-01</leafValues></_>
        <_>
          <internalNodes>
            0 -1 202 -1881684908 -1147453025 -1862237829 -845878786
            1204489416 -607485782 -1952905008 -579124489</internalNodes>
          <leafValues>
            -3.8363140821456909e-01 3.4956130385398865e-01</leafValues></_>
        <_>
          <internalNodes>
            0 -1 47 -776209801 421614897 -1145160711 187855123
            1709020917 84827999 -11635702 -1895813846</internalNodes>
          <leafValues>
            -2.9134568572044373e-01 4.0642192959785461e-01</leafValues></_>
        <_>
          <internalNodes>
            0 -1 215 17892887 1098974291 424133007 84169482 219349851
            -1749726191 1242133631 997536320</internalNodes>
          <leafValues>
            -5.1581531763076782e-01 2.2826695442199707e-01</leafValues></_>
        <_>
          <internalNodes>
            0 -1 73 -983096065 2087415439 -408919201 809611171 527883656
            778501822 1196725450 -2117871992</internalNodes>
          <leafValues>
            -3.1389203667640686e-01 3.8837999105453491e-01</leafValues></_>
        <_>
          <internalNodes>
            0 -1 206 -238635139 2026139922 -1157490906 -1188155166
            -1198418563 -49296485 -1191326619 -1098376640</internalNodes>
          <leafValues>
            -3.4837746620178223e-01 3.5143193602561951e-01</leafValues></_></weakClassifiers></_>
    <!-- stage 3 -->
    <_>
      <maxWeakCount>14</maxWeakCount>
      <stageThreshold>-8.0505913496017456e-01</stageThreshold>
      <weakClassifiers>
        <_>
          <internalNodes>
            0 -1 39 -24454006 2140082058 -22138057 -1089659073 -13701393
            -3178625 -554893377 -88131650</internalNodes>
          <leafValues>
            -2.1880997717380524e-01 6.2717056274414062e-01</leafValues></_>
        <_>
          <internalNodes>
            0 -1 92 1431657951 1548188231 2001826133 -88376225
            -1101733921 -541073596 -178108977 -610116273</internalNodes>
          <leafValues>
            -2.6319164037704468e-01 5.2396279573440552e-01</leafValues></_>
        <_>
          <internalNodes>
            0 -1 78 -544671986 521749263 -703374173 990071049 738334926
            247360879 -707476017 -1050424113</internalNodes>
          <leafValues>
            -3.6418882012367249e-01 3.6427396535873413e-01</leafValues></_>
        <_>
          <internalNodes>
            0 -1 83 -680266284 -235338988 -644268775 -570621859
            -133440832 -2035053951 730211741 -67243171</internalNodes>
          <leafValues>
            -3.8274571299552917e-01 3.4079241752624512e-01</leafValues></_>
        <_>
          <internalNodes>
            0 -1 87 168757805 -1254815337 -1616849409 -1256775223
            681043839 -1164081973 -1835291718 -1433891194</internalNodes>
          <leafValues>
            -4.4278532266616821e-01 2.3798546195030212e-01</leafValues></_>
        <_>
          <internalNodes>
            0 -1 213 -27604738 -671787657 638865629 -726383291
            1575025124 -339893607 -1563939700 -91727344</internalNodes>
          <leafValues>
            -3.4901735186576843e-01 3.3295586705207825e-01</leafValues></_>
        <_>
          <internalNodes>
            0 -1 127 -172862026 -1770981789 1073659771 -1859913950
            -41826940 -50592140 -557933137 -38322953</internalNodes>
          <leafValues>
            -3.1781280040740967e-01 3.6996835470199585e-01</leafValues></_>
        <_>
          <internalNodes>
            0 -1 35 784216727 150606062 -113539945 -2037247653
            1535119847 -1494955496 -1299062049 -1930273307</internalNodes>
          <leafValues>
            -4.5041066408157349e-01 2.4559609591960907e-01</leafValues></_>
        <_>
          <internalNodes>
            0 -1 184 -36762560 -1896392335 941733535 1268616463
            -828503650 -275193346 -887549696 2089964337</internalNodes>
          <leafValues>
            -4.6302920579910278e-01 2.3217356204986572e-01</leafValues></_>
        <_>
          <internalNodes>
            0 -1 233 -842554620 1062689259 -578710722 -44201122
            1619402917 -183269229 -351738136 -673240958</internalNodes>
          <leafValues>
            -3.2154017686843872e-01 3.6084592342376709e-01</leafValues></_>
        <_>
          <internalNodes>
            0 -1 76 -1025515565 255806385 -187477984 1001781205
            -965880932 -25252017 -1737002461 -1467025993</internalNodes>
          <leafValues>
            -2.8552716970443726e-01 3.8855007290840149e-01</leafValues></_>
        <_>
          <internalNodes>
            0 -1 129 -662962601 41197405 -33703241 842045040 -1879875586
            -2002325552 -582738196 -264847372</internalNodes>
          <leafValues>
            -3.3325725793838501e-01 3.4881782531738281e-01</leafValues></_>
        <_>
          <internalNodes>
            0 -1 192 1897052508 1830683347 -618474693 -451913834
            -497352787 -10452585 -333957382 -1351467722</internalNodes>
          <leafValues>
            -3.6668583750724792e-01 3.0106973648071289e-01</leafValues></_>
        <_>
          <internalNodes>
            0 -1 81 -610413584 1348354844 1193417589 1999740368
            1435232704 -1840246775 -214626850 -220975084</internalNodes>
          <leafValues>
            -3.3818477392196655e-01 3.2502478361129761e-01</leafValues></_></weakClassifiers></_>
    <!-- stage 4 -->
    <_>
      <maxWeakCount>14</maxWeakCount>
      <stageThreshold>-9.4362843036651611e-01</stageThreshold>
      <weakClassifiers>
        <_>
          <internalNodes>
            0 -1 24 -284170582 -418386130 -1895940437 -1104199793
            -814747762 2131734382 -1125152789 -84935509</internalNodes>
          <leafValues>
            -2.8355091810226440e-01 6.2252140045166016e-01</leafValues></_>
        <_>
          <internalNodes>
            0 -1 97 1978882463 -541364341 -59244545 992214791 -725859252
            -564175595 -183173937 -184291573</internalNodes>
          <leafValues>
            -2.8605163097381592e-01 5.1708537340164185e-01</leafValues></_>
        <_>
          <internalNodes>
            0 -1 134 -211552524 -783155687 -315140775 958620984
            610448831 -303644676 937447677 -849117893</internalNodes>
          <leafValues>
            -3.4551796317100525e-01 3.7749400734901428e-01</leafValues></_>
        <_>
          <internalNodes>
            0 -1 26 1495654366 1340321659 1933603984 -642520432
            -50356998 2146398202 -716004950 -40901169</internalNodes>
          <leafValues>
            -3.2926937937736511e-01 3.7782096862792969e-01</leafValues></_>
        <_>
          <internalNodes>
            0 -1 152 -76032033 -65933742 125438403 2029874238 -587933185
            -1099497475 -478149501 -923533621</internalNodes>
          <leafValues>
            -2.5307148694992065e-01 4.9788242578506470e-01</leafValues></_>
        <_>
          <internalNodes>
            0 -1 84 1437990132 1440289117 954143635 -172289023
            -1033139265 34291723 646162575 758900894</internalNodes>
          <leafValues>
            -3.3627724647521973e-01 3.3769127726554871e-01</leafValues></_>
        <_>
          <internalNodes>
            0 -1 195 939242779 -649720314 -1812516510 -1254149198
            -288818875 -1153609055 -930544288 -319007180</internalNodes>
          <leafValues>
            -3.6770740151405334e-01 3.1283554434776306e-01</leafValues></_>
        <_>
          <internalNodes>
            0 -1 40 -285741609 -1401184841 -243286153 -68534513
            -1652760323 234848127 -1006811467 -1091225153</internalNodes>
          <leafValues>
            -2.5593528151512146e-01 4.3272835016250610e-01</leafValues></_>
        <_>
          <internalNodes>
            0 -1 181 -286357212 548053787 198482335 208075675 -426560955
            -1751098225 -1079823507 -537403493</internalNodes>
          <leafValues>
            -3.2227635383605957e-01 3.2573091983795166e-01</leafValues></_>
        <_>
          <internalNodes>
            0 -1 169 2111768370 291836931 -1038675041 -1248595506
            -923792495 -821417841 -624295712 -1740827641</internalNodes>
          <leafValues>
            -3.7998339533805847e-01 2.9628798365592957e-01</leafValues></_>
        <_>
          <internalNodes>
            0 -1 120 -293605826 322372055 -1157483327 2073089281
            403180040 -589753318 -489591549 -2065040095</internalNodes>
          <leafValues>
            -3.7523880600929260e-01 3.0098092555999756e-01</leafValues></_>
        <_>
          <internalNodes>
            0 -1 61 -428011725 1663143681 805269239 -1253022866
            1702839638 -1927807130 -318784003 -574669302</internalNodes>
          <leafValues>
            -2.4788919091224670e-01 4.3565875291824341e-01</leafValues></_>
        <_>
          <internalNodes>
            0 -1 65 -1725694993 907046658 -1213612096 -31298030
            2088685498 -58916899 -51331861 -92047797</internalNodes>
          <leafValues>
            -2.5400063395500183e-01 4.2716822028160095e-01</leafValues></_>
        <_>
          <internalNodes>
            0 -1 102 146737013 288652329 -125877254 -1092158913
            1048024533 -569430187 -704920926 -289514128</internalNodes>
          <leafValues>
            -3.2330429553985596e-01 3.4165158867835999e-01</leafValues></_></weakClassifiers></_>
    <!-- stage 5 -->
    <_>
      <maxWeakCount>14</maxWeakCount>
      <stageThreshold>-8.0504488945007324e-01</stageThreshold>
      <weakClassifiers>
        <_>
          <internalNodes>
            0 -1 21 -3151890 -1059033 -1427501137 -33607729 -154 -139281
            -1561559057 -134217777</internalNodes>
          <leafValues>
            -1.3602015376091003e-01 6.4234381914138794e-01</leafValues></_>
        <_>
          <internalNodes>
            0 -1 122 -182979346 -264900297 -468099169 -2111647741
            1038816524 1075710294 1643354639 -177734365</internalNodes>
          <leafValues>
            -4.1767784953117371e-01 3.8536855578422546e-01</leafValues></_>
        <_>
          <internalNodes>
            0 -1 27 -572023870 722193195 -99299110 1375526287 847839887
            254247075 -68698117 1372312575</internalNodes>
          <leafValues>
            -3.5979545116424561e-01 3.4803187847137451e-01</leafValues></_>
        <_>
          <internalNodes>
            0 -1 126 -307246718 1547165959 1888068779 1395368975
            1076871300 204478118 -256382481 1953757799</internalNodes>
          <leafValues>
            -4.1098481416702271e-01 2.9338353872299194e-01</leafValues></_>
        <_>
          <internalNodes>
            0 -1 41 -1435589233 250000807 -753171109 -1082723877
            -307108823 247719984 -622660683 -273219725</internalNodes>
          <leafValues>
            -3.8373020291328430e-01 3.1977674365043640e-01</leafValues></_>
        <_>
          <internalNodes>
            0 -1 166 -950034655 1057396594 -1021323682 -326708906
            701460438 -2031769158 -919643020 -621544329</internalNodes>
          <leafValues>
            -3.7096345424652100e-01 3.0800229310989380e-01</leafValues></_>
        <_>
          <internalNodes>
            0 -1 185 -249543596 -121191406 1627394221 -1354285026
            -711671345 -1450409278 -1247213430 -390456945</internalNodes>
          <leafValues>
            -4.0678817033767700e-01 2.5595766305923462e-01</leafValues></_>
        <_>
          <internalNodes>
            0 -1 175 561377791 498200274 -136323173 -1384567518
            1104530942 -1377649290 1156697227 -2052912117</internalNodes>
          <leafValues>
            -2.8498765826225281e-01 3.7843865156173706e-01</leafValues></_>
        <_>
          <internalNodes>
            0 -1 100 -358364111 1744268591 -578951310 -492134806
            -378069711 1601761149 -373527452 -2203456</internalNodes>
          <leafValues>
            -2.9798343777656555e-01 3.5850062966346741e-01</leafValues></_>
        <_>
          <internalNodes>
            0 -1 123 -621413445 774111094 -1628491871 -228465391
            -1394742018 482737415 -294717446 -943239269</internalNodes>
          <leafValues>
            -2.3307825624942780e-01 4.7787714004516602e-01</leafValues></_>
        <_>
          <internalNodes>
            0 -1 177 828207495 2060941047 805090795 1731771958
            1956693462 -378437644 -999109457 -115104733</internalNodes>
          <leafValues>
            -2.4966762959957123e-01 4.0368482470512390e-01</leafValues></_>
        <_>
          <internalNodes>
            0 -1 131 -121948330 -97356183 982228912 -464358054
            1045286993 347853845 -1311034108 -258967996</internalNodes>
          <leafValues>
            -4.4215816259384155e-01 2.4276357889175415e-01</leafValues></_>
        <_>
          <internalNodes>
            0 -1 208 -301996249 18504746 1910108290 -1329627121
            1294680900 1019781727 -1232483808 -492372105</internalNodes>
          <leafValues>
            -4.0990033745765686e-01 2.6924446225166321e-01</leafValues></_>
        <_>
          <internalNodes>
            0 -1 33 1272785040 2057071790 656036360 -989101684 953784816
            1612880169 -623795822 -841223720</internalNodes>
          <leafValues>
            -4.5240044593811035e-01 2.3630221188068390e-01</leafValues></_></weakClassifiers></_>
    <!-- stage 6 -->
    <_>
      <maxWeakCount>15</maxWeakCount>
      <stageThreshold>-6.9600665569305420e-01</stageThreshold>
      <weakClassifiers>
        <_>
          <internalNodes>
            0 -1 8 -293614930 -17826050 455249706 -1089769493 -67246369
            -33554689 -1087115345 -141557761</internalNodes>
          <leafValues>
            -1.3874346017837524e-01 6.2513482570648193e-01</leafValues></_>
        <_>
          <internalNodes>
            0 -1 142 -16779793 -1293222750 1862008319 841104943
            683623695 885485359 -990394673 -719069945</internalNodes>
          <leafValues>
            -3.2251140475273132e-01 4.1819563508033752e-01</leafValues></_>
        <_>
          <internalNodes>
            0 -1 72 2049048570 -1037971136 -1990405892 1798530198
            1904509058 808706438 -1336764164 94619507</internalNodes>
          <leafValues>
            -3.7672498822212219e-01 3.3274224400520325e-01</leafValues></_>
        <_>
          <internalNodes>
            0 -1 198 -722539328 -372905625 -394207214 -203431421
            14565446 549390593 2039221619 -570462158</internalNodes>
          <leafValues>
            -4.2214715480804443e-01 2.7204361557960510e-01</leafValues></_>
        <_>
          <internalNodes>
            0 -1 56 -753550654 2011283775 -1056755424 -203259040
            1193310186 -1740283593 -1483472470 1365237954</internalNodes>
          <leafValues>
            -4.2980176210403442e-01 2.5128272175788879e-01</leafValues></_>
        <_>
          <internalNodes>
            0 -1 193 -495522253 805348366 914604463 -2144020426
            1902326357 -304084548 657324081 -357041617</internalNodes>
          <leafValues>
            -3.5514429211616516e-01 2.8711831569671631e-01</leafValues></_>
        <_>
          <internalNodes>
            0 -1 107 1429328306 303452479 1108296016 -1609869014
            -392112644 -1465480439 -1835365490 1818442513</internalNodes>
          <leafValues>
            -4.0056106448173523e-01 2.5289025902748108e-01</leafValues></_>
        <_>
          <internalNodes>
            0 -1 42 -965015981 171447306 -1537833061 686183791
            -1414296833 1189781715 -717872959 -2134912871</internalNodes>
          <leafValues>
            -4.2885825037956238e-01 2.3389966785907745e-01</leafValues></_>
        <_>
          <internalNodes>
            0 -1 187 -302087420 -1093316481 -802440880 1234868351
            -1071499931 1377051113 -1733803556 -1645663489</internalNodes>
          <leafValues>
            -3.8565239310264587e-01 2.5033062696456909e-01</leafValues></_>
        <_>
          <internalNodes>
            0 -1 94 1031873672 -561897705 -764723864 1362850289
            -922562420 1348698828 2003890723 94790979</internalNodes>
          <leafValues>
            -4.3154141306877136e-01 2.5043255090713501e-01</leafValues></_>
        <_>
          <internalNodes>
            0 -1 60 -755500041 -1020825849 2092940784 221364611
            -822221715 226819383 1064251215 -987503473</internalNodes>
          <leafValues>
            -2.2472207248210907e-01 4.7531920671463013e-01</leafValues></_>
        <_>
          <internalNodes>
            0 -1 124 -1846436873 -2073739461 -772467997 -303793370
            2004199354 -689471793 -223812477 -715266855</internalNodes>
          <leafValues>
            -2.4447645246982574e-01 4.1101771593093872e-01</leafValues></_>
        <_>
          <internalNodes>
            0 -1 114 1561715461 1076523041 -1928444914 457527385
            1676882248 -1702188579 -154705126 -80643259</internalNodes>
          <leafValues>
            -3.7029454112052917e-01 2.9669645428657532e-01</leafValues></_>
        <_>
          <internalNodes>
            0 -1 10 1078390214 -765182969 67299854 203463060 -1744573573
            -1202321262 1359344507 -1587445249</internalNodes>
          <leafValues>
            -3.7413668632507324e-01 2.7700415253639221e-01</leafValues></_>
        <_>
          <internalNodes>
            0 -1 160 -1713875851 554339656 1075598002 -330892452
            27399135 650347457 -192126096 815222819</internalNodes>
          <leafValues>
            -4.3318015336990356e-01 2.4275155365467072e-01</leafValues></_></weakClassifiers></_>
    <!-- stage 7 -->
    <_>
      <maxWeakCount>17</maxWeakCount>
      <stageThreshold>-9.5701962709426880e-01</stageThreshold>
      <weakClassifiers>
        <_>
          <internalNodes>
            0 -1 157 2104237343 -21070257 -65545 967474210 -25803745
            -125870268 -327692937 -2145235678</internalNodes>
          <leafValues>
            -1.6741572320461273e-01 5.4454976320266724e-01</leafValues></_>
        <_>
          <internalNodes>
            0 -1 67 -673882659 -846742881 -575580835 -117752481
            -681115912 -268575233 -1209745528 -1310771</internalNodes>
          <leafValues>
            -2.4092091619968414e-01 4.7450587153434753e-01</leafValues></_>
        <_>
          <internalNodes>
            0 -1 14 -353704209 -269712478 944927199 -131441917
            -376993605 -545120223 722701979 -52430884</internalNodes>
          <leafValues>
            -3.7491273880004883e-01 3.0672055482864380e-01</leafValues></_>
        <_>
          <internalNodes>
            0 -1 106 900863395 1002031315 2135429334 -544474672
            -320152417 -1158483765 -729252744 -1125785920</internalNodes>
          <leafValues>
            -3.3656409382820129e-01 2.9052388668060303e-01</leafValues></_>
        <_>
          <internalNodes>
            0 -1 171 -484250145 759254856 -1356087347 2071412030
            -1201233962 -1368104961 -864958807 -310367765</internalNodes>
          <leafValues>
            -2.6328352093696594e-01 3.6922317743301392e-01</leafValues></_>
        <_>
          <internalNodes>
            0 -1 165 -146932737 -100698298 753674189 -539607091
            -620765266 -34294016 -1632910360 -202053924</internalNodes>
          <leafValues>
            -2.7919670939445496e-01 3.5539391636848450e-01</leafValues></_>
        <_>
          <internalNodes>
            0 -1 82 -426674944 1292126727 137631499 799051045 -657335676
            -909729451 -1969079563 -1715925152</internalNodes>
          <leafValues>
            -5.2213191986083984e-01 1.6642162203788757e-01</leafValues></_>
        <_>
          <internalNodes>
            0 -1 204 -472193466 1986428873 1095992271 -315201206
            -401837273 -188432177 -274924865 -10854602</internalNodes>
          <leafValues>
            -2.9968520998954773e-01 3.0001166462898254e-01</leafValues></_>
        <_>
          <internalNodes>
            0 -1 54 -2063661521 475796047 -1558263734 -2103799658
            159272253 378792078 -402444403 -1268187222</internalNodes>
          <leafValues>
            -3.5819554328918457e-01 2.5861334800720215e-01</leafValues></_>
        <_>
          <internalNodes>
            0 -1 167 -1552298163 -877140097 -268460227 -1548031951
            -1559326722 -548307692 79664348 -336410462</internalNodes>
          <leafValues>
            -2.5854387879371643e-01 3.5345384478569031e-01</leafValues></_>
        <_>
          <internalNodes>
            0 -1 68 307509322 -725019110 1510177282 -1124134512
            1124645631 1521008792 1607122690 149509683</internalNodes>
          <leafValues>
            -4.2592036724090576e-01 2.3003105819225311e-01</leafValues></_>
        <_>
          <internalNodes>
            0 -1 168 -72253835 -266215841 1039400895 -12616992 551460221
            -1596609041 2046789604 -55212084</internalNodes>
          <leafValues>
            -2.5844550132751465e-01 3.5803332924842834e-01</leafValues></_>
        <_>
          <internalNodes>
            0 -1 209 -2128633052 634659071 -1945396242 -14105640
            1297329652 -1253005239 -348489776 -578561174</internalNodes>
          <leafValues>
            -3.1132224202156067e-01 2.9447239637374878e-01</leafValues></_>
        <_>
          <internalNodes>
            0 -1 144 1975463842 -1679055551 52676031 1863521090
            -724527880 -484441891 -102850087 -1368072001</internalNodes>
          <leafValues>
            -3.0196300148963928e-01 3.1163537502288818e-01</leafValues></_>
        <_>
          <internalNodes>
            0 -1 201 746573456 -636649234 1074696587 -334593887
            1479874464 -614084182 1224939103 -1073764326</internalNodes>
          <leafValues>
            -3.5353341698646545e-01 2.7103295922279358e-01</leafValues></_>
        <_>
          <internalNodes>
            0 -1 170 1629636084 1363309402 2052565149 2143341609
            -1065201508 -1484389759 -1070835219 -1895033069</internalNodes>
          <leafValues>
            -3.7326622009277344e-01 2.4536661803722382e-01</leafValues></_>
        <_>
          <internalNodes>
            0 -1 214 -2038700485 -317304461 -1406950177 -410113585
            383328820 -283721614 -993448816 -1535660912</internalNodes>
          <leafValues>
            -3.1224805116653442e-01 2.8252929449081421e-01</leafValues></_></weakClassifiers></_>
    <!-- stage 8 -->
    <_>
      <maxWeakCount>20</maxWeakCount>
      <stageThreshold>-8.0209183692932129e-01</stageThreshold>
      <weakClassifiers>
        <_>
          <internalNodes>
            0 -1 43 -18473946 1057630978 -33916054 -1094812052 886947583
            -5242883 -16789507 -1461715137</internalNodes>
          <leafValues>
            -2.4410541355609894e-01 5.1601576805114746e-01</leafValues></_>
        <_>
          <internalNodes>
            0 -1 117 1450394111 -92571019 -136153315 -1195676037
            1473605598 -1112016937 -168669814 -201857789</internalNodes>
          <leafValues>
            -2.8912037611007690e-01 3.6987993121147156e-01</leafValues></_>
        <_>
          <internalNodes>
            0 -1 96 -25428998 -13402864 -33587554 -144572527 -1243308182
            -1813283023 -4562950 -1056186373</internalNodes>
          <leafValues>
            -2.8292688727378845e-01 3.5429379343986511e-01</leafValues></_>
        <_>
          <internalNodes>
            0 -1 109 -279511585 -614523553 -319851279 -402701007
            -415844389 -159916195 -978127369 -15993697</internalNodes>
          <leafValues>
            -1.9123280048370361e-01 4.9300339818000793e-01</leafValues></_>
        <_>
          <internalNodes>
            0 -1 0 -1012414036 -203316946 1625359402 -77757568 831642311
            1210826761 -2117623581 -605426993</internalNodes>
          <leafValues>
            -3.9124739170074463e-01 2.1432942152023315e-01</leafValues></_>
        <_>
          <internalNodes>
            0 -1 77 -201853345 255397741 -147250015 1799094179
            1339907294 1987018111 2029485543 -1040452361</internalNodes>
          <leafValues>
            -2.2698608040809631e-01 3.9083439111709595e-01</leafValues></_>
        <_>
          <internalNodes>
            0 -1 74 -1623268036 -1461976513 -549863124 714010719
            1708519263 -609054321 -1475135405 -20785926</internalNodes>
          <leafValues>
            -3.3515197038650513e-01 2.5700321793556213e-01</leafValues></_>
        <_>
          <internalNodes>
            0 -1 86 757969339 389216121 2129358847 -79954104 618536191
            -570687554 -1670361879 -79970067</internalNodes>
          <leafValues>
            -2.4075458943843842e-01 3.6273831129074097e-01</leafValues></_>
        <_>
          <internalNodes>
            0 -1 146 -2403930 -602520797 1083578796 825282851 625873349
            1989503541 2023356623 -462095609</internalNodes>
          <leafValues>
            -3.7709197402000427e-01 2.3360410332679749e-01</leafValues></_>
        <_>
          <internalNodes>
            0 -1 155 845361804 872122384 -503314398 -2080044887
            -1275652928 -694570964 616031954 1761958492</internalNodes>
          <leafValues>
            -4.3067982792854309e-01 1.9428022205829620e-01</leafValues></_>
        <_>
          <internalNodes>
            0 -1 226 -1646420697 -1726323819 -260374891 -214720647
            142050751 1544881688 -1887843329 -1951559197</internalNodes>
          <leafValues>
            -1.9813501834869385e-01 4.1044375300407410e-01</leafValues></_>
        <_>
          <internalNodes>
            0 -1 20 1519338984 280891796 1464931795 31887716 -196998526
            1611390995 2078915909 -574429837</internalNodes>
          <leafValues>
            -3.3034732937812805e-01 2.6470172405242920e-01</leafValues></_>
        <_>
          <internalNodes>
            0 -1 200 -899210714 647783471 -1852729552 -723281469
            671723265 847349840 2039239032 -974708886</internalNodes>
          <leafValues>
            -3.8768744468688965e-01 2.2371983528137207e-01</leafValues></_>
        <_>
          <internalNodes>
            0 -1 149 1820236596 -2079412201 -899599916 -1461559088
            -1456513616 1384353409 -1123227151 -1461004073</internalNodes>
          <leafValues>
            -3.7226754426956177e-01 2.2280807793140411e-01</leafValues></_>
        <_>
          <internalNodes>
            0 -1 221 -553693594 711594423 759941076 -640148530
            -1790477452 -387982445 480964860 -1530563533</internalNodes>
          <leafValues>
            -3.4790861606597900e-01 2.4827373027801514e-01</leafValues></_>
        <_>
          <internalNodes>
            0 -1 65 832644583 1057042176 -151257340 1604939315
            -462109313 1050541918 -55298647 -319914790</internalNodes>
          <leafValues>
            -2.8269186615943909e-01 3.1320583820343018e-01</leafValues></_>
        <_>
          <internalNodes>
            0 -1 134 1918088680 -296564451 496452037 -1602088871
            1677734859 -1465473016 1675117017 -1996468206</internalNodes>
          <leafValues>
            -3.7867683172225952e-01 2.3743848502635956e-01</leafValues></_>
        <_>
          <internalNodes>
            0 -1 19 -325143110 2073540533 -1414076739 930399943
            -34103593 -1495900054 -1200620321 -462422477</internalNodes>
          <leafValues>
            -2.2372066974639893e-01 3.9580690860748291e-01</leafValues></_>
        <_>
          <internalNodes>
            0 -1 101 1879463878 101929751 -150581118 -1081952238
            956455164 1057153825 1552712912 1351901509</internalNodes>
          <leafValues>
            -4.8983865976333618e-01 1.8496808409690857e-01</leafValues></_>
        <_>
          <internalNodes>
            0 -1 203 -386473614 678320497 1968259550 -324741422
            -2120408996 -1698683906 -1016922122 -34401054</internalNodes>
          <leafValues>
            -3.0937048792839050e-01 3.0324208736419678e-01</leafValues></_></weakClassifiers></_>
    <!-- stage 9 -->
    <_>
      <maxWeakCount>18</maxWeakCount>
      <stageThreshold>-7.0094883441925049e-01</stageThreshold>
      <weakClassifiers>
        <_>
          <internalNodes>
            0 -1 121 547320286 -639156455 -8654993 842085921 -1849932340
            -10136103 -102437494 -250484959</internalNodes>
          <leafValues>
            -9.8079919815063477e-02 5.3744167089462280e-01</leafValues></_>
        <_>
          <internalNodes>
            0 -1 69 -1076995297 1868384847 -709414415 -1330809507
            -51093797 -553689265 2001925599 -1399939761</internalNodes>
          <leafValues>
            -2.4466755986213684e-01 4.1833126544952393e-01</leafValues></_>
        <_>
          <internalNodes>
            0 -1 6 -1460732577 -1344303341 -1006398693 -1485897407
            1617228739 1826828545 -1093684580 -1897479445</internalNodes>
          <leafValues>
            -3.4296047687530518e-01 2.8894591331481934e-01</leafValues></_>
        <_>
          <internalNodes>
            0 -1 136 -1305057548 -79445474 -578347532 998208374
            117547775 -12227752 -783133247 -1490921201</internalNodes>
          <leafValues>
            -4.0893927216529846e-01 2.3279948532581329e-01</leafValues></_>
        <_>
          <internalNodes>
            0 -1 182 1138225149 -182976577 -4199621 -2080994517
            1340353977 -116836940 86973624 -906560462</internalNodes>
          <leafValues>
            -2.9038617014884949e-01 3.1624311208724976e-01</leafValues></_>
        <_>
          <internalNodes>
            0 -1 154 1659600640 1544748851 -274247434 -116130544
            2035295249 -518860437 -662368872 -109361901</internalNodes>
          <leafValues>
            -3.2747399806976318e-01 2.6725071668624878e-01</leafValues></_>
        <_>
          <internalNodes>
            0 -1 58 -2013954246 1860663270 2007723923 -1164722233
            -153229832 -549626108 2026445246 -917768741</internalNodes>
          <leafValues>
            -2.7729958295822144e-01 3.0824631452560425e-01</leafValues></_>
        <_>
          <internalNodes>
            0 -1 62 -609067044 -1864044424 -1634077737 -540747941
            1493359797 -1866875804 -107795488 -1096758729</internalNodes>
          <leafValues>
            -2.9525473713874817e-01 3.1094413995742798e-01</leafValues></_>
        <_>
          <internalNodes>
            0 -1 190 628352255 -488587664 1878716351 469431336
            -2005594179 -856232006 -729182743 -923625198</internalNodes>
          <leafValues>
            -2.5509271025657654e-01 3.4169951081275940e-01</leafValues></_>
        <_>
          <internalNodes>
            0 -1 50 -1593932737 -824295073 430010651 2113538776
            -266341797 144449995 1275642762 -1527804326</internalNodes>
          <leafValues>
            -3.2442966103553772e-01 2.7387449145317078e-01</leafValues></_>
        <_>
          <internalNodes>
            0 -1 222 -402915384 1937061823 -369399018 1796552498
            -938283130 -202079269 -972157330 -73176141</internalNodes>
          <leafValues>
            -2.3871739208698273e-01 3.8925883173942566e-01</leafValues></_>
        <_>
          <internalNodes>
            0 -1 197 612246326 66605375 1208172759 -297340155 -380611395
            -364871678 -1484478275 -113942969</internalNodes>
          <leafValues>
            -3.7279963493347168e-01 2.3252241313457489e-01</leafValues></_>
        <_>
          <internalNodes>
            0 -1 85 -581833279 990076791 -8702817 -1089786105
            -1405026452 -9469963 -320555786 -231915644</internalNodes>
          <leafValues>
            -2.5558680295944214e-01 3.4347468614578247e-01</leafValues></_>
        <_>
          <internalNodes>
            0 -1 98 -741625121 -6440167 644746890 741240576 771669982
            -41992195 2078748463 -570426969</internalNodes>
          <leafValues>
            -2.0530284941196442e-01 4.2690855264663696e-01</leafValues></_>
        <_>
          <internalNodes>
            0 -1 37 1676574580 1672658777 -202407937 -1250611891
            241422006 -1863140904 920640152 -332007169</internalNodes>
          <leafValues>
            -2.4890311062335968e-01 3.4716823697090149e-01</leafValues></_>
        <_>
          <internalNodes>
            0 -1 113 971981685 -185663756 -557942189 -1358960913
            -529017918 -808004227 -187222263 -1378353841</internalNodes>
          <leafValues>
            -2.7560853958129883e-01 3.0517810583114624e-01</leafValues></_>
        <_>
          <internalNodes>
            0 -1 141 -267963925 2075037586 -54733313 422670115 930573822
            1429698549 -716124177 -392988885</internalNodes>
          <leafValues>
            -2.4056597054004669e-01 3.7485349178314209e-01</leafValues></_>
        <_>
          <internalNodes>
            0 -1 38 -927217681 456630251 -1146197225 -1755908139
            1820099838 -919524899 -260796994 -1274741589</internalNodes>
          <leafValues>
            -2.3929332196712494e-01 3.7642133235931396e-01</leafValues></_></weakClassifiers></_>
    <!-- stage 10 -->
    <_>
      <maxWeakCount>21</maxWeakCount>
      <stageThreshold>-8.9859271049499512e-01</stageThreshold>
      <weakClassifiers>
        <_>
          <internalNodes>
            0 -1 132 1999819968 -147718594 -412008973 2109685563
            -428411461 -159449607 -319621329 -822139333</internalNodes>
          <leafValues>
            -1.0164981335401535e-01 5.3166705369949341e-01</leafValues></_>
        <_>
          <internalNodes>
            0 -1 70 1418940942 -1122542595 167992992 963989953
            -1300137541 2063642939 -1860962429 -2136081165</internalNodes>
          <leafValues>
            -3.6647173762321472e-01 2.7902412414550781e-01</leafValues></_>
        <_>
          <internalNodes>
            0 -1 109 2103441887 1583307855 937393659 1558146141
            -14485505 -1090560419 -2058901537 -56418817</internalNodes>
          <leafValues>
            -1.9825991988182068e-01 4.6947056055068970e-01</leafValues></_>
        <_>
          <internalNodes>
            0 -1 128 -204210330 1565831495 -719658502 1301063170
            408556989 975604277 -1061649956 1153753025</internalNodes>
          <leafValues>
            -4.4352331757545471e-01 2.0978946983814240e-01</leafValues></_>
        <_>
          <internalNodes>
            0 -1 45 -11150373 -135430187 -677676735 -706629663 -51078722
            -673845332 -805338801 1599059879</internalNodes>
          <leafValues>
            -2.4810346961021423e-01 3.9966180920600891e-01</leafValues></_>
        <_>
          <internalNodes>
            0 -1 51 2125942846 -1400233596 1971507985 -1976634618
            1914770499 -96779128 286591538 -1895952254</internalNodes>
          <leafValues>
            -3.7764087319374084e-01 2.4163502454757690e-01</leafValues></_>
        <_>
          <internalNodes>
            0 -1 183 -638329349 -1617080181 -1015838794 -205593810
            1305702229 -1472831837 -441494192 -1003237541</internalNodes>
          <leafValues>
            -3.2917073369026184e-01 2.3996248841285706e-01</leafValues></_>
        <_>
          <internalNodes>
            0 -1 158 -141750289 -1176862102 -1265568583 -52246910
            1107431583 -769556433 -794278520 -293125809</internalNodes>
          <leafValues>
            -2.6017695665359497e-01 3.2156416773796082e-01</leafValues></_>
        <_>
          <internalNodes>
            0 -1 216 2045246519 -147664537 1482314003 1571410946
            28130055 1897151009 1619739087 -2062202857</internalNodes>
          <leafValues>
            -3.1565770506858826e-01 2.5499480962753296e-01</leafValues></_>
        <_>
          <internalNodes>
            0 -1 4 -26199362 -758602411 -519809763 773202800 -889065799
            -1312286080 -108612617 -1392487192</internalNodes>
          <leafValues>
            -3.2378530502319336e-01 2.5732713937759399e-01</leafValues></_>
        <_>
          <internalNodes>
            0 -1 57 1885184070 522414372 -2137755318 86230913 1711561836
            153169986 2042685582 811698822</internalNodes>
          <leafValues>
            -4.6386998891830444e-01 1.8147064745426178e-01</leafValues></_>
        <_>
          <internalNodes>
            0 -1 9 -1517631921 262611299 1482756123 -1438563070
            -909401319 1337014433 -1716512371 -842167864</internalNodes>
          <leafValues>
            -3.7307119369506836e-01 2.0931380987167358e-01</leafValues></_>
        <_>
          <internalNodes>
            0 -1 66 -1082810369 1604816463 1744515379 -205572737
            2096496362 -136347665 2126804956 1882060097</internalNodes>
          <leafValues>
            -1.8977443873882294e-01 4.3901637196540833e-01</leafValues></_>
        <_>
          <internalNodes>
            0 -1 209 -1593925344 1022798102 -46752361 -942384940
            1813739832 -116866853 1224425272 -268961838</internalNodes>
          <leafValues>
            -3.0832368135452271e-01 2.6052907109260559e-01</leafValues></_>
        <_>
          <internalNodes>
            0 -1 196 -1489039753 1810673534 -323076189 -135594005
            -2030154633 1802813405 1240442353 -197742975</internalNodes>
          <leafValues>
            -2.5836631655693054e-01 3.2634449005126953e-01</leafValues></_>
        <_>
          <internalNodes>
            0 -1 163 -365983704 1344079583 -1459120583 789776819
            -1550865664 66824801 -1668572920 -824210241</internalNodes>
          <leafValues>
            -2.9435431957244873e-01 2.8219446539878845e-01</leafValues></_>
        <_>
          <internalNodes>
            0 -1 93 1901657087 1727080424 -490853559 992723233 536638330
            2113208318 1996423062 -1375903175</internalNodes>
          <leafValues>
            -2.4722148478031158e-01 3.5970956087112427e-01</leafValues></_>
        <_>
          <internalNodes>
            0 -1 224 1010968428 -2124996009 310493305 -556576675
            -929690959 -2127570034 692526364 -1398844875</internalNodes>
          <leafValues>
            -3.5414618253707886e-01 2.3604609072208405e-01</leafValues></_>
        <_>
          <internalNodes>
            0 -1 119 -40845532 810599445 -786234116 -1821736782
            -528234000 -519923315 1344225469 -23764190</internalNodes>
          <leafValues>
            -3.0089569091796875e-01 2.8552836179733276e-01</leafValues></_>
        <_>
          <internalNodes>
            0 -1 225 -812628219 2089857884 1577669144 1170768640
            -267289755 -19918393 1821460592 1146995044</internalNodes>
          <leafValues>
            -4.1314893960952759e-01 2.1320945024490356e-01</leafValues></_>
        <_>
          <internalNodes>
            0 -1 210 -835285027 -1641354499 -310386693 -1077224352
            147985529 -1208180738 -1108107844 -893573726</internalNodes>
          <leafValues>
            -2.4777778983116150e-01 3.4550479054450989e-01</leafValues></_></weakClassifiers></_>
    <!-- stage 11 -->
    <_>
      <maxWeakCount>20</maxWeakCount>
      <stageThreshold>-6.9380086660385132e-01</stageThreshold>
      <weakClassifiers>
        <_>
          <internalNodes>
            0 -1 12 -22368534 -643394 1317973294 261025758 -21168222
            -131330 -167247874 789236478</internalNodes>
          <leafValues>
            -3.3932584524154663e-01 4.5048922300338745e-01</leafValues></_>
        <_>
          <internalNodes>
            0 -1 71 -9216673 -219197493 -180349455 1010266607 -20971537
            1325358799 -713755173 -438049457</internalNodes>
          <leafValues>
            -2.1963091194629669e-01 4.0094351768493652e-01</leafValues></_>
        <_>
          <internalNodes>
            0 -1 161 1426224590 -1723128250 -1857257387 -203392463
            -267366004 2111078691 -16862294 -114150109</internalNodes>
          <leafValues>
            -3.6255693435668945e-01 2.4827460944652557e-01</leafValues></_>
        <_>
          <internalNodes>
            0 -1 63 799518638 648487193 -150921165 -1304807668 687048687
            -92168061 -1559502277 -928517013</internalNodes>
          <leafValues>
            -3.7776905298233032e-01 2.2067964076995850e-01</leafValues></_>
        <_>
          <internalNodes>
            0 -1 91 -79570481 1530223899 -302653447 -281183887
            -195756595 -596181170 -151617549 -285910151</internalNodes>
          <leafValues>
            -2.0703710615634918e-01 3.9625489711761475e-01</leafValues></_>
        <_>
          <internalNodes>
            0 -1 44 500828113 1096126936 -153733416 -1020923304
            807436604 131085 -2050581009 1439685451</internalNodes>
          <leafValues>
            -3.0286750197410583e-01 2.6364588737487793e-01</leafValues></_>
        <_>
          <internalNodes>
            0 -1 220 -756941097 -67160829 1845455999 -201806225
            774933831 -104270059 -1970106657 -1080824037</internalNodes>
          <leafValues>
            -1.6091217100620270e-01 4.8337009549140930e-01</leafValues></_>
        <_>
          <internalNodes>
            0 -1 148 -466820832 542938895 -482508508 -892579398
            -526831449 775488133 1636411749 1291161762</internalNodes>
          <leafValues>
            -4.6812194585800171e-01 1.8740762770175934e-01</leafValues></_>
        <_>
          <internalNodes>
            0 -1 99 1353791987 1354397373 -285770143 -358482061
            1438512376 1420787167 -33686482 -239126323</internalNodes>
          <leafValues>
            -2.4489873647689819e-01 3.2083854079246521e-01</leafValues></_>
        <_>
          <internalNodes>
            0 -1 217 -2105308895 2139994588 -1856289531 -35777751
            -1876193456 -649460694 -372000688 1039653313</internalNodes>
          <leafValues>
            -3.3054986596107483e-01 2.4750104546546936e-01</leafValues></_>
        <_>
          <internalNodes>
            0 -1 139 -1117701234 1495590530 -50467619 -7934348 670386171
            -881721505 1173865887 -379206392</internalNodes>
          <leafValues>
            -2.3575921356678009e-01 3.3306449651718140e-01</leafValues></_>
        <_>
          <internalNodes>
            0 -1 28 835849510 388201863 149311514 597695298 -1609482223
            66612 -225658145 262174911</internalNodes>
          <leafValues>
            -3.9476570487022400e-01 1.9871635735034943e-01</leafValues></_>
        <_>
          <internalNodes>
            0 -1 125 -299390270 374996500 795692583 557043161 -322652757
            1296453582 -1213125357 -806634337</internalNodes>
          <leafValues>
            -2.6846942305564880e-01 2.9210755228996277e-01</leafValues></_>
        <_>
          <internalNodes>
            0 -1 212 -436476843 -1157091397 50017309 1911440864
            -58775579 -1094714441 -26753 -1746426270</internalNodes>
          <leafValues>
            -2.1345882117748260e-01 3.5731190443038940e-01</leafValues></_>
        <_>
          <internalNodes>
            0 -1 162 -2014895060 -34810290 117708994 110135433
            1806448904 -1390608278 551510218 360180023</internalNodes>
          <leafValues>
            -4.0877807140350342e-01 1.8981257081031799e-01</leafValues></_>
        <_>
          <internalNodes>
            0 -1 32 -440162836 849653965 2233627 633297280 -179838683
            -2137882318 451094408 -698098038</internalNodes>
          <leafValues>
            -4.0298566222190857e-01 2.2139996290206909e-01</leafValues></_>
        <_>
          <internalNodes>
            0 -1 227 80642419 -1801215863 -788475855 -1426017640
            31821093 -2141970077 -1989603939 1374450573</internalNodes>
          <leafValues>
            -3.3516094088554382e-01 2.3283858597278595e-01</leafValues></_>
        <_>
          <internalNodes>
            0 -1 180 1186304179 -94306305 -88527095 -1913592177
            -539639811 -334643882 -76224957 -1468666105</internalNodes>
          <leafValues>
            -2.3505850136280060e-01 3.5276135802268982e-01</leafValues></_>
        <_>
          <internalNodes>
            0 -1 30 -1391399494 507529850 1234525662 -284686640
            -287145340 984844530 -1448572668 -437994048</internalNodes>
          <leafValues>
            -3.8535097241401672e-01 2.2398641705513000e-01</leafValues></_>
        <_>
          <internalNodes>
            0 -1 104 -1440482339 -2054005966 -281299009 -873767493
            -1254504722 1911749489 -566286419 -201347617</internalNodes>
          <leafValues>
            -1.6919213533401489e-01 4.9160280823707581e-01</leafValues></_></weakClassifiers></_>
    <!-- stage 12 -->
    <_>
      <maxWeakCount>20</maxWeakCount>
      <stageThreshold>-7.4847811460494995e-01</stageThreshold>
      <weakClassifiers>
        <_>
          <internalNodes>
            0 -1 178 1960186206 -1028849921 666791807 -998595841
            -386906866 -571047938 -1209258750 -19892686</internalNodes>
          <leafValues>
            -1.2891566753387451e-01 5.1013827323913574e-01</leafValues></_>
        <_>
          <internalNodes>
            0 -1 22 -894765953 -1420916691 -140553979 -1367080941
            1745614847 1770586432 -330114423 -1966090529</internalNodes>
          <leafValues>
            -3.2540637254714966e-01 2.7976354956626892e-01</leafValues></_>
        <_>
          <internalNodes>
            0 -1 152 2071324635 -1269055910 1878662219 -8442857
            -1218129441 -1636507658 -1851636597 -34980241</internalNodes>
          <leafValues>
            -2.3262023925781250e-01 3.5987341403961182e-01</leafValues></_>
        <_>
          <internalNodes>
            0 -1 89 -615219238 1528634714 127760625 2020564241
            1075091551 925762315 -1036590109 -2004039253</internalNodes>
          <leafValues>
            -3.2146552205085754e-01 2.5477334856987000e-01</leafValues></_>
        <_>
          <internalNodes>
            0 -1 147 -218502564 187420945 -243207814 756273435
            -1119497732 -2132539115 2075807996 -1532306278</internalNodes>
          <leafValues>
            -3.5302799940109253e-01 2.2586373984813690e-01</leafValues></_>
        <_>
          <internalNodes>
            0 -1 120 -272369765 -550535201 -1510043877 858857361
            888012552 -822132817 -59519869 -913840971</internalNodes>
          <leafValues>
            -2.4708321690559387e-01 3.2488849759101868e-01</leafValues></_>
        <_>
          <internalNodes>
            0 -1 218 1363097399 1069932829 285802695 -1257905046
            1159870247 -1727240043 1771774351 -1923758205</internalNodes>
          <leafValues>
            -2.8096818923950195e-01 2.7136772871017456e-01</leafValues></_>
        <_>
          <internalNodes>
            0 -1 108 -545786881 -231379635 -1090650625 -1879867605
            -588982817 -41961474 -269134421 -426295302</internalNodes>
          <leafValues>
            -1.5821374952793121e-01 4.7879785299301147e-01</leafValues></_>
        <_>
          <internalNodes>
            0 -1 133 738405666 119714200 1293010430 -620067896 134811887
            1216432290 1149561066 -918452020</internalNodes>
          <leafValues>
            -4.2859295010566711e-01 1.9128793478012085e-01</leafValues></_>
        <_>
          <internalNodes>
            0 -1 150 -898520025 88066554 -1522466509 908037123
            -2000470099 -477656837 216287713 1157663523</internalNodes>
          <leafValues>
            -3.1617310643196106e-01 2.4013283848762512e-01</leafValues></_>
        <_>
          <internalNodes>
            0 -1 231 1824643490 -685599467 -2057547152 458438794
            -564230235 1642119681 799214568 533407986</internalNodes>
          <leafValues>
            -2.8290763497352600e-01 2.7758571505546570e-01</leafValues></_>
        <_>
          <internalNodes>
            0 -1 95 -202247432 326732053 1103713903 268633093
            -1801096793 -2013161375 1401431881 -197539583</internalNodes>
          <leafValues>
            -2.7683651447296143e-01 2.8572911024093628e-01</leafValues></_>
        <_>
          <internalNodes>
            0 -1 194 -889290750 -1263221511 -346318699 -1293802496
            1621515061 387973875 -1692278482 -195826113</internalNodes>
          <leafValues>
            -3.5476103425025940e-01 2.2080555558204651e-01</leafValues></_>
        <_>
          <internalNodes>
            0 -1 189 -126441776 1136902774 -1010805802 2143199240
            612803028 -1106742076 1483404184 -686564862</internalNodes>
          <leafValues>
            -2.7383500337600708e-01 2.7238702774047852e-01</leafValues></_>
        <_>
          <internalNodes>
            0 -1 15 -1931664664 -889421814 1880998298 1896570959
            1499047048 -1936690450 1111602412 -318978652</internalNodes>
          <leafValues>
            -3.0811077356338501e-01 2.4509444832801819e-01</leafValues></_>
        <_>
          <internalNodes>
            0 -1 230 -1479814895 -166396384 -201345999 -1742637307
            -1580219690 229877304 -1375756546 -309854870</internalNodes>
          <leafValues>
            -1.8224033713340759e-01 4.0191692113876343e-01</leafValues></_>
        <_>
          <internalNodes>
            0 -1 234 -310658704 1093128203 -1323727071 -578553666
            -2115286317 -1974828533 1187508768 -318299136</internalNodes>
          <leafValues>
            -2.7832645177841187e-01 2.8186777234077454e-01</leafValues></_>
        <_>
          <internalNodes>
            0 -1 173 333952216 -1782217472 1384430112 -2137103697
            -2120787969 -1585282899 -1183186870 -375848934</internalNodes>
          <leafValues>
            -3.0633133649826050e-01 2.6800704002380371e-01</leafValues></_>
        <_>
          <internalNodes>
            0 -1 46 683083605 983339917 -230215273 425208868 1834033301
            20369835 -1299315972 370287914</internalNodes>
          <leafValues>
            -3.9451995491981506e-01 2.0363159477710724e-01</leafValues></_>
        <_>
          <internalNodes>
            0 -1 18 -663341638 161731880 317723880 4601194 1343850944
            -1456887750 -909927877 151558314</internalNodes>
          <leafValues>
            -5.3553563356399536e-01 1.4732132852077484e-01</leafValues></_></weakClassifiers></_>
    <!-- stage 13 -->
    <_>
      <maxWeakCount>21</maxWeakCount>
      <stageThreshold>-8.3762127161026001e-01</stageThreshold>
      <weakClassifiers>
        <_>
          <internalNodes>
            0 -1 176 1433358815 1585323964 -2469889 1970806334
            -1368074786 -1099530913 -856633970 -1541272565</internalNodes>
          <leafValues>
            -4.4477760791778564e-02 5.2238059043884277e-01</leafValues></_>
        <_>
          <internalNodes>
            0 -1 53 868217088 -1397281243 916909631 -297862351 360576055
            -805322852 1073721279 -268719366</internalNodes>
          <leafValues>
            -2.7191284298896790e-01 3.1111371517181396e-01</leafValues></_>
        <_>
          <internalNodes>
            0 -1 52 1710559583 -20062235 2038472561 2053894099 -269384
            -289427515 -178933590 -807420514</internalNodes>
          <leafValues>
            -2.3007875680923462e-01 3.5962465405464172e-01</leafValues></_>
        <_>
          <internalNodes>
            0 -1 49 -1571640681 437564172 1359266063 -402386855
            -1112489855 -1232699130 -234540965 -1363265549</internalNodes>
          <leafValues>
            -3.6993202567100525e-01 2.0920708775520325e-01</leafValues></_>
        <_>
          <internalNodes>
            0 -1 75 1942999293 1199912321 780977847 -838423803 402891163
            1653279170 1342936152 149928121</internalNodes>
          <leafValues>
            -3.2822054624557495e-01 2.2577498853206635e-01</leafValues></_>
        <_>
          <internalNodes>
            0 -1 153 1456600742 -616254177 235062416 -41779166
            1082405286 -1876588374 -186764880 -2031211422</internalNodes>
          <leafValues>
            -3.4867784380912781e-01 2.3132412135601044e-01</leafValues></_>
        <_>
          <internalNodes>
            0 -1 191 1681309918 1075626123 -774924131 1426851582
            -395065465 -1735183915 -1110644445 -1074594041</internalNodes>
          <leafValues>
            -2.8496223688125610e-01 2.6680803298950195e-01</leafValues></_>
        <_>
          <internalNodes>
            0 -1 111 2077562270 1912800047 1166917592 760444232
            918556921 -1693014014 692192095 -289313709</internalNodes>
          <leafValues>
            -2.8577473759651184e-01 2.7090317010879517e-01</leafValues></_>
        <_>
          <internalNodes>
            0 -1 80 1676692731 1923334123 -1074147422 -205295195
            349478332 1431119232 -1143184689 1297585351</internalNodes>
          <leafValues>
            -2.4564744532108307e-01 3.0622369050979614e-01</leafValues></_>
        <_>
          <internalNodes>
            0 -1 199 12189812 -1886497580 -819847725 -451611364
            1251561717 -1432444799 -951220987 -109838000</internalNodes>
          <leafValues>
            -4.7129806876182556e-01 1.5529812872409821e-01</leafValues></_>
        <_>
          <internalNodes>
            0 -1 223 1418324751 2127040413 1734835862 -1152352404
            1196721637 939524015 -962253315 775534765</internalNodes>
          <leafValues>
            -2.5898304581642151e-01 2.8779107332229614e-01</leafValues></_>
        <_>
          <internalNodes>
            0 -1 29 -772475418 -416853663 -1727986545 1971446900
            -2141679374 148564835 -905902913 -1396252441</internalNodes>
          <leafValues>
            -2.6464191079139709e-01 3.0511784553527832e-01</leafValues></_>
        <_>
          <internalNodes>
            0 -1 112 41558304 404359974 51095103 24805918 -363918316
            -1346362984 1009807756 -226034169</internalNodes>
          <leafValues>
            -4.2227208614349365e-01 1.8031042814254761e-01</leafValues></_>
        <_>
          <internalNodes>
            0 -1 5 1539237247 1925498879 782956168 -33902657 -989993729
            -1211011234 -950445458 -62433515</internalNodes>
          <leafValues>
            -2.0394417643547058e-01 3.7557315826416016e-01</leafValues></_>
        <_>
          <internalNodes>
            0 -1 186 -1443823729 -288182602 804650379 986135808
            -1024434721 -1219199107 -371504054 -62957249</internalNodes>
          <leafValues>
            -2.3586291074752808e-01 3.3721941709518433e-01</leafValues></_>
        <_>
          <internalNodes>
            0 -1 143 -523766366 1764491283 880829215 456132360 868173827
            -2087525277 -520401853 -1536430841</internalNodes>
          <leafValues>
            -3.2911357283592224e-01 2.3972797393798828e-01</leafValues></_>
        <_>
          <internalNodes>
            0 -1 90 379555293 -562234417 -468168867 -1945579773
            1969077461 1609891188 -1551650871 512346061</internalNodes>
          <leafValues>
            -2.5106126070022583e-01 3.3613368868827820e-01</leafValues></_>
        <_>
          <internalNodes>
            0 -1 7 -846147879 -415096425 -1877978015 -1924876406
            554174717 -1876402175 -937599055 -1409743680</internalNodes>
          <leafValues>
            -2.8393295407295227e-01 2.8225916624069214e-01</leafValues></_>
        <_>
          <internalNodes>
            0 -1 138 754618126 -766751909 1359614613 322504801
            -967896547 -400424951 -2093487423 -1934109337</internalNodes>
          <leafValues>
            -2.8280666470527649e-01 2.8351655602455139e-01</leafValues></_>
        <_>
          <internalNodes>
            0 -1 156 -486903996 578253061 1758400540 24167526 689789093
            74465287 1899564200 1094790446</internalNodes>
          <leafValues>
            -4.0131577849388123e-01 1.9463630020618439e-01</leafValues></_>
        <_>
          <internalNodes>
            0 -1 229 -602939618 -1756025577 -617072343 -1890623422
            1153295304 1876877263 1934877651 -1314938277</internalNodes>
          <leafValues>
            -2.1945847570896149e-01 3.8190427422523499e-01</leafValues></_></weakClassifiers></_>
    <!-- stage 14 -->
    <_>
      <maxWeakCount>21</maxWeakCount>
      <stageThreshold>-9.5483702421188354e-01</stageThreshold>
      <weakClassifiers>
        <_>
          <internalNodes>
            0 -1 137 -161072644 -81367210 -38902307 1991916668
            -294162465 511049567 -177056565 -50180850</internalNodes>
          <leafValues>
            -3.6929056048393250e-02 5.2663624286651611e-01</leafValues></_>
        <_>
          <internalNodes>
            0 -1 48 -1062940930 475988788 -2113417131 1195647343
            1562896790 43918083 -2146858857 -1349799714</internalNodes>
          <leafValues>
            -4.2081052064895630e-01 2.2106371819972992e-01</leafValues></_>
        <_>
          <internalNodes>
            0 -1 116 1467957257 -1613687080 -1307412214 940768193
            -801650658 2075779739 2057043779 -2138315599</internalNodes>
          <leafValues>
            -3.3563995361328125e-01 2.2194172441959381e-01</leafValues></_>
        <_>
          <internalNodes>
            0 -1 115 2002497885 -1446280559 -884730360 -1656160240
            -229695320 -284454275 1901165715 -614878951</internalNodes>
          <leafValues>
            -2.8354358673095703e-01 2.6317527890205383e-01</leafValues></_>
        <_>
          <internalNodes>
            0 -1 179 -45615175 716541619 -268726367 229747857 -576127555
            -602133029 -1795676752 -361275593</internalNodes>
          <leafValues>
            -2.2662185132503510e-01 3.0771368741989136e-01</leafValues></_>
        <_>
          <internalNodes>
            0 -1 88 -680398337 -16285857 -1073913477 -970229993
            -428548433 1995898877 -289105990 316603903</internalNodes>
          <leafValues>
            -1.9602431356906891e-01 4.2588141560554504e-01</leafValues></_>
        <_>
          <internalNodes>
            0 -1 188 11424848 -146090875 101621050 -879588714 277688480
            -520912855 -108001980 -642812798</internalNodes>
          <leafValues>
            -4.0824368596076965e-01 1.9355297088623047e-01</leafValues></_>
        <_>
          <internalNodes>
            0 -1 77 1102544644 1866160963 2056307747 1881163185
            1104155462 171647290 1604577734 1698296477</internalNodes>
          <leafValues>
            -3.5146981477737427e-01 1.9764286279678345e-01</leafValues></_>
        <_>
          <internalNodes>
            0 -1 25 143904123 -1459471179 -1458564350 -2145352568
            1680117821 -1392500471 -880222046 -1467428705</internalNodes>
          <leafValues>
            -3.3742037415504456e-01 2.1581691503524780e-01</leafValues></_>
        <_>
          <internalNodes>
            0 -1 205 -1173364138 2003303531 -1141899521 387201822
            -990451993 -1627932803 -1895827489 -4678346</internalNodes>
          <leafValues>
            -2.2035789489746094e-01 3.3861958980560303e-01</leafValues></_>
        <_>
          <internalNodes>
            0 -1 151 770090938 1964036531 -37088783 -1156546344
            1361625599 -376010744 -577028385 -638223990</internalNodes>
          <leafValues>
            -2.6928389072418213e-01 2.8264543414115906e-01</leafValues></_>
        <_>
          <internalNodes>
            0 -1 130 -1283796611 -936317061 -398576 -1282216270
            365866296 1881333170 -33710152 1845468316</internalNodes>
          <leafValues>
            -2.4041981995105743e-01 2.9678201675415039e-01</leafValues></_>
        <_>
          <internalNodes>
            0 -1 207 1359235403 1712390490 1537843522 290730563
            1266745545 -404176796 1864382814 2001023079</internalNodes>
          <leafValues>
            -3.8413718342781067e-01 1.9802711904048920e-01</leafValues></_>
        <_>
          <internalNodes>
            0 -1 228 621663073 1974041523 -604095649 -1704526970
            1290125521 -1292860097 -1797308203 -863968017</internalNodes>
          <leafValues>
            -2.6974850893020630e-01 2.8662836551666260e-01</leafValues></_>
        <_>
          <internalNodes>
            0 -1 219 2025457950 -697978819 69026501 -652766247
            1611194252 -1320220079 136301355 855970566</internalNodes>
          <leafValues>
            -3.1743350625038147e-01 2.3962116241455078e-01</leafValues></_>
        <_>
          <internalNodes>
            0 -1 36 1038744575 -955646943 398278335 2146696055
            -588210177 -1915424954 -807506833 -844655441</internalNodes>
          <leafValues>
            -1.4938190579414368e-01 5.2419489622116089e-01</leafValues></_>
        <_>
          <internalNodes>
            0 -1 55 1368966002 -115273149 366630110 -1615838786 33869956
            -894951278 -875297588 61011970</internalNodes>
          <leafValues>
            -4.2268300056457520e-01 1.8582738935947418e-01</leafValues></_>
        <_>
          <internalNodes>
            0 -1 174 -1007944517 56655662 -1821313 -215548118
            -1787300173 205367807 2105382365 -1394398806</internalNodes>
          <leafValues>
            -2.1544903516769409e-01 3.5438305139541626e-01</leafValues></_>
        <_>
          <internalNodes>
            0 -1 211 1454000164 294556555 -1965442516 648581418
            612459125 1124761615 473382732 610717984</internalNodes>
          <leafValues>
            -5.0340712070465088e-01 1.5645326673984528e-01</leafValues></_>
        <_>
          <internalNodes>
            0 -1 59 1107486686 453198215 2086099064 1514199263
            -1876903464 998495172 -1500544553 -1319978491</internalNodes>
          <leafValues>
            -3.5240116715431213e-01 2.1775424480438232e-01</leafValues></_>
        <_>
          <internalNodes>
            0 -1 16 14034207 -668838821 1347062642 -465376570 306220842
            -802647287 -1496149342 2055547132</internalNodes>
          <leafValues>
            -3.1344318389892578e-01 2.3705413937568665e-01</leafValues></_></weakClassifiers></_></stages>
  <features>
    <_>
      <rect>
        0 3 10 5</rect></_>
    <_>
      <rect>
        0 3 10 9</rect></_>
    <_>
      <rect>
        0 9 10 7</rect></_>
    <_>
      <rect>
        0 15 8 5</rect></_>
    <_>
      <rect>
        0 21 9 3</rect></_>
    <_>
      <rect>
        0 24 5 2</rect></_>
    <_>
      <rect>
        1 0 6 8</rect></_>
    <_>
      <rect>
        1 3 7 4</rect></_>
    <_>
      <rect>
        1 6 8 7</rect></_>
    <_>
      <rect>
        1 7 7 3</rect></_>
    <_>
      <rect>
        1 19 4 3</rect></_>
    <_>
      <rect>
        2 0 9 10</rect></_>
    <_>
      <rect>
        2 8 7 5</rect></_>
    <_>
      <rect>
        2 9 6 2</rect></_>
    <_>
      <rect>
        2 10 6 2</rect></_>
    <_>
      <rect>
        2 13 2 2</rect></_>
    <_>
      <rect>
        2 15 2 3</rect></_>
    <_>
      <rect>
        2 24 7 2</rect></_>
    <_>
      <rect>
        3 14 6 4</rect></_>
    <_>
      <rect>
        3 18 4 4</rect></_>
    <_>
      <rect>
        3 22 8 2</rect></_>
    <_>
      <rect>
        4 4 7 6</rect></_>
    <_>
      <rect>
        4 5 4 5</rect></_>
    <_>
      <rect>
        5 5 5 7</rect></_>
    <_>
      <rect>
        5 6 6 4</rect></_>
    <_>
      <rect>
        5 8 2 4</rect></_>
    <_>
      <rect>
        5 14 8 4</rect></_>
    <_>
      <rect>
        5 15 5 3</rect></_>
    <_>
      <rect>
        5 19 4 2</rect></_>
    <_>
      <rect>
        5 19 4 3</rect></_>
    <_>
      <rect>
        5 24 5 2</rect></_>
    <_>
      <rect>
        6 5 4 6</rect></_>
    <_>
      <rect>
        6 5 7 6</rect></_>
    <_>
      <rect>
        6 7 8 7</rect></_>
    <_>
      <rect>
        6 8 5 3</rect></_>
    <_>
      <rect>
        6 12 2 2</rect></_>
    <_>
      <rect>
        6 17 4 4</rect></_>
    <_>
      <rect>
        6 19 2 3</rect></_>
    <_>
      <rect>
        6 19 3 2</rect></_>
    <_>
      <rect>
        7 7 5 4</rect></_>
    <_>
      <rect>
        7 10 2 1</rect></_>
    <_>
      <rect>
        7 10 2 2</rect></_>
    <_>
      <rect>
        7 11 2 1</rect></_>
    <_>
      <rect>
        7 11 4 2</rect></_>
    <_>
      <rect>
        7 13 5 5</rect></_>
    <_>
      <rect>
        7 16 7 4</rect></_>
    <_>
      <rect>
        7 18 2 2</rect></_>
    <_>
      <rect>
        7 19 3 2</rect></_>
    <_>
      <rect>
        8 5 3 6</rect></_>
    <_>
      <rect>
        8 8 1 4</rect></_>
    <_>
      <rect>
        8 9 1 3</rect></_>
    <_>
      <rect>
        8 12 2 3</rect></_>
    <_>
      <rect>
        8 13 7 4</rect></_>
    <_>
      <rect>
        8 14 2 2</rect></_>
    <_>
      <rect>
        8 15 1 1</rect></_>
    <_>
      <rect>
        8 15 3 4</rect></_>
    <_>
      <rect>
        8 15 6 4</rect></_>
    <_>
      <rect>
        8 16 5 2</rect></_>
    <_>
      <rect>
        8 16 7 3</rect></_>
    <_>
      <rect>
        8 18 5 2</rect></_>
    <_>
      <rect>
        8 19 3 3</rect></_>
    <_>
      <rect>
        8 22 2 1</rect></_>
    <_>
      <rect>
        8 23 4 2</rect></_>
    <_>
      <rect>
        9 9 2 2</rect></_>
    <_>
      <rect>
        9 9 3 5</rect></_>
    <_>
      <rect>
        9 10 3 2</rect></_>
    <_>
      <rect>
        9 10 4 3</rect></_>
    <_>
      <rect>
        9 10 5 4</rect></_>
    <_>
      <rect>
        9 11 3 3</rect></_>
    <_>
      <rect>
        9 11 4 3</rect></_>
    <_>
      <rect>
        9 12 3 3</rect></_>
    <_>
      <rect>
        9 12 4 3</rect></_>
    <_>
      <rect>
        9 13 3 5</rect></_>
    <_>
      <rect>
        9 13 5 3</rect></_>
    <_>
      <rect>
        9 14 1 2</rect></_>
    <_>
      <rect>
        9 14 2 2</rect></_>
    <_>
      <rect>
        9 14 3 2</rect></_>
    <_>
      <rect>
        9 15 3 2</rect></_>
    <_>
      <rect>
        9 15 4 2</rect></_>
    <_>
      <rect>
        9 16 1 3</rect></_>
    <_>
      <rect>
        9 17 6 3</rect></_>
    <_>
      <rect>
        9 21 6 3</rect></_>
    <_>
      <rect>
        10 4 5 6</rect></_>
    <_>
      <rect>
        10 5 6 6</rect></_>
    <_>
      <rect>
        10 7 2 6</rect></_>
    <_>
      <rect>
        10 7 3 4</rect></_>
    <_>
      <rect>
        10 8 3 2</rect></_>
    <_>
      <rect>
        10 9 1 2</rect></_>
    <_>
      <rect>
        10 9 4 3</rect></_>
    <_>
      <rect>
        10 10 3 3</rect></_>
    <_>
      <rect>
        10 10 5 4</rect></_>
    <_>
      <rect>
        10 11 3 2</rect></_>
    <_>
      <rect>
        10 11 4 3</rect></_>
    <_>
      <rect>
        10 12 2 3</rect></_>
    <_>
      <rect>
        10 12 3 3</rect></_>
    <_>
      <rect>
        10 13 2 1</rect></_>
    <_>
      <rect>
        10 13 3 5</rect></_>
    <_>
      <rect>
        10 13 4 3</rect></_>
    <_>
      <rect>
        10 14 2 2</rect></_>
    <_>
      <rect>
        10 15 5 3</rect></_>
    <_>
      <rect>
        10 16 1 1</rect></_>
    <_>
      <rect>
        10 18 3 2</rect></_>
    <_>
      <rect>
        10 21 1 1</rect></_>
    <_>
      <rect>
        10 21 3 3</rect></_>
    <_>
      <rect>
        11 3 6 5</rect></_>
    <_>
      <rect>
        11 5 5 5</rect></_>
    <_>
      <rect>
        11 6 3 3</rect></_>
    <_>
      <rect>
        11 8 3 3</rect></_>
    <_>
      <rect>
        11 9 3 3</rect></_>
    <_>
      <rect>
        11 9 3 4</rect></_>
    <_>
      <rect>
        11 9 4 3</rect></_>
    <_>
      <rect>
        11 10 3 2</rect></_>
    <_>
      <rect>
        11 11 1 1</rect></_>
    <_>
      <rect>
        11 11 5 3</rect></_>
    <_>
      <rect>
        11 11 6 3</rect></_>
    <_>
      <rect>
        11 11 6 5</rect></_>
    <_>
      <rect>
        11 12 2 3</rect></_>
    <_>
      <rect>
        11 12 4 3</rect></_>
    <_>
      <rect>
        11 13 4 3</rect></_>
    <_>
      <rect>
        11 14 1 1</rect></_>
    <_>
      <rect>
        11 14 2 2</rect></_>
    <_>
      <rect>
        11 14 4 3</rect></_>
    <_>
      <rect>
        11 15 4 2</rect></_>
    <_>
      <rect>
        11 15 4 4</rect></_>
    <_>
      <rect>
        11 15 5 4</rect></_>
    <_>
      <rect>
        11 16 2 1</rect></_>
    <_>
      <rect>
        11 16 3 2</rect></_>
    <_>
      <rect>
        11 17 4 2</rect></_>
    <_>
      <rect>
        11 18 3 2</rect></_>
    <_>
      <rect>
        11 20 1 1</rect></_>
    <_>
      <rect>
        11 24 2 2</rect></_>
    <_>
      <rect>
        11 26 2 1</rect></_>
    <_>
      <rect>
        12 7 3 4</rect></_>
    <_>
      <rect>
        12 8 2 2</rect></_>
    <_>
      <rect>
        12 9 3 3</rect></_>
    <_>
      <rect>
        12 9 3 4</rect></_>
    <_>
      <rect>
        12 10 3 3</rect></_>
    <_>
      <rect>
        12 11 3 3</rect></_>
    <_>
      <rect>
        12 12 2 2</rect></_>
    <_>
      <rect>
        12 12 3 2</rect></_>
    <_>
      <rect>
        12 12 3 3</rect></_>
    <_>
      <rect>
        12 13 3 3</rect></_>
    <_>
      <rect>
        12 14 3 2</rect></_>
    <_>
      <rect>
        12 15 2 2</rect></_>
    <_>
      <rect>
        12 15 2 3</rect></_>
    <_>
      <rect>
        12 15 3 3</rect></_>
    <_>
      <rect>
        12 16 3 2</rect></_>
    <_>
      <rect>
        12 17 2 3</rect></_>
    <_>
      <rect>
        12 18 2 1</rect></_>
    <_>
      <rect>
        12 19 1 1</rect></_>
    <_>
      <rect>
        12 21 3 2</rect></_>
    <_>
      <rect>
        13 9 2 2</rect></_>
    <_>
      <rect>
        13 9 3 4</rect></_>
    <_>
      <rect>
        13 10 3 2</rect></_>
    <_>
      <rect>
        13 11 1 1</rect></_>
    <_>
      <rect>
        13 11 5 4</rect></_>
    <_>
      <rect>
        13 12 1 1</rect></_>
    <_>
      <rect>
        13 12 2 3</rect></_>
    <_>
      <rect>
        13 12 3 2</rect></_>
    <_>
      <rect>
        13 12 3 3</rect></_>
    <_>
      <rect>
        13 13 3 1</rect></_>
    <_>
      <rect>
        13 14 3 3</rect></_>
    <_>
      <rect>
        13 14 5 2</rect></_>
    <_>
      <rect>
        13 17 1 1</rect></_>
    <_>
      <rect>
        13 18 2 2</rect></_>
    <_>
      <rect>
        13 18 5 4</rect></_>
    <_>
      <rect>
        13 20 2 1</rect></_>
    <_>
      <rect>
        13 20 2 2</rect></_>
    <_>
      <rect>
        13 26 2 1</rect></_>
    <_>
      <rect>
        14 6 3 3</rect></_>
    <_>
      <rect>
        14 8 2 3</rect></_>
    <_>
      <rect>
        14 9 2 4</rect></_>
    <_>
      <rect>
        14 10 3 2</rect></_>
    <_>
      <rect>
        14 10 3 3</rect></_>
    <_>
      <rect>
        14 11 2 2</rect></_>
    <_>
      <rect>
        14 11 2 3</rect></_>
    <_>
      <rect>
        14 12 2 3</rect></_>
    <_>
      <rect>
        14 13 2 3</rect></_>
    <_>
      <rect>
        14 13 3 3</rect></_>
    <_>
      <rect>
        14 16 2 4</rect></_>
    <_>
      <rect>
        14 16 3 4</rect></_>
    <_>
      <rect>
        14 18 1 1</rect></_>
    <_>
      <rect>
        14 18 2 3</rect></_>
    <_>
      <rect>
        14 20 2 1</rect></_>
    <_>
      <rect>
        15 6 3 4</rect></_>
    <_>
      <rect>
        15 8 2 4</rect></_>
    <_>
      <rect>
        15 9 2 4</rect></_>
    <_>
      <rect>
        15 9 3 2</rect></_>
    <_>
      <rect>
        15 11 2 2</rect></_>
    <_>
      <rect>
        15 13 1 1</rect></_>
    <_>
      <rect>
        15 13 2 2</rect></_>
    <_>
      <rect>
        15 13 2 3</rect></_>
    <_>
      <rect>
        15 14 2 3</rect></_>
    <_>
      <rect>
        15 18 1 1</rect></_>
    <_>
      <rect>
        15 18 2 1</rect></_>
    <_>
      <rect>
        15 21 1 1</rect></_>
    <_>
      <rect>
        15 23 1 1</rect></_>
    <_>
      <rect>
        16 8 1 2</rect></_>
    <_>
      <rect>
        16 8 2 4</rect></_>
    <_>
      <rect>
        16 9 1 2</rect></_>
    <_>
      <rect>
        16 9 2 1</rect></_>
    <_>
      <rect>
        16 9 3 4</rect></_>
    <_>
      <rect>
        16 10 2 2</rect></_>
    <_>
      <rect>
        16 11 1 1</rect></_>
    <_>
      <rect>
        16 15 2 2</rect></_>
    <_>
      <rect>
        16 16 2 2</rect></_>
    <_>
      <rect>
        16 24 1 2</rect></_>
    <_>
      <rect>
        17 3 4 5</rect></_>
    <_>
      <rect>
        17 9 2 1</rect></_>
    <_>
      <rect>
        17 11 1 1</rect></_>
    <_>
      <rect>
        17 13 1 1</rect></_>
    <_>
      <rect>
        17 15 2 2</rect></_>
    <_>
      <rect>
        17 16 2 2</rect></_>
    <_>
      <rect>
        17 17 4 4</rect></_>
    <_>
      <rect>
        17 21 1 1</rect></_>
    <_>
      <rect>
        18 4 3 5</rect></_>
    <_>
      <rect>
        18 10 3 2</rect></_>
    <_>
      <rect>
        18 11 1 1</rect></_>
    <_>
      <rect>
        18 11 3 2</rect></_>
    <_>
      <rect>
        18 11 4 4</rect></_>
    <_>
      <rect>
        18 14 3 4</rect></_>
    <_>
      <rect>
        18 15 2 2</rect></_>
    <_>
      <rect>
        18 15 4 4</rect></_>
    <_>
      <rect>
        18 16 3 2</rect></_>
    <_>
      <rect>
        19 13 1 2</rect></_>
    <_>
      <rect>
        19 21 3 2</rect></_>
    <_>
      <rect>
        20 10 2 3</rect></_>
    <_>
      <rect>
        20 11 2 3</rect></_>
    <_>
      <rect>
        20 14 2 2</rect></_>
    <_>
      <rect>
        21 10 3 5</rect></_>
    <_>
      <rect>
        21 15 1 1</rect></_>
    <_>
      <rect>
        21 18 3 2</rect></_>
    <_>
      <rect>
        21 20 1 2</rect></_>
    <_>
      <rect>
        23 15 2 2</rect></_>
    <_>
      <rect>
        24 5 2 6</rect></_></features></cascade>
</opencv_storage>
