<?xml version="1.0"?>
<opencv_storage>
<cascade>
  <stageType>BOOST</stageType>
  <featureType>LBP</featureType>
  <height>30</height>
  <width>30</width>
  <stageParams>
    <boostType>GAB</boostType>
    <minHitRate>9.9500000476837158e-01</minHitRate>
    <maxFalseAlarm>5.0000000000000000e-01</maxFalseAlarm>
    <weightTrimRate>9.4999999999999996e-01</weightTrimRate>
    <maxDepth>1</maxDepth>
    <maxWeakCount>100</maxWeakCount></stageParams>
  <featureParams>
    <maxCatCount>256</maxCatCount>
    <featSize>1</featSize></featureParams>
  <stageNum>15</stageNum>
  <stages>
    <!-- stage 0 -->
    <_>
      <maxWeakCount>7</maxWeakCount>
      <stageThreshold>-1.3303736448287964e+00</stageThreshold>
      <weakClassifiers>
        <_>
          <internalNodes>
            0 -1 75 -67635713 299827253 842677027 335216817 -67109889
            1543459295 993760255 867897535</internalNodes>
          <leafValues>
            -4.0388169884681702e-01 7.4921792745590210e-01</leafValues></_>
        <_>
          <internalNodes>
            0 -1 61 -581633584 -35521060 -573294723 -573178543
            -572923728 -665604 -565346580 -1206812</internalNodes>
          <leafValues>
            -5.3430062532424927e-01 6.0337847471237183e-01</leafValues></_>
        <_>
          <internalNodes>
            0 -1 12 -704992516 1623229568 -545200769 -4991588 -68438342
            -408368712 -103154689 -81938</internalNodes>
          <leafValues>
            -5.1068091392517090e-01 4.9969506263732910e-01</leafValues></_>
        <_>
          <internalNodes>
            0 -1 31 -372864864 -688350502 -1068198409 -547666748
            -1211965020 -41975455 -1105536514 -20818</internalNodes>
          <leafValues>
            -4.7605633735656738e-01 4.3989017605781555e-01</leafValues></_>
        <_>
          <internalNodes>
            0 -1 72 -137177089 -1694706319 369909244 -6662678
            -1157486616 -1650812423 782238204 -294787444</internalNodes>
          <leafValues>
            -4.2790961265563965e-01 4.6641144156455994e-01</leafValues></_>
        <_>
          <internalNodes>
            0 -1 84 746565245 -539147811 -45403151 -102792355 -516804272
            -50760471 -644338180 -1342420560</internalNodes>
          <leafValues>
            -4.6547833085060120e-01 3.9584878087043762e-01</leafValues></_>
        <_>
          <internalNodes>
            0 -1 174 1713244174 -572626536 -1492591073 -6898102
            -398821169 -49757719 -375741762 -1170606589</internalNodes>
          <leafValues>
            -4.3838861584663391e-01 4.1988950967788696e-01</leafValues></_></weakClassifiers></_>
    <!-- stage 1 -->
    <_>
      <maxWeakCount>9</maxWeakCount>
      <stageThreshold>-1.2658238410949707e+00</stageThreshold>
      <weakClassifiers>
        <_>
          <internalNodes>
            0 -1 82 825579007 892595537 1899188735 1997799167 1085232319
            355958717 1174164991 1433623007</internalNodes>
          <leafValues>
            -4.7398188710212708e-01 6.7060494422912598e-01</leafValues></_>
        <_>
          <internalNodes>
            0 -1 1 -152241414 -55902230 100728827 -29818883 -4653830
            -65620 -1617887238 -5570834</internalNodes>
          <leafValues>
            -4.8722231388092041e-01 5.5175691843032837e-01</leafValues></_>
        <_>
          <internalNodes>
            0 -1 41 -558727040 -12924806 -734279448 -539253282 -6624464
            -22357821 -1144262917 -262918</internalNodes>
          <leafValues>
            -5.1585346460342407e-01 4.3868911266326904e-01</leafValues></_>
        <_>
          <internalNodes>
            0 -1 177 -1376428 1972958101 1427915771 -1075156060
            1003091965 -201694569 -217973763 -2180568</internalNodes>
          <leafValues>
            -5.0204986333847046e-01 4.1044464707374573e-01</leafValues></_>
        <_>
          <internalNodes>
            0 -1 152 -19169313 1009781140 -170714209 1071701403
            -946902083 -1937203313 -2083055176 -1432293676</internalNodes>
          <leafValues>
            -4.0289568901062012e-01 4.2583459615707397e-01</leafValues></_>
        <_>
          <internalNodes>
            0 -1 78 -848361420 -1279487122 -199730732 -309046972
            -1897284928 -1214280564 -1617237920 -8552712</internalNodes>
          <leafValues>
            -5.9886395931243896e-01 2.4196383357048035e-01</leafValues></_>
        <_>
          <internalNodes>
            0 -1 58 190162293 358187281 -1185331371 -1621843843
            -258109251 -1718984520 -1160673571 -1918514020</internalNodes>
          <leafValues>
            -3.7966874241828918e-01 4.1807231307029724e-01</leafValues></_>
        <_>
          <internalNodes>
            0 -1 98 1582804975 1462857201 -1376915923 -142742305
            -2131173650 1618108404 -868876546 -841876241</internalNodes>
          <leafValues>
            -3.3441603183746338e-01 4.6353715658187866e-01</leafValues></_>
        <_>
          <internalNodes>
            0 -1 24 -293422085 -2012589815 -1684679411 -870277867
            -1071999025 -1364684110 2064372443 -1944814071</internalNodes>
          <leafValues>
            -3.9493629336357117e-01 3.7204679846763611e-01</leafValues></_></weakClassifiers></_>
    <!-- stage 2 -->
    <_>
      <maxWeakCount>10</maxWeakCount>
      <stageThreshold>-1.2549262046813965e+00</stageThreshold>
      <weakClassifiers>
        <_>
          <internalNodes>
            0 -1 138 -20316161 -38805727 -1040374653 252644875
            -2132761346 -2310403 16386203 145687567</internalNodes>
          <leafValues>
            -3.3467742800712585e-01 6.6334658861160278e-01</leafValues></_>
        <_>
          <internalNodes>
            0 -1 38 -131073 -160876 -4390913 -39321635 -650051670
            -103753536 -69406802 -36373096</internalNodes>
          <leafValues>
            -3.3881819248199463e-01 6.4404350519180298e-01</leafValues></_>
        <_>
          <internalNodes>
            0 -1 53 -296299524 -621100361 -438773762 -6636583
            -1494492440 -305423370 -822171480 -553702664</internalNodes>
          <leafValues>
            -4.4772636890411377e-01 4.3905821442604065e-01</leafValues></_>
        <_>
          <internalNodes>
            0 -1 202 -10781643 -243548363 -76120227 -5013641 -601411083
            -1175011939 -295757059 -9179269</internalNodes>
          <leafValues>
            -3.3155733346939087e-01 4.9009609222412109e-01</leafValues></_>
        <_>
          <internalNodes>
            0 -1 17 1945544738 707782670 -1755324433 -279232049
            -1386112369 1821084330 -510067769 -905982833</internalNodes>
          <leafValues>
            -4.5812305808067322e-01 3.4586066007614136e-01</leafValues></_>
        <_>
          <internalNodes>
            0 -1 162 -507838497 -135590115 -268615813 -38065863
            -1733233153 -104988801 -1435834465 -1364054725</internalNodes>
          <leafValues>
            -2.9740774631500244e-01 4.9758929014205933e-01</leafValues></_>
        <_>
          <internalNodes>
            0 -1 137 -271453354 570462586 272748918 1691933470 857508988
            -560226217 1227882768 -1129776514</internalNodes>
          <leafValues>
            -4.6845674514770508e-01 2.8922873735427856e-01</leafValues></_>
        <_>
          <internalNodes>
            0 -1 145 -598153381 1977331891 -167005524 -2068533202
            1224826489 -630221235 -1821259440 -322901455</internalNodes>
          <leafValues>
            -4.3087452650070190e-01 3.2271537184715271e-01</leafValues></_>
        <_>
          <internalNodes>
            0 -1 104 -1621002243 -57492007 -440299093 -1116962466
            998947833 -473992727 1101732749 -306309552</internalNodes>
          <leafValues>
            -3.6413744091987610e-01 3.8724344968795776e-01</leafValues></_>
        <_>
          <internalNodes>
            0 -1 62 321355407 1127308293 -1753745235 -687341978
            473991114 -822786147 -572657718 -579744305</internalNodes>
          <leafValues>
            -3.3701705932617188e-01 4.1484475135803223e-01</leafValues></_></weakClassifiers></_>
    <!-- stage 3 -->
    <_>
      <maxWeakCount>13</maxWeakCount>
      <stageThreshold>-1.0322480201721191e+00</stageThreshold>
      <weakClassifiers>
        <_>
          <internalNodes>
            0 -1 163 -22347916 -1114185 -8203 -619422022 -1 -1627389953
            -17956869 -1118469</internalNodes>
          <leafValues>
            -2.2854562103748322e-01 6.6191232204437256e-01</leafValues></_>
        <_>
          <internalNodes>
            0 -1 9 -613431162 -672141690 -88306443 -3150193 -19991410
            -808583714 -1798898193 -7340817</internalNodes>
          <leafValues>
            -3.6820474267005920e-01 5.0102579593658447e-01</leafValues></_>
        <_>
          <internalNodes>
            0 -1 106 -1613845184 2103566158 -9077323 -585367971
            -553656341 -1245347 -540684804 -67123747</internalNodes>
          <leafValues>
            -3.9068329334259033e-01 4.3353372812271118e-01</leafValues></_>
        <_>
          <internalNodes>
            0 -1 85 -270586073 -1980520097 -673875521 -1479192309
            -640462731 -1580151946 -974307084 -658906240</internalNodes>
          <leafValues>
            -4.3045705556869507e-01 3.5178923606872559e-01</leafValues></_>
        <_>
          <internalNodes>
            0 -1 203 -10881547 -33571081 -1116416257 -268501659
            -1543971155 -1210081412 502551829 -67564275</internalNodes>
          <leafValues>
            -3.5775274038314819e-01 3.9097931981086731e-01</leafValues></_>
        <_>
          <internalNodes>
            0 -1 65 1466429183 1527842096 -1376125209 -1247420803
            1153598922 -444181100 -1918579474 -17314611</internalNodes>
          <leafValues>
            -3.2174268364906311e-01 4.4188487529754639e-01</leafValues></_>
        <_>
          <internalNodes>
            0 -1 55 -350373379 -633884676 423280351 -1129124320
            -281043236 -4325558 -1912757288 -366152480</internalNodes>
          <leafValues>
            -3.2787582278251648e-01 3.9724561572074890e-01</leafValues></_>
        <_>
          <internalNodes>
            0 -1 46 -2146795014 1264374140 -1769271145 -182131946
            30057949 -1652545137 -2020414161 -679557911</internalNodes>
          <leafValues>
            -3.8314893841743469e-01 3.3350968360900879e-01</leafValues></_>
        <_>
          <internalNodes>
            0 -1 161 -327227525 1250980154 -2004290724 712248702
            1514009728 -1125633304 -2138563228 -1124686400</internalNodes>
          <leafValues>
            -4.1787242889404297e-01 3.0864241719245911e-01</leafValues></_>
        <_>
          <internalNodes>
            0 -1 118 -864362539 -1709637778 -37962955 -1716322364
            1031560564 -1361682826 -134318651 -1712649</internalNodes>
          <leafValues>
            -3.4625414013862610e-01 3.7940952181816101e-01</leafValues></_>
        <_>
          <internalNodes>
            0 -1 136 -172818958 -150933574 -9315529 -1624181870
            209652937 -1396767233 240058407 -742701670</internalNodes>
          <leafValues>
            -3.0839875340461731e-01 3.9752221107482910e-01</leafValues></_>
        <_>
          <internalNodes>
            0 -1 170 -224877132 1381581892 -268291053 -1870363373
            -1509948757 -1988001621 -1966536257 118296323</internalNodes>
          <leafValues>
            -5.0553983449935913e-01 2.3417255282402039e-01</leafValues></_>
        <_>
          <internalNodes>
            0 -1 77 2125446098 -354746672 1264258843 -1345634422
            -285232461 -1127154184 -1078003192 -4137959</internalNodes>
          <leafValues>
            -3.3988904953002930e-01 3.5276192426681519e-01</leafValues></_></weakClassifiers></_>
    <!-- stage 4 -->
    <_>
      <maxWeakCount>12</maxWeakCount>
      <stageThreshold>-1.2852944135665894e+00</stageThreshold>
      <weakClassifiers>
        <_>
          <internalNodes>
            0 -1 143 -308351186 -6654149 -134286478 -67776656 -537002017
            -25176066 -4211777 -65</internalNodes>
          <leafValues>
            -2.6877984404563904e-01 7.0841223001480103e-01</leafValues></_>
        <_>
          <internalNodes>
            0 -1 14 -942674738 -528465 -117554026 -638582937 -1207973683
            -581042225 -322968321 -85201461</internalNodes>
          <leafValues>
            -3.9833605289459229e-01 4.6390679478645325e-01</leafValues></_>
        <_>
          <internalNodes>
            0 -1 42 -126882074 -109605429 -354459649 -138412209
            -268456757 -570433588 1877954495 -69218641</internalNodes>
          <leafValues>
            -3.2022184133529663e-01 5.3944379091262817e-01</leafValues></_>
        <_>
          <internalNodes>
            0 -1 119 -269488721 -1565148229 -67698689 -243793921
            -301990193 -134219907 -17832465 -134742809</internalNodes>
          <leafValues>
            -3.0359697341918945e-01 5.1886570453643799e-01</leafValues></_>
        <_>
          <internalNodes>
            0 -1 97 -7212034 1968275276 -184721411 -579476107 -590037342
            -16416850 -554369394 -546183425</internalNodes>
          <leafValues>
            -3.5443305969238281e-01 3.8338056206703186e-01</leafValues></_>
        <_>
          <internalNodes>
            0 -1 153 1842802655 -864822315 1225622972 -1436098324
            1773466484 101900321 -494931104 -809503749</internalNodes>
          <leafValues>
            -3.9827349781990051e-01 3.3552289009094238e-01</leafValues></_>
        <_>
          <internalNodes>
            0 -1 33 -321789990 2102485779 76030135 940646403 -930576196
            -16252623 730540187 1244856371</internalNodes>
          <leafValues>
            -3.8859033584594727e-01 3.2296606898307800e-01</leafValues></_>
        <_>
          <internalNodes>
            0 -1 86 -1526846236 609523151 -1961663617 -1695403569
            613445649 -1077952388 2020367308 -1359086560</internalNodes>
          <leafValues>
            -5.3166830539703369e-01 2.4341168999671936e-01</leafValues></_>
        <_>
          <internalNodes>
            0 -1 11 2021742071 -819723426 -1056355172 -1766286262
            143168447 -1355968486 -1517582176 -169805068</internalNodes>
          <leafValues>
            -4.0909814834594727e-01 2.9716801643371582e-01</leafValues></_>
        <_>
          <internalNodes>
            0 -1 93 -94700069 420740672 -320625923 -1222050277
            -212361249 -214927553 -54689601 -545535361</internalNodes>
          <leafValues>
            -2.3306092619895935e-01 5.7796573638916016e-01</leafValues></_>
        <_>
          <internalNodes>
            0 -1 190 -496292346 1294600461 -218064006 988221906
            294267396 168731467 405407100 -220465630</internalNodes>
          <leafValues>
            -4.7775629162788391e-01 2.8695940971374512e-01</leafValues></_>
        <_>
          <internalNodes>
            0 -1 37 -475861202 -150545078 -393910346 -493198 1118220686
            -1022912563 332081116 -527444242</internalNodes>
          <leafValues>
            -3.8746660947799683e-01 3.3983767032623291e-01</leafValues></_></weakClassifiers></_>
    <!-- stage 5 -->
    <_>
      <maxWeakCount>12</maxWeakCount>
      <stageThreshold>-9.6215420961380005e-01</stageThreshold>
      <weakClassifiers>
        <_>
          <internalNodes>
            0 -1 68 2013003515 1931705633 1966816215 2004352359
            1142574926 1143275335 1154965471 1903689711</internalNodes>
          <leafValues>
            -3.8045975565910339e-01 6.2488263845443726e-01</leafValues></_>
        <_>
          <internalNodes>
            0 -1 43 -613691700 -1446018 -536879370 -46153809 -269561883
            -1216513 -2363397 -67125281</internalNodes>
          <leafValues>
            -3.7262371182441711e-01 5.1546621322631836e-01</leafValues></_>
        <_>
          <internalNodes>
            0 -1 155 -12194290 -186924122 830546697 1427491111
            -129506873 -643774309 822565667 2064900391</internalNodes>
          <leafValues>
            -4.1461810469627380e-01 3.8633027672767639e-01</leafValues></_>
        <_>
          <internalNodes>
            0 -1 128 -395318289 -352913701 -368510994 -387518001
            -172512457 1690661223 -143654969 -990393465</internalNodes>
          <leafValues>
            -4.2763069272041321e-01 3.3427572250366211e-01</leafValues></_>
        <_>
          <internalNodes>
            0 -1 34 -286349266 -180502239 -949906401 -147403966
            800571302 261675395 -619461893 1284498478</internalNodes>
          <leafValues>
            -4.2557284235954285e-01 3.2071220874786377e-01</leafValues></_>
        <_>
          <internalNodes>
            0 -1 189 -1907710925 1716142599 1208371151 -108221950
            -766774785 -118767577 -668296422 -269688254</internalNodes>
          <leafValues>
            -3.9567279815673828e-01 3.1120032072067261e-01</leafValues></_>
        <_>
          <internalNodes>
            0 -1 141 -101190251 -2138875746 -139305512 677933178
            1720973637 1623949939 -1827057340 -251692041</internalNodes>
          <leafValues>
            -4.3377026915550232e-01 2.8451505303382874e-01</leafValues></_>
        <_>
          <internalNodes>
            0 -1 83 -207773988 -577108600 967508308 -570859187
            -1164188236 -1205231318 169943072 -1107357331</internalNodes>
          <leafValues>
            -4.6890559792518616e-01 2.6788085699081421e-01</leafValues></_>
        <_>
          <internalNodes>
            0 -1 80 -1438668961 -684225185 -1166024833 -920137859
            -1510374315 -2261259 -294322695 -1887442337</internalNodes>
          <leafValues>
            -2.8681331872940063e-01 4.4868558645248413e-01</leafValues></_>
        <_>
          <internalNodes>
            0 -1 64 -380656893 989975343 322392080 -928544702 -769995179
            789302125 -496887444 -1604677339</internalNodes>
          <leafValues>
            -3.6604467034339905e-01 3.4344387054443359e-01</leafValues></_>
        <_>
          <internalNodes>
            0 -1 185 1656121830 1277475258 -1333441487 -580196040
            1062545377 -2146237972 84869952 -55574538</internalNodes>
          <leafValues>
            -3.8279986381530762e-01 3.1536370515823364e-01</leafValues></_>
        <_>
          <internalNodes>
            0 -1 105 -530323827 2100294065 -1376803841 -138439122
            1961800630 -931138067 297776619 -49291609</internalNodes>
          <leafValues>
            -2.3875598609447479e-01 5.0294214487075806e-01</leafValues></_></weakClassifiers></_>
    <!-- stage 6 -->
    <_>
      <maxWeakCount>13</maxWeakCount>
      <stageThreshold>-9.2440724372863770e-01</stageThreshold>
      <weakClassifiers>
        <_>
          <internalNodes>
            0 -1 50 2003826671 922840580 -38831105 -114819729 1149191567
            1416101700 100398299 1358168015</internalNodes>
          <leafValues>
            -3.2836675643920898e-01 6.0470032691955566e-01</leafValues></_>
        <_>
          <internalNodes>
            0 -1 44 -234889236 -570754310 -117523266 -8863906 -455612961
            -82577 -151126054 -17</internalNodes>
          <leafValues>
            -3.6064389348030090e-01 4.6327999234199524e-01</leafValues></_>
        <_>
          <internalNodes>
            0 -1 81 -337400025 -1948274885 -302256171 -336007350
            -134682847 -1073762817 -2030205464 -302395409</internalNodes>
          <leafValues>
            -3.5710230469703674e-01 4.2705860733985901e-01</leafValues></_>
        <_>
          <internalNodes>
            0 -1 16 -269537362 -944889 808602174 -1499950852 -1457837634
            -351563520 1693056382 1388034987</internalNodes>
          <leafValues>
            -5.0409907102584839e-01 2.7196022868156433e-01</leafValues></_>
        <_>
          <internalNodes>
            0 -1 140 -1394606611 -1033850941 -1045326962 -1401371309
            -11293149 -2128746725 -820782272 -1342230529</internalNodes>
          <leafValues>
            -4.0073210000991821e-01 3.4097561240196228e-01</leafValues></_>
        <_>
          <internalNodes>
            0 -1 102 1156838382 1442025855 2046876876 1406478395
            -1057707602 1895017091 -364574034 -411745566</internalNodes>
          <leafValues>
            -4.5056742429733276e-01 2.7438133955001831e-01</leafValues></_>
        <_>
          <internalNodes>
            0 -1 172 -203987166 -434408093 4261666 -883199413 1113515379
            -669855613 -53495804 2021653079</internalNodes>
          <leafValues>
            -4.4422939419746399e-01 2.8866329789161682e-01</leafValues></_>
        <_>
          <internalNodes>
            0 -1 122 -580920387 215798735 -2137799233 -795152802
            1465141125 -1140487005 486264896 -421134533</internalNodes>
          <leafValues>
            -3.7534716725349426e-01 3.3953285217285156e-01</leafValues></_>
        <_>
          <internalNodes>
            0 -1 66 -1576032478 1772872961 139903082 -634194663
            1941880853 -677177081 -47252114 -827135928</internalNodes>
          <leafValues>
            -4.2503285408020020e-01 2.9263526201248169e-01</leafValues></_>
        <_>
          <internalNodes>
            0 -1 94 -66127484 487457997 855778121 84609399 -299304308
            -1928691390 855814891 860709087</internalNodes>
          <leafValues>
            -4.8332628607749939e-01 2.7271392941474915e-01</leafValues></_>
        <_>
          <internalNodes>
            0 -1 89 -354432909 779871483 -376356001 -1806682425
            1499096400 1428505436 -1857322788 -273940560</internalNodes>
          <leafValues>
            -3.5705330967903137e-01 3.4805411100387573e-01</leafValues></_>
        <_>
          <internalNodes>
            0 -1 168 -957371038 -1310909458 -209555444 -1165520934
            287332199 412391619 -821479053 -756598301</internalNodes>
          <leafValues>
            -3.9502811431884766e-01 3.1086030602455139e-01</leafValues></_>
        <_>
          <internalNodes>
            0 -1 32 -89806100 1543783221 1090666656 1080424937 -28732690
            1519460873 -1022394312 -84112426</internalNodes>
          <leafValues>
            -3.8008329272270203e-01 3.3059695363044739e-01</leafValues></_></weakClassifiers></_>
    <!-- stage 7 -->
    <_>
      <maxWeakCount>13</maxWeakCount>
      <stageThreshold>-1.1351158618927002e+00</stageThreshold>
      <weakClassifiers>
        <_>
          <internalNodes>
            0 -1 67 -25231876 -8519681 -1 -46153793 -301998595 -50335745
            -808245096 -18010332</internalNodes>
          <leafValues>
            -2.0157325267791748e-01 6.0766518115997314e-01</leafValues></_>
        <_>
          <internalNodes>
            0 -1 47 1465996767 354549277 -1289794145 -613187971
            1171279304 -538980531 930533019 -7610420</internalNodes>
          <leafValues>
            -2.7578428387641907e-01 4.9178925156593323e-01</leafValues></_>
        <_>
          <internalNodes>
            0 -1 165 -1406982389 -288188961 -988491267 -824807100
            -687677185 -386799443 -211224065 -17001582</internalNodes>
          <leafValues>
            -4.1652947664260864e-01 3.2640424370765686e-01</leafValues></_>
        <_>
          <internalNodes>
            0 -1 123 145786176 -539363363 1405348183 -71475207
            1323343796 -1182760040 2030295807 -1892955241</internalNodes>
          <leafValues>
            -4.2894512414932251e-01 3.0397844314575195e-01</leafValues></_>
        <_>
          <internalNodes>
            0 -1 0 -1785287822 -52788976 -812745484 -13593350
            -1202664458 -51582924 -7541829 -84488552</internalNodes>
          <leafValues>
            -4.5031446218490601e-01 2.9090222716331482e-01</leafValues></_>
        <_>
          <internalNodes>
            0 -1 151 -543295651 1317605376 1432089349 665781519
            -1442785305 -1406119390 -1206324549 -1371699453</internalNodes>
          <leafValues>
            -3.6634114384651184e-01 3.2906070351600647e-01</leafValues></_>
        <_>
          <internalNodes>
            0 -1 19 580969983 -138248258 -844170385 1610574703
            -2081313557 -388744834 -864058145 -288700204</internalNodes>
          <leafValues>
            -3.0814999341964722e-01 3.6438670754432678e-01</leafValues></_>
        <_>
          <internalNodes>
            0 -1 121 -1214792225 -1114736068 -8591363 -183439406
            -522377987 -1147838996 -1644325811 -1951301907</internalNodes>
          <leafValues>
            -2.8498959541320801e-01 4.1514453291893005e-01</leafValues></_>
        <_>
          <internalNodes>
            0 -1 171 1818413535 -1636261873 -2129444993 -684706422
            440213499 260571591 -1189662340 -352560676</internalNodes>
          <leafValues>
            -3.3122253417968750e-01 3.1966742873191833e-01</leafValues></_>
        <_>
          <internalNodes>
            0 -1 201 -738721995 -34128284 1878226943 -612670489
            -1292383559 -75694225 -92751233 -352792967</internalNodes>
          <leafValues>
            -2.5976395606994629e-01 4.4287750124931335e-01</leafValues></_>
        <_>
          <internalNodes>
            0 -1 198 -2113009138 853218075 474014074 926464094
            -2094849416 -1198359424 -712624364 -297934556</internalNodes>
          <leafValues>
            -4.1915157437324524e-01 2.7458566427230835e-01</leafValues></_>
        <_>
          <internalNodes>
            0 -1 70 1256647211 -1548119665 2016084799 -234600557
            104544768 2070134825 1763260948 -658152858</internalNodes>
          <leafValues>
            -4.8003366589546204e-01 2.1750421822071075e-01</leafValues></_>
        <_>
          <internalNodes>
            0 -1 95 -1405908352 -79432487 162071821 207241230 -595153488
            -374988550 2055869698 453509640</internalNodes>
          <leafValues>
            -5.9976804256439209e-01 1.6757252812385559e-01</leafValues></_></weakClassifiers></_>
    <!-- stage 8 -->
    <_>
      <maxWeakCount>14</maxWeakCount>
      <stageThreshold>-1.0863238573074341e+00</stageThreshold>
      <weakClassifiers>
        <_>
          <internalNodes>
            0 -1 76 -536874497 1373437963 656448322 287642383 -2097306
            1367298397 1997668274 1361310207</internalNodes>
          <leafValues>
            -2.0775906741619110e-01 5.9564465284347534e-01</leafValues></_>
        <_>
          <internalNodes>
            0 -1 13 1082949119 -705900758 -789529101 -572391426
            -724384290 -105188101 -1338452523 -51741445</internalNodes>
          <leafValues>
            -2.9309508204460144e-01 4.7265815734863281e-01</leafValues></_>
        <_>
          <internalNodes>
            0 -1 116 -319435004 -136355513 -2061903403 -581217209
            668289511 -1480351069 162353135 -268449041</internalNodes>
          <leafValues>
            -3.5945177078247070e-01 3.7687847018241882e-01</leafValues></_>
        <_>
          <internalNodes>
            0 -1 166 -1025511641 1088340439 -1147504193 -388863730
            -221282185 -1735474869 -1087262993 -558896129</internalNodes>
          <leafValues>
            -3.9853709936141968e-01 3.3455297350883484e-01</leafValues></_>
        <_>
          <internalNodes>
            0 -1 20 -524289289 -936218129 234610622 -8594217 1860654315
            -273779233 -1477053189 -25174021</internalNodes>
          <leafValues>
            -2.7202633023262024e-01 4.4088932871818542e-01</leafValues></_>
        <_>
          <internalNodes>
            0 -1 60 534066192 -1718935205 353199427 -563209912
            1522213376 976928854 -345398959 -615364028</internalNodes>
          <leafValues>
            -4.6395665407180786e-01 2.3679222166538239e-01</leafValues></_>
        <_>
          <internalNodes>
            0 -1 56 -83099697 2064743231 -1368389378 -1460000546
            -1210581032 -1443758251 -1455723781 -70012705</internalNodes>
          <leafValues>
            -2.8421938419342041e-01 4.0444955229759216e-01</leafValues></_>
        <_>
          <internalNodes>
            0 -1 117 1324874503 -632389777 -404324893 -445022217
            -1895971019 -998804139 -950296580 -388503913</internalNodes>
          <leafValues>
            -2.9523673653602600e-01 3.6851370334625244e-01</leafValues></_>
        <_>
          <internalNodes>
            0 -1 15 1152373795 204140637 1911796127 -426683757
            1510578761 4413835 -1068211475 617900765</internalNodes>
          <leafValues>
            -4.4883543252944946e-01 2.2746500372886658e-01</leafValues></_>
        <_>
          <internalNodes>
            0 -1 150 -497702953 -1563365349 -682757298 861287768
            -1845404539 -344190195 566448216 2095578109</internalNodes>
          <leafValues>
            -3.5132667422294617e-01 2.7799692749977112e-01</leafValues></_>
        <_>
          <internalNodes>
            0 -1 99 -1563177010 826476709 1640187219 934384353
            -1514323383 1910614033 1670678734 -73305599</internalNodes>
          <leafValues>
            -3.5427534580230713e-01 2.8091573715209961e-01</leafValues></_>
        <_>
          <internalNodes>
            0 -1 54 2006136319 -692451461 219862092 -1362439396
            -389196663 1452822667 1016204192 -86000904</internalNodes>
          <leafValues>
            -3.4271922707557678e-01 2.8735426068305969e-01</leafValues></_>
        <_>
          <internalNodes>
            0 -1 176 -1433419845 14607511 410693947 -1079815827
            1073838489 38137232 -1970960928 -1964356807</internalNodes>
          <leafValues>
            -3.3103856444358826e-01 2.9317864775657654e-01</leafValues></_>
        <_>
          <internalNodes>
            0 -1 25 -32398848 -804666088 1029648776 1811480767
            -1112541893 -912746079 -615798513 -781664302</internalNodes>
          <leafValues>
            -3.6314278841018677e-01 2.8912046551704407e-01</leafValues></_></weakClassifiers></_>
    <!-- stage 9 -->
    <_>
      <maxWeakCount>16</maxWeakCount>
      <stageThreshold>-7.3992639780044556e-01</stageThreshold>
      <weakClassifiers>
        <_>
          <internalNodes>
            0 -1 156 -889213137 -488456195 -201326593 -233767122
            -2051031057 -487489611 -269090817 -1145835617</internalNodes>
          <leafValues>
            -9.6146047115325928e-02 6.3281470537185669e-01</leafValues></_>
        <_>
          <internalNodes>
            0 -1 134 -74777094 -584420405 -1324977190 -4012118
            -1048437267 -1962770333 -830013304 -539795974</internalNodes>
          <leafValues>
            -3.6393335461616516e-01 3.7922134995460510e-01</leafValues></_>
        <_>
          <internalNodes>
            0 -1 57 -119155204 -652367480 -1147719217 -618272194
            1426123165 -1600014197 1757522669 -38421588</internalNodes>
          <leafValues>
            -4.3852701783180237e-01 3.0267521739006042e-01</leafValues></_>
        <_>
          <internalNodes>
            0 -1 10 79823103 591741120 -1744809763 -466530273 -238521858
            -873619272 -1459154693 -1347706821</internalNodes>
          <leafValues>
            -3.2928499579429626e-01 3.2311251759529114e-01</leafValues></_>
        <_>
          <internalNodes>
            0 -1 71 -1015027345 1704026451 -116321825 1966916045
            1272414036 1874790495 -1649800880 -1397773816</internalNodes>
          <leafValues>
            -3.7293243408203125e-01 2.8831452131271362e-01</leafValues></_>
        <_>
          <internalNodes>
            0 -1 124 -1066431697 872369405 -1360020371 -609536072
            -369370929 -52959569 -778321969 -23070161</internalNodes>
          <leafValues>
            -2.6973700523376465e-01 3.9149349927902222e-01</leafValues></_>
        <_>
          <internalNodes>
            0 -1 195 -553659055 -36489337 1727915855 -1097859356
            -1483128667 -1111972108 -135290899 -1178629027</internalNodes>
          <leafValues>
            -2.6411899924278259e-01 3.7881529331207275e-01</leafValues></_>
        <_>
          <internalNodes>
            0 -1 88 -562837126 -644066796 91308348 -116678502 -307035138
            -1673254719 -382989590 -580648696</internalNodes>
          <leafValues>
            -4.0407997369766235e-01 2.5094011425971985e-01</leafValues></_>
        <_>
          <internalNodes>
            0 -1 92 -989749213 1795668939 190787771 1557465813
            -255204303 1942469416 466457327 -95579165</internalNodes>
          <leafValues>
            -2.6806014776229858e-01 3.8985797762870789e-01</leafValues></_>
        <_>
          <internalNodes>
            0 -1 204 -537168619 2099810071 -2130593699 -1551762319
            -1960197671 -2002253692 -1474565952 -1146904195</internalNodes>
          <leafValues>
            -3.3461239933967590e-01 2.8896033763885498e-01</leafValues></_>
        <_>
          <internalNodes>
            0 -1 111 -541645517 -78884599 688097593 -1180163903
            1090124117 1620814070 537063805 1089786211</internalNodes>
          <leafValues>
            -3.8413590192794800e-01 2.6533886790275574e-01</leafValues></_>
        <_>
          <internalNodes>
            0 -1 200 901234687 334896827 -1632638137 353678894 392582272
            1962375094 -907038224 -342118922</internalNodes>
          <leafValues>
            -2.7869230508804321e-01 3.5049372911453247e-01</leafValues></_>
        <_>
          <internalNodes>
            0 -1 3 -678548932 -1327617530 62601 -1625679988 990092979
            5091888 -1577010177 -121180466</internalNodes>
          <leafValues>
            -4.3701267242431641e-01 2.2504176199436188e-01</leafValues></_>
        <_>
          <internalNodes>
            0 -1 90 1448274422 1095893459 298025941 361693208
            -1475364167 -1022721972 -1198314039 115336652</internalNodes>
          <leafValues>
            -3.2158794999122620e-01 3.0870321393013000e-01</leafValues></_>
        <_>
          <internalNodes>
            0 -1 2 -1572814559 -2080528294 190681179 265946813
            2076767127 -1924808433 1494974828 13131288</internalNodes>
          <leafValues>
            -4.0360197424888611e-01 2.2266557812690735e-01</leafValues></_>
        <_>
          <internalNodes>
            0 -1 59 -113785042 -680313353 -1086560356 -48015938
            1282399418 -1649418786 -998947270 2146260746</internalNodes>
          <leafValues>
            -2.5515076518058777e-01 3.7764003872871399e-01</leafValues></_></weakClassifiers></_>
    <!-- stage 10 -->
    <_>
      <maxWeakCount>18</maxWeakCount>
      <stageThreshold>-9.4518870115280151e-01</stageThreshold>
      <weakClassifiers>
        <_>
          <internalNodes>
            0 -1 35 1428414463 1963212292 -40243217 -1116342611
            1145363726 -240845394 -1838752165 -33700609</internalNodes>
          <leafValues>
            -4.8338368535041809e-02 6.3484483957290649e-01</leafValues></_>
        <_>
          <internalNodes>
            0 -1 125 -2097185 -33685505 128397057 -41567351 -1632195678
            -126496866 -1376973045 -135270518</internalNodes>
          <leafValues>
            -2.4433502554893494e-01 4.9075242877006531e-01</leafValues></_>
        <_>
          <internalNodes>
            0 -1 158 2143253431 2075606775 1069495966 1036290832
            2012187901 -1623198243 -167786244 -281826</internalNodes>
          <leafValues>
            -2.8061908483505249e-01 3.9775261282920837e-01</leafValues></_>
        <_>
          <internalNodes>
            0 -1 131 1082126080 -680019161 1995439735 -604545737
            -1358970881 -1082394890 -307059461 -893663513</internalNodes>
          <leafValues>
            -2.9843673110008240e-01 3.6425647139549255e-01</leafValues></_>
        <_>
          <internalNodes>
            0 -1 79 -371776681 928451151 27795955 -1179735989 -998029967
            -1594614623 -913662787 -1947358613</internalNodes>
          <leafValues>
            -3.3332100510597229e-01 2.8475975990295410e-01</leafValues></_>
        <_>
          <internalNodes>
            0 -1 193 -765825193 -1731170002 -794075185 -2320677
            -96482375 438872215 -356416711 -285580314</internalNodes>
          <leafValues>
            -2.9476702213287354e-01 3.1672739982604980e-01</leafValues></_>
        <_>
          <internalNodes>
            0 -1 181 -543836 1790120178 -1919434575 -1490478519
            1361658089 -1716942357 -2116427611 -37933167</internalNodes>
          <leafValues>
            -3.4335100650787354e-01 2.7398252487182617e-01</leafValues></_>
        <_>
          <internalNodes>
            0 -1 28 -69369906 1427709974 -2015084264 -541261800
            1213326331 972950285 1579206846 -1401628388</internalNodes>
          <leafValues>
            -3.7794160842895508e-01 2.5260072946548462e-01</leafValues></_>
        <_>
          <internalNodes>
            0 -1 135 106990882 -973858995 -645794858 342394531 135078160
            -1608474990 144471480 -265263241</internalNodes>
          <leafValues>
            -5.0544214248657227e-01 1.7558254301548004e-01</leafValues></_>
        <_>
          <internalNodes>
            0 -1 91 -492896812 46522789 -787318881 1760080200 1772177877
            1762853270 1076114616 -180384668</internalNodes>
          <leafValues>
            -3.7683328986167908e-01 2.3974281549453735e-01</leafValues></_>
        <_>
          <internalNodes>
            0 -1 96 28553162 39027759 -929852731 656638375 293832392
            -105670629 318871553 -1152237565</internalNodes>
          <leafValues>
            -3.5525816679000854e-01 2.5131419301033020e-01</leafValues></_>
        <_>
          <internalNodes>
            0 -1 107 -1033341196 -1829480999 -662465615 -152429648
            -1768224434 -416661365 -259528401 -910208681</internalNodes>
          <leafValues>
            -2.9622709751129150e-01 3.0297166109085083e-01</leafValues></_>
        <_>
          <internalNodes>
            0 -1 186 722897916 1968178824 -875621985 765076456
            -1075496211 -1283033059 1972582413 -1399972160</internalNodes>
          <leafValues>
            -4.1180866956710815e-01 2.1378925442695618e-01</leafValues></_>
        <_>
          <internalNodes>
            0 -1 207 -229551267 -1268665029 -4196817 832862743
            -545983663 -310509698 -1560777220 -79429686</internalNodes>
          <leafValues>
            -2.4422957003116608e-01 3.7288796901702881e-01</leafValues></_>
        <_>
          <internalNodes>
            0 -1 8 -388831838 -422297106 671183343 1864073744
            -1573837885 179994634 -1971108006 1753974982</internalNodes>
          <leafValues>
            -4.1296938061714172e-01 2.2376878559589386e-01</leafValues></_>
        <_>
          <internalNodes>
            0 -1 183 -1996615882 -2133404937 55910654 -1940254872
            36352741 -1291072357 1663273728 -1067194314</internalNodes>
          <leafValues>
            -3.7772753834724426e-01 2.4515512585639954e-01</leafValues></_>
        <_>
          <internalNodes>
            0 -1 39 2005905926 -1210203900 -652508922 -596492205
            1086923214 -526210928 -1726107217 -1578923171</internalNodes>
          <leafValues>
            -3.2954609394073486e-01 2.8706574440002441e-01</leafValues></_>
        <_>
          <internalNodes>
            0 -1 187 -1607272740 -1052388989 -717044782 -1122424551
            -1484223094 -363183413 -1899916913 772472883</internalNodes>
          <leafValues>
            -4.4162663817405701e-01 2.0288577675819397e-01</leafValues></_></weakClassifiers></_>
    <!-- stage 11 -->
    <_>
      <maxWeakCount>18</maxWeakCount>
      <stageThreshold>-1.0209997892379761e+00</stageThreshold>
      <weakClassifiers>
        <_>
          <internalNodes>
            0 -1 164 -352416209 -327745665 -1082195969 -203751490
            -386026773 -9043969 -268962369 -34603377</internalNodes>
          <leafValues>
            -7.3511295020580292e-02 6.1122018098831177e-01</leafValues></_>
        <_>
          <internalNodes>
            0 -1 21 -956306450 -1812242949 263182300 2143071470
            1308595387 -805505555 1191178159 -33561169</internalNodes>
          <leafValues>
            -3.0341258645057678e-01 3.6569547653198242e-01</leafValues></_>
        <_>
          <internalNodes>
            0 -1 146 -967858409 2066822147 254803863 -75512435 113202939
            -1174934465 -545788321 -583011969</internalNodes>
          <leafValues>
            -2.3597432672977448e-01 4.3660944700241089e-01</leafValues></_>
        <_>
          <internalNodes>
            0 -1 108 -14342 -857823230 1813013878 1409597018 -86399182
            988422144 1969615863 -193596866</internalNodes>
          <leafValues>
            -3.4502175450325012e-01 3.0778852105140686e-01</leafValues></_>
        <_>
          <internalNodes>
            0 -1 30 1699181902 -782917344 -1110186449 2099780425
            346764527 -1011642072 1418433775 -1468583473</internalNodes>
          <leafValues>
            -3.5542526841163635e-01 2.4670360982418060e-01</leafValues></_>
        <_>
          <internalNodes>
            0 -1 169 -142168666 -141171242 -1021112844 -1282174710
            -1016249627 -1985280370 1881766100 2109046246</internalNodes>
          <leafValues>
            -4.1120404005050659e-01 2.1517816185951233e-01</leafValues></_>
        <_>
          <internalNodes>
            0 -1 175 2001860388 1438357029 176316350 2071058575
            -659896211 -2009003900 -855472096 1585176866</internalNodes>
          <leafValues>
            -4.3190094828605652e-01 2.0730951428413391e-01</leafValues></_>
        <_>
          <internalNodes>
            0 -1 148 -742860326 -701181803 -1334824959 -1256652251
            -2120382105 584065042 -832362865 -985069937</internalNodes>
          <leafValues>
            -2.8876477479934692e-01 2.8888833522796631e-01</leafValues></_>
        <_>
          <internalNodes>
            0 -1 5 -2029608806 95027716 1838281837 -1491311085 466831824
            1659019993 1797324584 189303504</internalNodes>
          <leafValues>
            -4.4655737280845642e-01 1.9179420173168182e-01</leafValues></_>
        <_>
          <internalNodes>
            0 -1 157 -1649181707 1595388983 803651502 -1325204482
            -304337695 -1043116873 -268452004 -74257762</internalNodes>
          <leafValues>
            -2.7230164408683777e-01 3.2248774170875549e-01</leafValues></_>
        <_>
          <internalNodes>
            0 -1 101 -103077124 1382613128 1225345114 339951643
            307072505 181108740 2019377572 -723553460</internalNodes>
          <leafValues>
            -3.7707996368408203e-01 2.4128076434135437e-01</leafValues></_>
        <_>
          <internalNodes>
            0 -1 126 1683376780 1342702144 -1878814224 -657921825
            -90447555 -2146794968 -1680273129 -506729573</internalNodes>
          <leafValues>
            -2.8955724835395813e-01 2.9241710901260376e-01</leafValues></_>
        <_>
          <internalNodes>
            0 -1 48 -1463105814 1243906394 -1497332902 -1937448330
            -817419319 -358514682 21439018 -1899466190</internalNodes>
          <leafValues>
            -4.8402228951454163e-01 1.8110854923725128e-01</leafValues></_>
        <_>
          <internalNodes>
            0 -1 154 -1804405284 781848714 340213841 -684780785
            1648419039 -1848818557 1745221621 -1347014911</internalNodes>
          <leafValues>
            -3.5023018717765808e-01 2.3557762801647186e-01</leafValues></_>
        <_>
          <internalNodes>
            0 -1 182 -386005500 1090285884 -891215054 44962180
            -1874353963 102867715 -1290280060 -423658677</internalNodes>
          <leafValues>
            -3.7727949023246765e-01 2.3626530170440674e-01</leafValues></_>
        <_>
          <internalNodes>
            0 -1 132 -150807080 1879282342 1494522433 -567273005
            373639475 1343422852 913784979 1451776194</internalNodes>
          <leafValues>
            -3.7043410539627075e-01 2.3783886432647705e-01</leafValues></_>
        <_>
          <internalNodes>
            0 -1 85 -268719293 696616859 -1819176089 181340240
            -133899791 -1990045525 -1447713764 -1732343293</internalNodes>
          <leafValues>
            -2.8869217634201050e-01 3.0684283375740051e-01</leafValues></_>
        <_>
          <internalNodes>
            0 -1 63 -1438965246 -1150643854 -1055620998 -518485488
            2009127733 -521121150 -865610124 -1310137030</internalNodes>
          <leafValues>
            -3.9401471614837646e-01 2.3551583290100098e-01</leafValues></_></weakClassifiers></_>
    <!-- stage 12 -->
    <_>
      <maxWeakCount>18</maxWeakCount>
      <stageThreshold>-6.9757658243179321e-01</stageThreshold>
      <weakClassifiers>
        <_>
          <internalNodes>
            0 -1 87 -268851453 -426185 -336925889 -201867277 -1074966731
            -554459267 -136998608 -195297877</internalNodes>
          <leafValues>
            -1.4696486294269562e-01 5.5215913057327271e-01</leafValues></_>
        <_>
          <internalNodes>
            0 -1 137 -847257601 -1703477381 -573047438 -97845926
            -1921385743 -1662067073 1577053372 -68419841</internalNodes>
          <leafValues>
            -2.5537094473838806e-01 4.1571417450904846e-01</leafValues></_>
        <_>
          <internalNodes>
            0 -1 199 -361364942 -1187322597 1368055902 -643906238
            -887383303 -87080437 -371565585 -80223634</internalNodes>
          <leafValues>
            -3.7065020203590393e-01 2.9338833689689636e-01</leafValues></_>
        <_>
          <internalNodes>
            0 -1 40 -1147933990 1568402022 -139299085 -56323 -47063877
            -1422344974 -353240849 -1088700212</internalNodes>
          <leafValues>
            -2.8927356004714966e-01 3.4038668870925903e-01</leafValues></_>
        <_>
          <internalNodes>
            0 -1 6 -325042316 -453721668 500357238 -1879572198
            -308233340 -1415542620 -896662676 -9536854</internalNodes>
          <leafValues>
            -4.9825444817543030e-01 1.5452131628990173e-01</leafValues></_>
        <_>
          <internalNodes>
            0 -1 142 -1493332049 1613110235 1661720919 1934942665
            755732103 -2112681854 1635995915 1681383971</internalNodes>
          <leafValues>
            -3.8176727294921875e-01 2.5039991736412048e-01</leafValues></_>
        <_>
          <internalNodes>
            0 -1 69 -295858660 -1405857465 -174112770 -619588089
            -558666979 -1488534272 -72463682 -566444680</internalNodes>
          <leafValues>
            -3.0443161725997925e-01 2.7607068419456482e-01</leafValues></_>
        <_>
          <internalNodes>
            0 -1 184 -235014972 -1068219796 1342751157 1490403334
            -461128921 1240064663 976754435 -50331883</internalNodes>
          <leafValues>
            -2.8585413098335266e-01 2.9334238171577454e-01</leafValues></_>
        <_>
          <internalNodes>
            0 -1 147 -1079118079 660036286 -515677423 51184830
            -1977859375 -1039892223 538501837 134579345</internalNodes>
          <leafValues>
            -3.7682723999023438e-01 2.3439285159111023e-01</leafValues></_>
        <_>
          <internalNodes>
            0 -1 103 -1490089449 2139972977 -1995880611 -40424906
            -90183728 1498651403 -47362976 -631347069</internalNodes>
          <leafValues>
            -2.9532465338706970e-01 2.9719096422195435e-01</leafValues></_>
        <_>
          <internalNodes>
            0 -1 18 77996278 -575729458 -1146439665 -1111018279
            -1098722634 -1110961917 -795202263 -360179246</internalNodes>
          <leafValues>
            -2.7744489908218384e-01 3.0397620797157288e-01</leafValues></_>
        <_>
          <internalNodes>
            0 -1 109 -6302081 -583137842 -1569326661 -523407353
            -906830340 -1109398148 960727505 -76090547</internalNodes>
          <leafValues>
            -1.8081948161125183e-01 4.4738376140594482e-01</leafValues></_>
        <_>
          <internalNodes>
            0 -1 167 -25982153 -1212698627 -402703389 -1881822027
            -16939073 1929329614 -411298129 -839017145</internalNodes>
          <leafValues>
            -2.2045205533504486e-01 3.9700499176979065e-01</leafValues></_>
        <_>
          <internalNodes>
            0 -1 22 -823175267 -1431015906 1375658599 -247712348
            1751101679 -570720390 1156542067 -52463659</internalNodes>
          <leafValues>
            -2.5720438361167908e-01 3.4091320633888245e-01</leafValues></_>
        <_>
          <internalNodes>
            0 -1 113 -393563816 1010778379 -199840462 -1953832536
            -375066120 -1386352880 22445028 -81789468</internalNodes>
          <leafValues>
            -3.2813248038291931e-01 2.6301792263984680e-01</leafValues></_>
        <_>
          <internalNodes>
            0 -1 194 1434181108 278857769 27464638 281579802 1210695868
            -2012671711 1026253021 -1392539182</internalNodes>
          <leafValues>
            -3.2044902443885803e-01 2.7641245722770691e-01</leafValues></_>
        <_>
          <internalNodes>
            0 -1 160 -328234011 1750778067 1208698843 213209467
            1883968257 -95679308 2064619745 -427856917</internalNodes>
          <leafValues>
            -3.1145739555358887e-01 2.9234367609024048e-01</leafValues></_>
        <_>
          <internalNodes>
            0 -1 208 -1946815897 456562969 55292754 1076762043
            2049118833 2111924305 -1809829321 282118213</internalNodes>
          <leafValues>
            -3.8764110207557678e-01 2.1542803943157196e-01</leafValues></_></weakClassifiers></_>
    <!-- stage 13 -->
    <_>
      <maxWeakCount>19</maxWeakCount>
      <stageThreshold>-7.4758887290954590e-01</stageThreshold>
      <weakClassifiers>
        <_>
          <internalNodes>
            0 -1 197 -1360648924 -16465 2138734463 -536907789 -268472705
            -1082163419 -136372359 2071161459</internalNodes>
          <leafValues>
            -2.3672883212566376e-01 5.0586193799972534e-01</leafValues></_>
        <_>
          <internalNodes>
            0 -1 36 -572657761 -70210224 -1079120137 -1780876196
            -1178558790 -800785258 -537609025 -6813733</internalNodes>
          <leafValues>
            -2.8642645478248596e-01 4.0303751826286316e-01</leafValues></_>
        <_>
          <internalNodes>
            0 -1 74 302169278 -796212978 186371087 -654291636 689099386
            -1081538385 255913948 -1624572194</internalNodes>
          <leafValues>
            -4.2343688011169434e-01 2.4090117216110229e-01</leafValues></_>
        <_>
          <internalNodes>
            0 -1 52 2010341235 860044199 -1284278507 -1281246147
            1711228678 -1383457394 -268470281 -283412793</internalNodes>
          <leafValues>
            -2.9060000181198120e-01 3.1758409738540649e-01</leafValues></_>
        <_>
          <internalNodes>
            0 -1 159 -295704594 749856079 1820941788 -374232053
            -386834313 1350670544 -618051562 -155205706</internalNodes>
          <leafValues>
            -3.8280111551284790e-01 2.3380354046821594e-01</leafValues></_>
        <_>
          <internalNodes>
            0 -1 112 -312480118 607613815 -1290497872 -1262055216
            -386156409 1077348419 -2129418102 71373204</internalNodes>
          <leafValues>
            -5.6145417690277100e-01 1.2109217792749405e-01</leafValues></_>
        <_>
          <internalNodes>
            0 -1 130 -227444441 1900407698 1945365459 1369842607
            2118178537 -348831755 2095575005 -897995948</internalNodes>
          <leafValues>
            -2.6172116398811340e-01 3.5350081324577332e-01</leafValues></_>
        <_>
          <internalNodes>
            0 -1 23 375281631 338989375 1633026278 956565508 -1743056746
            -1152743293 1481650730 415539095</internalNodes>
          <leafValues>
            -4.1827711462974548e-01 2.2791957855224609e-01</leafValues></_>
        <_>
          <internalNodes>
            0 -1 206 -169415868 1465594127 -680198886 -134348030
            305078532 -20731192 422095096 -1974519808</internalNodes>
          <leafValues>
            -3.8537761569023132e-01 2.0841354131698608e-01</leafValues></_>
        <_>
          <internalNodes>
            0 -1 18 -1878462209 -1781858101 1697641334 2054160348
            -1389560361 -545519617 -2088438013 -112208483</internalNodes>
          <leafValues>
            -2.1057681739330292e-01 4.1563677787780762e-01</leafValues></_>
        <_>
          <internalNodes>
            0 -1 45 1054539508 1104941397 923528969 295711725 -485962940
            -510955190 1761824516 818454923</internalNodes>
          <leafValues>
            -4.3740144371986389e-01 1.9430029392242432e-01</leafValues></_>
        <_>
          <internalNodes>
            0 -1 73 -2048551685 922226971 1930825169 -1031780096
            -661059139 1915210370 428412304 -1510282961</internalNodes>
          <leafValues>
            -2.9345035552978516e-01 2.9005169868469238e-01</leafValues></_>
        <_>
          <internalNodes>
            0 -1 66 -818223870 244216403 478632926 -588496806 -846478470
            -1617778606 467323006 -1758481814</internalNodes>
          <leafValues>
            -3.0048108100891113e-01 2.8436759114265442e-01</leafValues></_>
        <_>
          <internalNodes>
            0 -1 196 2012207667 -667959337 -19619329 -27787338
            -1526810973 -1661487373 -312680521 -89410142</internalNodes>
          <leafValues>
            -2.1150185167789459e-01 4.1151031851768494e-01</leafValues></_>
        <_>
          <internalNodes>
            0 -1 178 -238419162 -45693802 -1724230849 -1415689766
            856470133 422183185 461478620 -495863790</internalNodes>
          <leafValues>
            -3.4855037927627563e-01 2.4665996432304382e-01</leafValues></_>
        <_>
          <internalNodes>
            0 -1 205 -545810563 1782642486 -1491621893 -2058012829
            -646029919 -1719799821 1052370173 -621881469</internalNodes>
          <leafValues>
            -2.5062164664268494e-01 3.4641677141189575e-01</leafValues></_>
        <_>
          <internalNodes>
            0 -1 115 -468492228 -660726307 -1723641709 -941276793
            1410783419 -116616959 996014247 171836914</internalNodes>
          <leafValues>
            -2.9902547597885132e-01 2.8809401392936707e-01</leafValues></_>
        <_>
          <internalNodes>
            0 -1 127 -30088803 -819698684 -887759006 1392902166
            595774004 -285122008 269681817 214777886</internalNodes>
          <leafValues>
            -4.0327465534210205e-01 2.1000991761684418e-01</leafValues></_>
        <_>
          <internalNodes>
            0 -1 4 1711455052 658009981 -1448402927 -1173251565
            -1020985967 -1112735883 1571669471 1872864445</internalNodes>
          <leafValues>
            -2.8590956330299377e-01 3.0662414431571960e-01</leafValues></_></weakClassifiers></_>
    <!-- stage 14 -->
    <_>
      <maxWeakCount>22</maxWeakCount>
      <stageThreshold>-7.0555728673934937e-01</stageThreshold>
      <weakClassifiers>
        <_>
          <internalNodes>
            0 -1 51 1400109023 857833061 -1275724545 -207094891
            1168065928 822595429 1474523087 -1076371513</internalNodes>
          <leafValues>
            -6.7543856799602509e-02 5.7903224229812622e-01</leafValues></_>
        <_>
          <internalNodes>
            0 -1 110 -1711604225 307220953 -686717676 949617534
            -636320833 837452233 -385707336 -251741505</internalNodes>
          <leafValues>
            -3.1328028440475464e-01 3.2701551914215088e-01</leafValues></_>
        <_>
          <internalNodes>
            0 -1 179 2105105147 -648997732 -1810048641 -104162376
            -1823811588 -905461069 -543025028 -1359046144</internalNodes>
          <leafValues>
            -3.3634680509567261e-01 2.7528747916221619e-01</leafValues></_>
        <_>
          <internalNodes>
            0 -1 139 -37879811 -584110323 -268468475 1336904974
            -1875846405 -1205207300 -1569657907 -469783281</internalNodes>
          <leafValues>
            -2.3884078860282898e-01 3.7975999712944031e-01</leafValues></_>
        <_>
          <internalNodes>
            0 -1 129 -529423345 -178929407 -384789483 -1208528629
            1132721915 -1140735701 -1974905505 -2028098937</internalNodes>
          <leafValues>
            -2.9583573341369629e-01 2.8212165832519531e-01</leafValues></_>
        <_>
          <internalNodes>
            0 -1 26 -251333125 -991619747 -1492691794 -1786700293
            -14876731 -38838820 1875164599 -1182075460</internalNodes>
          <leafValues>
            -2.2923624515533447e-01 3.6469453573226929e-01</leafValues></_>
        <_>
          <internalNodes>
            0 -1 49 -941658364 1517293577 -9358211 1328587675
            -1457787975 -2013265842 1292233644 -1602242326</internalNodes>
          <leafValues>
            -3.3676943182945251e-01 2.3138566315174103e-01</leafValues></_>
        <_>
          <internalNodes>
            0 -1 173 -1568688225 -556466883 -335667458 -173343542
            1154793023 -1266794531 -1075730769 -1410659186</internalNodes>
          <leafValues>
            -2.5015839934349060e-01 3.1172400712966919e-01</leafValues></_>
        <_>
          <internalNodes>
            0 -1 188 2123881973 -1679725014 -387141688 -1179648450
            -1933191779 -308756609 -979953392 -1578382182</internalNodes>
          <leafValues>
            -2.6166695356369019e-01 2.9902854561805725e-01</leafValues></_>
        <_>
          <internalNodes>
            0 -1 100 -495490408 -868138873 -649965303 -485056177
            -216269875 -911588214 2131305433 -1443952243</internalNodes>
          <leafValues>
            -2.9062721133232117e-01 2.7954742312431335e-01</leafValues></_>
        <_>
          <internalNodes>
            0 -1 7 1293241486 1268927773 84983167 -864779819 -2128543321
            -960355805 545374667 1075865672</internalNodes>
          <leafValues>
            -3.7159222364425659e-01 2.0634946227073669e-01</leafValues></_>
        <_>
          <internalNodes>
            0 -1 192 -1063015418 1039814931 -648767398 442061250
            -492723434 1511692450 1887961374 -760190142</internalNodes>
          <leafValues>
            -4.2506855726242065e-01 1.9506530463695526e-01</leafValues></_>
        <_>
          <internalNodes>
            0 -1 133 -136916782 -103755696 271713337 -737619745
            -683994353 -2126269917 1916229964 1720670993</internalNodes>
          <leafValues>
            -3.4380364418029785e-01 2.3014901578426361e-01</leafValues></_>
        <_>
          <internalNodes>
            0 -1 120 361782648 235145429 -599252580 1353480321 8466412
            -2113779551 -1783007367 126749900</internalNodes>
          <leafValues>
            -4.1813459992408752e-01 1.9675274193286896e-01</leafValues></_>
        <_>
          <internalNodes>
            0 -1 80 578159479 -149089001 -1739996869 -1291714048
            1082398916 -611729206 556021917 1191400233</internalNodes>
          <leafValues>
            -3.5409435629844666e-01 2.1180340647697449e-01</leafValues></_>
        <_>
          <internalNodes>
            0 -1 114 917355405 1225771193 1974651647 -1452471475
            -87023062 -495927380 -772082837 -157179961</internalNodes>
          <leafValues>
            -2.1007390320301056e-01 3.6435681581497192e-01</leafValues></_>
        <_>
          <internalNodes>
            0 -1 191 409071997 1468653802 1101496905 168493649
            1268887785 -1457319548 -1426061692 684272437</internalNodes>
          <leafValues>
            -3.2953330874443054e-01 2.4328944087028503e-01</leafValues></_>
        <_>
          <internalNodes>
            0 -1 29 1370454959 -1350127898 213839085 1321185020 99376187
            -675480068 -261698225 -327123236</internalNodes>
          <leafValues>
            -2.5292739272117615e-01 2.9386955499649048e-01</leafValues></_>
        <_>
          <internalNodes>
            0 -1 180 1541891942 -199880319 -1019164531 -560499782
            1212892880 -995224693 813711937 1918175889</internalNodes>
          <leafValues>
            -3.9771810173988342e-01 1.9875007867813110e-01</leafValues></_>
        <_>
          <internalNodes>
            0 -1 27 -1017392401 1147194730 -1904431109 2142205572
            1128639735 -1935722920 246881306 -325263886</internalNodes>
          <leafValues>
            -2.3034581542015076e-01 3.4384426474571228e-01</leafValues></_>
        <_>
          <internalNodes>
            0 -1 149 -730335681 1545347695 -1166018765 823327486
            -260711371 240696702 -57148000 -654328841</internalNodes>
          <leafValues>
            -2.2061382234096527e-01 3.6010488867759705e-01</leafValues></_>
        <_>
          <internalNodes>
            0 -1 144 423602508 -1819274089 -1589558872 -1558157941
            1350566406 -1175911849 1747112366 848348886</internalNodes>
          <leafValues>
            -3.4671658277511597e-01 2.2575519979000092e-01</leafValues></_></weakClassifiers></_></stages>
  <features>
    <_>
      <rect>
        0 9 9 7</rect></_>
    <_>
      <rect>
        0 14 7 4</rect></_>
    <_>
      <rect>
        1 2 8 7</rect></_>
    <_>
      <rect>
        1 5 6 8</rect></_>
    <_>
      <rect>
        1 6 9 4</rect></_>
    <_>
      <rect>
        1 12 7 3</rect></_>
    <_>
      <rect>
        1 12 9 5</rect></_>
    <_>
      <rect>
        1 13 5 2</rect></_>
    <_>
      <rect>
        2 12 4 3</rect></_>
    <_>
      <rect>
        2 14 6 3</rect></_>
    <_>
      <rect>
        2 15 7 2</rect></_>
    <_>
      <rect>
        2 21 9 1</rect></_>
    <_>
      <rect>
        3 6 5 8</rect></_>
    <_>
      <rect>
        3 15 7 3</rect></_>
    <_>
      <rect>
        3 16 5 2</rect></_>
    <_>
      <rect>
        3 17 2 1</rect></_>
    <_>
      <rect>
        3 17 5 2</rect></_>
    <_>
      <rect>
        4 9 4 5</rect></_>
    <_>
      <rect>
        4 11 6 4</rect></_>
    <_>
      <rect>
        4 12 2 3</rect></_>
    <_>
      <rect>
        4 15 2 2</rect></_>
    <_>
      <rect>
        4 15 3 2</rect></_>
    <_>
      <rect>
        4 16 2 2</rect></_>
    <_>
      <rect>
        4 16 2 3</rect></_>
    <_>
      <rect>
        4 18 2 1</rect></_>
    <_>
      <rect>
        5 2 8 6</rect></_>
    <_>
      <rect>
        5 10 6 5</rect></_>
    <_>
      <rect>
        5 14 1 1</rect></_>
    <_>
      <rect>
        5 15 5 4</rect></_>
    <_>
      <rect>
        5 15 6 3</rect></_>
    <_>
      <rect>
        5 16 5 2</rect></_>
    <_>
      <rect>
        6 1 8 5</rect></_>
    <_>
      <rect>
        6 6 5 8</rect></_>
    <_>
      <rect>
        6 9 6 3</rect></_>
    <_>
      <rect>
        6 13 2 3</rect></_>
    <_>
      <rect>
        6 15 6 3</rect></_>
    <_>
      <rect>
        6 15 6 4</rect></_>
    <_>
      <rect>
        6 16 2 1</rect></_>
    <_>
      <rect>
        6 16 6 4</rect></_>
    <_>
      <rect>
        6 17 5 2</rect></_>
    <_>
      <rect>
        7 1 6 6</rect></_>
    <_>
      <rect>
        7 2 7 5</rect></_>
    <_>
      <rect>
        7 5 7 2</rect></_>
    <_>
      <rect>
        7 6 7 2</rect></_>
    <_>
      <rect>
        7 7 7 2</rect></_>
    <_>
      <rect>
        7 8 5 5</rect></_>
    <_>
      <rect>
        7 14 1 2</rect></_>
    <_>
      <rect>
        7 14 6 3</rect></_>
    <_>
      <rect>
        7 16 1 2</rect></_>
    <_>
      <rect>
        7 16 2 2</rect></_>
    <_>
      <rect>
        7 16 5 2</rect></_>
    <_>
      <rect>
        7 16 6 2</rect></_>
    <_>
      <rect>
        7 16 7 2</rect></_>
    <_>
      <rect>
        7 17 2 2</rect></_>
    <_>
      <rect>
        7 20 2 1</rect></_>
    <_>
      <rect>
        7 21 2 1</rect></_>
    <_>
      <rect>
        8 6 5 4</rect></_>
    <_>
      <rect>
        8 11 3 6</rect></_>
    <_>
      <rect>
        8 13 2 3</rect></_>
    <_>
      <rect>
        8 13 4 3</rect></_>
    <_>
      <rect>
        8 13 7 3</rect></_>
    <_>
      <rect>
        8 13 7 5</rect></_>
    <_>
      <rect>
        8 14 5 3</rect></_>
    <_>
      <rect>
        8 15 1 1</rect></_>
    <_>
      <rect>
        8 15 2 1</rect></_>
    <_>
      <rect>
        8 15 5 3</rect></_>
    <_>
      <rect>
        8 16 1 1</rect></_>
    <_>
      <rect>
        8 16 2 3</rect></_>
    <_>
      <rect>
        8 16 5 2</rect></_>
    <_>
      <rect>
        8 17 1 1</rect></_>
    <_>
      <rect>
        8 17 2 1</rect></_>
    <_>
      <rect>
        8 18 2 1</rect></_>
    <_>
      <rect>
        8 19 2 2</rect></_>
    <_>
      <rect>
        8 21 2 1</rect></_>
    <_>
      <rect>
        9 0 5 6</rect></_>
    <_>
      <rect>
        9 7 4 5</rect></_>
    <_>
      <rect>
        9 7 4 6</rect></_>
    <_>
      <rect>
        9 9 7 5</rect></_>
    <_>
      <rect>
        9 11 7 6</rect></_>
    <_>
      <rect>
        9 14 2 2</rect></_>
    <_>
      <rect>
        9 15 1 2</rect></_>
    <_>
      <rect>
        9 15 2 2</rect></_>
    <_>
      <rect>
        9 15 4 2</rect></_>
    <_>
      <rect>
        9 15 7 4</rect></_>
    <_>
      <rect>
        9 16 1 2</rect></_>
    <_>
      <rect>
        9 16 2 2</rect></_>
    <_>
      <rect>
        9 17 1 2</rect></_>
    <_>
      <rect>
        9 17 2 1</rect></_>
    <_>
      <rect>
        9 17 5 3</rect></_>
    <_>
      <rect>
        9 18 1 1</rect></_>
    <_>
      <rect>
        9 18 2 2</rect></_>
    <_>
      <rect>
        9 19 1 1</rect></_>
    <_>
      <rect>
        10 2 5 7</rect></_>
    <_>
      <rect>
        10 7 4 3</rect></_>
    <_>
      <rect>
        10 7 4 5</rect></_>
    <_>
      <rect>
        10 8 6 5</rect></_>
    <_>
      <rect>
        10 14 5 3</rect></_>
    <_>
      <rect>
        10 14 5 4</rect></_>
    <_>
      <rect>
        10 15 4 3</rect></_>
    <_>
      <rect>
        10 16 5 2</rect></_>
    <_>
      <rect>
        10 17 1 2</rect></_>
    <_>
      <rect>
        10 17 2 3</rect></_>
    <_>
      <rect>
        10 17 5 2</rect></_>
    <_>
      <rect>
        10 18 1 1</rect></_>
    <_>
      <rect>
        10 20 1 2</rect></_>
    <_>
      <rect>
        11 3 3 2</rect></_>
    <_>
      <rect>
        11 3 5 4</rect></_>
    <_>
      <rect>
        11 5 2 2</rect></_>
    <_>
      <rect>
        11 6 4 8</rect></_>
    <_>
      <rect>
        11 7 4 6</rect></_>
    <_>
      <rect>
        11 9 3 1</rect></_>
    <_>
      <rect>
        11 16 2 2</rect></_>
    <_>
      <rect>
        11 17 4 2</rect></_>
    <_>
      <rect>
        11 20 1 1</rect></_>
    <_>
      <rect>
        12 3 4 7</rect></_>
    <_>
      <rect>
        12 4 2 3</rect></_>
    <_>
      <rect>
        12 5 4 2</rect></_>
    <_>
      <rect>
        12 17 2 2</rect></_>
    <_>
      <rect>
        12 18 2 2</rect></_>
    <_>
      <rect>
        12 18 4 1</rect></_>
    <_>
      <rect>
        12 19 1 2</rect></_>
    <_>
      <rect>
        12 20 2 2</rect></_>
    <_>
      <rect>
        12 21 2 1</rect></_>
    <_>
      <rect>
        13 2 3 4</rect></_>
    <_>
      <rect>
        13 3 2 2</rect></_>
    <_>
      <rect>
        13 6 5 6</rect></_>
    <_>
      <rect>
        13 7 1 1</rect></_>
    <_>
      <rect>
        13 8 3 4</rect></_>
    <_>
      <rect>
        13 19 2 1</rect></_>
    <_>
      <rect>
        14 3 2 2</rect></_>
    <_>
      <rect>
        14 3 4 2</rect></_>
    <_>
      <rect>
        14 4 2 2</rect></_>
    <_>
      <rect>
        14 4 3 5</rect></_>
    <_>
      <rect>
        14 4 4 5</rect></_>
    <_>
      <rect>
        14 5 3 4</rect></_>
    <_>
      <rect>
        14 6 3 2</rect></_>
    <_>
      <rect>
        14 6 3 4</rect></_>
    <_>
      <rect>
        14 7 2 2</rect></_>
    <_>
      <rect>
        14 7 3 5</rect></_>
    <_>
      <rect>
        14 7 3 6</rect></_>
    <_>
      <rect>
        14 8 2 1</rect></_>
    <_>
      <rect>
        14 9 2 1</rect></_>
    <_>
      <rect>
        14 16 2 2</rect></_>
    <_>
      <rect>
        14 16 4 2</rect></_>
    <_>
      <rect>
        14 21 2 2</rect></_>
    <_>
      <rect>
        14 21 3 1</rect></_>
    <_>
      <rect>
        15 3 2 2</rect></_>
    <_>
      <rect>
        15 4 2 7</rect></_>
    <_>
      <rect>
        15 6 3 5</rect></_>
    <_>
      <rect>
        15 7 1 1</rect></_>
    <_>
      <rect>
        15 7 2 2</rect></_>
    <_>
      <rect>
        15 7 2 6</rect></_>
    <_>
      <rect>
        15 8 1 2</rect></_>
    <_>
      <rect>
        15 8 2 1</rect></_>
    <_>
      <rect>
        15 10 2 5</rect></_>
    <_>
      <rect>
        15 11 4 4</rect></_>
    <_>
      <rect>
        15 16 2 2</rect></_>
    <_>
      <rect>
        15 20 2 2</rect></_>
    <_>
      <rect>
        15 20 3 2</rect></_>
    <_>
      <rect>
        16 7 2 1</rect></_>
    <_>
      <rect>
        16 8 1 1</rect></_>
    <_>
      <rect>
        16 9 1 1</rect></_>
    <_>
      <rect>
        16 9 2 5</rect></_>
    <_>
      <rect>
        16 14 2 4</rect></_>
    <_>
      <rect>
        16 16 2 2</rect></_>
    <_>
      <rect>
        16 17 2 1</rect></_>
    <_>
      <rect>
        16 18 2 1</rect></_>
    <_>
      <rect>
        17 2 2 3</rect></_>
    <_>
      <rect>
        17 5 2 2</rect></_>
    <_>
      <rect>
        17 7 2 2</rect></_>
    <_>
      <rect>
        17 7 2 5</rect></_>
    <_>
      <rect>
        17 8 1 2</rect></_>
    <_>
      <rect>
        17 14 3 3</rect></_>
    <_>
      <rect>
        17 15 1 2</rect></_>
    <_>
      <rect>
        17 15 2 2</rect></_>
    <_>
      <rect>
        17 15 3 2</rect></_>
    <_>
      <rect>
        17 16 1 1</rect></_>
    <_>
      <rect>
        17 16 2 3</rect></_>
    <_>
      <rect>
        17 18 2 2</rect></_>
    <_>
      <rect>
        17 20 2 2</rect></_>
    <_>
      <rect>
        18 6 2 2</rect></_>
    <_>
      <rect>
        18 6 2 3</rect></_>
    <_>
      <rect>
        18 7 1 1</rect></_>
    <_>
      <rect>
        18 8 1 1</rect></_>
    <_>
      <rect>
        18 8 3 5</rect></_>
    <_>
      <rect>
        18 9 1 1</rect></_>
    <_>
      <rect>
        18 9 1 2</rect></_>
    <_>
      <rect>
        18 10 1 4</rect></_>
    <_>
      <rect>
        18 10 2 1</rect></_>
    <_>
      <rect>
        18 15 1 2</rect></_>
    <_>
      <rect>
        18 15 2 2</rect></_>
    <_>
      <rect>
        18 15 4 4</rect></_>
    <_>
      <rect>
        18 16 2 1</rect></_>
    <_>
      <rect>
        18 17 1 2</rect></_>
    <_>
      <rect>
        18 17 2 3</rect></_>
    <_>
      <rect>
        19 5 2 3</rect></_>
    <_>
      <rect>
        19 6 2 2</rect></_>
    <_>
      <rect>
        19 12 1 4</rect></_>
    <_>
      <rect>
        19 16 1 1</rect></_>
    <_>
      <rect>
        19 16 1 2</rect></_>
    <_>
      <rect>
        19 20 1 1</rect></_>
    <_>
      <rect>
        20 12 2 3</rect></_>
    <_>
      <rect>
        20 13 2 3</rect></_>
    <_>
      <rect>
        20 13 2 5</rect></_>
    <_>
      <rect>
        20 14 2 3</rect></_>
    <_>
      <rect>
        20 15 2 2</rect></_>
    <_>
      <rect>
        20 18 1 1</rect></_>
    <_>
      <rect>
        21 14 1 2</rect></_>
    <_>
      <rect>
        23 16 1 1</rect></_></features></cascade>
</opencv_storage>
