<?xml version="1.0"?>
<opencv_storage>
<cascade>
  <stageType>BOOST</stageType>
  <featureType>LBP</featureType>
  <height>30</height>
  <width>30</width>
  <stageParams>
    <boostType>GAB</boostType>
    <minHitRate>9.9500000476837158e-01</minHitRate>
    <maxFalseAlarm>5.0000000000000000e-01</maxFalseAlarm>
    <weightTrimRate>9.4999999999999996e-01</weightTrimRate>
    <maxDepth>1</maxDepth>
    <maxWeakCount>100</maxWeakCount></stageParams>
  <featureParams>
    <maxCatCount>256</maxCatCount>
    <featSize>1</featSize></featureParams>
  <stageNum>15</stageNum>
  <stages>
    <!-- stage 0 -->
    <_>
      <maxWeakCount>5</maxWeakCount>
      <stageThreshold>-8.7959474325180054e-01</stageThreshold>
      <weakClassifiers>
        <_>
          <internalNodes>
            0 -1 45 -65896 -8194 2147418108 -2 -131074 -2 -2 -2</internalNodes>
          <leafValues>
            -7.3384028673171997e-01 8.0572253465652466e-01</leafValues></_>
        <_>
          <internalNodes>
            0 -1 5 -8139826 -537935893 -100387 -1572866 -1077366
            -805347379 -139281 -1061393</internalNodes>
          <leafValues>
            -4.8683658242225647e-01 6.2363892793655396e-01</leafValues></_>
        <_>
          <internalNodes>
            0 -1 102 -10946878 -574293282 -790439457 -13993572
            -703540813 -1473461845 -5572609 -1381438038</internalNodes>
          <leafValues>
            -5.8937633037567139e-01 4.6619248390197754e-01</leafValues></_>
        <_>
          <internalNodes>
            0 -1 131 -1027421178 -1712318378 -1974199971 -1102045410
            1541931778 767345391 1055488767 -1162088453</internalNodes>
          <leafValues>
            -5.1048046350479126e-01 4.4371202588081360e-01</leafValues></_>
        <_>
          <internalNodes>
            0 -1 24 -553658369 -1864308236 -1108509187 -552538728
            2144788479 -1597188 1023213567 -1744260452</internalNodes>
          <leafValues>
            -4.6511635184288025e-01 4.8674643039703369e-01</leafValues></_></weakClassifiers></_>
    <!-- stage 1 -->
    <_>
      <maxWeakCount>6</maxWeakCount>
      <stageThreshold>-1.3556933403015137e+00</stageThreshold>
      <weakClassifiers>
        <_>
          <internalNodes>
            0 -1 141 -547529388 -33720451 -17923 -131 -524803 -139
            -262659 -3</internalNodes>
          <leafValues>
            -6.3527292013168335e-01 7.0597738027572632e-01</leafValues></_>
        <_>
          <internalNodes>
            0 -1 113 2138439668 -537823908 1091254620 -547925713
            -12652356 -6418406 2031077592 2139051995</internalNodes>
          <leafValues>
            -5.7304233312606812e-01 4.7936308383941650e-01</leafValues></_>
        <_>
          <internalNodes>
            0 -1 16 1288631231 316340103 -335386149 -2134944447
            -863245573 -39175588 -1608790081 -21041206</internalNodes>
          <leafValues>
            -4.9850720167160034e-01 4.6860873699188232e-01</leafValues></_>
        <_>
          <internalNodes>
            0 -1 119 50897414 1595409707 629440794 1069165144 1703420435
            -883283129 535445119 1035954811</internalNodes>
          <leafValues>
            -6.2062966823577881e-01 3.5589072108268738e-01</leafValues></_>
        <_>
          <internalNodes>
            0 -1 79 -182067779 -675560533 2064816085 2059257180
            -343297136 -1176326699 1392803620 -71503948</internalNodes>
          <leafValues>
            -5.7812303304672241e-01 3.5959863662719727e-01</leafValues></_>
        <_>
          <internalNodes>
            0 -1 126 569053199 901716070 1547240511 529814423 795817967
            -1415698191 -587064625 -1107471713</internalNodes>
          <leafValues>
            -4.7904399037361145e-01 3.9565891027450562e-01</leafValues></_></weakClassifiers></_>
    <!-- stage 2 -->
    <_>
      <maxWeakCount>9</maxWeakCount>
      <stageThreshold>-7.7490615844726562e-01</stageThreshold>
      <weakClassifiers>
        <_>
          <internalNodes>
            0 -1 35 -2 -513 -1048579 -3 -12290 -1 -8193 -1</internalNodes>
          <leafValues>
            -3.3654266595840454e-01 7.4535667896270752e-01</leafValues></_>
        <_>
          <internalNodes>
            0 -1 71 -598017110 -36505617 -741582345 -552051730
            -275844177 -610104875 -346145793 -574038274</internalNodes>
          <leafValues>
            -5.0368005037307739e-01 4.4203057885169983e-01</leafValues></_>
        <_>
          <internalNodes>
            0 -1 167 -785130757 -273154057 -1225261059 -137756875
            -1317862923 -1073742379 -1124114955 -1344275467</internalNodes>
          <leafValues>
            -3.7288111448287964e-01 4.7553136944770813e-01</leafValues></_>
        <_>
          <internalNodes>
            0 -1 75 -608108548 -103482474 885314809 -41225900
            -1196106784 -399183036 -665797636 -392637568</internalNodes>
          <leafValues>
            -4.1362327337265015e-01 4.2730823159217834e-01</leafValues></_>
        <_>
          <internalNodes>
            0 -1 96 526363306 -833272553 1242721454 1196374103
            1198060266 -1288695535 1788562415 2142665535</internalNodes>
          <leafValues>
            -5.6576788425445557e-01 3.2395356893539429e-01</leafValues></_>
        <_>
          <internalNodes>
            0 -1 6 1502133948 -1585051488 2048700703 -330458408
            -1215636817 -351629120 -7720993 -332092208</internalNodes>
          <leafValues>
            -4.9292868375778198e-01 3.2615050673484802e-01</leafValues></_>
        <_>
          <internalNodes>
            0 -1 150 1994180332 -747592941 -1056943595 643254037
            1133300461 -1140856354 268336990 -218560</internalNodes>
          <leafValues>
            -4.6729421615600586e-01 3.4217977523803711e-01</leafValues></_>
        <_>
          <internalNodes>
            0 -1 183 1219559440 1595773049 -744716783 -70429693
            1901726344 -4454214 -433364230 -805679990</internalNodes>
          <leafValues>
            -4.1971951723098755e-01 3.9347302913665771e-01</leafValues></_>
        <_>
          <internalNodes>
            0 -1 115 -1039940742 1293095219 3277438 261493882 -533411589
            1246005918 -155547410 464464479</internalNodes>
          <leafValues>
            -5.3941988945007324e-01 3.2056555151939392e-01</leafValues></_></weakClassifiers></_>
    <!-- stage 3 -->
    <_>
      <maxWeakCount>10</maxWeakCount>
      <stageThreshold>-1.0860952138900757e+00</stageThreshold>
      <weakClassifiers>
        <_>
          <internalNodes>
            0 -1 20 -1183794 -8193 -4104 -257 -70769 -38 -17 -17</internalNodes>
          <leafValues>
            -4.4009780883789062e-01 6.2328141927719116e-01</leafValues></_>
        <_>
          <internalNodes>
            0 -1 138 -16819009 -38011461 -4231243 -833743 -554250754
            -990591748 1993715116 -388633216</internalNodes>
          <leafValues>
            -3.7135714292526245e-01 4.7923707962036133e-01</leafValues></_>
        <_>
          <internalNodes>
            0 -1 85 -54335834 -178776708 874427687 -537864707
            -1429028433 -1742412152 -252032289 506394879</internalNodes>
          <leafValues>
            -4.7945645451545715e-01 3.3260327577590942e-01</leafValues></_>
        <_>
          <internalNodes>
            0 -1 127 -735101649 1059918091 558483327 1001742759
            -368100545 -550895538 -1981874259 -50397365</internalNodes>
          <leafValues>
            -4.1431191563606262e-01 3.9086979627609253e-01</leafValues></_>
        <_>
          <internalNodes>
            0 -1 73 -623052236 -34214196 2058976187 -1082281933
            1165512940 -591015992 -2018066760 -540411264</internalNodes>
          <leafValues>
            -3.9134126901626587e-01 4.4028142094612122e-01</leafValues></_>
        <_>
          <internalNodes>
            0 -1 120 2103338742 -446938555 2068517784 -608480444
            890561207 -79896046 1804171259 -860893014</internalNodes>
          <leafValues>
            -4.7914707660675049e-01 3.0241742730140686e-01</leafValues></_>
        <_>
          <internalNodes>
            0 -1 130 -821107042 390144534 135852 529599327 806298366
            825960763 1877596376 2137742139</internalNodes>
          <leafValues>
            -4.6640732884407043e-01 3.0871531367301941e-01</leafValues></_>
        <_>
          <internalNodes>
            0 -1 51 -900474205 345003249 -1710536395 -1359865519
            -2004236149 -57507250 -913798794 -827915117</internalNodes>
          <leafValues>
            -4.5397660136222839e-01 3.3090752363204956e-01</leafValues></_>
        <_>
          <internalNodes>
            0 -1 0 -970934638 -1673369978 -1602092986 -1429462826
            -272334197 -274426202 -325415941 -890852628</internalNodes>
          <leafValues>
            -5.1128631830215454e-01 2.9448592662811279e-01</leafValues></_>
        <_>
          <internalNodes>
            0 -1 154 -1892696032 -330914527 -1584984179 1241579547
            143329468 -876009032 -2129723196 -100936799</internalNodes>
          <leafValues>
            -4.9951848387718201e-01 2.7057072520256042e-01</leafValues></_></weakClassifiers></_>
    <!-- stage 4 -->
    <_>
      <maxWeakCount>10</maxWeakCount>
      <stageThreshold>-1.1114640235900879e+00</stageThreshold>
      <weakClassifiers>
        <_>
          <internalNodes>
            0 -1 64 -14178546 -1083441659 -65713 -2621585 -8388629
            -16908289 -16781313 -706219025</internalNodes>
          <leafValues>
            -4.1785106062889099e-01 6.4489507675170898e-01</leafValues></_>
        <_>
          <internalNodes>
            0 -1 87 -585764388 822858197 1437983960 -5777925 1644241781
            1125762065 1614250122 -370159829</internalNodes>
          <leafValues>
            -4.5146375894546509e-01 4.1509294509887695e-01</leafValues></_>
        <_>
          <internalNodes>
            0 -1 122 -1964602366 -543158940 -1738407768 -1115662696
            1285817479 1778944516 -628695409 1002170079</internalNodes>
          <leafValues>
            -5.2848339080810547e-01 2.8851228952407837e-01</leafValues></_>
        <_>
          <internalNodes>
            0 -1 40 -665590018 1356825742 -1074794578 -1215675238
            -725422866 1598980431 -1931317010 -83960609</internalNodes>
          <leafValues>
            -3.4578815102577209e-01 4.3581780791282654e-01</leafValues></_>
        <_>
          <internalNodes>
            0 -1 118 -1028722450 1426122243 -1045952288 329526354
            1086783214 142065867 46073954 1677683831</internalNodes>
          <leafValues>
            -5.2415335178375244e-01 2.7272129058837891e-01</leafValues></_>
        <_>
          <internalNodes>
            0 -1 65 -25165889 1962016563 989757149 -1306337287 226492415
            -118226954 -387578678 -16822041</internalNodes>
          <leafValues>
            -3.3156409859657288e-01 4.7222653031349182e-01</leafValues></_>
        <_>
          <internalNodes>
            0 -1 136 -897601737 606086704 -926383241 947941668 724717891
            -662142173 -481902846 -1527186664</internalNodes>
          <leafValues>
            -4.6214684844017029e-01 3.2651802897453308e-01</leafValues></_>
        <_>
          <internalNodes>
            0 -1 155 -502049805 2030043531 -2079065951 -685399567
            -1038151745 -1686426401 1231242721 -717229309</internalNodes>
          <leafValues>
            -4.0733051300048828e-01 3.7240961194038391e-01</leafValues></_>
        <_>
          <internalNodes>
            0 -1 176 -240090864 -217726886 1360134416 -605844221
            1082661097 -1439609 1219536394 -1684276757</internalNodes>
          <leafValues>
            -3.5373881459236145e-01 4.2196571826934814e-01</leafValues></_>
        <_>
          <internalNodes>
            0 -1 104 -522788958 -210740420 -1026521962 -1112522471
            -1473766521 -225673072 -510024797 -1406999381</internalNodes>
          <leafValues>
            -5.1635330915451050e-01 2.9339501261711121e-01</leafValues></_></weakClassifiers></_>
    <!-- stage 5 -->
    <_>
      <maxWeakCount>11</maxWeakCount>
      <stageThreshold>-9.2176651954650879e-01</stageThreshold>
      <weakClassifiers>
        <_>
          <internalNodes>
            0 -1 5 -68432946 -9437205 -2049 -1179649 -17829909
            -1208004625 -135185 -134742033</internalNodes>
          <leafValues>
            -3.5356941819190979e-01 6.2283819913864136e-01</leafValues></_>
        <_>
          <internalNodes>
            0 -1 121 1935669040 -750509192 135215112 1535325055
            1612935541 2408464 541049032 1845453291</internalNodes>
          <leafValues>
            -6.3375264406204224e-01 3.0671009421348572e-01</leafValues></_>
        <_>
          <internalNodes>
            0 -1 81 -285217113 1498803911 -822804849 1078521583
            -285216809 -842727809 -1361186835 -851380049</internalNodes>
          <leafValues>
            -3.5994368791580200e-01 4.3800929188728333e-01</leafValues></_>
        <_>
          <internalNodes>
            0 -1 37 777970406 -763883094 944357810 -179273304 -595002328
            -839930561 -1709277253 -336598206</internalNodes>
          <leafValues>
            -4.4218534231185913e-01 3.2616499066352844e-01</leafValues></_>
        <_>
          <internalNodes>
            0 -1 160 -928002297 774815227 -550581801 -651960545
            2143280401 -583076363 -539701953 -537928714</internalNodes>
          <leafValues>
            -3.5442468523979187e-01 4.0474572777748108e-01</leafValues></_>
        <_>
          <internalNodes>
            0 -1 163 582054832 1507918731 706740512 -779367446
            -2058297438 -1080032800 1899355535 1430387987</internalNodes>
          <leafValues>
            -4.6526056528091431e-01 2.9615172743797302e-01</leafValues></_>
        <_>
          <internalNodes>
            0 -1 30 1347273062 1958834158 1277226228 491085249
            1174132602 -554565633 1886449246 1147273039</internalNodes>
          <leafValues>
            -3.7686288356781006e-01 3.9310047030448914e-01</leafValues></_>
        <_>
          <internalNodes>
            0 -1 63 4711047 -1605713081 -2146043874 -525731056 758320683
            1905369219 -7092005 -291000570</internalNodes>
          <leafValues>
            -5.1937037706375122e-01 2.5571706891059875e-01</leafValues></_>
        <_>
          <internalNodes>
            0 -1 28 -557020918 -823213367 -308923070 -33794552
            -1985368434 -1905219325 -125099562 1608206571</internalNodes>
          <leafValues>
            -4.1191095113754272e-01 3.1673425436019897e-01</leafValues></_>
        <_>
          <internalNodes>
            0 -1 105 -201394326 -225680664 55296502 -271014119
            -2122083423 -924188264 1885467171 -1396969813</internalNodes>
          <leafValues>
            -4.2601007223129272e-01 3.4624749422073364e-01</leafValues></_>
        <_>
          <internalNodes>
            0 -1 99 1541337986 1542194181 414198298 1510495 -1852280329
            1343537171 17941499 1605334335</internalNodes>
          <leafValues>
            -5.4685103893280029e-01 2.3183348774909973e-01</leafValues></_></weakClassifiers></_>
    <!-- stage 6 -->
    <_>
      <maxWeakCount>13</maxWeakCount>
      <stageThreshold>-9.3776446580886841e-01</stageThreshold>
      <weakClassifiers>
        <_>
          <internalNodes>
            0 -1 27 -24578068 -1123221505 -1431633923 -322109442
            -16974338 -4259841 -1162280964 -68227332</internalNodes>
          <leafValues>
            -4.3325144052505493e-01 5.2919018268585205e-01</leafValues></_>
        <_>
          <internalNodes>
            0 -1 57 1157103539 808505753 353163476 -1439123363
            -2009466120 -319815664 -55706925 -16975650</internalNodes>
          <leafValues>
            -4.2595177888870239e-01 3.5803601145744324e-01</leafValues></_>
        <_>
          <internalNodes>
            0 -1 92 -741278252 1912222549 -1676506659 -608826475
            -804454412 -54210428 682154968 -321019232</internalNodes>
          <leafValues>
            -3.7678381800651550e-01 3.6788359284400940e-01</leafValues></_>
        <_>
          <internalNodes>
            0 -1 162 1831070523 1467580275 2012610143 1633025525
            -374648833 -16842753 -1913319683 -17827843</internalNodes>
          <leafValues>
            -2.9594236612319946e-01 4.8381435871124268e-01</leafValues></_>
        <_>
          <internalNodes>
            0 -1 62 -2137999445 -1396859877 -298552957 -183418457
            -1084951821 -1215160190 -609298997 -229528155</internalNodes>
          <leafValues>
            -4.6359589695930481e-01 2.9585599899291992e-01</leafValues></_>
        <_>
          <internalNodes>
            0 -1 8 1233808878 587759624 -1538470305 -307617576
            1551980799 -561173832 -1550145281 -334693844</internalNodes>
          <leafValues>
            -4.5729088783264160e-01 2.7727383375167847e-01</leafValues></_>
        <_>
          <internalNodes>
            0 -1 116 1565253770 -134215669 278463678 688980277 341489289
            -703512535 1317784522 1330692939</internalNodes>
          <leafValues>
            -5.0697004795074463e-01 2.7682682871818542e-01</leafValues></_>
        <_>
          <internalNodes>
            0 -1 82 -82867513 1364001959 -670003498 429753183 -262940485
            -603875012 -48569421 431352275</internalNodes>
          <leafValues>
            -3.5595855116844177e-01 3.8227003812789917e-01</leafValues></_>
        <_>
          <internalNodes>
            0 -1 106 -2134182914 -1142417409 1092555100 532429195
            8932805 -1635006075 -1449557609 -1438867750</internalNodes>
          <leafValues>
            -4.2399552464485168e-01 2.9499664902687073e-01</leafValues></_>
        <_>
          <internalNodes>
            0 -1 148 -1025481353 990269702 1975263698 1062235666
            -1511968688 -1391262951 -84145932 -324772336</internalNodes>
          <leafValues>
            -4.3843233585357666e-01 2.8166565299034119e-01</leafValues></_>
        <_>
          <internalNodes>
            0 -1 179 629735960 1973363128 -1040104945 -986312048
            711198617 -53900623 1226738746 -542906102</internalNodes>
          <leafValues>
            -3.9942404627799988e-01 3.0138671398162842e-01</leafValues></_>
        <_>
          <internalNodes>
            0 -1 34 -547849765 -593218606 286326900 -544015622
            1272636302 -196812608 940158254 -1172397426</internalNodes>
          <leafValues>
            -3.5731232166290283e-01 3.5964861512184143e-01</leafValues></_>
        <_>
          <internalNodes>
            0 -1 159 -1925560491 905992291 -669132709 231349317
            -490124031 -381124259 -576402072 -593313422</internalNodes>
          <leafValues>
            -4.3756616115570068e-01 2.9475846886634827e-01</leafValues></_></weakClassifiers></_>
    <!-- stage 7 -->
    <_>
      <maxWeakCount>15</maxWeakCount>
      <stageThreshold>-6.4831739664077759e-01</stageThreshold>
      <weakClassifiers>
        <_>
          <internalNodes>
            0 -1 153 -1355809999 -1835023 -134287 -540016783 -1934903919
            -1884293201 1026546965 1065352191</internalNodes>
          <leafValues>
            -1.6633266210556030e-01 5.8241760730743408e-01</leafValues></_>
        <_>
          <internalNodes>
            0 -1 29 1529837839 1566011653 -2121264897 -2894592 88080911
            787677338 1888004335 -273693761</internalNodes>
          <leafValues>
            -3.6625507473945618e-01 3.5949534177780151e-01</leafValues></_>
        <_>
          <internalNodes>
            0 -1 89 -238878738 1366003149 -1827997729 523500291
            -2130122017 -742594421 -238423425 59461634</internalNodes>
          <leafValues>
            -3.8211658596992493e-01 3.3309355378150940e-01</leafValues></_>
        <_>
          <internalNodes>
            0 -1 83 -132651897 -571440377 -1608808401 1236591411
            -1507612685 1238482977 -199066193 25814007</internalNodes>
          <leafValues>
            -3.9605998992919922e-01 3.2056868076324463e-01</leafValues></_>
        <_>
          <internalNodes>
            0 -1 48 -2006745373 814895244 -476703471 -640405504
            137005769 -1274019278 -1414350174 -554173146</internalNodes>
          <leafValues>
            -3.8775116205215454e-01 3.0885329842567444e-01</leafValues></_>
        <_>
          <internalNodes>
            0 -1 22 -34614888 1427034496 1365426587 -1390868408
            -355742018 -71779944 -308548821 -995111908</internalNodes>
          <leafValues>
            -3.4892860054969788e-01 3.5126277804374695e-01</leafValues></_>
        <_>
          <internalNodes>
            0 -1 174 -726088702 -683650789 1289230483 -546332415
            -1851220597 -1941157725 -1066409525 1084312843</internalNodes>
          <leafValues>
            -3.8053050637245178e-01 3.1954151391983032e-01</leafValues></_>
        <_>
          <internalNodes>
            0 -1 13 -1262241858 -522520872 -720122888 1066262914
            -1031157010 -1845444465 -81073768 -793821046</internalNodes>
          <leafValues>
            -4.2024534940719604e-01 2.8297829627990723e-01</leafValues></_>
        <_>
          <internalNodes>
            0 -1 149 -676993707 -1214850278 -150201602 -1113526224
            -217976492 1632653423 -387781532 -252646812</internalNodes>
          <leafValues>
            -4.2879846692085266e-01 2.7284497022628784e-01</leafValues></_>
        <_>
          <internalNodes>
            0 -1 183 22945698 259457295 -1062166517 -3424224 -1007680632
            -1198779518 -122982462 -604012022</internalNodes>
          <leafValues>
            -3.5791194438934326e-01 3.4966751933097839e-01</leafValues></_>
        <_>
          <internalNodes>
            0 -1 12 -615054418 -134923315 -1998311384 -795984762 -2658
            -1175687169 -50344793 -63833813</internalNodes>
          <leafValues>
            -3.2958027720451355e-01 3.6252820491790771e-01</leafValues></_>
        <_>
          <internalNodes>
            0 -1 76 67606654 805872960 284345746 -268274461 275646974
            2088940545 -53483093 -270284576</internalNodes>
          <leafValues>
            -4.2655852437019348e-01 2.8186392784118652e-01</leafValues></_>
        <_>
          <internalNodes>
            0 -1 134 -51447290 916253 -1055149313 -2093453694 1852440887
            -910251646 1807323683 -1348867941</internalNodes>
          <leafValues>
            -3.8943484425544739e-01 3.1122350692749023e-01</leafValues></_>
        <_>
          <internalNodes>
            0 -1 32 -2105503942 -1613658091 1157677385 -344474110
            -1733907777 -1182098549 992160748 -1626465145</internalNodes>
          <leafValues>
            -3.8876008987426758e-01 3.1090596318244934e-01</leafValues></_>
        <_>
          <internalNodes>
            0 -1 84 -870324536 353207309 -1600305995 356995363
            1286206882 214921229 160332434 942668543</internalNodes>
          <leafValues>
            -4.0454414486885071e-01 3.1600704789161682e-01</leafValues></_></weakClassifiers></_>
    <!-- stage 8 -->
    <_>
      <maxWeakCount>16</maxWeakCount>
      <stageThreshold>-7.6199740171432495e-01</stageThreshold>
      <weakClassifiers>
        <_>
          <internalNodes>
            0 -1 47 -2005889273 -456065185 -855965953 -175833667
            267972335 -3018802 -84017169 -68223125</internalNodes>
          <leafValues>
            -2.3803445696830750e-01 5.3530341386795044e-01</leafValues></_>
        <_>
          <internalNodes>
            0 -1 161 -755762463 706793328 -2090607977 469975045
            -1732572683 -290721618 -929087019 -1375761421</internalNodes>
          <leafValues>
            -3.7523999810218811e-01 3.4418401122093201e-01</leafValues></_>
        <_>
          <internalNodes>
            0 -1 60 -3145985 -1203058 -12470447 -808615671 -1857235620
            -36905765 -807579297 -807440358</internalNodes>
          <leafValues>
            -2.3525169491767883e-01 4.8504045605659485e-01</leafValues></_>
        <_>
          <internalNodes>
            0 -1 101 1358848674 -579324146 1851588879 -1718049624
            -493845855 1288482883 -1084831073 262925083</internalNodes>
          <leafValues>
            -4.8956826329231262e-01 2.4713326990604401e-01</leafValues></_>
        <_>
          <internalNodes>
            0 -1 86 -656476329 -783104681 1500758357 -1084556697
            1355340199 -243660067 -1064778311 715261887</internalNodes>
          <leafValues>
            -3.9433014392852783e-01 2.7507716417312622e-01</leafValues></_>
        <_>
          <internalNodes>
            0 -1 21 -235408326 -172012272 2133949695 -1385984992
            -827433057 -1090601042 -28107089 -289463171</internalNodes>
          <leafValues>
            -3.0726656317710876e-01 3.7618577480316162e-01</leafValues></_>
        <_>
          <internalNodes>
            0 -1 143 1870658794 1574790783 1743241029 -136396994
            -2720666 -847349778 -13176994 -581187748</internalNodes>
          <leafValues>
            -3.1814333796501160e-01 3.5205477476119995e-01</leafValues></_>
        <_>
          <internalNodes>
            0 -1 158 -69208321 -14028937 1879002811 -306893013
            -116326416 -105829504 -1275745374 -851378171</internalNodes>
          <leafValues>
            -3.1209444999694824e-01 3.7086170911788940e-01</leafValues></_>
        <_>
          <internalNodes>
            0 -1 166 -2010936405 1637984195 -536258401 -406019190
            25693081 -92585237 970329404 988496328</internalNodes>
          <leafValues>
            -3.6724776029586792e-01 3.1338378787040710e-01</leafValues></_>
        <_>
          <internalNodes>
            0 -1 151 2133303869 990972442 167973345 -1725992357
            577353736 1488618122 1431036220 1834969037</internalNodes>
          <leafValues>
            -3.6169975996017456e-01 3.1685110926628113e-01</leafValues></_>
        <_>
          <internalNodes>
            0 -1 36 -92365648 -1180120592 -110488753 -608596792
            -1641939457 -1107446294 1793791098 -1145499393</internalNodes>
          <leafValues>
            -2.8196313977241516e-01 4.1796571016311646e-01</leafValues></_>
        <_>
          <internalNodes>
            0 -1 103 1989931911 487593752 1048456823 -1078904300
            -1916421753 1319899022 -296912953 1056702047</internalNodes>
          <leafValues>
            -3.1185334920883179e-01 3.7842851877212524e-01</leafValues></_>
        <_>
          <internalNodes>
            0 -1 173 -212730373 -113541305 -117729863 1243942310
            492659098 -546357955 156819694 -552075333</internalNodes>
          <leafValues>
            -2.0608501136302948e-01 5.6672555208206177e-01</leafValues></_>
        <_>
          <internalNodes>
            0 -1 95 -1037991926 50446611 148903574 1333690743 -602865425
            1526784072 1820968943 1510755955</internalNodes>
          <leafValues>
            -5.7645499706268311e-01 2.0883370935916901e-01</leafValues></_>
        <_>
          <internalNodes>
            0 -1 125 2021315556 1418236086 1896018811 -754262688
            -789777212 -69205072 -127876708 -306424336</internalNodes>
          <leafValues>
            -4.5644986629486084e-01 2.6035913825035095e-01</leafValues></_>
        <_>
          <internalNodes>
            0 -1 80 -1123049462 -742317244 -1308001843 279435345
            -368444509 -265691736 -662213360 887748979</internalNodes>
          <leafValues>
            -3.5793179273605347e-01 3.2293349504470825e-01</leafValues></_></weakClassifiers></_>
    <!-- stage 9 -->
    <_>
      <maxWeakCount>15</maxWeakCount>
      <stageThreshold>-7.8070741891860962e-01</stageThreshold>
      <weakClassifiers>
        <_>
          <internalNodes>
            0 -1 4 -3074 -201457665 -35328156 -604127234 -9 -17367042
            -8589314 -4194305</internalNodes>
          <leafValues>
            -2.2365038096904755e-01 5.2835285663604736e-01</leafValues></_>
        <_>
          <internalNodes>
            0 -1 91 -1001330474 -190991033 -746619017 1534276147
            1416635456 -867904186 -117443329 -76027630</internalNodes>
          <leafValues>
            -2.8722068667411804e-01 3.8089624047279358e-01</leafValues></_>
        <_>
          <internalNodes>
            0 -1 59 -17340941 1947447635 -1173962478 -1431635481
            -82113831 -52322000 -1929587511 -84549577</internalNodes>
          <leafValues>
            -3.4576538205146790e-01 3.3952325582504272e-01</leafValues></_>
        <_>
          <internalNodes>
            0 -1 112 1143130858 1345401623 39980168 408896022
            -1071135835 -667836096 1928562871 2059135567</internalNodes>
          <leafValues>
            -4.7150063514709473e-01 2.3245799541473389e-01</leafValues></_>
        <_>
          <internalNodes>
            0 -1 168 855897059 1159006745 -1568161283 1445243193
            182124797 -1464163698 1100349669 -33592331</internalNodes>
          <leafValues>
            -4.0121048688888550e-01 2.6892518997192383e-01</leafValues></_>
        <_>
          <internalNodes>
            0 -1 129 -801198570 -1873730790 1116145503 -205913218
            -928210410 -1060527511 1223366766 -1073775765</internalNodes>
          <leafValues>
            -3.9812144637107849e-01 2.6667112112045288e-01</leafValues></_>
        <_>
          <internalNodes>
            0 -1 169 1625121825 1427358165 -1475474057 496409942
            -666404592 -611777996 -270722740 -106586313</internalNodes>
          <leafValues>
            -3.6150622367858887e-01 3.1000164151191711e-01</leafValues></_>
        <_>
          <internalNodes>
            0 -1 52 -233093924 1565989544 -1039433682 -1290639961
            78374026 1296973834 -1970339712 2122309547</internalNodes>
          <leafValues>
            -3.8212212920188904e-01 2.8833961486816406e-01</leafValues></_>
        <_>
          <internalNodes>
            0 -1 31 -1020311570 2076295622 1351701268 856791196
            1263226619 1118590267 1118814579 1143263563</internalNodes>
          <leafValues>
            -4.2006513476371765e-01 2.6423180103302002e-01</leafValues></_>
        <_>
          <internalNodes>
            0 -1 61 235250375 -640337905 537940049 1212760947 6367197
            864592288 1121549207 1697589115</internalNodes>
          <leafValues>
            -3.7566128373146057e-01 2.9893240332603455e-01</leafValues></_>
        <_>
          <internalNodes>
            0 -1 133 -96021004 -1299545172 823296924 466288780
            1145405860 -2004754207 1940632795 -1129586013</internalNodes>
          <leafValues>
            -3.9538654685020447e-01 2.7538907527923584e-01</leafValues></_>
        <_>
          <internalNodes>
            0 -1 177 -123627616 -184316684 1499087776 -1324974543
            -869731095 -487799928 10146539 -235097742</internalNodes>
          <leafValues>
            -3.4939283132553101e-01 3.3579185605049133e-01</leafValues></_>
        <_>
          <internalNodes>
            0 -1 140 -278560546 -1941961720 -9994241 -573743102
            1968565568 -1937983666 -2021394503 -808589887</internalNodes>
          <leafValues>
            -3.1015548110008240e-01 3.3367124199867249e-01</leafValues></_>
        <_>
          <internalNodes>
            0 -1 142 -246755733 1968190583 -2042614775 150295993
            1082335293 1745371157 751109720 946187887</internalNodes>
          <leafValues>
            -4.1949859261512756e-01 2.5612181425094604e-01</leafValues></_>
        <_>
          <internalNodes>
            0 -1 25 -1686066606 -1170206241 -1064726376 -628220861
            2015486597 -1056370683 -326950269 -298114342</internalNodes>
          <leafValues>
            -3.5388687252998352e-01 3.1707543134689331e-01</leafValues></_></weakClassifiers></_>
    <!-- stage 10 -->
    <_>
      <maxWeakCount>16</maxWeakCount>
      <stageThreshold>-7.1404939889907837e-01</stageThreshold>
      <weakClassifiers>
        <_>
          <internalNodes>
            0 -1 144 1060878112 -190785 1006589552 1598914489 302495037
            -1484957717 1832767688 2113632187</internalNodes>
          <leafValues>
            -2.6527455449104309e-01 4.9776926636695862e-01</leafValues></_>
        <_>
          <internalNodes>
            0 -1 3 -20010601 -1450311547 -836894461 -1397809144
            -288488929 -72482534 -724363127 -1097980947</internalNodes>
          <leafValues>
            -3.6517873406410217e-01 3.1114196777343750e-01</leafValues></_>
        <_>
          <internalNodes>
            0 -1 170 1972450731 933200047 -1425160775 -875373285
            95617443 1030844451 -1865562997 85321502</internalNodes>
          <leafValues>
            -3.8374167680740356e-01 2.7636578679084778e-01</leafValues></_>
        <_>
          <internalNodes>
            0 -1 157 -222360338 380567237 -777232509 389189385 -51696657
            -1375801346 -810602963 -285213195</internalNodes>
          <leafValues>
            -3.0880221724510193e-01 3.3935555815696716e-01</leafValues></_>
        <_>
          <internalNodes>
            0 -1 117 -2192377 -1958863794 -1363923401 -287540237
            1081624738 683198475 -1003971605 1002138479</internalNodes>
          <leafValues>
            -3.4824761748313904e-01 2.8898718953132629e-01</leafValues></_>
        <_>
          <internalNodes>
            0 -1 38 1511186403 -168755462 -1929400347 -235601936
            208928550 -311034113 1877999597 -276824092</internalNodes>
          <leafValues>
            -2.8514403104782104e-01 4.0384912490844727e-01</leafValues></_>
        <_>
          <internalNodes>
            0 -1 14 -1244408616 -44466130 521325310 -304682926
            -1878869100 -475383684 -1314884674 -815841170</internalNodes>
          <leafValues>
            -3.6377429962158203e-01 2.8422895073890686e-01</leafValues></_>
        <_>
          <internalNodes>
            0 -1 10 -22428758 1388688346 -318968041 -1446204786
            -117477441 -67248557 -741349501 -1573053</internalNodes>
          <leafValues>
            -2.4516046047210693e-01 4.3398812413215637e-01</leafValues></_>
        <_>
          <internalNodes>
            0 -1 41 1879300846 1967394561 -1256992640 -1291816890
            843254978 1460742409 -1964515230 1448561163</internalNodes>
          <leafValues>
            -3.8058173656463623e-01 2.7837070822715759e-01</leafValues></_>
        <_>
          <internalNodes>
            0 -1 50 -296626207 -1641679951 -2062697648 -1465084815
            -394166009 -324124212 -863469092 -1163595043</internalNodes>
          <leafValues>
            -3.9795410633087158e-01 2.7188608050346375e-01</leafValues></_>
        <_>
          <internalNodes>
            0 -1 53 -595427168 1494290610 -624668429 -890388203
            952107251 -740193232 1896487139 -276344781</internalNodes>
          <leafValues>
            -3.2533276081085205e-01 3.2390329241752625e-01</leafValues></_>
        <_>
          <internalNodes>
            0 -1 139 -1421891803 932481811 1939028958 -1078058114
            -638063934 -1066497621 -1084499104 -380174962</internalNodes>
          <leafValues>
            -3.2369029521942139e-01 3.3705675601959229e-01</leafValues></_>
        <_>
          <internalNodes>
            0 -1 145 -544017690 -1769952861 -643123118 -293491196
            689861111 688999819 -1208220972 1572171591</internalNodes>
          <leafValues>
            -3.7738350033760071e-01 2.9416355490684509e-01</leafValues></_>
        <_>
          <internalNodes>
            0 -1 33 1359566203 2065284918 19906735 -712147500
            -1345660945 -554762433 -1959997793 -659445041</internalNodes>
          <leafValues>
            -2.1851646900177002e-01 4.8169279098510742e-01</leafValues></_>
        <_>
          <internalNodes>
            0 -1 123 -17060172 -48982890 1617052057 -1322757220
            283572387 -1402174886 -1125462365 -1357126979</internalNodes>
          <leafValues>
            -3.5195252299308777e-01 3.1785848736763000e-01</leafValues></_>
        <_>
          <internalNodes>
            0 -1 66 1244290039 411527260 -2045476065 -1902194665
            136939826 1838255521 1207969953 -1158579168</internalNodes>
          <leafValues>
            -3.8521388173103333e-01 2.8701904416084290e-01</leafValues></_></weakClassifiers></_>
    <!-- stage 11 -->
    <_>
      <maxWeakCount>16</maxWeakCount>
      <stageThreshold>-1.0525096654891968e+00</stageThreshold>
      <weakClassifiers>
        <_>
          <internalNodes>
            0 -1 105 2147418016 -1080262976 -134283276 -13568583
            -8980481 -22388737 2012542450 -1400314752</internalNodes>
          <leafValues>
            -3.3824884891510010e-01 4.8158699274063110e-01</leafValues></_>
        <_>
          <internalNodes>
            0 -1 171 -470756752 -6598590 1112146171 -13692781
            -1929325217 723729186 1505546735 1090574667</internalNodes>
          <leafValues>
            -3.8694292306900024e-01 2.9353603720664978e-01</leafValues></_>
        <_>
          <internalNodes>
            0 -1 7 -956444984 264694234 201971965 -42132304 -407634449
            -356871923 1224297625 -890387288</internalNodes>
          <leafValues>
            -3.2734709978103638e-01 3.3127748966217041e-01</leafValues></_>
        <_>
          <internalNodes>
            0 -1 164 -881078913 -706314448 -33 -16912907 133891335
            -269353091 -806449573 -838875018</internalNodes>
          <leafValues>
            -3.1857854127883911e-01 3.3936649560928345e-01</leafValues></_>
        <_>
          <internalNodes>
            0 -1 108 -531478294 -68636401 -1284612027 -2368765
            1183969693 1451692085 1656087916 -253893902</internalNodes>
          <leafValues>
            -3.4049817919731140e-01 3.0774676799774170e-01</leafValues></_>
        <_>
          <internalNodes>
            0 -1 2 -72577074 -1591473974 -247364833 -1544876840
            -1024855409 -127008639 -102243690 -17364498</internalNodes>
          <leafValues>
            -3.5231372714042664e-01 2.9286453127861023e-01</leafValues></_>
        <_>
          <internalNodes>
            0 -1 88 -1004842740 106414359 -36596286 977294899 1091281803
            198714275 -746923546 -860624169</internalNodes>
          <leafValues>
            -3.7094926834106445e-01 2.8083840012550354e-01</leafValues></_>
        <_>
          <internalNodes>
            0 -1 42 -929921434 281473130 -754884248 2064882879
            -1689737034 -1598012278 -1974233938 -486286709</internalNodes>
          <leafValues>
            -3.3366054296493530e-01 3.2290694117546082e-01</leafValues></_>
        <_>
          <internalNodes>
            0 -1 111 51446466 -1310493490 1758479323 -1042890619
            -779990709 -897400791 -2109077265 -8220204</internalNodes>
          <leafValues>
            -4.7353985905647278e-01 2.3466843366622925e-01</leafValues></_>
        <_>
          <internalNodes>
            0 -1 19 303023782 -1873686375 -2139008521 1346454776
            1627409240 1354851442 -1848553428 830652814</internalNodes>
          <leafValues>
            -5.0583636760711670e-01 1.8934112787246704e-01</leafValues></_>
        <_>
          <internalNodes>
            0 -1 26 -755045832 -599356768 -1413302772 -277643126
            706978737 -1127832638 1185549419 1309548062</internalNodes>
          <leafValues>
            -3.7478837370872498e-01 2.7346110343933105e-01</leafValues></_>
        <_>
          <internalNodes>
            0 -1 72 -292097486 971898861 -1087340561 -1749812439
            1088738316 -925569466 -792793617 -598807846</internalNodes>
          <leafValues>
            -3.1115624308586121e-01 3.3686512708663940e-01</leafValues></_>
        <_>
          <internalNodes>
            0 -1 131 -439161065 493894494 751968375 -639084228
            1078430278 262684810 -226593953 -1097632902</internalNodes>
          <leafValues>
            -3.1538501381874084e-01 3.3551049232482910e-01</leafValues></_>
        <_>
          <internalNodes>
            0 -1 77 -15227361 1570364586 180098759 1405146812 -42481873
            -51019907 -193466370 -15206809</internalNodes>
          <leafValues>
            -2.3660345375537872e-01 4.4979068636894226e-01</leafValues></_>
        <_>
          <internalNodes>
            0 -1 182 7570688 525413327 -1857142768 227704838 159860624
            -184024571 -356619202 -1663057398</internalNodes>
          <leafValues>
            -4.0050980448722839e-01 2.8567430377006531e-01</leafValues></_>
        <_>
          <internalNodes>
            0 -1 49 1347691904 248546116 1363403091 749001908
            -2145449517 -429948927 -939144820 -321601302</internalNodes>
          <leafValues>
            -5.4229843616485596e-01 1.7843976616859436e-01</leafValues></_></weakClassifiers></_>
    <!-- stage 12 -->
    <_>
      <maxWeakCount>16</maxWeakCount>
      <stageThreshold>-1.0464215278625488e+00</stageThreshold>
      <weakClassifiers>
        <_>
          <internalNodes>
            0 -1 54 422005499 58462175 2080071679 159211258 1048395516
            805130239 536690069 198991570</internalNodes>
          <leafValues>
            -2.2427831590175629e-01 4.9537533521652222e-01</leafValues></_>
        <_>
          <internalNodes>
            0 -1 135 -42473492 65516188 621486299 1536889992 1083257583
            -1416789750 1420002011 -322967392</internalNodes>
          <leafValues>
            -3.5501584410667419e-01 3.2986554503440857e-01</leafValues></_>
        <_>
          <internalNodes>
            0 -1 55 1754381819 -2146379499 1366274332 -2070376296
            -1598493262 -496489840 -359002702 -357110788</internalNodes>
          <leafValues>
            -4.2194843292236328e-01 2.3540318012237549e-01</leafValues></_>
        <_>
          <internalNodes>
            0 -1 67 -717163810 -838499702 2110838619 1866723331
            1491108190 -389300027 -492826246 1289573410</internalNodes>
          <leafValues>
            -3.8596174120903015e-01 2.6092401146888733e-01</leafValues></_>
        <_>
          <internalNodes>
            0 -1 9 -2141345106 2093264582 -1476202275 -1932611480
            -1172714502 -1214683646 -391131393 -455892817</internalNodes>
          <leafValues>
            -3.3679601550102234e-01 2.8616216778755188e-01</leafValues></_>
        <_>
          <internalNodes>
            0 -1 178 -1055067726 -1615744240 1481462196 136720144
            406374575 -2000885607 1492769723 -2001934469</internalNodes>
          <leafValues>
            -3.8587880134582520e-01 2.3845773935317993e-01</leafValues></_>
        <_>
          <internalNodes>
            0 -1 98 -764488482 287481889 -520748517 -2121012463
            -872611873 1214578414 -1879098549 452982903</internalNodes>
          <leafValues>
            -2.9961591958999634e-01 3.3215379714965820e-01</leafValues></_>
        <_>
          <internalNodes>
            0 -1 74 -21309900 1593459995 1361090910 -643772074
            -297482804 -652187343 -151091140 -1969160578</internalNodes>
          <leafValues>
            -4.1357746720314026e-01 2.3628081381320953e-01</leafValues></_>
        <_>
          <internalNodes>
            0 -1 39 -937718600 414550165 -1289788383 -1180728485
            -2136371234 1047201419 -925859100 -2009612349</internalNodes>
          <leafValues>
            -3.3942073583602905e-01 2.9619818925857544e-01</leafValues></_>
        <_>
          <internalNodes>
            0 -1 172 -69738868 856576900 -1527548365 968938754
            1342574813 2074282049 -753602055 1730203759</internalNodes>
          <leafValues>
            -3.3819383382797241e-01 2.9759386181831360e-01</leafValues></_>
        <_>
          <internalNodes>
            0 -1 156 -453352331 -2052226677 -356285666 -1989989856
            -1333227368 -233365883 -1719613010 -1362878948</internalNodes>
          <leafValues>
            -3.4063318371772766e-01 2.8233620524406433e-01</leafValues></_>
        <_>
          <internalNodes>
            0 -1 147 923129760 -91872459 -2004767923 -879938654 4198495
            -509574656 1659570249 -89456509</internalNodes>
          <leafValues>
            -3.6428669095039368e-01 2.8606945276260376e-01</leafValues></_>
        <_>
          <internalNodes>
            0 -1 128 -751573125 -765285829 229508798 -67485890
            1223315054 50192236 -923181605 -85001353</internalNodes>
          <leafValues>
            -2.2504270076751709e-01 4.5289102196693420e-01</leafValues></_>
        <_>
          <internalNodes>
            0 -1 44 -2137653216 363889463 33570571 -2120018497 616110112
            1761774391 233660959 681276306</internalNodes>
          <leafValues>
            -5.4259109497070312e-01 1.8805934488773346e-01</leafValues></_>
        <_>
          <internalNodes>
            0 -1 107 4669862 -1072312036 924074374 -1895242695
            1627632570 1209081963 -485248526 -1398020054</internalNodes>
          <leafValues>
            -3.9253199100494385e-01 2.6383632421493530e-01</leafValues></_>
        <_>
          <internalNodes>
            0 -1 152 -1725459752 306512193 -653672284 -553049758
            -1827212823 -2121694968 1249077345 -268471127</internalNodes>
          <leafValues>
            -3.7533137202262878e-01 2.9061493277549744e-01</leafValues></_></weakClassifiers></_>
    <!-- stage 13 -->
    <_>
      <maxWeakCount>16</maxWeakCount>
      <stageThreshold>-1.0509812831878662e+00</stageThreshold>
      <weakClassifiers>
        <_>
          <internalNodes>
            0 -1 97 2112487421 1879023615 -131078 2147417854 -572665912
            -1073815715 1077966256 -992086624</internalNodes>
          <leafValues>
            -2.7487352490425110e-01 4.8317408561706543e-01</leafValues></_>
        <_>
          <internalNodes>
            0 -1 70 -357109969 -857952245 -976964225 -950217245
            -177737025 -473941117 1790957035 -12518965</internalNodes>
          <leafValues>
            -3.5025945305824280e-01 2.9515194892883301e-01</leafValues></_>
        <_>
          <internalNodes>
            0 -1 43 248379622 1256098204 -1868735021 535540170 11964556
            -940940383 -766758550 -1411392854</internalNodes>
          <leafValues>
            -3.1712412834167480e-01 3.0076989531517029e-01</leafValues></_>
        <_>
          <internalNodes>
            0 -1 78 -622903549 -109755425 -330628093 1548536643
            -803048960 -490528589 -1974969203 -274873806</internalNodes>
          <leafValues>
            -4.3771141767501831e-01 2.2558195888996124e-01</leafValues></_>
        <_>
          <internalNodes>
            0 -1 124 -6655226 1978975126 1946814522 -172464720 268641249
            2075830843 -1877276998 -2002008789</internalNodes>
          <leafValues>
            -4.4457700848579407e-01 2.0652829110622406e-01</leafValues></_>
        <_>
          <internalNodes>
            0 -1 180 -717696078 -12977359 464535856 -574902879
            -936194897 -587555329 -1901410565 -1883563933</internalNodes>
          <leafValues>
            -2.7592566609382629e-01 3.4175446629524231e-01</leafValues></_>
        <_>
          <internalNodes>
            0 -1 137 1740104991 1970532275 -1159999041 -811664991
            1728427507 -680409649 1121158587 -1514410590</internalNodes>
          <leafValues>
            -2.3400060832500458e-01 4.4433194398880005e-01</leafValues></_>
        <_>
          <internalNodes>
            0 -1 46 -803219718 -97409408 -891153413 -1145851197 22651135
            -555254452 1970217186 -1000347249</internalNodes>
          <leafValues>
            -2.3818400502204895e-01 4.1300275921821594e-01</leafValues></_>
        <_>
          <internalNodes>
            0 -1 100 1729029770 1414029576 -1054080262 -1852092144
            -822368256 283513883 -745002610 1405014899</internalNodes>
          <leafValues>
            -4.1311389207839966e-01 2.4718154966831207e-01</leafValues></_>
        <_>
          <internalNodes>
            0 -1 15 -1238466418 -1167663093 -1467932522 760463739
            1670441422 -658356093 -1366708706 -1098063010</internalNodes>
          <leafValues>
            -4.1192209720611572e-01 2.5790151953697205e-01</leafValues></_>
        <_>
          <internalNodes>
            0 -1 11 1642041326 -2115601522 -1590876357 -2084360216
            -826312753 -2751387 -1749029123 -320629429</internalNodes>
          <leafValues>
            -2.9744112491607666e-01 3.3157101273536682e-01</leafValues></_>
        <_>
          <internalNodes>
            0 -1 94 542163018 288706817 -1059011859 -1005535024
            -225764915 -1186905920 -662655020 -129639209</internalNodes>
          <leafValues>
            -4.1407707333564758e-01 2.4209707975387573e-01</leafValues></_>
        <_>
          <internalNodes>
            0 -1 90 -237634562 -1241700131 1831991035 -1626890483
            1951258508 -839018764 1598102431 -343176805</internalNodes>
          <leafValues>
            -2.3188850283622742e-01 4.5386210083961487e-01</leafValues></_>
        <_>
          <internalNodes>
            0 -1 18 -2139619892 -791174717 170952374 1658819148
            -771181351 1948592384 -804156211 1615916955</internalNodes>
          <leafValues>
            -4.0308329463005066e-01 2.6248392462730408e-01</leafValues></_>
        <_>
          <internalNodes>
            0 -1 110 1134063868 205852519 -1865922706 966985207
            1388839519 -639858194 -1112799720 8454148</internalNodes>
          <leafValues>
            -5.2099496126174927e-01 1.8369242548942566e-01</leafValues></_>
        <_>
          <internalNodes>
            0 -1 132 -1558305520 -2093768681 1208168298 9637968
            1110509222 805792027 1694169304 2074832763</internalNodes>
          <leafValues>
            -5.5417537689208984e-01 1.6086846590042114e-01</leafValues></_></weakClassifiers></_>
    <!-- stage 14 -->
    <_>
      <maxWeakCount>16</maxWeakCount>
      <stageThreshold>-8.8120263814926147e-01</stageThreshold>
      <weakClassifiers>
        <_>
          <internalNodes>
            0 -1 58 444262376 -1326415876 -151572 1484848878 -145
            -136577202 -135257 1431109454</internalNodes>
          <leafValues>
            -4.0675845742225647e-01 4.4702941179275513e-01</leafValues></_>
        <_>
          <internalNodes>
            0 -1 109 -678208620 -1681587759 1974300930 1570457974
            1966324844 -316186616 67438858 352698372</internalNodes>
          <leafValues>
            -4.4672378897666931e-01 2.3288422822952271e-01</leafValues></_>
        <_>
          <internalNodes>
            0 -1 1 -565251077 -1357907206 1756819453 251657725
            -286392323 -279969793 -1308688388 -1345323010</internalNodes>
          <leafValues>
            -3.0623114109039307e-01 3.2889175415039062e-01</leafValues></_>
        <_>
          <internalNodes>
            0 -1 120 1310614246 -103273697 2077959999 1536117984
            -218004809 -1508605945 851653339 -827637632</internalNodes>
          <leafValues>
            -4.0720203518867493e-01 2.2993876039981842e-01</leafValues></_>
        <_>
          <internalNodes>
            0 -1 165 -439645211 715741627 161010645 -53242939
            -1966390703 -89914726 -106018708 -103167994</internalNodes>
          <leafValues>
            -3.4278002381324768e-01 2.7860361337661743e-01</leafValues></_>
        <_>
          <internalNodes>
            0 -1 56 -977803277 824286405 -1082149142 989490213
            -2000814482 -302678924 1577057962 -83919769</internalNodes>
          <leafValues>
            -2.5730293989181519e-01 3.5550495982170105e-01</leafValues></_>
        <_>
          <internalNodes>
            0 -1 17 -341710117 -1379896912 -304771569 -73008976
            -891754105 -323162308 -1697295729 -1882336135</internalNodes>
          <leafValues>
            -2.5507777929306030e-01 3.6448070406913757e-01</leafValues></_>
        <_>
          <internalNodes>
            0 -1 175 -1656957488 -570738921 -175650814 -169891983
            1754413535 -7808622 147065034 -1166003566</internalNodes>
          <leafValues>
            -3.7158527970314026e-01 2.4071031808853149e-01</leafValues></_>
        <_>
          <internalNodes>
            0 -1 23 1946760694 799085484 822579341 565565298 1221137183
            251664145 1413587343 83993472</internalNodes>
          <leafValues>
            -3.9569783210754395e-01 2.4273976683616638e-01</leafValues></_>
        <_>
          <internalNodes>
            0 -1 146 -764296074 -1094710419 -69073668 -541356314
            -1900063236 -318902874 534801965 -835243</internalNodes>
          <leafValues>
            -2.8193143010139465e-01 3.4017175436019897e-01</leafValues></_>
        <_>
          <internalNodes>
            0 -1 68 1167588848 -754398844 -209693092 -276061685
            1485945172 -2114238311 1648458523 160277486</internalNodes>
          <leafValues>
            -3.6822938919067383e-01 2.6886099576950073e-01</leafValues></_>
        <_>
          <internalNodes>
            0 -1 136 -2131884257 208443826 -1375066913 971017862
            -554468009 1482209389 -108946656 -1460799638</internalNodes>
          <leafValues>
            -3.6933782696723938e-01 2.7153754234313965e-01</leafValues></_>
        <_>
          <internalNodes>
            0 -1 93 -257716414 1984400455 -164425705 2136309301
            -1339365682 -1151513266 -1451625223 -787782881</internalNodes>
          <leafValues>
            -2.7903798222541809e-01 3.5788094997406006e-01</leafValues></_>
        <_>
          <internalNodes>
            0 -1 181 -960301792 -59245507 775192435 -611702253 78865802
            -1623364138 -451172678 -810613057</internalNodes>
          <leafValues>
            -2.7904614806175232e-01 3.5766929388046265e-01</leafValues></_>
        <_>
          <internalNodes>
            0 -1 69 -696328522 2024316486 -631481897 -1122955517
            637577092 127701632 -766445091 -166669310</internalNodes>
          <leafValues>
            -3.7966349720954895e-01 2.8806287050247192e-01</leafValues></_>
        <_>
          <internalNodes>
            0 -1 114 1384703722 -1751985598 25594288 -1798978320
            -1878617973 1896188129 -2121381633 1925097735</internalNodes>
          <leafValues>
            -4.2505288124084473e-01 2.3913419246673584e-01</leafValues></_></weakClassifiers></_></stages>
  <features>
    <_>
      <rect>
        0 3 3 8</rect></_>
    <_>
      <rect>
        0 3 6 8</rect></_>
    <_>
      <rect>
        0 4 3 8</rect></_>
    <_>
      <rect>
        0 4 7 7</rect></_>
    <_>
      <rect>
        0 6 10 8</rect></_>
    <_>
      <rect>
        0 7 10 4</rect></_>
    <_>
      <rect>
        0 8 3 4</rect></_>
    <_>
      <rect>
        0 8 4 2</rect></_>
    <_>
      <rect>
        0 10 3 2</rect></_>
    <_>
      <rect>
        0 11 3 4</rect></_>
    <_>
      <rect>
        0 12 2 5</rect></_>
    <_>
      <rect>
        0 13 2 3</rect></_>
    <_>
      <rect>
        0 14 3 3</rect></_>
    <_>
      <rect>
        0 18 9 4</rect></_>
    <_>
      <rect>
        0 21 10 3</rect></_>
    <_>
      <rect>
        1 2 4 6</rect></_>
    <_>
      <rect>
        1 6 6 5</rect></_>
    <_>
      <rect>
        1 7 3 2</rect></_>
    <_>
      <rect>
        1 20 4 2</rect></_>
    <_>
      <rect>
        2 2 8 6</rect></_>
    <_>
      <rect>
        2 7 9 5</rect></_>
    <_>
      <rect>
        2 9 2 4</rect></_>
    <_>
      <rect>
        2 10 2 3</rect></_>
    <_>
      <rect>
        2 14 3 2</rect></_>
    <_>
      <rect>
        2 15 5 5</rect></_>
    <_>
      <rect>
        3 1 2 7</rect></_>
    <_>
      <rect>
        3 4 3 3</rect></_>
    <_>
      <rect>
        3 5 6 7</rect></_>
    <_>
      <rect>
        3 7 3 1</rect></_>
    <_>
      <rect>
        3 7 9 2</rect></_>
    <_>
      <rect>
        3 9 3 6</rect></_>
    <_>
      <rect>
        3 12 3 3</rect></_>
    <_>
      <rect>
        4 4 2 3</rect></_>
    <_>
      <rect>
        4 9 2 4</rect></_>
    <_>
      <rect>
        4 18 5 4</rect></_>
    <_>
      <rect>
        5 0 7 10</rect></_>
    <_>
      <rect>
        5 5 2 3</rect></_>
    <_>
      <rect>
        5 23 6 2</rect></_>
    <_>
      <rect>
        6 6 4 4</rect></_>
    <_>
      <rect>
        6 12 2 2</rect></_>
    <_>
      <rect>
        6 19 3 3</rect></_>
    <_>
      <rect>
        6 20 3 2</rect></_>
    <_>
      <rect>
        6 20 4 3</rect></_>
    <_>
      <rect>
        6 23 6 2</rect></_>
    <_>
      <rect>
        7 0 4 4</rect></_>
    <_>
      <rect>
        7 0 6 10</rect></_>
    <_>
      <rect>
        7 2 6 2</rect></_>
    <_>
      <rect>
        7 8 4 4</rect></_>
    <_>
      <rect>
        7 9 3 4</rect></_>
    <_>
      <rect>
        7 13 2 2</rect></_>
    <_>
      <rect>
        7 13 2 3</rect></_>
    <_>
      <rect>
        7 14 3 2</rect></_>
    <_>
      <rect>
        7 21 3 2</rect></_>
    <_>
      <rect>
        8 0 5 3</rect></_>
    <_>
      <rect>
        8 3 3 4</rect></_>
    <_>
      <rect>
        8 10 2 4</rect></_>
    <_>
      <rect>
        8 11 2 3</rect></_>
    <_>
      <rect>
        8 12 2 3</rect></_>
    <_>
      <rect>
        8 14 4 2</rect></_>
    <_>
      <rect>
        8 15 2 2</rect></_>
    <_>
      <rect>
        8 20 5 3</rect></_>
    <_>
      <rect>
        9 2 4 3</rect></_>
    <_>
      <rect>
        9 6 3 5</rect></_>
    <_>
      <rect>
        9 7 3 3</rect></_>
    <_>
      <rect>
        9 7 5 4</rect></_>
    <_>
      <rect>
        9 15 2 2</rect></_>
    <_>
      <rect>
        9 16 2 1</rect></_>
    <_>
      <rect>
        9 19 4 3</rect></_>
    <_>
      <rect>
        9 19 6 3</rect></_>
    <_>
      <rect>
        9 21 3 3</rect></_>
    <_>
      <rect>
        10 10 3 3</rect></_>
    <_>
      <rect>
        10 10 3 4</rect></_>
    <_>
      <rect>
        10 23 3 2</rect></_>
    <_>
      <rect>
        10 23 4 2</rect></_>
    <_>
      <rect>
        10 24 2 2</rect></_>
    <_>
      <rect>
        10 24 3 2</rect></_>
    <_>
      <rect>
        11 8 2 2</rect></_>
    <_>
      <rect>
        11 9 2 3</rect></_>
    <_>
      <rect>
        11 9 6 3</rect></_>
    <_>
      <rect>
        11 9 6 7</rect></_>
    <_>
      <rect>
        11 10 2 2</rect></_>
    <_>
      <rect>
        11 10 2 3</rect></_>
    <_>
      <rect>
        11 11 2 2</rect></_>
    <_>
      <rect>
        11 12 2 2</rect></_>
    <_>
      <rect>
        11 13 2 1</rect></_>
    <_>
      <rect>
        11 14 2 2</rect></_>
    <_>
      <rect>
        11 15 1 3</rect></_>
    <_>
      <rect>
        11 15 4 2</rect></_>
    <_>
      <rect>
        11 18 2 1</rect></_>
    <_>
      <rect>
        11 18 3 3</rect></_>
    <_>
      <rect>
        11 20 4 3</rect></_>
    <_>
      <rect>
        11 23 3 2</rect></_>
    <_>
      <rect>
        11 24 3 2</rect></_>
    <_>
      <rect>
        12 1 5 3</rect></_>
    <_>
      <rect>
        12 9 3 2</rect></_>
    <_>
      <rect>
        12 10 3 2</rect></_>
    <_>
      <rect>
        12 10 3 3</rect></_>
    <_>
      <rect>
        12 11 4 6</rect></_>
    <_>
      <rect>
        12 12 2 1</rect></_>
    <_>
      <rect>
        12 12 3 2</rect></_>
    <_>
      <rect>
        12 13 2 1</rect></_>
    <_>
      <rect>
        12 13 2 2</rect></_>
    <_>
      <rect>
        12 13 2 3</rect></_>
    <_>
      <rect>
        12 14 2 1</rect></_>
    <_>
      <rect>
        12 14 2 2</rect></_>
    <_>
      <rect>
        12 15 2 2</rect></_>
    <_>
      <rect>
        12 16 1 2</rect></_>
    <_>
      <rect>
        12 16 2 2</rect></_>
    <_>
      <rect>
        12 18 3 2</rect></_>
    <_>
      <rect>
        12 19 6 2</rect></_>
    <_>
      <rect>
        12 20 3 2</rect></_>
    <_>
      <rect>
        13 8 2 2</rect></_>
    <_>
      <rect>
        13 10 2 2</rect></_>
    <_>
      <rect>
        13 10 3 4</rect></_>
    <_>
      <rect>
        13 11 2 1</rect></_>
    <_>
      <rect>
        13 11 2 2</rect></_>
    <_>
      <rect>
        13 11 3 2</rect></_>
    <_>
      <rect>
        13 12 1 2</rect></_>
    <_>
      <rect>
        13 12 2 1</rect></_>
    <_>
      <rect>
        13 12 2 2</rect></_>
    <_>
      <rect>
        13 12 2 3</rect></_>
    <_>
      <rect>
        13 12 3 3</rect></_>
    <_>
      <rect>
        13 13 1 2</rect></_>
    <_>
      <rect>
        13 14 1 2</rect></_>
    <_>
      <rect>
        13 14 2 2</rect></_>
    <_>
      <rect>
        13 24 2 2</rect></_>
    <_>
      <rect>
        14 7 2 2</rect></_>
    <_>
      <rect>
        14 7 3 2</rect></_>
    <_>
      <rect>
        14 11 1 2</rect></_>
    <_>
      <rect>
        14 12 1 2</rect></_>
    <_>
      <rect>
        14 12 2 2</rect></_>
    <_>
      <rect>
        14 13 1 2</rect></_>
    <_>
      <rect>
        14 13 2 2</rect></_>
    <_>
      <rect>
        14 13 2 3</rect></_>
    <_>
      <rect>
        14 14 1 2</rect></_>
    <_>
      <rect>
        14 14 2 3</rect></_>
    <_>
      <rect>
        14 15 1 1</rect></_>
    <_>
      <rect>
        14 15 2 2</rect></_>
    <_>
      <rect>
        14 17 2 2</rect></_>
    <_>
      <rect>
        14 18 1 1</rect></_>
    <_>
      <rect>
        14 21 3 3</rect></_>
    <_>
      <rect>
        15 0 3 10</rect></_>
    <_>
      <rect>
        15 6 3 2</rect></_>
    <_>
      <rect>
        15 7 4 3</rect></_>
    <_>
      <rect>
        15 11 2 3</rect></_>
    <_>
      <rect>
        15 12 1 1</rect></_>
    <_>
      <rect>
        15 13 1 1</rect></_>
    <_>
      <rect>
        15 13 2 3</rect></_>
    <_>
      <rect>
        15 15 1 1</rect></_>
    <_>
      <rect>
        15 16 1 1</rect></_>
    <_>
      <rect>
        15 16 2 3</rect></_>
    <_>
      <rect>
        16 10 1 3</rect></_>
    <_>
      <rect>
        16 11 1 3</rect></_>
    <_>
      <rect>
        16 11 2 3</rect></_>
    <_>
      <rect>
        16 15 2 2</rect></_>
    <_>
      <rect>
        16 15 3 2</rect></_>
    <_>
      <rect>
        16 16 1 1</rect></_>
    <_>
      <rect>
        16 17 2 2</rect></_>
    <_>
      <rect>
        16 19 4 3</rect></_>
    <_>
      <rect>
        17 8 2 2</rect></_>
    <_>
      <rect>
        17 10 2 1</rect></_>
    <_>
      <rect>
        17 14 2 2</rect></_>
    <_>
      <rect>
        17 14 2 3</rect></_>
    <_>
      <rect>
        17 14 4 4</rect></_>
    <_>
      <rect>
        18 10 2 2</rect></_>
    <_>
      <rect>
        18 11 2 1</rect></_>
    <_>
      <rect>
        18 11 2 4</rect></_>
    <_>
      <rect>
        18 12 2 3</rect></_>
    <_>
      <rect>
        18 13 2 3</rect></_>
    <_>
      <rect>
        19 10 1 1</rect></_>
    <_>
      <rect>
        19 11 3 3</rect></_>
    <_>
      <rect>
        19 13 3 4</rect></_>
    <_>
      <rect>
        20 8 3 3</rect></_>
    <_>
      <rect>
        20 9 3 5</rect></_>
    <_>
      <rect>
        20 16 3 2</rect></_>
    <_>
      <rect>
        21 11 3 5</rect></_>
    <_>
      <rect>
        21 12 3 4</rect></_>
    <_>
      <rect>
        21 15 3 3</rect></_>
    <_>
      <rect>
        22 15 2 3</rect></_>
    <_>
      <rect>
        23 11 2 3</rect></_>
    <_>
      <rect>
        23 12 2 4</rect></_>
    <_>
      <rect>
        23 15 2 2</rect></_>
    <_>
      <rect>
        24 10 2 3</rect></_>
    <_>
      <rect>
        24 10 2 4</rect></_></features></cascade>
</opencv_storage>
