<?xml version="1.0"?>
<opencv_storage>
<cascade>
  <stageType>BOOST</stageType>
  <featureType>LBP</featureType>
  <height>30</height>
  <width>30</width>
  <stageParams>
    <boostType>GAB</boostType>
    <minHitRate>9.9500000476837158e-01</minHitRate>
    <maxFalseAlarm>5.0000000000000000e-01</maxFalseAlarm>
    <weightTrimRate>9.4999999999999996e-01</weightTrimRate>
    <maxDepth>1</maxDepth>
    <maxWeakCount>100</maxWeakCount></stageParams>
  <featureParams>
    <maxCatCount>256</maxCatCount>
    <featSize>1</featSize></featureParams>
  <stageNum>15</stageNum>
  <stages>
    <!-- stage 0 -->
    <_>
      <maxWeakCount>5</maxWeakCount>
      <stageThreshold>-9.9875020980834961e-01</stageThreshold>
      <weakClassifiers>
        <_>
          <internalNodes>
            0 -1 60 -69976 -4260100 -4101 -1 -132872 -770 -2 -2</internalNodes>
          <leafValues>
            -7.4344980716705322e-01 8.0662190914154053e-01</leafValues></_>
        <_>
          <internalNodes>
            0 -1 118 -458753 -204868 -855835649 -265122568 -4407297
            -1073807620 -462098689 -320811176</internalNodes>
          <leafValues>
            -5.1343697309494019e-01 5.7105094194412231e-01</leafValues></_>
        <_>
          <internalNodes>
            0 -1 9 -157483012 -278407750 -2013254264 -45057578 -73729029
            -606485783 -1165972832 -7423320</internalNodes>
          <leafValues>
            -6.3085603713989258e-01 4.5675635337829590e-01</leafValues></_>
        <_>
          <internalNodes>
            0 -1 130 -2069312292 -1780690477 -215431525 -100803329
            -29046534 -82181413 -283841841 -371524673</internalNodes>
          <leafValues>
            -6.3940262794494629e-01 3.4058237075805664e-01</leafValues></_>
        <_>
          <internalNodes>
            0 -1 167 1376932695 -1291762921 -1862099585 -642637518
            806975611 1495343755 -1056366241 -546104002</internalNodes>
          <leafValues>
            -4.4521751999855042e-01 4.4390732049942017e-01</leafValues></_></weakClassifiers></_>
    <!-- stage 1 -->
    <_>
      <maxWeakCount>8</maxWeakCount>
      <stageThreshold>-1.0302829742431641e+00</stageThreshold>
      <weakClassifiers>
        <_>
          <internalNodes>
            0 -1 88 -8524040 -526594 -1 -1 -4718594 -257 -5 -5</internalNodes>
          <leafValues>
            -4.9472627043724060e-01 7.4457472562789917e-01</leafValues></_>
        <_>
          <internalNodes>
            0 -1 16 -18 -2330286 -1067986537 -8416434 -610600964
            -6323299 -14681122 -1042</internalNodes>
          <leafValues>
            -4.8703339695930481e-01 4.7878298163414001e-01</leafValues></_>
        <_>
          <internalNodes>
            0 -1 72 -67314188 -39001372 -1074267267 -548346510
            -1074612240 -1415917707 -160104515 -392102436</internalNodes>
          <leafValues>
            -4.1076537966728210e-01 4.6076697111129761e-01</leafValues></_>
        <_>
          <internalNodes>
            0 -1 115 -562757953 -1353785956 1517861247 -1075522328
            -1164913606 -69302117 -938431745 -289605825</internalNodes>
          <leafValues>
            -4.3684542179107666e-01 4.2741459608078003e-01</leafValues></_>
        <_>
          <internalNodes>
            0 -1 168 1936664327 -1743384754 -639642497 992027411
            2123715139 2093291595 -1948025137 -98341106</internalNodes>
          <leafValues>
            -5.4104959964752197e-01 3.2734587788581848e-01</leafValues></_>
        <_>
          <internalNodes>
            0 -1 117 -1346404357 -285343751 -150994953 1073217535
            -1430196290 -36995 -5198086 -594954</internalNodes>
          <leafValues>
            -3.7667524814605713e-01 4.6894484758377075e-01</leafValues></_>
        <_>
          <internalNodes>
            0 -1 103 1078913115 -1639780026 -1006350151 -1370861270
            -817047364 -357854294 -618471719 -19140097</internalNodes>
          <leafValues>
            -3.9105144143104553e-01 4.2092001438140869e-01</leafValues></_>
        <_>
          <internalNodes>
            0 -1 7 -225650048 -1104166234 -1781174777 -1138502976
            -108537425 -540311413 -1659268540 -1903432290</internalNodes>
          <leafValues>
            -4.1720730066299438e-01 3.9384818077087402e-01</leafValues></_></weakClassifiers></_>
    <!-- stage 2 -->
    <_>
      <maxWeakCount>11</maxWeakCount>
      <stageThreshold>-8.5935920476913452e-01</stageThreshold>
      <weakClassifiers>
        <_>
          <internalNodes>
            0 -1 102 -13308168 -8912901 -139265 -2097153 -77825 -33
            2138963935 -1</internalNodes>
          <leafValues>
            -4.2402634024620056e-01 6.6387361288070679e-01</leafValues></_>
        <_>
          <internalNodes>
            0 -1 119 -393218 2079833823 -77993 -100671659 -18702646 -177
            -431958006 -8913077</internalNodes>
          <leafValues>
            -3.4724938869476318e-01 5.1333552598953247e-01</leafValues></_>
        <_>
          <internalNodes>
            0 -1 135 -48443201 -6256892 -767015538 -542579272
            -1181850881 -104266769 -1466930482 -26673413</internalNodes>
          <leafValues>
            -4.0144929289817810e-01 3.9895105361938477e-01</leafValues></_>
        <_>
          <internalNodes>
            0 -1 163 -572655907 -579365643 -1874232836 -1110437100
            -79239755 -140653127 -76547075 -1102837500</internalNodes>
          <leafValues>
            -4.2046809196472168e-01 3.9617142081260681e-01</leafValues></_>
        <_>
          <internalNodes>
            0 -1 144 -41976561 2117276724 -699672489 523567387
            -1441310185 -332756980 -308612628 -317986292</internalNodes>
          <leafValues>
            -4.5118761062622070e-01 3.3264163136482239e-01</leafValues></_>
        <_>
          <internalNodes>
            0 -1 5 -1394681222 709941584 -2079317990 1253748890
            -67568913 -1409596473 -1449674085 -2006267686</internalNodes>
          <leafValues>
            -5.2718621492385864e-01 2.7845343947410583e-01</leafValues></_>
        <_>
          <internalNodes>
            0 -1 80 138334207 651224419 -538849441 753932447 159948895
            -1600083252 -2004112232 -1533677633</internalNodes>
          <leafValues>
            -4.8208668828010559e-01 2.8786846995353699e-01</leafValues></_>
        <_>
          <internalNodes>
            0 -1 56 741489340 -1084419881 -754614129 454463480
            -1475257890 -1698903631 -347600436 78963932</internalNodes>
          <leafValues>
            -5.2555620670318604e-01 2.6329129934310913e-01</leafValues></_>
        <_>
          <internalNodes>
            0 -1 185 -483136005 -216270202 -302783243 935720959
            -1040252417 -1652850954 -925954687 -637539281</internalNodes>
          <leafValues>
            -3.1140118837356567e-01 4.4533979892730713e-01</leafValues></_>
        <_>
          <internalNodes>
            0 -1 159 -658491308 -1817131117 998046967 -1724821743
            -190723964 -541069569 1275648234 -2138354017</internalNodes>
          <leafValues>
            -3.5200396180152893e-01 3.8972321152687073e-01</leafValues></_>
        <_>
          <internalNodes>
            0 -1 199 1293852480 -48772653 -652312100 1875980310
            1250174364 -82079656 -791005020 -131048384</internalNodes>
          <leafValues>
            -4.7965469956398010e-01 2.7591037750244141e-01</leafValues></_></weakClassifiers></_>
    <!-- stage 3 -->
    <_>
      <maxWeakCount>12</maxWeakCount>
      <stageThreshold>-1.1489715576171875e+00</stageThreshold>
      <weakClassifiers>
        <_>
          <internalNodes>
            0 -1 54 -35651830 -10486001 -1048611 -8392721 -4209
            -21250258 -67585 -536870977</internalNodes>
          <leafValues>
            -4.0265741944313049e-01 6.3176387548446655e-01</leafValues></_>
        <_>
          <internalNodes>
            0 -1 82 -536888097 -637563761 -126437297 -578633727
            1862270847 -278657 -302260305 -1926576705</internalNodes>
          <leafValues>
            -2.9209280014038086e-01 5.0976061820983887e-01</leafValues></_>
        <_>
          <internalNodes>
            0 -1 184 -523763787 286447135 -642517840 -1288518858
            -826325727 -393221029 -1046405040 -4991116</internalNodes>
          <leafValues>
            -3.8982871174812317e-01 3.6971428990364075e-01</leafValues></_>
        <_>
          <internalNodes>
            0 -1 137 -2752513 803123159 -528385 2146434812 -84215810
            -37848075 -70205462 -67897497</internalNodes>
          <leafValues>
            -2.7035325765609741e-01 5.0788295269012451e-01</leafValues></_>
        <_>
          <internalNodes>
            0 -1 45 285343739 1374019468 -1846591633 -1107296275
            79027709 -1661599745 -927220597 -1396834819</internalNodes>
          <leafValues>
            -3.1155872344970703e-01 4.3099719285964966e-01</leafValues></_>
        <_>
          <internalNodes>
            0 -1 165 2094771983 -109342987 -417987 -1718605198
            2146889461 -81756751 -134755108 -570639108</internalNodes>
          <leafValues>
            -3.2707366347312927e-01 4.0362754464149475e-01</leafValues></_>
        <_>
          <internalNodes>
            0 -1 133 -1047667268 -1567031269 -2134157863 1546480105
            1254539272 -359061500 -1559800636 -110663377</internalNodes>
          <leafValues>
            -5.0344485044479370e-01 2.6830792427062988e-01</leafValues></_>
        <_>
          <internalNodes>
            0 -1 28 -791481864 -247164859 -880764913 -1308585249
            -1602016530 -914533967 -1920367448 -1879620354</internalNodes>
          <leafValues>
            -3.4831154346466064e-01 3.5982757806777954e-01</leafValues></_>
        <_>
          <internalNodes>
            0 -1 110 45002480 -1242114237 -1021768615 -849640159
            673516395 -1845379071 1250102935 -295220471</internalNodes>
          <leafValues>
            -5.0871717929840088e-01 2.5136521458625793e-01</leafValues></_>
        <_>
          <internalNodes>
            0 -1 192 -1188325957 721572981 -780013347 -138808311
            1183719820 -471691097 1228948984 -1628583492</internalNodes>
          <leafValues>
            -3.8292938470840454e-01 3.4025827050209045e-01</leafValues></_>
        <_>
          <internalNodes>
            0 -1 147 1474026751 453570506 -17806652 -743711068 510526094
            2146435038 -605909273 -1358959873</internalNodes>
          <leafValues>
            -2.6851999759674072e-01 4.9429208040237427e-01</leafValues></_>
        <_>
          <internalNodes>
            0 -1 36 -734151638 990248993 1569095697 990584991 806384488
            1265156600 -1517669108 1863428554</internalNodes>
          <leafValues>
            -3.6877498030662537e-01 3.5696405172348022e-01</leafValues></_></weakClassifiers></_>
    <!-- stage 4 -->
    <_>
      <maxWeakCount>11</maxWeakCount>
      <stageThreshold>-1.0134515762329102e+00</stageThreshold>
      <weakClassifiers>
        <_>
          <internalNodes>
            0 -1 67 -201333014 -134217745 -320805152 -655361 -16777221
            -142673922 -872415250 -9185281</internalNodes>
          <leafValues>
            -5.3294289112091064e-01 5.8869224786758423e-01</leafValues></_>
        <_>
          <internalNodes>
            0 -1 95 1826615079 -1188843741 -521147121 555941155 83176327
            552992766 -419959025 -993005745</internalNodes>
          <leafValues>
            -3.6418053507804871e-01 4.6569013595581055e-01</leafValues></_>
        <_>
          <internalNodes>
            0 -1 129 -721599736 -712732385 -1731800065 -798018673
            464077279 -2004815831 -1566561909 -744230121</internalNodes>
          <leafValues>
            -5.5780106782913208e-01 2.7554714679718018e-01</leafValues></_>
        <_>
          <internalNodes>
            0 -1 125 -698499470 -1753877699 -1878829480 52465930
            -609490015 1981883270 -552642634 1948317542</internalNodes>
          <leafValues>
            -5.1705461740493774e-01 2.5429359078407288e-01</leafValues></_>
        <_>
          <internalNodes>
            0 -1 14 -130554178 678069248 -1037664180 755695647
            -374710122 -124927231 -439370840 -361245462</internalNodes>
          <leafValues>
            -3.6253824830055237e-01 3.6445221304893494e-01</leafValues></_>
        <_>
          <internalNodes>
            0 -1 116 -916196908 -769982200 -2147366879 8622413
            -299452404 -1011350909 1948276170 -179046065</internalNodes>
          <leafValues>
            -4.5906025171279907e-01 2.8590855002403259e-01</leafValues></_>
        <_>
          <internalNodes>
            0 -1 190 1806560629 211543207 -1014783968 -1228163661
            -741222975 -707542599 -259003536 -308295235</internalNodes>
          <leafValues>
            -3.6590510606765747e-01 3.6995869874954224e-01</leafValues></_>
        <_>
          <internalNodes>
            0 -1 37 -1064856189 1368333165 826215093 1002387326
            -1593836131 -1661147139 -1867538193 -46268917</internalNodes>
          <leafValues>
            -2.8700971603393555e-01 4.3612843751907349e-01</leafValues></_>
        <_>
          <internalNodes>
            0 -1 35 1564803032 -79310804 -636997628 1897058667
            -2113174154 51904654 1854036110 1136841199</internalNodes>
          <leafValues>
            -3.9803007245063782e-01 3.1668230891227722e-01</leafValues></_>
        <_>
          <internalNodes>
            0 -1 171 652004748 367057315 -628119076 666036386
            -2097757596 716440246 1256989266 -1470043354</internalNodes>
          <leafValues>
            -4.7924724221229553e-01 2.7700015902519226e-01</leafValues></_>
        <_>
          <internalNodes>
            0 -1 188 1905802578 -1169465209 -2130361184 -971820795
            1343278150 -918101360 1533248075 -9293498</internalNodes>
          <leafValues>
            -4.1877964138984680e-01 3.0188995599746704e-01</leafValues></_></weakClassifiers></_>
    <!-- stage 5 -->
    <_>
      <maxWeakCount>13</maxWeakCount>
      <stageThreshold>-1.0102233886718750e+00</stageThreshold>
      <weakClassifiers>
        <_>
          <internalNodes>
            0 -1 91 -290544410 -823197953 1889592042 -273678483
            -1663832129 -584187916 -201598997 -8705</internalNodes>
          <leafValues>
            -4.0836942195892334e-01 5.5613350868225098e-01</leafValues></_>
        <_>
          <internalNodes>
            0 -1 140 -1314849 2012691454 -101056753 -436731921
            -655561330 -269484165 1616963074 -144179349</internalNodes>
          <leafValues>
            -3.3793890476226807e-01 4.6319705247879028e-01</leafValues></_>
        <_>
          <internalNodes>
            0 -1 34 -68292666 -869285462 1212186854 588487623 -503065173
            -1974531521 -526649162 11522031</internalNodes>
          <leafValues>
            -3.9913251996040344e-01 3.4805631637573242e-01</leafValues></_>
        <_>
          <internalNodes>
            0 -1 76 1366794795 1578209135 749052655 1061133815
            -1025527889 1609326317 663413475 2069619643</internalNodes>
          <leafValues>
            -3.1144186854362488e-01 4.3576160073280334e-01</leafValues></_>
        <_>
          <internalNodes>
            0 -1 161 -318245906 -1693843030 -798807504 -27768740
            101394278 168815754 -492173984 -22024976</internalNodes>
          <leafValues>
            -5.3705257177352905e-01 2.5693160295486450e-01</leafValues></_>
        <_>
          <internalNodes>
            0 -1 96 -170574034 1929744844 52810191 805460258 -2128483797
            1346667280 -773719253 1356896459</internalNodes>
          <leafValues>
            -5.2533793449401855e-01 2.3290629684925079e-01</leafValues></_>
        <_>
          <internalNodes>
            0 -1 6 -1437169878 486561760 -1608383448 537004178
            -1781806406 -1123997961 279421150 721150</internalNodes>
          <leafValues>
            -5.6965929269790649e-01 2.2109983861446381e-01</leafValues></_>
        <_>
          <internalNodes>
            0 -1 185 674491379 -1055694072 1437664437 1937850419
            1814508431 892056231 -521590651 -931669498</internalNodes>
          <leafValues>
            -3.6361494660377502e-01 3.3367022871971130e-01</leafValues></_>
        <_>
          <internalNodes>
            0 -1 124 -434121102 -1621241572 823365560 1459782954
            1367075831 -516914767 1368636415 -727332041</internalNodes>
          <leafValues>
            -3.7338393926620483e-01 3.2082599401473999e-01</leafValues></_>
        <_>
          <internalNodes>
            0 -1 64 1870392901 571894723 328925787 522439087 1146167909
            890536152 -1953121632 -2073709964</internalNodes>
          <leafValues>
            -3.9534077048301697e-01 3.2237032055854797e-01</leafValues></_>
        <_>
          <internalNodes>
            0 -1 157 -183040233 285214020 -1018657349 932973641
            1078792344 1088487435 -645919489 -261408505</internalNodes>
          <leafValues>
            -4.3786495923995972e-01 2.7041968703269958e-01</leafValues></_>
        <_>
          <internalNodes>
            0 -1 113 1649794352 1382160204 -1598339431 807514418
            1693829314 100658672 -278018589 -169919565</internalNodes>
          <leafValues>
            -3.2637399435043335e-01 3.7150996923446655e-01</leafValues></_>
        <_>
          <internalNodes>
            0 -1 57 1528772432 -1068803110 1459769936 1168187200
            -1499789102 1971847168 -2096295708 -850468864</internalNodes>
          <leafValues>
            -4.6694669127464294e-01 2.7033868432044983e-01</leafValues></_></weakClassifiers></_>
    <!-- stage 6 -->
    <_>
      <maxWeakCount>13</maxWeakCount>
      <stageThreshold>-8.0682480335235596e-01</stageThreshold>
      <weakClassifiers>
        <_>
          <internalNodes>
            0 -1 139 -328961 -67846924 1862184700 -2167716 -1342263873
            -286722 -1090745218 -324221920</internalNodes>
          <leafValues>
            -3.0997303128242493e-01 5.4472982883453369e-01</leafValues></_>
        <_>
          <internalNodes>
            0 -1 152 -100205744 -2329506 -787031233 -744124390 -31821264
            -23663873 -3899521 -219087598</internalNodes>
          <leafValues>
            -4.0927699208259583e-01 3.6476179957389832e-01</leafValues></_>
        <_>
          <internalNodes>
            0 -1 187 -305719529 2135315295 -776056083 -49065233
            -733082113 -387232375 -913389585 -96961921</internalNodes>
          <leafValues>
            -3.5716789960861206e-01 3.5944730043411255e-01</leafValues></_>
        <_>
          <internalNodes>
            0 -1 4 -403755794 798042971 -1530087330 264766188 -674250821
            -575698261 -1148921361 -1999852948</internalNodes>
          <leafValues>
            -4.1414272785186768e-01 2.9664611816406250e-01</leafValues></_>
        <_>
          <internalNodes>
            0 -1 93 -780666636 -1107343194 -803710467 1967251749
            1501905400 -1633103178 -612340291 -856625667</internalNodes>
          <leafValues>
            -3.6006730794906616e-01 3.2972651720046997e-01</leafValues></_>
        <_>
          <internalNodes>
            0 -1 156 -277126637 -1565013373 413338707 -611630446
            -2013194165 -1979441013 1230186779 -340053568</internalNodes>
          <leafValues>
            -3.6780220270156860e-01 3.0045539140701294e-01</leafValues></_>
        <_>
          <internalNodes>
            0 -1 77 -1693909262 -139902202 -681705347 1203831045
            -1976886277 -575470590 -1424027622 -1347936246</internalNodes>
          <leafValues>
            -4.4749891757965088e-01 2.5347864627838135e-01</leafValues></_>
        <_>
          <internalNodes>
            0 -1 105 102164191 -1426052858 1888485743 -291350117
            -251551302 -38076407 269605353 -293846753</internalNodes>
          <leafValues>
            -4.1186311841011047e-01 2.7814072370529175e-01</leafValues></_>
        <_>
          <internalNodes>
            0 -1 176 -537854734 -11054839 795331954 -341178880
            -1456237577 -24899551 -1110731044 -37621951</internalNodes>
          <leafValues>
            -3.3329528570175171e-01 3.4278246760368347e-01</leafValues></_>
        <_>
          <internalNodes>
            0 -1 53 1220351452 1479637425 956514305 478217120 2030913005
            -24200567 940120281 274538894</internalNodes>
          <leafValues>
            -4.3085443973541260e-01 2.7592733502388000e-01</leafValues></_>
        <_>
          <internalNodes>
            0 -1 74 1526233844 1527932726 2113633759 -13287533
            -1780547881 -1206452356 1442767240 -1620908322</internalNodes>
          <leafValues>
            -3.1670916080474854e-01 3.6020466685295105e-01</leafValues></_>
        <_>
          <internalNodes>
            0 -1 121 -322405626 -243973381 571017671 -1532983550
            -1869451789 1490274444 1720312623 -521883901</internalNodes>
          <leafValues>
            -4.4719022512435913e-01 2.7280777692794800e-01</leafValues></_>
        <_>
          <internalNodes>
            0 -1 146 655008096 -1819802353 -1331522437 1071583745
            -1183078163 -1434025842 -391477048 -534668621</internalNodes>
          <leafValues>
            -3.8345697522163391e-01 2.9536625742912292e-01</leafValues></_></weakClassifiers></_>
    <!-- stage 7 -->
    <_>
      <maxWeakCount>15</maxWeakCount>
      <stageThreshold>-7.9584783315658569e-01</stageThreshold>
      <weakClassifiers>
        <_>
          <internalNodes>
            0 -1 63 -2097394 -37929041 -1064985 2146435071 -805319025
            -1264091329 -33554451 -146800786</internalNodes>
          <leafValues>
            -2.9226735234260559e-01 5.4671436548233032e-01</leafValues></_>
        <_>
          <internalNodes>
            0 -1 48 -33571077 -722997266 -285474945 -173546067 -9
            -319885353 2147475327 -846203409</internalNodes>
          <leafValues>
            -1.9257433712482452e-01 5.4598569869995117e-01</leafValues></_>
        <_>
          <internalNodes>
            0 -1 160 1292562382 1929807014 -2136566792 1762721964
            168697856 436601002 127658720 -67113986</internalNodes>
          <leafValues>
            -4.9125114083290100e-01 2.3054343461990356e-01</leafValues></_>
        <_>
          <internalNodes>
            0 -1 107 -422582379 255420839 -1038802173 -1608342265
            -301360155 -1109660971 -194655455 1076787235</internalNodes>
          <leafValues>
            -4.5637631416320801e-01 2.2948969900608063e-01</leafValues></_>
        <_>
          <internalNodes>
            0 -1 100 -1959537920 -266620487 327745665 -114822749
            -2147304621 -1869881177 -1964049461 -69210429</internalNodes>
          <leafValues>
            -3.6004182696342468e-01 2.9646623134613037e-01</leafValues></_>
        <_>
          <internalNodes>
            0 -1 58 1352856754 -723621700 398067729 -612953814
            -975059981 -168493386 -79376151 -71443621</internalNodes>
          <leafValues>
            -2.7182468771934509e-01 4.0339824557304382e-01</leafValues></_>
        <_>
          <internalNodes>
            0 -1 101 -407375937 -1118610 -302017274 2134877370
            1153277251 1693941759 -815462105 -807424385</internalNodes>
          <leafValues>
            -2.4496996402740479e-01 4.4595485925674438e-01</leafValues></_>
        <_>
          <internalNodes>
            0 -1 98 -564177626 358734215 -1786551953 293795586 412128144
            1082394637 -653284353 348453155</internalNodes>
          <leafValues>
            -4.1634199023246765e-01 2.7017736434936523e-01</leafValues></_>
        <_>
          <internalNodes>
            0 -1 26 -713777988 -753730089 36176072 -1186806050 16424628
            -864173696 -1923233078 -2079129554</internalNodes>
          <leafValues>
            -4.2463910579681396e-01 2.3588563501834869e-01</leafValues></_>
        <_>
          <internalNodes>
            0 -1 62 -180402895 -1072461101 -886053003 483883481
            -803261355 -76954202 -205221628 -532591408</internalNodes>
          <leafValues>
            -3.3482775092124939e-01 3.0678442120552063e-01</leafValues></_>
        <_>
          <internalNodes>
            0 -1 39 -493883990 581042976 505271706 2761252 1756518198
            1571633670 136312555 1305404142</internalNodes>
          <leafValues>
            -4.2095842957496643e-01 2.4371619522571564e-01</leafValues></_>
        <_>
          <internalNodes>
            0 -1 195 -1897937658 -2107375337 -780070393 -205381321
            -999593169 1218082867 -623930683 -797573521</internalNodes>
          <leafValues>
            -3.7085747718811035e-01 2.9968687891960144e-01</leafValues></_>
        <_>
          <internalNodes>
            0 -1 166 -657984169 1031900558 1426529674 140284046
            176945524 2101112919 -1231324316 -275256736</internalNodes>
          <leafValues>
            -3.6614388227462769e-01 2.8642114996910095e-01</leafValues></_>
        <_>
          <internalNodes>
            0 -1 203 80377655 1053972565 1387273339 -715863454
            1353188427 1500323859 -1936943921 1039286578</internalNodes>
          <leafValues>
            -3.9196148514747620e-01 2.5604805350303650e-01</leafValues></_>
        <_>
          <internalNodes>
            0 -1 55 -1999704358 1027539280 1896038439 -2128490630
            1107902911 143337638 302101243 138357122</internalNodes>
          <leafValues>
            -3.8662937283515930e-01 2.7237847447395325e-01</leafValues></_></weakClassifiers></_>
    <!-- stage 8 -->
    <_>
      <maxWeakCount>16</maxWeakCount>
      <stageThreshold>-9.3482899665832520e-01</stageThreshold>
      <weakClassifiers>
        <_>
          <internalNodes>
            0 -1 1 -280594 1844960991 -1025 -1589265 -36 -32769
            -16777294 -1073741826</internalNodes>
          <leafValues>
            -2.3056994378566742e-01 5.2872532606124878e-01</leafValues></_>
        <_>
          <internalNodes>
            0 -1 92 -648358433 -1419374826 1451332055 -1902061133
            -2096037837 -196475 -1958364745 -26083401</internalNodes>
          <leafValues>
            -3.6105623841285706e-01 3.2042148709297180e-01</leafValues></_>
        <_>
          <internalNodes>
            0 -1 108 -144974990 -237709933 -486304937 822190882
            -1192695118 -1336653517 -234097665 -113198302</internalNodes>
          <leafValues>
            -3.4185862541198730e-01 2.9248359799385071e-01</leafValues></_>
        <_>
          <internalNodes>
            0 -1 191 -1893997709 429622269 -1517570599 -1618247336
            -1886699263 1004208815 -825928512 -841104907</internalNodes>
          <leafValues>
            -3.6886364221572876e-01 2.7911785244941711e-01</leafValues></_>
        <_>
          <internalNodes>
            0 -1 38 -310704876 901395038 -1727833571 730013954
            -237665839 -1147469509 -655497043 834386719</internalNodes>
          <leafValues>
            -3.5287398099899292e-01 2.8712928295135498e-01</leafValues></_>
        <_>
          <internalNodes>
            0 -1 145 1584398335 1325391615 -50464769 -1770127489
            -1467574082 -11051169 -185155381 -31203505</internalNodes>
          <leafValues>
            -2.3570089042186737e-01 5.3003877401351929e-01</leafValues></_>
        <_>
          <internalNodes>
            0 -1 46 -219180098 -1107722282 169493331 -1288660113
            -1391744195 -1397813840 -1174201637 136544494</internalNodes>
          <leafValues>
            -3.6248987913131714e-01 2.9407912492752075e-01</leafValues></_>
        <_>
          <internalNodes>
            0 -1 127 1618405328 -789517454 -1065246640 873076242
            1382012149 -772079007 -334900485 -487886077</internalNodes>
          <leafValues>
            -3.2227233052253723e-01 3.1137460470199585e-01</leafValues></_>
        <_>
          <internalNodes>
            0 -1 2 -423972954 42083338 -1096093234 16668762 1656481953
            -398243815 -767685969 83757226</internalNodes>
          <leafValues>
            -5.3421962261199951e-01 2.0258526504039764e-01</leafValues></_>
        <_>
          <internalNodes>
            0 -1 162 -1752373280 823365726 1891730767 -1693790059
            1619070375 1909281798 -1067643777 -852849614</internalNodes>
          <leafValues>
            -3.5531035065650940e-01 2.7629902958869934e-01</leafValues></_>
        <_>
          <internalNodes>
            0 -1 131 214370388 -2024285706 -208647817 -1853859631
            -718599895 -785907701 -1172057057 -26125214</internalNodes>
          <leafValues>
            -5.0598758459091187e-01 1.9025045633316040e-01</leafValues></_>
        <_>
          <internalNodes>
            0 -1 22 -1393091269 1145986995 -653133525 1891143574
            -1365153589 -1421198570 -2462744 -969854000</internalNodes>
          <leafValues>
            -3.0167818069458008e-01 3.1446623802185059e-01</leafValues></_>
        <_>
          <internalNodes>
            0 -1 18 1274335148 382600707 -679191361 856036010 1343836592
            -2012454768 807062055 1239409351</internalNodes>
          <leafValues>
            -3.5018908977508545e-01 2.7037537097930908e-01</leafValues></_>
        <_>
          <internalNodes>
            0 -1 73 -514938562 675271033 688476126 -202719049 1753612153
            -1196945393 -1860718296 -991477006</internalNodes>
          <leafValues>
            -3.4552234411239624e-01 2.7864989638328552e-01</leafValues></_>
        <_>
          <internalNodes>
            0 -1 204 83799335 1930741525 -1979473854 1041768984
            1155530775 -857185371 415914111 -1612445934</internalNodes>
          <leafValues>
            -3.6513650417327881e-01 2.7046006917953491e-01</leafValues></_>
        <_>
          <internalNodes>
            0 -1 65 -1135617163 -573506092 1057881911 2048982911
            223678125 -1382742107 -29473 522652893</internalNodes>
          <leafValues>
            -3.0574673414230347e-01 3.2906416058540344e-01</leafValues></_></weakClassifiers></_>
    <!-- stage 9 -->
    <_>
      <maxWeakCount>17</maxWeakCount>
      <stageThreshold>-7.2285115718841553e-01</stageThreshold>
      <weakClassifiers>
        <_>
          <internalNodes>
            0 -1 180 1987536727 1932557886 2138472061 -1087236320
            2142459615 -75890691 -67653633 -13140449</internalNodes>
          <leafValues>
            -6.4358629286289215e-02 5.7245796918869019e-01</leafValues></_>
        <_>
          <internalNodes>
            0 -1 47 -1108214497 497090460 -294715905 -243138655
            -1107427365 -17 -119537953 -50989153</internalNodes>
          <leafValues>
            -2.0569570362567902e-01 4.7316002845764160e-01</leafValues></_>
        <_>
          <internalNodes>
            0 -1 44 1431165389 1364383133 -1861547545 1052993767
            -2137926759 -170817055 164323883 147138894</internalNodes>
          <leafValues>
            -3.3312430977821350e-01 3.0716449022293091e-01</leafValues></_>
        <_>
          <internalNodes>
            0 -1 150 -29360129 1843396351 -272650273 1861943039
            -1108148226 -524875 -71238666 -793613</internalNodes>
          <leafValues>
            -2.6057964563369751e-01 3.8714048266410828e-01</leafValues></_>
        <_>
          <internalNodes>
            0 -1 12 -2010272177 76909066 1023535873 524502293
            -1937659037 2014513185 -1205694975 -1391924316</internalNodes>
          <leafValues>
            -4.0012356638908386e-01 2.1637071669101715e-01</leafValues></_>
        <_>
          <internalNodes>
            0 -1 183 565420449 -651554668 -1249332843 -1652469236
            1971787143 1244137603 -2004397627 -1061954913</internalNodes>
          <leafValues>
            -3.4835380315780640e-01 2.6177677512168884e-01</leafValues></_>
        <_>
          <internalNodes>
            0 -1 179 -266328 -5668877 -163677447 -16831751 1999845371
            -12714308 1610234303 -39882291</internalNodes>
          <leafValues>
            -2.1229644119739532e-01 4.4281268119812012e-01</leafValues></_>
        <_>
          <internalNodes>
            0 -1 27 -293683628 1883447299 -1872967795 -847637259
            1546971653 -433383015 3172084 237897854</internalNodes>
          <leafValues>
            -4.4170367717742920e-01 2.2551614046096802e-01</leafValues></_>
        <_>
          <internalNodes>
            0 -1 134 515824894 -1114083176 -2145293302 -1895336702
            -958529397 -402620414 -521109306 -1589120653</internalNodes>
          <leafValues>
            -3.8288152217864990e-01 2.4407155811786652e-01</leafValues></_>
        <_>
          <internalNodes>
            0 -1 206 -1406148873 -1110248594 -1291750961 247103756
            586784956 -2039165 -1727296627 -1467171404</internalNodes>
          <leafValues>
            -3.4511625766754150e-01 2.7538269758224487e-01</leafValues></_>
        <_>
          <internalNodes>
            0 -1 155 -831738585 -874728770 -234881063 -425786754
            209527241 1336212976 -2065179140 -927660868</internalNodes>
          <leafValues>
            -2.9036164283752441e-01 3.2570981979370117e-01</leafValues></_>
        <_>
          <internalNodes>
            0 -1 197 -730402993 1597612015 2116548391 -12914692
            -2141000593 -730516047 -646197346 762450962</internalNodes>
          <leafValues>
            -2.9281833767890930e-01 3.2819497585296631e-01</leafValues></_>
        <_>
          <internalNodes>
            0 -1 52 -779927432 1560506771 721883481 495131985 1833108675
            -1608347647 857888339 1582229010</internalNodes>
          <leafValues>
            -3.4350851178169250e-01 2.8028532862663269e-01</leafValues></_>
        <_>
          <internalNodes>
            0 -1 21 -459739600 1985114623 -1807443948 2119337846
            -1862026757 -270931811 1653254193 -39190144</internalNodes>
          <leafValues>
            -3.6411193013191223e-01 2.8247296810150146e-01</leafValues></_>
        <_>
          <internalNodes>
            0 -1 193 -2113788113 -848117487 -1048489008 -855271132
            -1058068565 -1472304725 1170017885 -981886401</internalNodes>
          <leafValues>
            -3.0536490678787231e-01 3.2293009757995605e-01</leafValues></_>
        <_>
          <internalNodes>
            0 -1 109 1691220740 2039753740 631901617 698511806
            1416530543 838319555 -1250577249 -86787085</internalNodes>
          <leafValues>
            -2.6932838559150696e-01 3.7245628237724304e-01</leafValues></_>
        <_>
          <internalNodes>
            0 -1 90 -428356611 1848626666 2147052671 -4539239 -956339104
            -407601162 -1398487616 -323038032</internalNodes>
          <leafValues>
            -2.6388689875602722e-01 3.7453305721282959e-01</leafValues></_></weakClassifiers></_>
    <!-- stage 10 -->
    <_>
      <maxWeakCount>18</maxWeakCount>
      <stageThreshold>-6.9910621643066406e-01</stageThreshold>
      <weakClassifiers>
        <_>
          <internalNodes>
            0 -1 111 240029434 -1431651586 -923992845 -1364526328
            -112028505 -69241089 -437004365 -294125765</internalNodes>
          <leafValues>
            -2.8151986002922058e-01 4.8037999868392944e-01</leafValues></_>
        <_>
          <internalNodes>
            0 -1 69 -42337283 -67239969 -978490075 -718668669 802471919
            -83890177 -386543441 -856698897</internalNodes>
          <leafValues>
            -1.9725608825683594e-01 5.1639384031295776e-01</leafValues></_>
        <_>
          <internalNodes>
            0 -1 144 -2289 -696778955 -152699171 -1641582690 -8429901
            -143163618 -6359089 -24250525</internalNodes>
          <leafValues>
            -2.9058682918548584e-01 3.5929498076438904e-01</leafValues></_>
        <_>
          <internalNodes>
            0 -1 20 519957431 -23203098 -16781346 -243066086 -524353
            -355467381 -34 -1934622977</internalNodes>
          <leafValues>
            -2.5179380178451538e-01 3.9924430847167969e-01</leafValues></_>
        <_>
          <internalNodes>
            0 -1 119 626219518 1360265984 1406637495 1343029623
            -1102382130 -1875701225 1372649354 1731456847</internalNodes>
          <leafValues>
            -3.8250419497489929e-01 2.4034653604030609e-01</leafValues></_>
        <_>
          <internalNodes>
            0 -1 182 2032858584 857262556 1940359677 1158995452
            1629187649 51019986 -1042202251 -538056524</internalNodes>
          <leafValues>
            -4.6580484509468079e-01 2.0814874768257141e-01</leafValues></_>
        <_>
          <internalNodes>
            0 -1 19 1147397550 575111982 -1474625442 56559649
            -1050946193 -1439985348 -531127398 -329552966</internalNodes>
          <leafValues>
            -3.5916483402252197e-01 2.5752195715904236e-01</leafValues></_>
        <_>
          <internalNodes>
            0 -1 89 57379754 -237787990 252198288 595766104 1334047677
            1434712456 681577578 1205027235</internalNodes>
          <leafValues>
            -4.3989485502243042e-01 2.1803249418735504e-01</leafValues></_>
        <_>
          <internalNodes>
            0 -1 40 1732706332 856118480 -242908434 944644428 1699337572
            -463399019 -1542882413 680325907</internalNodes>
          <leafValues>
            -4.1551214456558228e-01 2.2932878136634827e-01</leafValues></_>
        <_>
          <internalNodes>
            0 -1 49 -762018332 990951168 -1726983970 1901237154
            -1206830897 172509538 437224376 37798394</internalNodes>
          <leafValues>
            -4.8686999082565308e-01 1.9678199291229248e-01</leafValues></_>
        <_>
          <internalNodes>
            0 -1 136 1565113855 1068035708 -328151046 -406061377
            1591143887 -134545921 -1997493009 -793319169</internalNodes>
          <leafValues>
            -2.8670459985733032e-01 3.4262132644653320e-01</leafValues></_>
        <_>
          <internalNodes>
            0 -1 200 -420522238 -185715081 -21184836 -671612953
            -369562709 -1426693124 2011782605 -235798541</internalNodes>
          <leafValues>
            -2.6318651437759399e-01 3.8222661614418030e-01</leafValues></_>
        <_>
          <internalNodes>
            0 -1 50 1174389946 1534558633 -1476418572 905677691
            1291646437 1157460990 -1979713544 -340330626</internalNodes>
          <leafValues>
            -2.9008874297142029e-01 3.3069378137588501e-01</leafValues></_>
        <_>
          <internalNodes>
            0 -1 128 -412690441 319205197 -102467 1864768876 -5869638
            -1087406283 -1921614119 -4887258</internalNodes>
          <leafValues>
            -2.0741814374923706e-01 4.5610460638999939e-01</leafValues></_>
        <_>
          <internalNodes>
            0 -1 32 248970167 2130423319 -101013892 -76878278
            -1395188411 -6865065 -201876652 -2100801</internalNodes>
          <leafValues>
            -2.1021428704261780e-01 4.4496330618858337e-01</leafValues></_>
        <_>
          <internalNodes>
            0 -1 123 542301236 -1756319551 -788241131 594855169 26673901
            1537247421 -1987431595 71389652</internalNodes>
          <leafValues>
            -4.8050251603126526e-01 2.1183735132217407e-01</leafValues></_>
        <_>
          <internalNodes>
            0 -1 75 -1016997754 -1820903764 1662617267 -613723719
            -738459916 -910733954 2112997853 1274412330</internalNodes>
          <leafValues>
            -2.8284078836441040e-01 3.4081616997718811e-01</leafValues></_>
        <_>
          <internalNodes>
            0 -1 170 -581844995 -213012 -537371163 -285343747 139287900
            -320372866 -320008933 -317823229</internalNodes>
          <leafValues>
            -2.8325769305229187e-01 3.3411225676536560e-01</leafValues></_></weakClassifiers></_>
    <!-- stage 11 -->
    <_>
      <maxWeakCount>18</maxWeakCount>
      <stageThreshold>-7.5125223398208618e-01</stageThreshold>
      <weakClassifiers>
        <_>
          <internalNodes>
            0 -1 118 -164602113 -274145372 -856363265 -824783624 -626817
            -99073 -455807233 -319488559</internalNodes>
          <leafValues>
            -2.3212969303131104e-01 4.9860003590583801e-01</leafValues></_>
        <_>
          <internalNodes>
            0 -1 8 2101856488 -237354106 -582436878 -572990482 19611873
            -806547443 2043606478 -808456594</internalNodes>
          <leafValues>
            -3.4333825111389160e-01 3.1262749433517456e-01</leafValues></_>
        <_>
          <internalNodes>
            0 -1 141 -962420969 -2021149859 -70016929 -1617776598
            1099034421 -1094798692 -286642389 -1933914510</internalNodes>
          <leafValues>
            -3.4587904810905457e-01 2.8394043445587158e-01</leafValues></_>
        <_>
          <internalNodes>
            0 -1 43 285594575 1359152387 780372499 1024016401 1167896843
            1485636616 -2146818174 -1662024829</internalNodes>
          <leafValues>
            -3.1495237350463867e-01 3.2364064455032349e-01</leafValues></_>
        <_>
          <internalNodes>
            0 -1 177 -713295521 1471233670 -1091610787 1340087358
            -707529259 -235473023 -537067787 -285852034</internalNodes>
          <leafValues>
            -2.8182485699653625e-01 3.5912877321243286e-01</leafValues></_>
        <_>
          <internalNodes>
            0 -1 143 -849354854 -37158206 -850846461 -578191145
            470293954 1281114249 1288113266 -7448513</internalNodes>
          <leafValues>
            -3.1701430678367615e-01 3.0927667021751404e-01</leafValues></_>
        <_>
          <internalNodes>
            0 -1 158 572465459 -1216482896 -138775241 -140569979
            29727952 1754767391 2072968871 -1050229</internalNodes>
          <leafValues>
            -3.1167966127395630e-01 3.1305298209190369e-01</leafValues></_>
        <_>
          <internalNodes>
            0 -1 194 -395746521 1716705685 827831632 -1875775225
            1152360255 -931085161 -2017347144 -1737366915</internalNodes>
          <leafValues>
            -3.0467975139617920e-01 3.1486260890960693e-01</leafValues></_>
        <_>
          <internalNodes>
            0 -1 138 1503330239 488873704 -1141005965 -1345848211
            -855817282 -2084655170 -238385685 -503320849</internalNodes>
          <leafValues>
            -1.8207168579101562e-01 4.9527519941329956e-01</leafValues></_>
        <_>
          <internalNodes>
            0 -1 59 -953699052 -26564054 1257910332 1932537970
            1170130489 1568355700 2122263195 -85202818</internalNodes>
          <leafValues>
            -2.7330428361892700e-01 3.5394573211669922e-01</leafValues></_>
        <_>
          <internalNodes>
            0 -1 112 10952189 1589542772 -21102593 -424066310 904507304
            -1610909740 1448965437 -1347429667</internalNodes>
          <leafValues>
            -2.5817459821701050e-01 3.8396528363227844e-01</leafValues></_>
        <_>
          <internalNodes>
            0 -1 24 -585380611 1272925989 95165945 1575933271 -16783745
            -1342259378 -1115785218 -1614156946</internalNodes>
          <leafValues>
            -2.4005766212940216e-01 4.0778338909149170e-01</leafValues></_>
        <_>
          <internalNodes>
            0 -1 154 -1078990057 1064898411 -32769 -1648613726
            -1630017615 1849973694 -992395275 -1799094556</internalNodes>
          <leafValues>
            -3.0303481221199036e-01 3.2628732919692993e-01</leafValues></_>
        <_>
          <internalNodes>
            0 -1 66 1817385269 741808475 230939485 -1953247475
            -393863135 1638818007 1643012192 -1062131628</internalNodes>
          <leafValues>
            -3.8956740498542786e-01 2.4661712348461151e-01</leafValues></_>
        <_>
          <internalNodes>
            0 -1 3 -231427442 7864516 -1402208126 687343618 -111941075
            206337226 -358872134 170300091</internalNodes>
          <leafValues>
            -4.9450492858886719e-01 2.0019203424453735e-01</leafValues></_>
        <_>
          <internalNodes>
            0 -1 189 -1625948361 1447297586 -2126509176 545343503
            581767715 1419806762 539708422 -1574709485</internalNodes>
          <leafValues>
            -4.8846834897994995e-01 1.9479136168956757e-01</leafValues></_>
        <_>
          <internalNodes>
            0 -1 132 408901712 321382838 -372779160 -1089842273
            414324749 -652017664 -804204484 -1131691773</internalNodes>
          <leafValues>
            -4.6300932765007019e-01 2.0120531320571899e-01</leafValues></_>
        <_>
          <internalNodes>
            0 -1 208 -61362654 -750476348 -732592722 -1382760181
            372484659 -116075709 997794426 -1905232441</internalNodes>
          <leafValues>
            -3.3931446075439453e-01 2.9054012894630432e-01</leafValues></_></weakClassifiers></_>
    <!-- stage 12 -->
    <_>
      <maxWeakCount>19</maxWeakCount>
      <stageThreshold>-7.1136069297790527e-01</stageThreshold>
      <weakClassifiers>
        <_>
          <internalNodes>
            0 -1 106 -16790049 517967520 1056367291 -90526079 -129 -73
            -50659329 -1935082335</internalNodes>
          <leafValues>
            -1.5504807233810425e-01 5.2075648307800293e-01</leafValues></_>
        <_>
          <internalNodes>
            0 -1 71 -1110442587 -10506421 -781767929 -249348339 83215797
            -2066223377 1223437357 -1046548689</internalNodes>
          <leafValues>
            -2.4246378242969513e-01 3.7536868453025818e-01</leafValues></_>
        <_>
          <internalNodes>
            0 -1 181 -144239337 1967361027 -1058681779 1359156838
            -1064549633 -402618225 -791811890 -335184305</internalNodes>
          <leafValues>
            -3.6540743708610535e-01 2.5886309146881104e-01</leafValues></_>
        <_>
          <internalNodes>
            0 -1 173 2054536115 -272712995 -2261580 2104360686
            1375421935 -310674949 -2064710515 -530082689</internalNodes>
          <leafValues>
            -2.7637648582458496e-01 3.2868054509162903e-01</leafValues></_>
        <_>
          <internalNodes>
            0 -1 79 -497556545 552076125 1632834005 330777106 1134126968
            67930255 67650456 1088284620</internalNodes>
          <leafValues>
            -4.7519105672836304e-01 1.5833568572998047e-01</leafValues></_>
        <_>
          <internalNodes>
            0 -1 0 -356323602 -1419573988 -50309137 -1347585433
            -2045384454 213135 1142226670 -1933646098</internalNodes>
          <leafValues>
            -3.4972566366195679e-01 2.5758439302444458e-01</leafValues></_>
        <_>
          <internalNodes>
            0 -1 207 -1335842298 1971667215 1925657401 -112865197
            -710497694 -139392889 -2136776392 1736521748</internalNodes>
          <leafValues>
            -4.2009249329566956e-01 2.1720811724662781e-01</leafValues></_>
        <_>
          <internalNodes>
            0 -1 31 -922832160 1196909415 606127838 856850810 1376746385
            -284072827 1823154899 217514128</internalNodes>
          <leafValues>
            -4.1745579242706299e-01 2.1936160326004028e-01</leafValues></_>
        <_>
          <internalNodes>
            0 -1 164 -552122445 -757719874 -2147393960 -214426870
            -240598667 -1063862092 -1589514044 1584700930</internalNodes>
          <leafValues>
            -4.2668509483337402e-01 2.0048257708549500e-01</leafValues></_>
        <_>
          <internalNodes>
            0 -1 97 1091674544 -278952421 -1876831841 -1554386755
            34150413 1122964125 2032238432 -1943060260</internalNodes>
          <leafValues>
            -3.1425139307975769e-01 2.9486092925071716e-01</leafValues></_>
        <_>
          <internalNodes>
            0 -1 51 1539833774 1473812918 1909510470 997256918 79947120
            1905846607 1139796671 -1697439431</internalNodes>
          <leafValues>
            -2.8652045130729675e-01 3.2199215888977051e-01</leafValues></_>
        <_>
          <internalNodes>
            0 -1 169 619965661 -16884234 -204839 -1090896025 -168518242
            -276938925 -461853245 2127031599</internalNodes>
          <leafValues>
            -2.6237508654594421e-01 3.6185908317565918e-01</leafValues></_>
        <_>
          <internalNodes>
            0 -1 174 1248731594 -2007902546 -2107689201 -1018245044
            -386987632 968507999 2114676236 -1276397548</internalNodes>
          <leafValues>
            -3.3572891354560852e-01 2.8993543982505798e-01</leafValues></_>
        <_>
          <internalNodes>
            0 -1 33 -497083011 -93110473 -1846542497 -2087293238
            -201345180 -54923393 -26241384 -281281934</internalNodes>
          <leafValues>
            -2.3932598531246185e-01 3.9153596758842468e-01</leafValues></_>
        <_>
          <internalNodes>
            0 -1 87 1534694910 920468488 -420606415 393286179
            -1594391042 803037054 115199963 -1177576011</internalNodes>
          <leafValues>
            -2.3489749431610107e-01 3.9027026295661926e-01</leafValues></_>
        <_>
          <internalNodes>
            0 -1 41 1096142079 325171023 220137536 713698259 -651046255
            -726839055 864677706 948193370</internalNodes>
          <leafValues>
            -3.6154782772064209e-01 2.5740280747413635e-01</leafValues></_>
        <_>
          <internalNodes>
            0 -1 148 224049274 269123658 -1630932512 244205808 13328620
            167942539 715393166 -1493517617</internalNodes>
          <leafValues>
            -3.9772933721542358e-01 2.3878021538257599e-01</leafValues></_>
        <_>
          <internalNodes>
            0 -1 151 1078862800 2045808793 -1857319491 -1115351262
            2051331557 1120819210 -1903236849 -1595896270</internalNodes>
          <leafValues>
            -4.4921845197677612e-01 1.9135378301143646e-01</leafValues></_>
        <_>
          <internalNodes>
            0 -1 68 867041559 -1758366949 -320897122 -1607554485
            -139999768 -135505962 1576968564 -2118648649</internalNodes>
          <leafValues>
            -2.9561671614646912e-01 3.1375014781951904e-01</leafValues></_></weakClassifiers></_>
    <!-- stage 13 -->
    <_>
      <maxWeakCount>18</maxWeakCount>
      <stageThreshold>-6.0216331481933594e-01</stageThreshold>
      <weakClassifiers>
        <_>
          <internalNodes>
            0 -1 114 -136055821 -786569 1877472727 -1082787778
            -973662956 -402662075 -671615737 -67668363</internalNodes>
          <leafValues>
            -5.5019304156303406e-02 5.3818738460540771e-01</leafValues></_>
        <_>
          <internalNodes>
            0 -1 94 -1107312657 -4198420 -1325568695 -1852293326
            -1932081169 -998735905 -1883780085 2012661519</internalNodes>
          <leafValues>
            -2.6904273033142090e-01 3.5732775926589966e-01</leafValues></_>
        <_>
          <internalNodes>
            0 -1 78 -2112618505 -1273703651 1023521541 -20987001
            -1931103239 -1945331328 -1479420309 -1191318869</internalNodes>
          <leafValues>
            -2.8575131297111511e-01 3.2177057862281799e-01</leafValues></_>
        <_>
          <internalNodes>
            0 -1 42 1155986514 -642654262 1077989430 -250579970
            -2143141438 1283404662 -362086260 -1917595398</internalNodes>
          <leafValues>
            -3.3548077940940857e-01 2.6777282357215881e-01</leafValues></_>
        <_>
          <internalNodes>
            0 -1 104 1381170303 -410384558 9469966 -1431939233 16781323
            -1962278651 485491223 -807632335</internalNodes>
          <leafValues>
            -4.5500385761260986e-01 1.5641270577907562e-01</leafValues></_>
        <_>
          <internalNodes>
            0 -1 10 -26165458 -669969617 135595646 738726002 -1064589313
            -99387093 -2034169153 -991055794</internalNodes>
          <leafValues>
            -3.3780032396316528e-01 2.6123836636543274e-01</leafValues></_>
        <_>
          <internalNodes>
            0 -1 175 -498630262 -1274998440 625210334 -750694054
            -2109535105 -932087655 1155075903 -461641184</internalNodes>
          <leafValues>
            -3.1761017441749573e-01 2.6325109601020813e-01</leafValues></_>
        <_>
          <internalNodes>
            0 -1 198 1437973830 -1208619018 -102734 -1845788673 -5575258
            -95977517 -218459478 -42860557</internalNodes>
          <leafValues>
            -2.5528046488761902e-01 3.4332221746444702e-01</leafValues></_>
        <_>
          <internalNodes>
            0 -1 201 1391447390 326225890 1928853491 1341250791
            1325242014 -327944321 833566736 -1214933038</internalNodes>
          <leafValues>
            -2.6549249887466431e-01 3.2231542468070984e-01</leafValues></_>
        <_>
          <internalNodes>
            0 -1 25 -824825338 1652033046 -249961219 -1212100151
            -1314510816 387031936 -1970466635 -47782640</internalNodes>
          <leafValues>
            -3.5374626517295837e-01 2.3942925035953522e-01</leafValues></_>
        <_>
          <internalNodes>
            0 -1 178 -285348100 -663066 -1476969218 -155717721 704315639
            -277490562 1550944552 -1916858518</internalNodes>
          <leafValues>
            -2.4001240730285645e-01 3.7736055254936218e-01</leafValues></_>
        <_>
          <internalNodes>
            0 -1 86 -1912274680 1779955099 -499316457 917045547
            1511952530 1112027317 1879784337 -210202240</internalNodes>
          <leafValues>
            -4.4323432445526123e-01 1.9641149044036865e-01</leafValues></_>
        <_>
          <internalNodes>
            0 -1 153 -340095185 -352358786 2080325503 -349013140
            1859577347 -1905590355 -285247425 -422577293</internalNodes>
          <leafValues>
            -2.8846061229705811e-01 3.1243357062339783e-01</leafValues></_>
        <_>
          <internalNodes>
            0 -1 85 -235866736 -106599123 1404958675 -1691408465
            -244195848 -335946019 -1856648709 -482428046</internalNodes>
          <leafValues>
            -2.2687177360057831e-01 3.8252726197242737e-01</leafValues></_>
        <_>
          <internalNodes>
            0 -1 205 1113483015 230327358 -2138593973 -1354596208
            6555571 917784927 210661087 -613406102</internalNodes>
          <leafValues>
            -3.2189252972602844e-01 2.7928069233894348e-01</leafValues></_>
        <_>
          <internalNodes>
            0 -1 13 -464728988 -1497325516 122127549 -83480523
            -910096572 1528930923 -880137351 -286500776</internalNodes>
          <leafValues>
            -3.4122446179389954e-01 2.6589295268058777e-01</leafValues></_>
        <_>
          <internalNodes>
            0 -1 83 -322036417 -824803530 468713275 -1623465993
            -1967330061 -1326645766 960493050 -9206054</internalNodes>
          <leafValues>
            -2.3529852926731110e-01 4.0832749009132385e-01</leafValues></_>
        <_>
          <internalNodes>
            0 -1 61 93099925 1411096708 -1491894021 -1961544957
            1141561894 1073769473 1157693483 1808394902</internalNodes>
          <leafValues>
            -3.4028637409210205e-01 2.7524217963218689e-01</leafValues></_></weakClassifiers></_>
    <!-- stage 14 -->
    <_>
      <maxWeakCount>20</maxWeakCount>
      <stageThreshold>-9.8614990711212158e-01</stageThreshold>
      <weakClassifiers>
        <_>
          <internalNodes>
            0 -1 172 -1088159756 993066100 -1091240252 -54861836
            1295975878 2133843677 -523811515 -859896672</internalNodes>
          <leafValues>
            -1.6401384770870209e-01 4.9110868573188782e-01</leafValues></_>
        <_>
          <internalNodes>
            0 -1 15 1073462267 -26254610 -1081351 -775736337 -74
            -563085363 -131177 -829425937</internalNodes>
          <leafValues>
            -1.9505396485328674e-01 4.3990916013717651e-01</leafValues></_>
        <_>
          <internalNodes>
            0 -1 17 1857810658 197592463 -1862179907 -1994411761
            -349652404 1258527523 -334931026 -1932971186</internalNodes>
          <leafValues>
            -3.3296957612037659e-01 2.6207309961318970e-01</leafValues></_>
        <_>
          <internalNodes>
            0 -1 120 472307102 -805306274 285350343 270074180 1799258614
            -1236729583 -1278170230 -210739942</internalNodes>
          <leafValues>
            -3.8943132758140564e-01 2.2943685948848724e-01</leafValues></_>
        <_>
          <internalNodes>
            0 -1 142 1609170215 -9075811 -216409988 1769121854
            1336492385 -1069508024 -787418724 -859111505</internalNodes>
          <leafValues>
            -3.3678328990936279e-01 2.5926637649536133e-01</leafValues></_>
        <_>
          <internalNodes>
            0 -1 29 93322047 286324623 2037315500 -240124049 1962759646
            -881459218 -1124728833 -50332809</internalNodes>
          <leafValues>
            -2.1467843651771545e-01 4.0322566032409668e-01</leafValues></_>
        <_>
          <internalNodes>
            0 -1 81 1278468079 -1609246307 -1588936680 -386904663
            -1999916133 1049723659 -1727297265 -1936077825</internalNodes>
          <leafValues>
            -3.0170696973800659e-01 3.0449923872947693e-01</leafValues></_>
        <_>
          <internalNodes>
            0 -1 159 -186253316 363969123 778893615 66169859 -160446291
            -626012561 -872184595 -1448088785</internalNodes>
          <leafValues>
            -2.2270135581493378e-01 3.9717513322830200e-01</leafValues></_>
        <_>
          <internalNodes>
            0 -1 196 -274005451 2102919490 -2079194403 -518108729
            -180392971 -524238014 -352247307 -580395337</internalNodes>
          <leafValues>
            -3.4631779789924622e-01 2.5756701827049255e-01</leafValues></_>
        <_>
          <internalNodes>
            0 -1 84 506430171 -271912971 -1085534437 -21291077 790618037
            -280035459 -48439301 -211026261</internalNodes>
          <leafValues>
            -2.0047204196453094e-01 4.3411368131637573e-01</leafValues></_>
        <_>
          <internalNodes>
            0 -1 202 1207156994 -1035693174 -1877835470 -608112576
            -915596517 1637935230 37821226 -1336867050</internalNodes>
          <leafValues>
            -3.6440038681030273e-01 2.4570198357105255e-01</leafValues></_>
        <_>
          <internalNodes>
            0 -1 149 1095090878 -1337978698 -502921848 -1809362552
            185213350 -1287647015 -1460297627 -319358236</internalNodes>
          <leafValues>
            -4.7815760970115662e-01 1.9482202827930450e-01</leafValues></_>
        <_>
          <internalNodes>
            0 -1 70 717491628 -1208527755 1914460089 -1905925617
            -2126440036 -1430780731 1067461848 4989048</internalNodes>
          <leafValues>
            -4.8098304867744446e-01 1.8682840466499329e-01</leafValues></_>
        <_>
          <internalNodes>
            0 -1 23 -672814410 1006055277 -1275070490 1006239359
            -998472218 -1644335108 -1451344009 -1080627594</internalNodes>
          <leafValues>
            -2.6934105157852173e-01 3.3766219019889832e-01</leafValues></_>
        <_>
          <internalNodes>
            0 -1 11 -456462353 2133872403 606822301 1061381201
            1258599423 -312132107 116127468 -59775753</internalNodes>
          <leafValues>
            -2.0785374939441681e-01 4.4085243344306946e-01</leafValues></_>
        <_>
          <internalNodes>
            0 -1 186 -1062802050 1819605967 1141923086 873463826
            -760345607 430997706 691888697 973130506</internalNodes>
          <leafValues>
            -3.1468495726585388e-01 2.9116937518119812e-01</leafValues></_>
        <_>
          <internalNodes>
            0 -1 30 -991474630 476049483 1212487515 -1949007212
            2076795511 1862320931 911582012 92769930</internalNodes>
          <leafValues>
            -3.4111735224723816e-01 2.4775329232215881e-01</leafValues></_>
        <_>
          <internalNodes>
            0 -1 122 -1561940169 721267751 2145615807 -1993097671
            637402964 1062090583 -1648592899 -1405229207</internalNodes>
          <leafValues>
            -2.7242052555084229e-01 3.3277994394302368e-01</leafValues></_>
        <_>
          <internalNodes>
            0 -1 126 -1050824019 -808496865 -2121161393 937108612
            -2137269035 759207968 -288362243 90424817</internalNodes>
          <leafValues>
            -2.9822897911071777e-01 2.9406791925430298e-01</leafValues></_>
        <_>
          <internalNodes>
            0 -1 99 -1071611124 428940542 -1631736321 1898259285
            -690503581 1974494960 -273162565 -1249204325</internalNodes>
          <leafValues>
            -2.8342139720916748e-01 3.0385324358940125e-01</leafValues></_></weakClassifiers></_></stages>
  <features>
    <_>
      <rect>
        0 5 4 4</rect></_>
    <_>
      <rect>
        0 7 10 6</rect></_>
    <_>
      <rect>
        0 9 3 4</rect></_>
    <_>
      <rect>
        0 9 3 5</rect></_>
    <_>
      <rect>
        0 9 4 3</rect></_>
    <_>
      <rect>
        0 11 4 4</rect></_>
    <_>
      <rect>
        0 11 4 5</rect></_>
    <_>
      <rect>
        0 11 6 5</rect></_>
    <_>
      <rect>
        0 11 8 6</rect></_>
    <_>
      <rect>
        0 12 10 6</rect></_>
    <_>
      <rect>
        0 14 3 3</rect></_>
    <_>
      <rect>
        0 18 4 4</rect></_>
    <_>
      <rect>
        1 1 5 6</rect></_>
    <_>
      <rect>
        1 3 7 3</rect></_>
    <_>
      <rect>
        1 6 3 6</rect></_>
    <_>
      <rect>
        1 12 6 5</rect></_>
    <_>
      <rect>
        2 4 9 8</rect></_>
    <_>
      <rect>
        2 5 3 5</rect></_>
    <_>
      <rect>
        2 5 4 3</rect></_>
    <_>
      <rect>
        2 9 3 4</rect></_>
    <_>
      <rect>
        2 13 5 5</rect></_>
    <_>
      <rect>
        2 15 2 2</rect></_>
    <_>
      <rect>
        2 16 1 1</rect></_>
    <_>
      <rect>
        3 1 4 5</rect></_>
    <_>
      <rect>
        3 3 6 5</rect></_>
    <_>
      <rect>
        3 8 2 2</rect></_>
    <_>
      <rect>
        3 11 3 5</rect></_>
    <_>
      <rect>
        3 12 2 4</rect></_>
    <_>
      <rect>
        3 12 3 5</rect></_>
    <_>
      <rect>
        3 12 5 2</rect></_>
    <_>
      <rect>
        3 16 2 2</rect></_>
    <_>
      <rect>
        3 16 3 3</rect></_>
    <_>
      <rect>
        3 17 2 2</rect></_>
    <_>
      <rect>
        3 18 2 2</rect></_>
    <_>
      <rect>
        3 18 5 3</rect></_>
    <_>
      <rect>
        3 18 6 4</rect></_>
    <_>
      <rect>
        4 3 4 3</rect></_>
    <_>
      <rect>
        4 4 4 5</rect></_>
    <_>
      <rect>
        4 6 2 4</rect></_>
    <_>
      <rect>
        4 6 3 2</rect></_>
    <_>
      <rect>
        4 7 3 3</rect></_>
    <_>
      <rect>
        4 7 3 4</rect></_>
    <_>
      <rect>
        4 8 3 7</rect></_>
    <_>
      <rect>
        4 9 4 3</rect></_>
    <_>
      <rect>
        4 10 3 4</rect></_>
    <_>
      <rect>
        4 10 4 3</rect></_>
    <_>
      <rect>
        4 14 3 4</rect></_>
    <_>
      <rect>
        4 14 5 2</rect></_>
    <_>
      <rect>
        4 14 5 4</rect></_>
    <_>
      <rect>
        4 20 5 3</rect></_>
    <_>
      <rect>
        5 4 3 4</rect></_>
    <_>
      <rect>
        5 5 3 2</rect></_>
    <_>
      <rect>
        5 5 5 5</rect></_>
    <_>
      <rect>
        5 8 2 4</rect></_>
    <_>
      <rect>
        5 9 7 3</rect></_>
    <_>
      <rect>
        5 16 3 4</rect></_>
    <_>
      <rect>
        5 17 2 3</rect></_>
    <_>
      <rect>
        5 20 8 3</rect></_>
    <_>
      <rect>
        6 2 7 3</rect></_>
    <_>
      <rect>
        6 6 2 2</rect></_>
    <_>
      <rect>
        6 6 6 6</rect></_>
    <_>
      <rect>
        6 9 3 2</rect></_>
    <_>
      <rect>
        6 10 1 2</rect></_>
    <_>
      <rect>
        6 10 6 2</rect></_>
    <_>
      <rect>
        6 12 2 2</rect></_>
    <_>
      <rect>
        6 12 2 4</rect></_>
    <_>
      <rect>
        6 13 1 1</rect></_>
    <_>
      <rect>
        6 13 6 2</rect></_>
    <_>
      <rect>
        6 17 2 1</rect></_>
    <_>
      <rect>
        6 17 5 3</rect></_>
    <_>
      <rect>
        6 18 2 2</rect></_>
    <_>
      <rect>
        6 19 5 2</rect></_>
    <_>
      <rect>
        6 20 5 3</rect></_>
    <_>
      <rect>
        6 21 3 2</rect></_>
    <_>
      <rect>
        6 21 4 3</rect></_>
    <_>
      <rect>
        7 1 4 4</rect></_>
    <_>
      <rect>
        7 2 4 6</rect></_>
    <_>
      <rect>
        7 7 4 5</rect></_>
    <_>
      <rect>
        7 10 2 3</rect></_>
    <_>
      <rect>
        7 11 2 1</rect></_>
    <_>
      <rect>
        7 12 2 2</rect></_>
    <_>
      <rect>
        7 12 2 3</rect></_>
    <_>
      <rect>
        7 14 4 4</rect></_>
    <_>
      <rect>
        7 20 2 3</rect></_>
    <_>
      <rect>
        8 0 6 7</rect></_>
    <_>
      <rect>
        8 1 4 3</rect></_>
    <_>
      <rect>
        8 1 7 7</rect></_>
    <_>
      <rect>
        8 2 4 4</rect></_>
    <_>
      <rect>
        8 6 5 6</rect></_>
    <_>
      <rect>
        8 7 3 2</rect></_>
    <_>
      <rect>
        8 10 1 1</rect></_>
    <_>
      <rect>
        8 11 4 2</rect></_>
    <_>
      <rect>
        8 14 3 2</rect></_>
    <_>
      <rect>
        8 18 4 4</rect></_>
    <_>
      <rect>
        8 18 5 2</rect></_>
    <_>
      <rect>
        8 19 4 2</rect></_>
    <_>
      <rect>
        8 19 5 2</rect></_>
    <_>
      <rect>
        8 20 2 2</rect></_>
    <_>
      <rect>
        8 20 5 2</rect></_>
    <_>
      <rect>
        9 0 2 3</rect></_>
    <_>
      <rect>
        9 0 7 9</rect></_>
    <_>
      <rect>
        9 8 2 2</rect></_>
    <_>
      <rect>
        9 8 4 5</rect></_>
    <_>
      <rect>
        9 12 2 2</rect></_>
    <_>
      <rect>
        9 12 3 3</rect></_>
    <_>
      <rect>
        9 13 3 2</rect></_>
    <_>
      <rect>
        9 13 3 4</rect></_>
    <_>
      <rect>
        9 18 3 2</rect></_>
    <_>
      <rect>
        9 19 5 3</rect></_>
    <_>
      <rect>
        10 0 3 3</rect></_>
    <_>
      <rect>
        10 8 2 3</rect></_>
    <_>
      <rect>
        10 12 2 2</rect></_>
    <_>
      <rect>
        10 20 1 2</rect></_>
    <_>
      <rect>
        11 1 3 3</rect></_>
    <_>
      <rect>
        11 11 6 3</rect></_>
    <_>
      <rect>
        11 12 2 3</rect></_>
    <_>
      <rect>
        11 12 5 4</rect></_>
    <_>
      <rect>
        11 12 5 6</rect></_>
    <_>
      <rect>
        11 13 2 3</rect></_>
    <_>
      <rect>
        11 13 5 4</rect></_>
    <_>
      <rect>
        11 15 5 4</rect></_>
    <_>
      <rect>
        11 17 3 3</rect></_>
    <_>
      <rect>
        11 20 2 2</rect></_>
    <_>
      <rect>
        11 20 2 3</rect></_>
    <_>
      <rect>
        11 21 4 2</rect></_>
    <_>
      <rect>
        11 21 5 2</rect></_>
    <_>
      <rect>
        11 24 3 2</rect></_>
    <_>
      <rect>
        12 1 3 3</rect></_>
    <_>
      <rect>
        12 6 4 4</rect></_>
    <_>
      <rect>
        12 8 3 4</rect></_>
    <_>
      <rect>
        12 9 2 4</rect></_>
    <_>
      <rect>
        12 10 2 2</rect></_>
    <_>
      <rect>
        12 11 2 2</rect></_>
    <_>
      <rect>
        12 11 4 4</rect></_>
    <_>
      <rect>
        12 12 2 2</rect></_>
    <_>
      <rect>
        12 12 2 3</rect></_>
    <_>
      <rect>
        12 13 2 2</rect></_>
    <_>
      <rect>
        12 13 5 5</rect></_>
    <_>
      <rect>
        12 14 2 1</rect></_>
    <_>
      <rect>
        12 14 2 3</rect></_>
    <_>
      <rect>
        12 14 4 4</rect></_>
    <_>
      <rect>
        12 18 2 2</rect></_>
    <_>
      <rect>
        12 23 3 2</rect></_>
    <_>
      <rect>
        13 3 5 4</rect></_>
    <_>
      <rect>
        13 9 3 2</rect></_>
    <_>
      <rect>
        13 11 4 4</rect></_>
    <_>
      <rect>
        13 13 1 1</rect></_>
    <_>
      <rect>
        13 13 2 2</rect></_>
    <_>
      <rect>
        13 14 2 1</rect></_>
    <_>
      <rect>
        13 14 2 2</rect></_>
    <_>
      <rect>
        13 14 4 5</rect></_>
    <_>
      <rect>
        13 18 2 3</rect></_>
    <_>
      <rect>
        13 18 3 3</rect></_>
    <_>
      <rect>
        13 21 2 1</rect></_>
    <_>
      <rect>
        13 23 2 2</rect></_>
    <_>
      <rect>
        13 24 2 2</rect></_>
    <_>
      <rect>
        14 0 5 8</rect></_>
    <_>
      <rect>
        14 6 2 3</rect></_>
    <_>
      <rect>
        14 10 1 1</rect></_>
    <_>
      <rect>
        14 13 1 1</rect></_>
    <_>
      <rect>
        14 13 2 2</rect></_>
    <_>
      <rect>
        14 14 2 2</rect></_>
    <_>
      <rect>
        14 16 2 3</rect></_>
    <_>
      <rect>
        14 21 2 3</rect></_>
    <_>
      <rect>
        14 22 3 2</rect></_>
    <_>
      <rect>
        14 23 2 2</rect></_>
    <_>
      <rect>
        14 24 2 1</rect></_>
    <_>
      <rect>
        15 7 3 3</rect></_>
    <_>
      <rect>
        15 9 2 2</rect></_>
    <_>
      <rect>
        15 11 3 5</rect></_>
    <_>
      <rect>
        15 13 2 4</rect></_>
    <_>
      <rect>
        15 14 1 1</rect></_>
    <_>
      <rect>
        15 15 2 2</rect></_>
    <_>
      <rect>
        15 15 3 2</rect></_>
    <_>
      <rect>
        15 16 1 1</rect></_>
    <_>
      <rect>
        15 17 2 2</rect></_>
    <_>
      <rect>
        15 20 4 2</rect></_>
    <_>
      <rect>
        15 22 2 2</rect></_>
    <_>
      <rect>
        16 3 3 3</rect></_>
    <_>
      <rect>
        16 3 4 5</rect></_>
    <_>
      <rect>
        16 7 2 3</rect></_>
    <_>
      <rect>
        16 8 2 3</rect></_>
    <_>
      <rect>
        16 14 1 2</rect></_>
    <_>
      <rect>
        16 14 2 2</rect></_>
    <_>
      <rect>
        16 15 1 1</rect></_>
    <_>
      <rect>
        16 15 2 2</rect></_>
    <_>
      <rect>
        17 7 2 2</rect></_>
    <_>
      <rect>
        17 9 1 2</rect></_>
    <_>
      <rect>
        17 11 4 4</rect></_>
    <_>
      <rect>
        17 12 2 1</rect></_>
    <_>
      <rect>
        17 14 1 1</rect></_>
    <_>
      <rect>
        17 14 1 2</rect></_>
    <_>
      <rect>
        17 15 1 2</rect></_>
    <_>
      <rect>
        17 16 2 2</rect></_>
    <_>
      <rect>
        17 17 2 2</rect></_>
    <_>
      <rect>
        17 17 3 2</rect></_>
    <_>
      <rect>
        18 12 1 2</rect></_>
    <_>
      <rect>
        18 14 3 3</rect></_>
    <_>
      <rect>
        18 15 4 3</rect></_>
    <_>
      <rect>
        18 17 4 4</rect></_>
    <_>
      <rect>
        18 18 2 2</rect></_>
    <_>
      <rect>
        19 8 3 4</rect></_>
    <_>
      <rect>
        19 8 3 5</rect></_>
    <_>
      <rect>
        19 11 2 3</rect></_>
    <_>
      <rect>
        19 12 2 3</rect></_>
    <_>
      <rect>
        19 13 2 3</rect></_>
    <_>
      <rect>
        19 21 1 2</rect></_>
    <_>
      <rect>
        20 10 3 5</rect></_>
    <_>
      <rect>
        21 12 3 4</rect></_></features></cascade>
</opencv_storage>
