<?xml version="1.0"?>
<opencv_storage>
<cascade>
  <stageType>BOOST</stageType>
  <featureType>LBP</featureType>
  <height>30</height>
  <width>30</width>
  <stageParams>
    <boostType>GAB</boostType>
    <minHitRate>9.9500000476837158e-01</minHitRate>
    <maxFalseAlarm>5.0000000000000000e-01</maxFalseAlarm>
    <weightTrimRate>9.4999999999999996e-01</weightTrimRate>
    <maxDepth>1</maxDepth>
    <maxWeakCount>100</maxWeakCount></stageParams>
  <featureParams>
    <maxCatCount>256</maxCatCount>
    <featSize>1</featSize></featureParams>
  <stageNum>15</stageNum>
  <stages>
    <!-- stage 0 -->
    <_>
      <maxWeakCount>7</maxWeakCount>
      <stageThreshold>-1.1104063987731934e+00</stageThreshold>
      <weakClassifiers>
        <_>
          <internalNodes>
            0 -1 14 -11489656 -19206982 -73924612 -262152 -18874376
            -131080 -2097158 -2359304</internalNodes>
          <leafValues>
            -6.5418893098831177e-01 7.1832293272018433e-01</leafValues></_>
        <_>
          <internalNodes>
            0 -1 152 1577248544 1057052977 -1893015296 -14723824
            -15995206 -274822982 -1680932865 -14622738</internalNodes>
          <leafValues>
            -5.2203506231307983e-01 4.9325561523437500e-01</leafValues></_>
        <_>
          <internalNodes>
            0 -1 104 1548645567 1025447229 -1449128529 758134683
            -324384722 2140226366 -1469403761 -1409222149</internalNodes>
          <leafValues>
            -4.5777598023414612e-01 4.4007834792137146e-01</leafValues></_>
        <_>
          <internalNodes>
            0 -1 14 1376115318 -103289632 -73924609 -167969033 -10683242
            -25247752 -10617375 -872874305</internalNodes>
          <leafValues>
            -4.2752236127853394e-01 4.4450190663337708e-01</leafValues></_>
        <_>
          <internalNodes>
            0 -1 61 -39225897 527514992 -1242457167 -1354645647
            -18907654 -197267 -587718721 -1930563919</internalNodes>
          <leafValues>
            -3.0408674478530884e-01 5.0726026296615601e-01</leafValues></_>
        <_>
          <internalNodes>
            0 -1 53 -604438567 2143721371 -650086823 -1081700164
            1595050233 -217100919 1007691824 -1090466208</internalNodes>
          <leafValues>
            -4.1160267591476440e-01 4.0978592634201050e-01</leafValues></_>
        <_>
          <internalNodes>
            0 -1 170 1434622480 -23671076 -781204643 -1145243284
            -1316504653 -41394038 -83295819 -1181705966</internalNodes>
          <leafValues>
            -4.8294159770011902e-01 2.9429343342781067e-01</leafValues></_></weakClassifiers></_>
    <!-- stage 1 -->
    <_>
      <maxWeakCount>11</maxWeakCount>
      <stageThreshold>-9.5708417892456055e-01</stageThreshold>
      <weakClassifiers>
        <_>
          <internalNodes>
            0 -1 18 -548545400 -548012034 -67768400 -135020574 -10686580
            -9437188 -2100290 -6</internalNodes>
          <leafValues>
            -4.3976262211799622e-01 6.3522595167160034e-01</leafValues></_>
        <_>
          <internalNodes>
            0 -1 80 2020102527 1035722643 -1447170113 229701619
            -855640065 -286130177 -2063732993 -1364854785</internalNodes>
          <leafValues>
            -3.4217292070388794e-01 5.3318697214126587e-01</leafValues></_>
        <_>
          <internalNodes>
            0 -1 198 -1017915404 2051068597 -258828743 -605703339
            -785690148 -1158739015 -4501156 -285685480</internalNodes>
          <leafValues>
            -5.1573723554611206e-01 3.0564418435096741e-01</leafValues></_>
        <_>
          <internalNodes>
            0 -1 40 -2011027376 -1839508651 2005496541 -537306283
            59045950 -1357659757 -1442595974 -1149275337</internalNodes>
          <leafValues>
            -4.0553578734397888e-01 3.6153638362884521e-01</leafValues></_>
        <_>
          <internalNodes>
            0 -1 111 1863220480 -1391762223 -676800739 -268449507
            453075499 -1422847536 1580104607 1323332419</internalNodes>
          <leafValues>
            -4.8690393567085266e-01 2.9099515080451965e-01</leafValues></_>
        <_>
          <internalNodes>
            0 -1 161 -467877745 1025500319 -1349927749 -1081369203
            -1412183106 -1075912740 -360282965 -1081618497</internalNodes>
          <leafValues>
            -3.1003528833389282e-01 4.3886291980743408e-01</leafValues></_>
        <_>
          <internalNodes>
            0 -1 3 -1897202992 -889543538 637702293 -1409137754
            -19214788 -158537302 -1711269148 -21873412</internalNodes>
          <leafValues>
            -6.0200476646423340e-01 2.2895628213882446e-01</leafValues></_>
        <_>
          <internalNodes>
            0 -1 109 2105407654 353584149 -536033757 -2017700477
            1489857224 2027966496 773512163 1746467362</internalNodes>
          <leafValues>
            -4.1847443580627441e-01 2.9673534631729126e-01</leafValues></_>
        <_>
          <internalNodes>
            0 -1 93 -708786177 -833822211 1460707587 -140716102
            324152999 -3231340 592449584 -88605104</internalNodes>
          <leafValues>
            -3.4936037659645081e-01 3.4279933571815491e-01</leafValues></_>
        <_>
          <internalNodes>
            0 -1 223 1945610689 91232543 218276503 -490909292 387806528
            789644546 1000731140 -1613444192</internalNodes>
          <leafValues>
            -4.3262282013893127e-01 3.0132913589477539e-01</leafValues></_>
        <_>
          <internalNodes>
            0 -1 179 235941469 1776371929 -467472161 -1112341183
            1351535369 -309813343 -900439064 -285309436</internalNodes>
          <leafValues>
            -3.8348120450973511e-01 3.1601449847221375e-01</leafValues></_></weakClassifiers></_>
    <!-- stage 2 -->
    <_>
      <maxWeakCount>12</maxWeakCount>
      <stageThreshold>-9.1629713773727417e-01</stageThreshold>
      <weakClassifiers>
        <_>
          <internalNodes>
            0 -1 55 -9306116 -144835334 -138936835 -1076501067 -10485766
            -65666 -262417 -532521</internalNodes>
          <leafValues>
            -1.5847423672676086e-01 6.9511139392852783e-01</leafValues></_>
        <_>
          <internalNodes>
            0 -1 151 738229811 691121713 671909139 -1388541165 207169947
            -269221380 143024799 -1435189281</internalNodes>
          <leafValues>
            -4.6263089776039124e-01 4.0005031228065491e-01</leafValues></_>
        <_>
          <internalNodes>
            0 -1 167 -537133569 789745811 -369019919 -1684832041
            286335908 -1182345040 2082627808 -1080862864</internalNodes>
          <leafValues>
            -4.2030826210975647e-01 3.8022580742835999e-01</leafValues></_>
        <_>
          <internalNodes>
            0 -1 102 -125908801 1024546359 -2119373437 665098655
            548341996 -13980783 -298735445 728034959</internalNodes>
          <leafValues>
            -3.6810332536697388e-01 3.5019767284393311e-01</leafValues></_>
        <_>
          <internalNodes>
            0 -1 7 -1630568738 -545303427 145253438 13156610 -1080452897
            -90275783 1218414991 -1075863590</internalNodes>
          <leafValues>
            -4.1569170355796814e-01 3.1332176923751831e-01</leafValues></_>
        <_>
          <internalNodes>
            0 -1 70 -1083039 -1444854991 -1224677935 -82743039
            -1249093579 -1081030429 -1718269483 -393087359</internalNodes>
          <leafValues>
            -3.4802225232124329e-01 3.5731545090675354e-01</leafValues></_>
        <_>
          <internalNodes>
            0 -1 175 -770514176 -682625659 -1022163661 -356612059
            -1970697768 -2084923291 1269750577 -92219641</internalNodes>
          <leafValues>
            -4.0380582213401794e-01 2.9707440733909607e-01</leafValues></_>
        <_>
          <internalNodes>
            0 -1 117 1006058259 -1129005108 -1074479181 1051754340
            19200973 -1140990256 -424056420 -52366100</internalNodes>
          <leafValues>
            -3.1517812609672546e-01 3.6095160245895386e-01</leafValues></_>
        <_>
          <internalNodes>
            0 -1 25 -796244012 -875256321 -1076926571 -1818218908
            -59625222 -1116386315 -616764932 -1148918161</internalNodes>
          <leafValues>
            -3.0900874733924866e-01 3.7450999021530151e-01</leafValues></_>
        <_>
          <internalNodes>
            0 -1 149 1090306207 -1221218761 -290672837 -1657057345
            -1908823891 -411435147 7663151 -1897536129</internalNodes>
          <leafValues>
            -3.0957362055778503e-01 3.4731692075729370e-01</leafValues></_>
        <_>
          <internalNodes>
            0 -1 47 2110026100 -678768194 545626505 -1885265520
            -636163508 -70309744 -819972689 -490701291</internalNodes>
          <leafValues>
            -3.8673040270805359e-01 2.8820618987083435e-01</leafValues></_>
        <_>
          <internalNodes>
            0 -1 188 -1448966752 220136083 140352208 243194200
            -1468362838 1062332488 -1968559201 -1632096687</internalNodes>
          <leafValues>
            -4.7185665369033813e-01 2.1763177216053009e-01</leafValues></_></weakClassifiers></_>
    <!-- stage 3 -->
    <_>
      <maxWeakCount>14</maxWeakCount>
      <stageThreshold>-8.3964556455612183e-01</stageThreshold>
      <weakClassifiers>
        <_>
          <internalNodes>
            0 -1 36 2133852042 1596129262 -10027089 -149692568 521138062
            -4456458 1072164783 -13635601</internalNodes>
          <leafValues>
            -2.3029682040214539e-01 6.0553634166717529e-01</leafValues></_>
        <_>
          <internalNodes>
            0 -1 127 1826540715 1060232759 741142459 -15139269
            -1931613009 -1363609616 -421736789 -36112450</internalNodes>
          <leafValues>
            -3.1939175724983215e-01 4.2474904656410217e-01</leafValues></_>
        <_>
          <internalNodes>
            0 -1 68 -568279044 1583337725 -1186686980 -1223604819
            1242458636 -1525710847 -1075118146 -150904972</internalNodes>
          <leafValues>
            -4.8227569460868835e-01 2.6122960448265076e-01</leafValues></_>
        <_>
          <internalNodes>
            0 -1 61 -33984137 -1652425247 -437044440 -907986319 -1106466
            -1075315217 1727706489 -320219461</internalNodes>
          <leafValues>
            -3.0191326141357422e-01 4.4538241624832153e-01</leafValues></_>
        <_>
          <internalNodes>
            0 -1 106 -657207041 1033878075 -2109675593 -1600072565
            -995548949 1762740034 -1931788116 680655311</internalNodes>
          <leafValues>
            -3.4443184733390808e-01 3.4131529927253723e-01</leafValues></_>
        <_>
          <internalNodes>
            0 -1 45 -462357675 -646171941 1557945151 -544687558
            -1770758532 -1074348578 1288982280 -1075515846</internalNodes>
          <leafValues>
            -3.0869436264038086e-01 3.8469722867012024e-01</leafValues></_>
        <_>
          <internalNodes>
            0 -1 162 -499852449 491536217 -1611735135 -382599395
            -278237425 147357530 -956303573 -586678769</internalNodes>
          <leafValues>
            -3.0103722214698792e-01 3.8813185691833496e-01</leafValues></_>
        <_>
          <internalNodes>
            0 -1 232 34745675 -1378547499 22020469 -1685008680
            -1945678097 -1232606965 -1616757255 -1410987518</internalNodes>
          <leafValues>
            -3.4591910243034363e-01 3.2514110207557678e-01</leafValues></_>
        <_>
          <internalNodes>
            0 -1 174 -1688486124 1714553134 1386067221 -1747431084
            -1300036673 -75333428 -50129963 -18343555</internalNodes>
          <leafValues>
            -3.8608863949775696e-01 2.8598579764366150e-01</leafValues></_>
        <_>
          <internalNodes>
            0 -1 202 -1545878862 -191862733 716382781 56575231
            -2019509599 -1866954083 -374367456 -369968314</internalNodes>
          <leafValues>
            -3.8366946578025818e-01 2.6616567373275757e-01</leafValues></_>
        <_>
          <internalNodes>
            0 -1 163 -694853700 -1030677680 25331861 -2002663255
            2028243748 -342906699 -1442748888 -17971872</internalNodes>
          <leafValues>
            -4.3202522397041321e-01 2.7641379833221436e-01</leafValues></_>
        <_>
          <internalNodes>
            0 -1 56 -259507944 -1982229611 113787387 201554890
            -523181966 -1171779158 -62591836 -1676940966</internalNodes>
          <leafValues>
            -4.0130674839019775e-01 2.5801488757133484e-01</leafValues></_>
        <_>
          <internalNodes>
            0 -1 235 -901001865 -1065189049 437401057 -828767840
            692087856 249380903 917527036 -669324734</internalNodes>
          <leafValues>
            -3.1781667470932007e-01 3.3344769477844238e-01</leafValues></_>
        <_>
          <internalNodes>
            0 -1 114 1426501888 -855030218 1489490325 1868394577
            -1156892508 -1611659128 -616005301 1276225154</internalNodes>
          <leafValues>
            -3.9280483126640320e-01 2.7587726712226868e-01</leafValues></_></weakClassifiers></_>
    <!-- stage 4 -->
    <_>
      <maxWeakCount>13</maxWeakCount>
      <stageThreshold>-1.0496309995651245e+00</stageThreshold>
      <weakClassifiers>
        <_>
          <internalNodes>
            0 -1 22 2131472014 2136473580 793169538 -570694742
            2004872142 2000617383 2132799375 -147062801</internalNodes>
          <leafValues>
            -3.5157158970832825e-01 6.0812705755233765e-01</leafValues></_>
        <_>
          <internalNodes>
            0 -1 128 -172229750 1544619264 -1860652493 -1725240949
            20052746 1945161898 1519563707 -541335062</internalNodes>
          <leafValues>
            -4.0378266572952271e-01 3.7826344370841980e-01</leafValues></_>
        <_>
          <internalNodes>
            0 -1 110 -416288477 691486495 1692913519 -441340109
            -466816973 -299827422 -318802289 -462160045</internalNodes>
          <leafValues>
            -3.3461380004882812e-01 3.8320165872573853e-01</leafValues></_>
        <_>
          <internalNodes>
            0 -1 12 660273134 286715345 -1360130396 1945155878
            -824255489 -57442457 1610566523 -474751289</internalNodes>
          <leafValues>
            -3.1519138813018799e-01 3.5449007153511047e-01</leafValues></_>
        <_>
          <internalNodes>
            0 -1 197 -822192626 268988522 1083237402 503892134
            1750554966 1646805577 -889254142 -1907892665</internalNodes>
          <leafValues>
            -5.3503870964050293e-01 1.8271067738533020e-01</leafValues></_>
        <_>
          <internalNodes>
            0 -1 186 -922550478 -1340327030 554167584 -205485996
            -1689878110 345931977 957499809 -76743818</internalNodes>
          <leafValues>
            -4.1888025403022766e-01 2.5443953275680542e-01</leafValues></_>
        <_>
          <internalNodes>
            0 -1 210 1123535886 593735291 888290943 1881193518
            1731655587 -835387436 -533397793 -102433453</internalNodes>
          <leafValues>
            -2.9568788409233093e-01 3.7604773044586182e-01</leafValues></_>
        <_>
          <internalNodes>
            0 -1 59 -772049697 -1282824711 -511857406 -447611104
            -31525387 -25856014 -1531724878 -922786273</internalNodes>
          <leafValues>
            -2.7325809001922607e-01 3.9671647548675537e-01</leafValues></_>
        <_>
          <internalNodes>
            0 -1 37 -957684217 -1804563863 1860775935 1831399726
            -1923274091 728749907 -364215054 -1952670221</internalNodes>
          <leafValues>
            -3.0322188138961792e-01 3.4023025631904602e-01</leafValues></_>
        <_>
          <internalNodes>
            0 -1 83 -58802084 -805371596 -1740439533 -780295792
            -233355121 1502319113 -1327235016 -1468442111</internalNodes>
          <leafValues>
            -3.8151404261589050e-01 2.7520623803138733e-01</leafValues></_>
        <_>
          <internalNodes>
            0 -1 120 -46628658 295038300 -974553049 -2053308361
            -295321426 -342433582 -532983125 -1287262983</internalNodes>
          <leafValues>
            -3.2500645518302917e-01 3.2649406790733337e-01</leafValues></_>
        <_>
          <internalNodes>
            0 -1 11 -619515754 -116321624 1355158286 50905254 16973994
            -1448844850 134353194 239551183</internalNodes>
          <leafValues>
            -3.4982416033744812e-01 3.0529633164405823e-01</leafValues></_>
        <_>
          <internalNodes>
            0 -1 134 613918354 102037063 344168592 -81530615 1225637860
            775960584 -1879028704 -410945164</internalNodes>
          <leafValues>
            -4.2255267500877380e-01 2.6352438330650330e-01</leafValues></_></weakClassifiers></_>
    <!-- stage 5 -->
    <_>
      <maxWeakCount>15</maxWeakCount>
      <stageThreshold>-1.0832116603851318e+00</stageThreshold>
      <weakClassifiers>
        <_>
          <internalNodes>
            0 -1 166 -33562366 17912066 -17969374 -4459742 -41943262
            -721486018 -536871141 -65605</internalNodes>
          <leafValues>
            -2.5000000000000000e-01 5.7859849929809570e-01</leafValues></_>
        <_>
          <internalNodes>
            0 -1 17 493873038 -1860992822 1905521115 2000671213
            1263788783 2065406179 -769531669 -135269941</internalNodes>
          <leafValues>
            -3.5584613680839539e-01 3.6684831976890564e-01</leafValues></_>
        <_>
          <internalNodes>
            0 -1 51 1886352743 -2090612361 -858535041 -535752335
            2052395317 1340547289 -1563216624 -1530692745</internalNodes>
          <leafValues>
            -4.0738451480865479e-01 3.0813622474670410e-01</leafValues></_>
        <_>
          <internalNodes>
            0 -1 92 -363381180 -2038590649 -2050837856 -73672941
            1846857924 1603268673 573804704 -44567263</internalNodes>
          <leafValues>
            -3.7984487414360046e-01 2.9346632957458496e-01</leafValues></_>
        <_>
          <internalNodes>
            0 -1 87 -201855144 -100596832 1091291477 668838204 262859706
            1260556545 2075218140 -671656367</internalNodes>
          <leafValues>
            -3.9900201559066772e-01 2.4442350864410400e-01</leafValues></_>
        <_>
          <internalNodes>
            0 -1 181 -656188385 -2138171569 -1980927570 -938779761
            1217614470 1317072896 -706035830 -544213081</internalNodes>
          <leafValues>
            -3.1777358055114746e-01 3.1056481599807739e-01</leafValues></_>
        <_>
          <internalNodes>
            0 -1 125 1960797886 868063290 -1343706850 1018753170
            1759012043 704730032 -353697671 1812324680</internalNodes>
          <leafValues>
            -3.7245777249336243e-01 2.9069992899894714e-01</leafValues></_>
        <_>
          <internalNodes>
            0 -1 136 -348666622 -1550218745 -1725966041 -168650242
            -1067733854 -1655037170 283357344 305195895</internalNodes>
          <leafValues>
            -4.2509138584136963e-01 2.3081563413143158e-01</leafValues></_>
        <_>
          <internalNodes>
            0 -1 213 -577245402 819555003 -1122501446 847266723
            -2008847615 687874843 -1358919168 -151679501</internalNodes>
          <leafValues>
            -4.5463329553604126e-01 1.9825807213783264e-01</leafValues></_>
        <_>
          <internalNodes>
            0 -1 123 1951321327 355823899 -829873517 1361676692
            1288520969 482517272 1133317803 2064972674</internalNodes>
          <leafValues>
            -3.3166024088859558e-01 2.9329192638397217e-01</leafValues></_>
        <_>
          <internalNodes>
            0 -1 34 -1318520898 -168448486 -1292732718 -1255317232
            -1428306254 -791387018 -252315303 -740049289</internalNodes>
          <leafValues>
            -2.8036868572235107e-01 3.5613599419593811e-01</leafValues></_>
        <_>
          <internalNodes>
            0 -1 230 -1426259673 914634863 -1074331998 -1138296858
            -2065865279 490010426 1165989345 -1001394199</internalNodes>
          <leafValues>
            -2.9225790500640869e-01 3.2191684842109680e-01</leafValues></_>
        <_>
          <internalNodes>
            0 -1 42 -352391250 -1221516881 -1382403 1059296816
            -985268579 -50364419 158857173 -661429654</internalNodes>
          <leafValues>
            -2.5860992074012756e-01 3.7669256329536438e-01</leafValues></_>
        <_>
          <internalNodes>
            0 -1 105 -786835997 -1232994316 -281456900 -1515591710
            -732095825 -59474242 -59998924 -455344961</internalNodes>
          <leafValues>
            -2.4686828255653381e-01 4.0643107891082764e-01</leafValues></_>
        <_>
          <internalNodes>
            0 -1 13 -1400764344 -188464870 1137203329 -28441277 25219132
            164661323 -874594218 -1194663290</internalNodes>
          <leafValues>
            -5.4074001312255859e-01 1.9199094176292419e-01</leafValues></_></weakClassifiers></_>
    <!-- stage 6 -->
    <_>
      <maxWeakCount>17</maxWeakCount>
      <stageThreshold>-8.1716138124465942e-01</stageThreshold>
      <weakClassifiers>
        <_>
          <internalNodes>
            0 -1 41 -15340786 2118122830 1713859882 2132668326
            2105008047 2120679387 -81 -538705925</internalNodes>
          <leafValues>
            -2.4186046421527863e-01 5.6448596715927124e-01</leafValues></_>
        <_>
          <internalNodes>
            0 -1 84 2099868007 758365479 -924834449 -1376649357
            1626830387 -42207784 -318773781 -387874893</internalNodes>
          <leafValues>
            -3.1541326642036438e-01 3.6926475167274475e-01</leafValues></_>
        <_>
          <internalNodes>
            0 -1 217 -738205005 -750534573 -1068330670 -576982109
            -1142192335 -595584896 -1145573200 -268778542</internalNodes>
          <leafValues>
            -3.3229494094848633e-01 3.1712323427200317e-01</leafValues></_>
        <_>
          <internalNodes>
            0 -1 89 -1051342084 -1022696506 -1676617024 -645733422
            1635867580 -1463027071 -2074687424 16978947</internalNodes>
          <leafValues>
            -4.1377148032188416e-01 2.4931342899799347e-01</leafValues></_>
        <_>
          <internalNodes>
            0 -1 4 -1093751796 -688623390 545399232 -1601208006
            -259673860 -1860549112 633736122 2071929018</internalNodes>
          <leafValues>
            -5.5428475141525269e-01 1.7039844393730164e-01</leafValues></_>
        <_>
          <internalNodes>
            0 -1 126 -218134306 890360093 -308106613 -2122018296
            1988839566 680805088 -894456277 1430582159</internalNodes>
          <leafValues>
            -3.9612188935279846e-01 2.5907459855079651e-01</leafValues></_>
        <_>
          <internalNodes>
            0 -1 101 -61606980 832632529 -1256631848 -1623740150
            -196765557 -898883574 -455220732 680488198</internalNodes>
          <leafValues>
            -3.2870149612426758e-01 2.9316213726997375e-01</leafValues></_>
        <_>
          <internalNodes>
            0 -1 208 -500971002 584373495 -1995964134 860389947
            1082183863 2025259120 285320397 1306784639</internalNodes>
          <leafValues>
            -3.6587616801261902e-01 2.4945621192455292e-01</leafValues></_>
        <_>
          <internalNodes>
            0 -1 52 -833651956 -809451048 1393101171 -1510927631
            388247552 1326415914 1888550987 679818071</internalNodes>
          <leafValues>
            -4.1569197177886963e-01 2.1335633099079132e-01</leafValues></_>
        <_>
          <internalNodes>
            0 -1 173 -330325462 -1500518133 1091856464 -834360834
            -1802794593 -1999731702 -1769043565 -51005277</internalNodes>
          <leafValues>
            -3.6472424864768982e-01 2.6514458656311035e-01</leafValues></_>
        <_>
          <internalNodes>
            0 -1 231 -806900158 -974868693 -1082717474 -711488690
            1734585077 -245395969 1580354607 -539046277</internalNodes>
          <leafValues>
            -2.2890406847000122e-01 4.0675407648086548e-01</leafValues></_>
        <_>
          <internalNodes>
            0 -1 96 1347943267 1012478055 1213046809 -1876790877
            1271650646 -1305705213 1770865441 -1476326366</internalNodes>
          <leafValues>
            -3.3135947585105896e-01 2.7825331687927246e-01</leafValues></_>
        <_>
          <internalNodes>
            0 -1 209 52605798 71106667 1099088474 1524484683 256779111
            738328696 541573414 -582670013</internalNodes>
          <leafValues>
            -3.8620221614837646e-01 2.4466545879840851e-01</leafValues></_>
        <_>
          <internalNodes>
            0 -1 192 1171803913 1331377616 1428183363 617302698 4145621
            5122110 1375542336 33253132</internalNodes>
          <leafValues>
            -4.2032617330551147e-01 2.2247430682182312e-01</leafValues></_>
        <_>
          <internalNodes>
            0 -1 49 -823937541 -1083099720 -109613630 -641763535
            -9104135 -841617975 -155888246 -452987285</internalNodes>
          <leafValues>
            -2.1162952482700348e-01 4.5063716173171997e-01</leafValues></_>
        <_>
          <internalNodes>
            0 -1 141 -354530211 -2044303811 -1237844114 -772898822
            -328838627 -2118355287 -432260379 -268448273</internalNodes>
          <leafValues>
            -2.0292311906814575e-01 4.5009410381317139e-01</leafValues></_>
        <_>
          <internalNodes>
            0 -1 131 1113318944 958305713 -1944902263 -1696272145
            1717263236 1479085384 1276085071 1114611132</internalNodes>
          <leafValues>
            -4.4727441668510437e-01 2.1850965917110443e-01</leafValues></_></weakClassifiers></_>
    <!-- stage 7 -->
    <_>
      <maxWeakCount>17</maxWeakCount>
      <stageThreshold>-1.0465027093887329e+00</stageThreshold>
      <weakClassifiers>
        <_>
          <internalNodes>
            0 -1 88 1636775203 699920890 -436602883 -1582172191
            -25332265 -105775137 -64520705 -320733261</internalNodes>
          <leafValues>
            -5.9947870671749115e-02 5.7815033197402954e-01</leafValues></_>
        <_>
          <internalNodes>
            0 -1 119 2130736127 -16720898 -441909505 -340738566
            -832155729 -17072772 -1367359497 -290384415</internalNodes>
          <leafValues>
            -3.0809825658798218e-01 3.6071047186851501e-01</leafValues></_>
        <_>
          <internalNodes>
            0 -1 63 -13722532 -75003471 -1672815267 -1177625719
            138669208 -1079078736 198777744 -106999852</internalNodes>
          <leafValues>
            -4.2241638898849487e-01 2.4574953317642212e-01</leafValues></_>
        <_>
          <internalNodes>
            0 -1 35 -1366674178 -360001129 -893061243 -689965307
            -2092242218 -1415999424 797747395 -837122065</internalNodes>
          <leafValues>
            -3.9280700683593750e-01 2.4433869123458862e-01</leafValues></_>
        <_>
          <internalNodes>
            0 -1 95 -1703931567 1549571871 231774481 -1759469606
            1585489084 -83443574 2040390208 -1076051220</internalNodes>
          <leafValues>
            -3.4010273218154907e-01 2.8529435396194458e-01</leafValues></_>
        <_>
          <internalNodes>
            0 -1 104 -125832961 1035468593 -269697125 -1443037249
            -465662746 -15728833 -1497432713 -1367589959</internalNodes>
          <leafValues>
            -2.7627721428871155e-01 3.2093057036399841e-01</leafValues></_>
        <_>
          <internalNodes>
            0 -1 183 -657566625 489844411 -8536702 -1883685076
            -609267853 529596357 -449933557 -536898257</internalNodes>
          <leafValues>
            -2.7710357308387756e-01 3.3628761768341064e-01</leafValues></_>
        <_>
          <internalNodes>
            0 -1 233 -2008046593 272798037 159378644 1921014422
            1441337583 -620191531 1497448625 1153520080</internalNodes>
          <leafValues>
            -3.6893758177757263e-01 2.2734984755516052e-01</leafValues></_>
        <_>
          <internalNodes>
            0 -1 157 521889083 -1903038717 -1350599817 -805601285
            762586520 -315908815 -1610666161 -285815049</internalNodes>
          <leafValues>
            -2.1354728937149048e-01 3.8115683197975159e-01</leafValues></_>
        <_>
          <internalNodes>
            0 -1 98 907042442 -1973860164 361355423 -1719823919
            -266608112 -363552694 1081045754 2081157340</internalNodes>
          <leafValues>
            -4.3873134255409241e-01 1.9829736649990082e-01</leafValues></_>
        <_>
          <internalNodes>
            0 -1 199 1105661770 1048730 -2138273501 -30851023 -617683621
            279626672 -460775113 -642658189</internalNodes>
          <leafValues>
            -3.7784901261329651e-01 2.1406039595603943e-01</leafValues></_>
        <_>
          <internalNodes>
            0 -1 205 -1605138155 -753908783 1461023213 -1277587049
            -1011209795 765876275 1441669373 1622149144</internalNodes>
          <leafValues>
            -3.1960219144821167e-01 2.7113720774650574e-01</leafValues></_>
        <_>
          <internalNodes>
            0 -1 239 753016831 118030524 520331453 -2145597626
            -1763717799 803523503 1956946652 -857455588</internalNodes>
          <leafValues>
            -3.0816349387168884e-01 2.7592414617538452e-01</leafValues></_>
        <_>
          <internalNodes>
            0 -1 236 838806436 -1695049697 -869009493 -984648933
            -2003744592 -775599731 -656005052 -1073926202</internalNodes>
          <leafValues>
            -3.1877428293228149e-01 2.6544091105461121e-01</leafValues></_>
        <_>
          <internalNodes>
            0 -1 121 1424646900 924522368 -818811331 391926069
            -524074895 790635586 -1601526160 594669904</internalNodes>
          <leafValues>
            -3.9604261517524719e-01 2.3448310792446136e-01</leafValues></_>
        <_>
          <internalNodes>
            0 -1 206 1966014258 -1186851053 143759815 -1656471048
            -490013799 -935229208 -712810631 -126432192</internalNodes>
          <leafValues>
            -3.1082630157470703e-01 2.8662019968032837e-01</leafValues></_>
        <_>
          <internalNodes>
            0 -1 79 833977749 320983159 -1094750246 405872338 -118243841
            1022934519 2087534264 -1934893513</internalNodes>
          <leafValues>
            -2.6873347163200378e-01 3.1958854198455811e-01</leafValues></_></weakClassifiers></_>
    <!-- stage 8 -->
    <_>
      <maxWeakCount>19</maxWeakCount>
      <stageThreshold>-8.3805400133132935e-01</stageThreshold>
      <weakClassifiers>
        <_>
          <internalNodes>
            0 -1 85 -18090098 338786079 1027538824 1069088442
            -1343236658 1878128512 -9502770 2079899536</internalNodes>
          <leafValues>
            -2.4017466604709625e-01 5.0367486476898193e-01</leafValues></_>
        <_>
          <internalNodes>
            0 -1 44 -606076934 404513239 -1862121266 1072756693
            1380557580 -1878425462 -2113782866 -2091878077</internalNodes>
          <leafValues>
            -3.7014985084533691e-01 2.7694296836853027e-01</leafValues></_>
        <_>
          <internalNodes>
            0 -1 108 1952970295 1058255647 -868236369 -1477432921
            1889517794 -1460631547 -455226789 -860816613</internalNodes>
          <leafValues>
            -3.2252332568168640e-01 2.9365050792694092e-01</leafValues></_>
        <_>
          <internalNodes>
            0 -1 15 -292625874 -620410030 -1034305065 -786447993
            -1894712181 246845456 -1828992229 1275044819</internalNodes>
          <leafValues>
            -3.0810239911079407e-01 2.8672385215759277e-01</leafValues></_>
        <_>
          <internalNodes>
            0 -1 218 1347280689 -678182701 51472657 -1782362077
            -910447631 -1618246622 1142638036 1638334466</internalNodes>
          <leafValues>
            -3.6911657452583313e-01 2.3645928502082825e-01</leafValues></_>
        <_>
          <internalNodes>
            0 -1 90 -412649627 1324873185 -684486573 -616327386
            1666151755 -384726932 1731436768 -453783758</internalNodes>
          <leafValues>
            -3.2089576125144958e-01 2.5762048363685608e-01</leafValues></_>
        <_>
          <internalNodes>
            0 -1 178 -502806718 359166036 -2145947425 897519739
            1661619579 1501823080 -1073561354 604881937</internalNodes>
          <leafValues>
            -3.4053629636764526e-01 2.5962400436401367e-01</leafValues></_>
        <_>
          <internalNodes>
            0 -1 159 1485664912 353694039 -1814382083 -1808034910
            -2012505937 540174883 -517012995 1471225703</internalNodes>
          <leafValues>
            -3.1811237335205078e-01 2.5752106308937073e-01</leafValues></_>
        <_>
          <internalNodes>
            0 -1 227 1447753423 1385221632 -2092875376 1392510144
            54380970 327174303 646597789 509699412</internalNodes>
          <leafValues>
            -3.7684270739555359e-01 2.2898839414119720e-01</leafValues></_>
        <_>
          <internalNodes>
            0 -1 64 -918052748 -1452192039 1213350724 -1627376360
            -326999778 2073766602 -122789222 686260235</internalNodes>
          <leafValues>
            -3.1933385133743286e-01 2.7296105027198792e-01</leafValues></_>
        <_>
          <internalNodes>
            0 -1 145 -2097256138 306719557 -1689003535 366236455
            1271481935 440938600 -248323201 1606238769</internalNodes>
          <leafValues>
            -3.8560047745704651e-01 2.0440544188022614e-01</leafValues></_>
        <_>
          <internalNodes>
            0 -1 146 -926029097 498049942 -1516155745 -1786670185
            -1899918693 977589399 -360740731 1650512010</internalNodes>
          <leafValues>
            -2.9165142774581909e-01 2.9734504222869873e-01</leafValues></_>
        <_>
          <internalNodes>
            0 -1 226 174058854 -1608841145 -2115766162 1343300454
            1427557105 853231144 212803164 -27028894</internalNodes>
          <leafValues>
            -3.1670704483985901e-01 2.6180732250213623e-01</leafValues></_>
        <_>
          <internalNodes>
            0 -1 224 -1346525180 -468090835 -1265162237 -638072737
            -25089863 -1475837425 -830250467 -644496830</internalNodes>
          <leafValues>
            -2.8171983361244202e-01 2.8438025712966919e-01</leafValues></_>
        <_>
          <internalNodes>
            0 -1 160 -528307423 -2006488682 1752899038 -1671529494
            644399409 1185626449 1756498762 1625742354</internalNodes>
          <leafValues>
            -3.8449332118034363e-01 2.2371810674667358e-01</leafValues></_>
        <_>
          <internalNodes>
            0 -1 200 -1340932556 -1156168171 336566024 809548333
            111487491 1483604501 1214292019 1061066361</internalNodes>
          <leafValues>
            -3.8185527920722961e-01 2.2722309827804565e-01</leafValues></_>
        <_>
          <internalNodes>
            0 -1 31 1457952759 -1872767075 778583896 -1714279878
            226270973 285040639 1281121627 -9739777</internalNodes>
          <leafValues>
            -2.3937276005744934e-01 3.6479982733726501e-01</leafValues></_>
        <_>
          <internalNodes>
            0 -1 38 1556637429 -124063505 -1404206427 211833218
            -452874157 -914249599 190486651 -272162412</internalNodes>
          <leafValues>
            -3.1172564625740051e-01 2.9727685451507568e-01</leafValues></_>
        <_>
          <internalNodes>
            0 -1 153 771935030 453296791 -91980741 -1914638152
            -293289791 -1206886185 -1126143263 -88389401</internalNodes>
          <leafValues>
            -2.8269207477569580e-01 3.1160715222358704e-01</leafValues></_></weakClassifiers></_>
    <!-- stage 9 -->
    <_>
      <maxWeakCount>20</maxWeakCount>
      <stageThreshold>-9.8328018188476562e-01</stageThreshold>
      <weakClassifiers>
        <_>
          <internalNodes>
            0 -1 76 -296393260 -303513924 400411133 -1125091084
            -147324998 -1 2145383901 -145394220</internalNodes>
          <leafValues>
            -2.6473176479339600e-01 4.7316470742225647e-01</leafValues></_>
        <_>
          <internalNodes>
            0 -1 77 2104851455 1057751027 -1477597381 -303729226
            -286823041 1853849599 -889260099 -285217342</internalNodes>
          <leafValues>
            -2.1424762904644012e-01 4.3470269441604614e-01</leafValues></_>
        <_>
          <internalNodes>
            0 -1 168 -614500865 1276333205 -1471424304 1292600013
            167982052 -1891138287 546252788 -4343708</internalNodes>
          <leafValues>
            -3.3218196034431458e-01 2.5384968519210815e-01</leafValues></_>
        <_>
          <internalNodes>
            0 -1 67 -1656030628 -639676323 -1751903779 1472287703
            407517768 1233060487 222203919 341863015</internalNodes>
          <leafValues>
            -4.0545785427093506e-01 2.0020641386508942e-01</leafValues></_>
        <_>
          <internalNodes>
            0 -1 28 780693230 -1434570302 -1466893963 -54012855
            458944734 -2010458608 1074445785 -890241336</internalNodes>
          <leafValues>
            -3.9858502149581909e-01 2.0590497553348541e-01</leafValues></_>
        <_>
          <internalNodes>
            0 -1 129 -1536735577 1024877335 -846143093 749001103
            1184844355 416329840 -522140785 947712932</internalNodes>
          <leafValues>
            -4.0496498346328735e-01 1.7619621753692627e-01</leafValues></_>
        <_>
          <internalNodes>
            0 -1 148 1424950512 695931922 -787832570 27792161 -827192697
            -336977894 -1937571836 1626057279</internalNodes>
          <leafValues>
            -4.1198661923408508e-01 1.9254994392395020e-01</leafValues></_>
        <_>
          <internalNodes>
            0 -1 107 -1176850010 965796794 -1761521320 1023994992
            -1140333901 -1099397990 -235171686 671709971</internalNodes>
          <leafValues>
            -3.2364824414253235e-01 2.4755519628524780e-01</leafValues></_>
        <_>
          <internalNodes>
            0 -1 229 2113133664 -801795714 -1072135079 -54622990
            1728647744 1061716915 -134981840 -18209440</internalNodes>
          <leafValues>
            -4.2168226838111877e-01 1.9134283065795898e-01</leafValues></_>
        <_>
          <internalNodes>
            0 -1 26 -441158307 -1290679877 -1463252801 1645489223
            -400491882 -1633066726 545368064 144858370</internalNodes>
          <leafValues>
            -3.1436187028884888e-01 2.5059843063354492e-01</leafValues></_>
        <_>
          <internalNodes>
            0 -1 43 -957627930 1596330587 -1816137514 -1235602158
            1433777841 -1082694241 -1242180362 -575950305</internalNodes>
          <leafValues>
            -2.6823848485946655e-01 3.0580535531044006e-01</leafValues></_>
        <_>
          <internalNodes>
            0 -1 158 122599868 -1439164755 1191924169 -1615160902
            1088659555 -1147535352 676048924 736038256</internalNodes>
          <leafValues>
            -3.5172736644744873e-01 2.2502984106540680e-01</leafValues></_>
        <_>
          <internalNodes>
            0 -1 154 -230752266 2096964452 732923543 -271585551
            744436913 -375355490 -679498386 -570433798</internalNodes>
          <leafValues>
            -2.1302261948585510e-01 3.7857747077941895e-01</leafValues></_>
        <_>
          <internalNodes>
            0 -1 118 376390912 1120749981 492127252 -1938735086
            548299841 960938148 -651895200 1691899944</internalNodes>
          <leafValues>
            -5.3844010829925537e-01 1.5979222953319550e-01</leafValues></_>
        <_>
          <internalNodes>
            0 -1 204 -1984024783 661833535 1644320119 -1771685369
            1765878625 -530779170 -1155739195 -1388654556</internalNodes>
          <leafValues>
            -3.3862316608428955e-01 2.2774451971054077e-01</leafValues></_>
        <_>
          <internalNodes>
            0 -1 78 -54898084 294755765 -1331740092 -989466235
            2072216134 -114226987 -367932441 1432479178</internalNodes>
          <leafValues>
            -2.8620406985282898e-01 2.7761086821556091e-01</leafValues></_>
        <_>
          <internalNodes>
            0 -1 138 309571703 239587245 -734345259 -47187306 368470460
            -906547436 -36786 -675287935</internalNodes>
          <leafValues>
            -2.2975184023380280e-01 3.6857149004936218e-01</leafValues></_>
        <_>
          <internalNodes>
            0 -1 144 549374251 823853447 -1044067081 805437597
            1186793700 735613824 -902821638 320227376</internalNodes>
          <leafValues>
            -3.7262985110282898e-01 2.1915544569492340e-01</leafValues></_>
        <_>
          <internalNodes>
            0 -1 48 -491290593 -655182025 1861183935 -634857863
            -1089270029 1071972005 -1203792186 -17372742</internalNodes>
          <leafValues>
            -2.2309175133705139e-01 3.7970113754272461e-01</leafValues></_>
        <_>
          <internalNodes>
            0 -1 147 -108427341 -1614852653 795329443 -860766478
            -536907496 -101065605 -2071816437 -436829182</internalNodes>
          <leafValues>
            -2.3763678967952728e-01 3.5660672187805176e-01</leafValues></_></weakClassifiers></_>
    <!-- stage 10 -->
    <_>
      <maxWeakCount>21</maxWeakCount>
      <stageThreshold>-6.7024862766265869e-01</stageThreshold>
      <weakClassifiers>
        <_>
          <internalNodes>
            0 -1 46 953181303 554368687 -1905791313 -276795974
            -285346563 -1623328777 -958532097 -806371346</internalNodes>
          <leafValues>
            -5.3914673626422882e-02 5.4693561792373657e-01</leafValues></_>
        <_>
          <internalNodes>
            0 -1 66 1632629092 1635749949 -1045638995 -403613995
            139018847 -79495152 1751943691 -288294045</internalNodes>
          <leafValues>
            -3.5796958208084106e-01 2.5620451569557190e-01</leafValues></_>
        <_>
          <internalNodes>
            0 -1 19 -403773462 -1049997291 -447623161 -1685803135
            1283902971 -1348485117 -2111946617 -2119532405</internalNodes>
          <leafValues>
            -2.8626614809036255e-01 2.6535692811012268e-01</leafValues></_>
        <_>
          <internalNodes>
            0 -1 180 -990938852 1298618823 -317237799 -572886181
            -896644233 -545199565 -945499410 -648947653</internalNodes>
          <leafValues>
            -2.6827529072761536e-01 2.8127965331077576e-01</leafValues></_>
        <_>
          <internalNodes>
            0 -1 172 -746592592 -1504001911 1402420017 -144776354
            11239578 -1432739652 413884913 -1242245705</internalNodes>
          <leafValues>
            -3.4816083312034607e-01 2.2738444805145264e-01</leafValues></_>
        <_>
          <internalNodes>
            0 -1 113 674701732 775644138 486560536 -365571536 245400025
            -1390031775 1114124824 550592800</internalNodes>
          <leafValues>
            -5.2270501852035522e-01 1.1032512038946152e-01</leafValues></_>
        <_>
          <internalNodes>
            0 -1 29 889837050 2145171180 827589027 -629112832
            -2122055423 -38495103 -1845344216 -1291619625</internalNodes>
          <leafValues>
            -3.1972438097000122e-01 2.4962219595909119e-01</leafValues></_>
        <_>
          <internalNodes>
            0 -1 146 1213123805 353915863 -1724381165 934367771
            571031574 -578444798 1256106689 693194227</internalNodes>
          <leafValues>
            -3.4583336114883423e-01 2.0255717635154724e-01</leafValues></_>
        <_>
          <internalNodes>
            0 -1 237 -898697338 -1505767497 250605135 1543479229
            1640363989 -872555395 2070879992 -1284564737</internalNodes>
          <leafValues>
            -2.4049654603004456e-01 3.1986209750175476e-01</leafValues></_>
        <_>
          <internalNodes>
            0 -1 222 -17386161 1664345693 -344129555 -1205326296
            -692731905 1878185851 -55378705 -311232681</internalNodes>
          <leafValues>
            -1.8015679717063904e-01 4.1170033812522888e-01</leafValues></_>
        <_>
          <internalNodes>
            0 -1 27 1428858760 1627304186 -787668680 1994349539
            1879188237 -1458446336 814576364 467968900</internalNodes>
          <leafValues>
            -4.2700800299644470e-01 1.7259836196899414e-01</leafValues></_>
        <_>
          <internalNodes>
            0 -1 139 1887761824 362436383 -1722556067 1072837678
            168397373 1160452768 -933686884 1685740865</internalNodes>
          <leafValues>
            -3.8260835409164429e-01 1.9637843966484070e-01</leafValues></_>
        <_>
          <internalNodes>
            0 -1 184 1344979668 -1719532004 -2000890824 -1450687994
            -1893094945 -643792512 991625434 -1112602370</internalNodes>
          <leafValues>
            -2.8576615452766418e-01 2.7650457620620728e-01</leafValues></_>
        <_>
          <internalNodes>
            0 -1 103 -800681738 349672611 1615225541 -1414601283
            -133100532 -36434152 -125178261 -1940153655</internalNodes>
          <leafValues>
            -3.0864039063453674e-01 2.5390559434890747e-01</leafValues></_>
        <_>
          <internalNodes>
            0 -1 212 -1764876530 -1903999885 -2011034988 -1962815280
            -635762329 961585196 -100481469 -1807405471</internalNodes>
          <leafValues>
            -4.1737920045852661e-01 1.8640170991420746e-01</leafValues></_>
        <_>
          <internalNodes>
            0 -1 33 -460997844 1717048326 1090851343 -1120174071
            -1140850240 1536501901 -754814820 3191311</internalNodes>
          <leafValues>
            -3.4444195032119751e-01 2.3736096918582916e-01</leafValues></_>
        <_>
          <internalNodes>
            0 -1 142 -1125277512 1500102471 2080063020 1073338044
            -570461249 -5802059 -1082205857 -1409550377</internalNodes>
          <leafValues>
            -2.4115438759326935e-01 3.3820340037345886e-01</leafValues></_>
        <_>
          <internalNodes>
            0 -1 238 178594048 1678081 -497983481 -386082514 -1372716260
            176194499 -266102346 -43197448</internalNodes>
          <leafValues>
            -2.9333627223968506e-01 2.8432074189186096e-01</leafValues></_>
        <_>
          <internalNodes>
            0 -1 94 -1143345185 1914093139 -2100647386 -82969162
            928830621 2142961197 925435394 -25956358</internalNodes>
          <leafValues>
            -2.3334729671478271e-01 3.4425124526023865e-01</leafValues></_>
        <_>
          <internalNodes>
            0 -1 69 -1963224032 -213993543 522796605 -134787267
            1170194391 -536953540 -1614928132 -46992474</internalNodes>
          <leafValues>
            -2.4090722203254700e-01 3.2600811123847961e-01</leafValues></_>
        <_>
          <internalNodes>
            0 -1 169 -1038103422 1217462536 68780471 -333719233
            -1051917175 -368181116 -245645079 -1412243049</internalNodes>
          <leafValues>
            -3.0865314602851868e-01 2.5876748561859131e-01</leafValues></_></weakClassifiers></_>
    <!-- stage 11 -->
    <_>
      <maxWeakCount>21</maxWeakCount>
      <stageThreshold>-9.9930608272552490e-01</stageThreshold>
      <weakClassifiers>
        <_>
          <internalNodes>
            0 -1 155 1159480578 286736181 -961673693 -1343303774
            68968153 -1099112542 -1884291089 -9111878</internalNodes>
          <leafValues>
            -1.3100723922252655e-01 4.9073866009712219e-01</leafValues></_>
        <_>
          <internalNodes>
            0 -1 99 -120556550 -1784073346 -302555266 -1355170026
            -1368012233 1073561593 -822615077 1860959991</internalNodes>
          <leafValues>
            -2.7451714873313904e-01 3.0365613102912903e-01</leafValues></_>
        <_>
          <internalNodes>
            0 -1 0 -26433826 -663506954 -2099041481 -637546162
            -527707140 -1296891686 1594880898 -8396562</internalNodes>
          <leafValues>
            -3.8497838377952576e-01 1.9796121120452881e-01</leafValues></_>
        <_>
          <internalNodes>
            0 -1 65 -252742623 53456959 -506732153 -2146401145
            -1271242704 900845570 -930940839 615704440</internalNodes>
          <leafValues>
            -4.2091208696365356e-01 1.7709857225418091e-01</leafValues></_>
        <_>
          <internalNodes>
            0 -1 32 1001081183 398458767 -1427610609 -1851584222
            -1942503932 1710677853 993863682 -884213981</internalNodes>
          <leafValues>
            -2.3732471466064453e-01 3.0726814270019531e-01</leafValues></_>
        <_>
          <internalNodes>
            0 -1 86 -291033012 -1386880111 1360212364 196468176
            -1316902102 -339730399 -8253400 1824331152</internalNodes>
          <leafValues>
            -3.9926522970199585e-01 1.5103588998317719e-01</leafValues></_>
        <_>
          <internalNodes>
            0 -1 176 -738323532 1528271539 -1853195467 -198826601
            324264603 730447915 -1058337555 2011828570</internalNodes>
          <leafValues>
            -2.5354862213134766e-01 2.7490001916885376e-01</leafValues></_>
        <_>
          <internalNodes>
            0 -1 207 -463517881 403894822 -1182252033 989856271
            -1333104411 -397600378 -1010621970 1922247463</internalNodes>
          <leafValues>
            -2.8166028857231140e-01 2.4824050068855286e-01</leafValues></_>
        <_>
          <internalNodes>
            0 -1 23 -333585661 547117083 -243071395 7520691 1846556981
            1009922316 1284624032 73744385</internalNodes>
          <leafValues>
            -4.4258481264114380e-01 1.4168152213096619e-01</leafValues></_>
        <_>
          <internalNodes>
            0 -1 201 -803045332 397672993 -770593320 319689994
            -230515988 1649410983 -341690006 528460319</internalNodes>
          <leafValues>
            -3.0498015880584717e-01 2.3370148241519928e-01</leafValues></_>
        <_>
          <internalNodes>
            0 -1 91 -271061014 -1526775439 -1878912355 -107488399
            -1760939723 -1607204474 286009379 -425255327</internalNodes>
          <leafValues>
            -2.6877889037132263e-01 2.7383226156234741e-01</leafValues></_>
        <_>
          <internalNodes>
            0 -1 10 -2008163986 302257483 671224168 1394675867
            -1810869538 -737902037 -2046291064 138791093</internalNodes>
          <leafValues>
            -3.1402796506881714e-01 2.4051661789417267e-01</leafValues></_>
        <_>
          <internalNodes>
            0 -1 177 -282850523 955505214 -81927395 -1321485049
            216335459 1358774253 -268755778 687257386</internalNodes>
          <leafValues>
            -2.5723680853843689e-01 2.8855305910110474e-01</leafValues></_>
        <_>
          <internalNodes>
            0 -1 234 -926483657 -1694861317 -1495112385 1998746600
            81067751 -1493907691 -1550252803 -127755766</internalNodes>
          <leafValues>
            -2.3426723480224609e-01 3.4916701912879944e-01</leafValues></_>
        <_>
          <internalNodes>
            0 -1 164 1285999291 -1281912571 546535345 -138042989
            -923900358 -388857315 -1607990633 -707468826</internalNodes>
          <leafValues>
            -2.7953740954399109e-01 2.6796370744705200e-01</leafValues></_>
        <_>
          <internalNodes>
            0 -1 171 -759790685 -203258902 842442289 -533221140
            -463108652 742706171 -1093647734 -407387919</internalNodes>
          <leafValues>
            -2.3641097545623779e-01 3.1076440215110779e-01</leafValues></_>
        <_>
          <internalNodes>
            0 -1 39 1279432819 900384573 311125267 -201420770
            -2132500331 336759028 408619017 787935982</internalNodes>
          <leafValues>
            -2.5989052653312683e-01 2.8018939495086670e-01</leafValues></_>
        <_>
          <internalNodes>
            0 -1 194 -785283435 -1821024641 -834703437 507098437
            1260824507 896474615 -983104017 172204323</internalNodes>
          <leafValues>
            -2.4968543648719788e-01 2.9936692118644714e-01</leafValues></_>
        <_>
          <internalNodes>
            0 -1 182 -952962077 -929914193 1115701744 -108920433
            318968475 -1172101101 713196056 -1423765447</internalNodes>
          <leafValues>
            -2.5454574823379517e-01 2.9596659541130066e-01</leafValues></_>
        <_>
          <internalNodes>
            0 -1 54 559351176 -222545811 281100470 1364263053 -566648830
            806884305 1883550459 840323096</internalNodes>
          <leafValues>
            -3.9645302295684814e-01 2.0201031863689423e-01</leafValues></_>
        <_>
          <internalNodes>
            0 -1 97 1625254935 717209353 -931444581 2042088984 -42606121
            -1612351500 -453781636 1627066499</internalNodes>
          <leafValues>
            -2.5884023308753967e-01 2.9916921257972717e-01</leafValues></_></weakClassifiers></_>
    <!-- stage 12 -->
    <_>
      <maxWeakCount>22</maxWeakCount>
      <stageThreshold>-6.9458544254302979e-01</stageThreshold>
      <weakClassifiers>
        <_>
          <internalNodes>
            0 -1 85 -134283644 372586259 -1108443384 1059913407
            2146301836 1742894961 -524305 1541472144</internalNodes>
          <leafValues>
            -2.2176422178745270e-01 4.7399204969406128e-01</leafValues></_>
        <_>
          <internalNodes>
            0 -1 50 -905730138 -149840896 -598921762 523804438 4572116
            -1103003511 -1521987665 1118809084</internalNodes>
          <leafValues>
            -2.9724916815757751e-01 2.7817013859748840e-01</leafValues></_>
        <_>
          <internalNodes>
            0 -1 191 1601568693 -1213203969 2012208127 1676749738
            -443045961 1801447287 1086444988 -536930794</internalNodes>
          <leafValues>
            -2.1644002199172974e-01 3.4396743774414062e-01</leafValues></_>
        <_>
          <internalNodes>
            0 -1 104 2020527163 925602107 -1358394481 -1479241317
            -535084026 1394016256 -355472977 1858112915</internalNodes>
          <leafValues>
            -3.7560221552848816e-01 2.0512725412845612e-01</leafValues></_>
        <_>
          <internalNodes>
            0 -1 2 1248833063 -849034874 1271421826 -1721378924
            -975112013 -1957456375 -1377830144 1323803290</internalNodes>
          <leafValues>
            -2.8899452090263367e-01 2.5064924359321594e-01</leafValues></_>
        <_>
          <internalNodes>
            0 -1 59 -101091847 -1215704417 -1965074764 -370064542
            -939026003 -62668790 -355471278 1224589979</internalNodes>
          <leafValues>
            -2.8812551498413086e-01 2.6629739999771118e-01</leafValues></_>
        <_>
          <internalNodes>
            0 -1 185 -657468712 -1837883489 520425744 -2011000517
            -1702692076 -526483048 707374875 -304743699</internalNodes>
          <leafValues>
            -2.9869437217712402e-01 2.3713202774524689e-01</leafValues></_>
        <_>
          <internalNodes>
            0 -1 225 -1428500890 -1839551171 -360792498 2050538971
            1442247669 -335808516 -1560561921 -818352070</internalNodes>
          <leafValues>
            -2.4437627196311951e-01 2.9277610778808594e-01</leafValues></_>
        <_>
          <internalNodes>
            0 -1 214 540756498 785760978 -1048378120 1322092771
            -2101218527 -2146394078 -1580469920 -130941966</internalNodes>
          <leafValues>
            -4.0363022685050964e-01 1.9359281659126282e-01</leafValues></_>
        <_>
          <internalNodes>
            0 -1 71 -958406688 1688392000 -1389460938 2016557072
            802767568 -334981096 151585305 1963958544</internalNodes>
          <leafValues>
            -3.9374154806137085e-01 1.9253790378570557e-01</leafValues></_>
        <_>
          <internalNodes>
            0 -1 133 -951226095 -2076194273 1627357453 1860026655
            1344086446 431505556 -2134134257 -361750250</internalNodes>
          <leafValues>
            -2.9223638772964478e-01 2.5460076332092285e-01</leafValues></_>
        <_>
          <internalNodes>
            0 -1 196 -945150928 -1961163469 -1290647792 1553011265
            -4043247 -2006376309 703333935 -270282236</internalNodes>
          <leafValues>
            -3.0970171093940735e-01 2.4403260648250580e-01</leafValues></_>
        <_>
          <internalNodes>
            0 -1 183 -640738019 484581100 -45273797 -1928483062
            -85581897 -1911750803 -571746389 -678303953</internalNodes>
          <leafValues>
            -2.5742098689079285e-01 2.9153689742088318e-01</leafValues></_>
        <_>
          <internalNodes>
            0 -1 72 1723984997 978126857 -267372177 -1250938412
            -192371748 958221969 2048435632 2046389182</internalNodes>
          <leafValues>
            -2.6431125402450562e-01 2.8679656982421875e-01</leafValues></_>
        <_>
          <internalNodes>
            0 -1 6 -63727070 1894952693 1591974887 -1969867228
            -2097960197 1248132917 -865077285 -332411986</internalNodes>
          <leafValues>
            -1.8702256679534912e-01 3.7498477101325989e-01</leafValues></_>
        <_>
          <internalNodes>
            0 -1 156 -206674814 360628692 67420280 226771520 -24712905
            -329633791 -1432262156 -1201336207</internalNodes>
          <leafValues>
            -3.0219638347625732e-01 2.4840822815895081e-01</leafValues></_>
        <_>
          <internalNodes>
            0 -1 116 1782831525 2044764183 1469533846 -1682665136
            -1610077439 -1390196927 -1929828244 1726039065</internalNodes>
          <leafValues>
            -3.3232364058494568e-01 2.4428349733352661e-01</leafValues></_>
        <_>
          <internalNodes>
            0 -1 189 -1158701920 -793622256 -520089196 -1976954574
            4498818 -207607667 -1148213062 -882711706</internalNodes>
          <leafValues>
            -3.2223588228225708e-01 2.4250458180904388e-01</leafValues></_>
        <_>
          <internalNodes>
            0 -1 126 -254690593 -1204469827 -907071837 1371464452
            -385970803 875363940 -159924801 2052371660</internalNodes>
          <leafValues>
            -2.3615652322769165e-01 3.4674403071403503e-01</leafValues></_>
        <_>
          <internalNodes>
            0 -1 211 1888228147 660078661 291508528 1025615935 223023365
            -569693925 1761768362 -1184165033</internalNodes>
          <leafValues>
            -2.9583835601806641e-01 2.6039323210716248e-01</leafValues></_>
        <_>
          <internalNodes>
            0 -1 187 -740651890 332926859 -2068326058 -109080700
            -488141384 1000920353 -151091461 -274980</internalNodes>
          <leafValues>
            -2.1760384738445282e-01 3.7688353657722473e-01</leafValues></_>
        <_>
          <internalNodes>
            0 -1 30 -1027087546 795488609 1414648913 -1876243316
            1073979781 -427061019 135014300 1321338087</internalNodes>
          <leafValues>
            -3.7106803059577942e-01 2.2470483183860779e-01</leafValues></_></weakClassifiers></_>
    <!-- stage 13 -->
    <_>
      <maxWeakCount>21</maxWeakCount>
      <stageThreshold>-7.3716300725936890e-01</stageThreshold>
      <weakClassifiers>
        <_>
          <internalNodes>
            0 -1 81 2136522076 -847774243 1877278460 1563557847
            -59834545 -268959794 1254555578 32563027</internalNodes>
          <leafValues>
            -1.3422347605228424e-01 4.7869783639907837e-01</leafValues></_>
        <_>
          <internalNodes>
            0 -1 60 2112386559 -1477870399 -1476436004 -403620591
            -18924449 -1345454114 1861614894 1825406403</internalNodes>
          <leafValues>
            -2.4675619602203369e-01 3.0634737014770508e-01</leafValues></_>
        <_>
          <internalNodes>
            0 -1 24 -823203857 660247799 -805307689 -1385121931
            1757180109 -1194947605 -922897221 -856059410</internalNodes>
          <leafValues>
            -2.6277804374694824e-01 2.8314352035522461e-01</leafValues></_>
        <_>
          <internalNodes>
            0 -1 132 1182517283 722850071 -1058607197 -308840169
            -1972079507 -246230542 -1900027397 -301181196</internalNodes>
          <leafValues>
            -3.0336153507232666e-01 2.3845677077770233e-01</leafValues></_>
        <_>
          <internalNodes>
            0 -1 115 1592785159 1539026395 -1073775881 500971347
            -1650071673 -875970709 -862417306 -39089621</internalNodes>
          <leafValues>
            -1.6053827106952667e-01 4.3123549222946167e-01</leafValues></_>
        <_>
          <internalNodes>
            0 -1 135 1108356742 796205785 19007503 -351625 1520446428
            997282176 556876189 813061969</internalNodes>
          <leafValues>
            -4.1022807359695435e-01 1.5982292592525482e-01</leafValues></_>
        <_>
          <internalNodes>
            0 -1 150 -339552409 -6261146 -772075281 -539237829 808531287
            -660963346 -995724875 -654353153</internalNodes>
          <leafValues>
            -1.8555268645286560e-01 3.7436047196388245e-01</leafValues></_>
        <_>
          <internalNodes>
            0 -1 215 -734921759 1342234659 -133988189 1761968160
            154561253 718932024 489379109 -1241817296</internalNodes>
          <leafValues>
            -3.4025278687477112e-01 2.1278518438339233e-01</leafValues></_>
        <_>
          <internalNodes>
            0 -1 125 -731744304 345263490 797501759 -1493159742
            -863032700 1895877633 -322183016 1247928630</internalNodes>
          <leafValues>
            -3.5981631278991699e-01 1.9616711139678955e-01</leafValues></_>
        <_>
          <internalNodes>
            0 -1 240 960307005 214013460 286149059 721489948 1120497780
            -311984031 -640242843 -637210827</internalNodes>
          <leafValues>
            -2.8851023316383362e-01 2.4232363700866699e-01</leafValues></_>
        <_>
          <internalNodes>
            0 -1 100 -1505253366 572525868 -2044670146 1342292407
            1254298445 2230296 1714988885 -1298798531</internalNodes>
          <leafValues>
            -4.6661671996116638e-01 1.6925124824047089e-01</leafValues></_>
        <_>
          <internalNodes>
            0 -1 16 -954875817 -147488014 1249794703 -215970801
            -713070011 -1620108034 -153010961 -78876665</internalNodes>
          <leafValues>
            -1.8537348508834839e-01 3.8467952609062195e-01</leafValues></_>
        <_>
          <internalNodes>
            0 -1 195 -1025466169 -244090883 984682248 524024354
            -2074239515 -908224531 175800795 -597969105</internalNodes>
          <leafValues>
            -2.0063196122646332e-01 3.6306896805763245e-01</leafValues></_>
        <_>
          <internalNodes>
            0 -1 112 548905468 -1873998282 -1352244423 1303104920
            2089324784 2065732025 -946816532 -1596789648</internalNodes>
          <leafValues>
            -2.9238167405128479e-01 2.6471224427223206e-01</leafValues></_>
        <_>
          <internalNodes>
            0 -1 190 -570441965 -780163973 -37515 2146859640 -570473051
            -1351256211 -695622188 -2361377</internalNodes>
          <leafValues>
            -2.1944521367549896e-01 3.4159696102142334e-01</leafValues></_>
        <_>
          <internalNodes>
            0 -1 58 -96806689 -1203981249 241821829 -6200004 -553687948
            -1478570641 -1795391755 923531668</internalNodes>
          <leafValues>
            -2.3345448076725006e-01 3.3299440145492554e-01</leafValues></_>
        <_>
          <internalNodes>
            0 -1 74 -1561071143 -701409025 -1296554372 -1747976070
            -1216873251 -1282761453 -672491785 -545321825</internalNodes>
          <leafValues>
            -1.8176853656768799e-01 4.2795312404632568e-01</leafValues></_>
        <_>
          <internalNodes>
            0 -1 140 -572283988 -734962999 -1944714305 354833968
            -2009829593 62705859 408126748 48957982</internalNodes>
          <leafValues>
            -3.0886632204055786e-01 2.3365019261837006e-01</leafValues></_>
        <_>
          <internalNodes>
            0 -1 8 -1505557609 -857282010 -230882948 462679790
            -343997801 -1967343770 1440217723 -1461076047</internalNodes>
          <leafValues>
            -2.3146571218967438e-01 3.2885551452636719e-01</leafValues></_>
        <_>
          <internalNodes>
            0 -1 57 4224030 -2073208548 72942340 29429904 -53268213
            653393920 7283420 46961426</internalNodes>
          <leafValues>
            -4.7954067587852478e-01 1.6779583692550659e-01</leafValues></_>
        <_>
          <internalNodes>
            0 -1 216 -1534158272 -1000733876 575375504 324835600
            -345566624 -2053865345 -1298003616 2054419311</internalNodes>
          <leafValues>
            -4.1537433862686157e-01 1.9268840551376343e-01</leafValues></_></weakClassifiers></_>
    <!-- stage 14 -->
    <_>
      <maxWeakCount>24</maxWeakCount>
      <stageThreshold>-9.1849249601364136e-01</stageThreshold>
      <weakClassifiers>
        <_>
          <internalNodes>
            0 -1 122 1752461523 1059172147 -1078181973 -1895514124
            -1396897793 -170524681 -1527806161 -1369086160</internalNodes>
          <leafValues>
            -6.3708759844303131e-02 4.9787837266921997e-01</leafValues></_>
        <_>
          <internalNodes>
            0 -1 137 1356842140 -245201413 20643997 1003933918
            -2012641141 1343922178 -1589964644 2002001223</internalNodes>
          <leafValues>
            -3.2392537593841553e-01 2.3328475654125214e-01</leafValues></_>
        <_>
          <internalNodes>
            0 -1 124 -1224222502 224329567 -1100043517 -285426864
            576139147 786276331 -156057601 -715202598</internalNodes>
          <leafValues>
            -2.5464937090873718e-01 2.7822864055633545e-01</leafValues></_>
        <_>
          <internalNodes>
            0 -1 5 -896984386 337251080 -1323154272 -1528380128
            -1928795258 8489240 -1557009746 -406854422</internalNodes>
          <leafValues>
            -4.1961154341697693e-01 1.6433350741863251e-01</leafValues></_>
        <_>
          <internalNodes>
            0 -1 75 -226962741 307267934 -609223937 2079620823
            -173233353 -1212284993 798818300 -50879529</internalNodes>
          <leafValues>
            -1.8753206729888916e-01 3.8459092378616333e-01</leafValues></_>
        <_>
          <internalNodes>
            0 -1 73 444627536 -1693124328 -134441829 2051474601
            1291027616 1609760543 -389228131 -15012549</internalNodes>
          <leafValues>
            -2.3937262594699860e-01 2.9883059859275818e-01</leafValues></_>
        <_>
          <internalNodes>
            0 -1 165 1357899903 1017101871 -855773381 -1753006279
            -488215241 -1084309538 -951652989 -5329110</internalNodes>
          <leafValues>
            -2.2948445379734039e-01 3.1307104229927063e-01</leafValues></_>
        <_>
          <internalNodes>
            0 -1 219 -34959609 -1092026573 -805322885 1541566335
            -1061421269 -61016291 -164332371 -111687697</internalNodes>
          <leafValues>
            -1.4854949712753296e-01 4.3462947010993958e-01</leafValues></_>
        <_>
          <internalNodes>
            0 -1 221 251080294 -45317051 -2020047448 -1961930045
            -1237716995 -1459052255 1489027097 -17052558</internalNodes>
          <leafValues>
            -2.7252998948097229e-01 2.6019924879074097e-01</leafValues></_>
        <_>
          <internalNodes>
            0 -1 130 663269014 -1694165172 -1047422493 1595829580
            679783059 2018099916 -359253504 -1935548208</internalNodes>
          <leafValues>
            -3.3323311805725098e-01 2.2245928645133972e-01</leafValues></_>
        <_>
          <internalNodes>
            0 -1 20 1571137096 -2016804072 1359717675 806590474 25757991
            -809490410 -639284894 344341284</internalNodes>
          <leafValues>
            -3.7290635704994202e-01 1.7975477874279022e-01</leafValues></_>
        <_>
          <internalNodes>
            0 -1 82 -320768931 -38703183 -272749442 -1358302413
            1281293693 -83918885 -53781183 -325208577</internalNodes>
          <leafValues>
            -2.1662679314613342e-01 3.2732644677162170e-01</leafValues></_>
        <_>
          <internalNodes>
            0 -1 203 13256834 -2134261015 -1819286782 101123504
            -1835452159 -1448465780 -1836152060 -1328485038</internalNodes>
          <leafValues>
            -5.2379739284515381e-01 1.4192752540111542e-01</leafValues></_>
        <_>
          <internalNodes>
            0 -1 228 2142385878 -1189959040 335663321 660377856
            -584780122 -1783498894 1306530795 -732675192</internalNodes>
          <leafValues>
            -2.9953330755233765e-01 2.3446194827556610e-01</leafValues></_>
        <_>
          <internalNodes>
            0 -1 193 -1593964201 -1367412925 -898405077 1656038591
            -1980403907 -823297166 -54725474 -1461319282</internalNodes>
          <leafValues>
            -2.4635341763496399e-01 2.9727888107299805e-01</leafValues></_>
        <_>
          <internalNodes>
            0 -1 94 987476342 1913704668 -1609416638 -1199546533
            403938272 1318242977 11405408 -436741938</internalNodes>
          <leafValues>
            -3.1824973225593567e-01 2.3710279166698456e-01</leafValues></_>
        <_>
          <internalNodes>
            0 -1 220 -290025945 -1899565198 2012407806 -1795397702
            -844272129 -302825485 1920339432 -274743516</internalNodes>
          <leafValues>
            -2.5194063782691956e-01 3.0249181389808655e-01</leafValues></_>
        <_>
          <internalNodes>
            0 -1 201 1946207334 2140505609 1392692584 1495882692
            -989755404 -378953943 -114939200 -141477270</internalNodes>
          <leafValues>
            -2.6051887869834900e-01 2.9763168096542358e-01</leafValues></_>
        <_>
          <internalNodes>
            0 -1 21 -935885997 -470168731 636420503 -1778796676
            1203152698 -902558594 -579363377 -334965665</internalNodes>
          <leafValues>
            -2.1374037861824036e-01 3.5209065675735474e-01</leafValues></_>
        <_>
          <internalNodes>
            0 -1 143 290537880 261732449 -2095249871 420879627
            -876188556 1490239620 380463104 509936903</internalNodes>
          <leafValues>
            -3.9388746023178101e-01 2.0216728746891022e-01</leafValues></_>
        <_>
          <internalNodes>
            0 -1 9 -933193186 -6226777 -538214466 723749901 -222972835
            -1924721467 -320429425 -635794825</internalNodes>
          <leafValues>
            -2.2773598134517670e-01 3.1834375858306885e-01</leafValues></_>
        <_>
          <internalNodes>
            0 -1 188 -429218656 257766325 42856608 91296189 423928248
            675546256 -2111829267 -1083690059</internalNodes>
          <leafValues>
            -3.7733724713325500e-01 1.9542743265628815e-01</leafValues></_>
        <_>
          <internalNodes>
            0 -1 62 -799026977 -1279285636 -184553777 27840251
            1993831999 -330764801 -1662518040 -130875895</internalNodes>
          <leafValues>
            -2.3869265615940094e-01 3.1687968969345093e-01</leafValues></_>
        <_>
          <internalNodes>
            0 -1 1 -917533522 -754242456 -629464532 1584742639
            -421082449 -1010848524 1591453837 -930278370</internalNodes>
          <leafValues>
            -2.5221595168113708e-01 2.9745978116989136e-01</leafValues></_></weakClassifiers></_></stages>
  <features>
    <_>
      <rect>
        0 0 9 10</rect></_>
    <_>
      <rect>
        0 3 4 4</rect></_>
    <_>
      <rect>
        0 5 7 5</rect></_>
    <_>
      <rect>
        0 5 8 8</rect></_>
    <_>
      <rect>
        0 7 9 6</rect></_>
    <_>
      <rect>
        0 9 10 7</rect></_>
    <_>
      <rect>
        0 10 2 6</rect></_>
    <_>
      <rect>
        0 10 9 5</rect></_>
    <_>
      <rect>
        0 11 3 4</rect></_>
    <_>
      <rect>
        0 21 6 3</rect></_>
    <_>
      <rect>
        0 24 6 2</rect></_>
    <_>
      <rect>
        1 15 7 4</rect></_>
    <_>
      <rect>
        1 17 6 2</rect></_>
    <_>
      <rect>
        2 1 7 9</rect></_>
    <_>
      <rect>
        2 2 9 9</rect></_>
    <_>
      <rect>
        2 6 6 5</rect></_>
    <_>
      <rect>
        2 18 3 2</rect></_>
    <_>
      <rect>
        3 6 9 4</rect></_>
    <_>
      <rect>
        3 7 9 6</rect></_>
    <_>
      <rect>
        3 8 4 4</rect></_>
    <_>
      <rect>
        3 22 8 2</rect></_>
    <_>
      <rect>
        4 6 4 2</rect></_>
    <_>
      <rect>
        4 7 8 5</rect></_>
    <_>
      <rect>
        4 10 3 2</rect></_>
    <_>
      <rect>
        4 10 3 3</rect></_>
    <_>
      <rect>
        4 17 2 4</rect></_>
    <_>
      <rect>
        4 18 6 3</rect></_>
    <_>
      <rect>
        5 0 7 7</rect></_>
    <_>
      <rect>
        5 4 6 5</rect></_>
    <_>
      <rect>
        5 10 5 6</rect></_>
    <_>
      <rect>
        5 12 3 2</rect></_>
    <_>
      <rect>
        5 17 4 2</rect></_>
    <_>
      <rect>
        5 18 7 3</rect></_>
    <_>
      <rect>
        5 21 4 3</rect></_>
    <_>
      <rect>
        5 24 7 2</rect></_>
    <_>
      <rect>
        6 2 4 7</rect></_>
    <_>
      <rect>
        6 6 7 5</rect></_>
    <_>
      <rect>
        6 10 2 2</rect></_>
    <_>
      <rect>
        6 10 5 3</rect></_>
    <_>
      <rect>
        6 18 4 2</rect></_>
    <_>
      <rect>
        7 5 4 4</rect></_>
    <_>
      <rect>
        7 10 7 3</rect></_>
    <_>
      <rect>
        7 12 2 3</rect></_>
    <_>
      <rect>
        7 13 2 2</rect></_>
    <_>
      <rect>
        7 13 5 4</rect></_>
    <_>
      <rect>
        7 18 3 2</rect></_>
    <_>
      <rect>
        8 8 4 4</rect></_>
    <_>
      <rect>
        8 10 4 4</rect></_>
    <_>
      <rect>
        8 11 1 1</rect></_>
    <_>
      <rect>
        8 12 3 3</rect></_>
    <_>
      <rect>
        8 13 2 2</rect></_>
    <_>
      <rect>
        8 13 4 2</rect></_>
    <_>
      <rect>
        8 13 4 3</rect></_>
    <_>
      <rect>
        8 16 3 3</rect></_>
    <_>
      <rect>
        9 5 6 4</rect></_>
    <_>
      <rect>
        9 5 6 7</rect></_>
    <_>
      <rect>
        9 9 3 3</rect></_>
    <_>
      <rect>
        9 9 3 4</rect></_>
    <_>
      <rect>
        9 9 4 3</rect></_>
    <_>
      <rect>
        9 10 3 3</rect></_>
    <_>
      <rect>
        9 10 3 4</rect></_>
    <_>
      <rect>
        9 11 3 3</rect></_>
    <_>
      <rect>
        9 11 4 2</rect></_>
    <_>
      <rect>
        9 11 7 5</rect></_>
    <_>
      <rect>
        9 12 3 2</rect></_>
    <_>
      <rect>
        9 12 4 2</rect></_>
    <_>
      <rect>
        9 12 4 3</rect></_>
    <_>
      <rect>
        9 12 4 4</rect></_>
    <_>
      <rect>
        9 12 5 4</rect></_>
    <_>
      <rect>
        9 13 1 2</rect></_>
    <_>
      <rect>
        9 13 3 2</rect></_>
    <_>
      <rect>
        9 15 2 2</rect></_>
    <_>
      <rect>
        9 18 2 2</rect></_>
    <_>
      <rect>
        9 21 3 3</rect></_>
    <_>
      <rect>
        10 2 5 2</rect></_>
    <_>
      <rect>
        10 3 4 5</rect></_>
    <_>
      <rect>
        10 5 5 8</rect></_>
    <_>
      <rect>
        10 9 3 4</rect></_>
    <_>
      <rect>
        10 9 4 2</rect></_>
    <_>
      <rect>
        10 10 2 2</rect></_>
    <_>
      <rect>
        10 10 3 3</rect></_>
    <_>
      <rect>
        10 10 4 5</rect></_>
    <_>
      <rect>
        10 11 2 3</rect></_>
    <_>
      <rect>
        10 11 2 4</rect></_>
    <_>
      <rect>
        10 11 3 3</rect></_>
    <_>
      <rect>
        10 11 5 2</rect></_>
    <_>
      <rect>
        10 12 2 3</rect></_>
    <_>
      <rect>
        10 12 6 4</rect></_>
    <_>
      <rect>
        10 13 3 2</rect></_>
    <_>
      <rect>
        10 14 4 5</rect></_>
    <_>
      <rect>
        10 15 2 1</rect></_>
    <_>
      <rect>
        10 15 2 2</rect></_>
    <_>
      <rect>
        10 16 2 1</rect></_>
    <_>
      <rect>
        10 17 2 2</rect></_>
    <_>
      <rect>
        10 18 2 1</rect></_>
    <_>
      <rect>
        10 18 2 2</rect></_>
    <_>
      <rect>
        10 18 2 3</rect></_>
    <_>
      <rect>
        10 22 2 2</rect></_>
    <_>
      <rect>
        11 4 4 6</rect></_>
    <_>
      <rect>
        11 8 2 4</rect></_>
    <_>
      <rect>
        11 8 4 2</rect></_>
    <_>
      <rect>
        11 9 2 3</rect></_>
    <_>
      <rect>
        11 9 3 3</rect></_>
    <_>
      <rect>
        11 10 3 2</rect></_>
    <_>
      <rect>
        11 10 3 3</rect></_>
    <_>
      <rect>
        11 11 2 2</rect></_>
    <_>
      <rect>
        11 11 3 2</rect></_>
    <_>
      <rect>
        11 12 2 2</rect></_>
    <_>
      <rect>
        11 12 3 2</rect></_>
    <_>
      <rect>
        11 12 4 2</rect></_>
    <_>
      <rect>
        11 13 3 2</rect></_>
    <_>
      <rect>
        11 13 3 3</rect></_>
    <_>
      <rect>
        11 14 1 1</rect></_>
    <_>
      <rect>
        11 14 2 2</rect></_>
    <_>
      <rect>
        11 14 3 2</rect></_>
    <_>
      <rect>
        11 18 3 3</rect></_>
    <_>
      <rect>
        11 19 3 2</rect></_>
    <_>
      <rect>
        11 20 1 1</rect></_>
    <_>
      <rect>
        12 6 6 4</rect></_>
    <_>
      <rect>
        12 8 2 5</rect></_>
    <_>
      <rect>
        12 8 3 3</rect></_>
    <_>
      <rect>
        12 9 2 3</rect></_>
    <_>
      <rect>
        12 9 2 4</rect></_>
    <_>
      <rect>
        12 9 3 3</rect></_>
    <_>
      <rect>
        12 9 5 3</rect></_>
    <_>
      <rect>
        12 10 2 3</rect></_>
    <_>
      <rect>
        12 10 3 2</rect></_>
    <_>
      <rect>
        12 10 3 3</rect></_>
    <_>
      <rect>
        12 10 4 3</rect></_>
    <_>
      <rect>
        12 11 3 2</rect></_>
    <_>
      <rect>
        12 12 1 2</rect></_>
    <_>
      <rect>
        12 12 3 1</rect></_>
    <_>
      <rect>
        12 12 3 2</rect></_>
    <_>
      <rect>
        12 13 3 2</rect></_>
    <_>
      <rect>
        12 15 1 1</rect></_>
    <_>
      <rect>
        12 15 2 2</rect></_>
    <_>
      <rect>
        12 15 3 2</rect></_>
    <_>
      <rect>
        12 15 3 3</rect></_>
    <_>
      <rect>
        12 16 1 1</rect></_>
    <_>
      <rect>
        12 17 3 2</rect></_>
    <_>
      <rect>
        12 19 3 2</rect></_>
    <_>
      <rect>
        12 24 1 1</rect></_>
    <_>
      <rect>
        13 1 5 5</rect></_>
    <_>
      <rect>
        13 3 5 3</rect></_>
    <_>
      <rect>
        13 6 3 2</rect></_>
    <_>
      <rect>
        13 8 3 2</rect></_>
    <_>
      <rect>
        13 9 2 3</rect></_>
    <_>
      <rect>
        13 10 2 1</rect></_>
    <_>
      <rect>
        13 10 2 2</rect></_>
    <_>
      <rect>
        13 10 2 3</rect></_>
    <_>
      <rect>
        13 11 1 1</rect></_>
    <_>
      <rect>
        13 11 2 3</rect></_>
    <_>
      <rect>
        13 12 3 3</rect></_>
    <_>
      <rect>
        13 13 1 1</rect></_>
    <_>
      <rect>
        13 13 2 1</rect></_>
    <_>
      <rect>
        13 13 3 2</rect></_>
    <_>
      <rect>
        13 14 1 1</rect></_>
    <_>
      <rect>
        13 14 2 2</rect></_>
    <_>
      <rect>
        13 17 2 2</rect></_>
    <_>
      <rect>
        13 17 3 2</rect></_>
    <_>
      <rect>
        13 22 2 1</rect></_>
    <_>
      <rect>
        14 9 2 3</rect></_>
    <_>
      <rect>
        14 9 3 2</rect></_>
    <_>
      <rect>
        14 9 5 7</rect></_>
    <_>
      <rect>
        14 10 2 3</rect></_>
    <_>
      <rect>
        14 11 2 2</rect></_>
    <_>
      <rect>
        14 12 3 2</rect></_>
    <_>
      <rect>
        14 12 5 3</rect></_>
    <_>
      <rect>
        14 13 5 2</rect></_>
    <_>
      <rect>
        14 14 2 2</rect></_>
    <_>
      <rect>
        14 14 2 3</rect></_>
    <_>
      <rect>
        14 15 1 1</rect></_>
    <_>
      <rect>
        14 15 2 2</rect></_>
    <_>
      <rect>
        14 16 2 1</rect></_>
    <_>
      <rect>
        14 16 2 2</rect></_>
    <_>
      <rect>
        14 17 2 1</rect></_>
    <_>
      <rect>
        14 17 2 2</rect></_>
    <_>
      <rect>
        14 20 2 2</rect></_>
    <_>
      <rect>
        15 7 3 3</rect></_>
    <_>
      <rect>
        15 8 1 2</rect></_>
    <_>
      <rect>
        15 8 2 2</rect></_>
    <_>
      <rect>
        15 9 2 2</rect></_>
    <_>
      <rect>
        15 9 5 5</rect></_>
    <_>
      <rect>
        15 10 2 2</rect></_>
    <_>
      <rect>
        15 13 1 1</rect></_>
    <_>
      <rect>
        15 14 2 1</rect></_>
    <_>
      <rect>
        15 14 2 2</rect></_>
    <_>
      <rect>
        15 15 1 1</rect></_>
    <_>
      <rect>
        15 15 1 2</rect></_>
    <_>
      <rect>
        15 17 1 1</rect></_>
    <_>
      <rect>
        15 18 2 1</rect></_>
    <_>
      <rect>
        15 18 2 2</rect></_>
    <_>
      <rect>
        15 20 2 1</rect></_>
    <_>
      <rect>
        15 22 1 1</rect></_>
    <_>
      <rect>
        16 4 2 3</rect></_>
    <_>
      <rect>
        16 7 3 2</rect></_>
    <_>
      <rect>
        16 9 1 1</rect></_>
    <_>
      <rect>
        16 10 2 2</rect></_>
    <_>
      <rect>
        16 10 2 5</rect></_>
    <_>
      <rect>
        16 11 2 2</rect></_>
    <_>
      <rect>
        16 13 1 2</rect></_>
    <_>
      <rect>
        16 14 1 1</rect></_>
    <_>
      <rect>
        16 14 2 2</rect></_>
    <_>
      <rect>
        16 15 2 1</rect></_>
    <_>
      <rect>
        16 17 1 1</rect></_>
    <_>
      <rect>
        16 17 2 2</rect></_>
    <_>
      <rect>
        16 20 2 2</rect></_>
    <_>
      <rect>
        17 8 2 2</rect></_>
    <_>
      <rect>
        17 8 3 2</rect></_>
    <_>
      <rect>
        17 9 2 3</rect></_>
    <_>
      <rect>
        17 9 3 2</rect></_>
    <_>
      <rect>
        17 10 1 1</rect></_>
    <_>
      <rect>
        17 11 2 2</rect></_>
    <_>
      <rect>
        17 13 2 1</rect></_>
    <_>
      <rect>
        17 13 2 2</rect></_>
    <_>
      <rect>
        17 13 2 4</rect></_>
    <_>
      <rect>
        17 14 1 1</rect></_>
    <_>
      <rect>
        17 14 2 2</rect></_>
    <_>
      <rect>
        17 16 2 2</rect></_>
    <_>
      <rect>
        17 19 2 2</rect></_>
    <_>
      <rect>
        18 7 2 1</rect></_>
    <_>
      <rect>
        18 8 3 2</rect></_>
    <_>
      <rect>
        18 9 2 2</rect></_>
    <_>
      <rect>
        18 15 2 1</rect></_>
    <_>
      <rect>
        19 5 3 3</rect></_>
    <_>
      <rect>
        19 9 2 2</rect></_>
    <_>
      <rect>
        19 10 2 2</rect></_>
    <_>
      <rect>
        19 13 3 3</rect></_>
    <_>
      <rect>
        19 14 3 4</rect></_>
    <_>
      <rect>
        19 15 1 1</rect></_>
    <_>
      <rect>
        19 21 1 1</rect></_>
    <_>
      <rect>
        20 4 2 4</rect></_>
    <_>
      <rect>
        20 6 1 2</rect></_>
    <_>
      <rect>
        20 14 2 2</rect></_>
    <_>
      <rect>
        21 10 1 2</rect></_>
    <_>
      <rect>
        21 12 1 1</rect></_>
    <_>
      <rect>
        22 7 2 4</rect></_>
    <_>
      <rect>
        22 10 2 3</rect></_>
    <_>
      <rect>
        22 19 1 1</rect></_>
    <_>
      <rect>
        24 15 1 1</rect></_>
    <_>
      <rect>
        26 12 1 1</rect></_></features></cascade>
</opencv_storage>
