<?xml version="1.0"?>
<opencv_storage>
<cascade>
  <stageType>BOOST</stageType>
  <featureType>LBP</featureType>
  <height>30</height>
  <width>30</width>
  <stageParams>
    <boostType>GAB</boostType>
    <minHitRate>9.9500000476837158e-01</minHitRate>
    <maxFalseAlarm>5.0000000000000000e-01</maxFalseAlarm>
    <weightTrimRate>9.4999999999999996e-01</weightTrimRate>
    <maxDepth>1</maxDepth>
    <maxWeakCount>100</maxWeakCount></stageParams>
  <featureParams>
    <maxCatCount>256</maxCatCount>
    <featSize>1</featSize></featureParams>
  <stageNum>15</stageNum>
  <stages>
    <!-- stage 0 -->
    <_>
      <maxWeakCount>7</maxWeakCount>
      <stageThreshold>-1.0928913354873657e+00</stageThreshold>
      <weakClassifiers>
        <_>
          <internalNodes>
            0 -1 70 -18028384 -1250084 -71952 -135172 -296 -68223008
            -262150 -2</internalNodes>
          <leafValues>
            -6.4746147394180298e-01 7.3816812038421631e-01</leafValues></_>
        <_>
          <internalNodes>
            0 -1 13 -538993970 -10498150 -1726869056 -2247080 -508823300
            -275788886 -82904352 -4596808</internalNodes>
          <leafValues>
            -5.2374362945556641e-01 4.6424672007560730e-01</leafValues></_>
        <_>
          <internalNodes>
            0 -1 97 -1599159650 -465469014 -870720769 -975314449
            -1421961537 -1986033237 -28526657 -2834</internalNodes>
          <leafValues>
            -4.4638854265213013e-01 4.1401982307434082e-01</leafValues></_>
        <_>
          <internalNodes>
            0 -1 52 481337084 2128105740 1409307992 1364518384
            -526255124 -1696287858 -611780637 -1316967024</internalNodes>
          <leafValues>
            -5.6013780832290649e-01 2.7021732926368713e-01</leafValues></_>
        <_>
          <internalNodes>
            0 -1 216 -1478896513 -536988848 1419229231 -818248431
            402916444 1791143241 143131451 1750073408</internalNodes>
          <leafValues>
            -4.7338929772377014e-01 3.1337985396385193e-01</leafValues></_>
        <_>
          <internalNodes>
            0 -1 120 -123405578 -179076450 -2013181720 -1706406070
            -1303497991 -1347780469 -1893671491 -3128222</internalNodes>
          <leafValues>
            -4.4277969002723694e-01 3.1555649638175964e-01</leafValues></_>
        <_>
          <internalNodes>
            0 -1 178 1389284806 1536200566 309718709 928210486 951882369
            -454253243 -1099637058 -1075091601</internalNodes>
          <leafValues>
            -3.7445130944252014e-01 3.8902956247329712e-01</leafValues></_></weakClassifiers></_>
    <!-- stage 1 -->
    <_>
      <maxWeakCount>11</maxWeakCount>
      <stageThreshold>-1.0650651454925537e+00</stageThreshold>
      <weakClassifiers>
        <_>
          <internalNodes>
            0 -1 63 -13699358 -406389308 -67142406 -1048580 -1048578
            -3145761 -67109377 -18</internalNodes>
          <leafValues>
            -4.5371428132057190e-01 6.5741175413131714e-01</leafValues></_>
        <_>
          <internalNodes>
            0 -1 108 -1373321012 1571625392 1157845407 -808746273
            -1630606405 -418807180 -291702017 -5650181</internalNodes>
          <leafValues>
            -4.3628898262977600e-01 3.9936175942420959e-01</leafValues></_>
        <_>
          <internalNodes>
            0 -1 3 -19153264 2111283280 -15885232 -572908174 -578045764
            -6452817 -105990216 -135252</internalNodes>
          <leafValues>
            -5.3511989116668701e-01 3.0854687094688416e-01</leafValues></_>
        <_>
          <internalNodes>
            0 -1 134 -1507359740 -2005499574 -1601459459 -316718952
            -1059413563 -364578659 143384828 -822084554</internalNodes>
          <leafValues>
            -4.1021081805229187e-01 3.1086388230323792e-01</leafValues></_>
        <_>
          <internalNodes>
            0 -1 222 1498504697 1555421804 1401455609 -564831859
            1018024701 -158562105 1775260248 -640338112</internalNodes>
          <leafValues>
            -3.8700178265571594e-01 3.5379236936569214e-01</leafValues></_>
        <_>
          <internalNodes>
            0 -1 184 -289531615 -1089447154 -670970635 -302735904
            -2049750603 -77284472 -904065064 -335527904</internalNodes>
          <leafValues>
            -3.9645215868949890e-01 2.8820931911468506e-01</leafValues></_>
        <_>
          <internalNodes>
            0 -1 167 -1028521580 102586383 497071582 -2070365666
            2017487316 -628047478 -121596424 -186885895</internalNodes>
          <leafValues>
            -4.3322387337684631e-01 2.5910636782646179e-01</leafValues></_>
        <_>
          <internalNodes>
            0 -1 156 -1847517348 -189660919 -1009290927 1971365185
            -1969698240 -595029104 -592523371 1249372986</internalNodes>
          <leafValues>
            -4.2817243933677673e-01 2.6525181531906128e-01</leafValues></_>
        <_>
          <internalNodes>
            0 -1 29 13655479 15811025 177895301 -72099080 -1543005997
            1025292457 1343789172 -2004943520</internalNodes>
          <leafValues>
            -4.2093181610107422e-01 2.7024033665657043e-01</leafValues></_>
        <_>
          <internalNodes>
            0 -1 241 469061909 1031108403 -72040611 -583720085
            -1531157120 -1662716291 -1375837095 -1611484084</internalNodes>
          <leafValues>
            -2.5013521313667297e-01 4.2999824881553650e-01</leafValues></_>
        <_>
          <internalNodes>
            0 -1 176 -578888456 1369036224 -750165507 404685056
            -1440003008 -475342416 -351664095 -1173398251</internalNodes>
          <leafValues>
            -4.5516332983970642e-01 2.5185346603393555e-01</leafValues></_></weakClassifiers></_>
    <!-- stage 2 -->
    <_>
      <maxWeakCount>15</maxWeakCount>
      <stageThreshold>-8.2446944713592529e-01</stageThreshold>
      <weakClassifiers>
        <_>
          <internalNodes>
            0 -1 84 -3220518 -272238012 -131336 -9568259 -1048577
            -10485762 -1 -1048577</internalNodes>
          <leafValues>
            -2.1848362684249878e-01 6.5950673818588257e-01</leafValues></_>
        <_>
          <internalNodes>
            0 -1 19 -2360582 -10533642 -1387833633 -111683618 -49692708
            -1046589000 -1088701490 -8388674</internalNodes>
          <leafValues>
            -3.5865616798400879e-01 3.9047098159790039e-01</leafValues></_>
        <_>
          <internalNodes>
            0 -1 122 -99355173 -2001962778 -1893239873 605878660
            -209199491 -7289633 -1545750565 -1404040192</internalNodes>
          <leafValues>
            -4.3850761651992798e-01 2.5947234034538269e-01</leafValues></_>
        <_>
          <internalNodes>
            0 -1 158 -1607302652 -1284339435 -1607021124 -15068364
            1233510693 -801092782 -1945056104 1845434455</internalNodes>
          <leafValues>
            -4.6717074513435364e-01 2.3547950387001038e-01</leafValues></_>
        <_>
          <internalNodes>
            0 -1 42 399333886 1491093472 -286392857 -37890211 -268505617
            -859996297 1601690876 -1359156835</internalNodes>
          <leafValues>
            -2.9953423142433167e-01 3.5036736726760864e-01</leafValues></_>
        <_>
          <internalNodes>
            0 -1 188 244846450 224155419 -1931999427 -1141499689
            -453096969 -561472629 -1852380181 -1359478017</internalNodes>
          <leafValues>
            -4.5070412755012512e-01 2.1110339462757111e-01</leafValues></_>
        <_>
          <internalNodes>
            0 -1 102 -836309679 -2105392106 986355099 740208142
            1500403879 -1137914837 -87393698 -928888816</internalNodes>
          <leafValues>
            -3.6307376623153687e-01 2.7186784148216248e-01</leafValues></_>
        <_>
          <internalNodes>
            0 -1 201 -79966211 -101351625 -766101 -315204077 342967439
            -26214403 940442335 2140886097</internalNodes>
          <leafValues>
            -2.7930420637130737e-01 3.3892142772674561e-01</leafValues></_>
        <_>
          <internalNodes>
            0 -1 137 -1502679378 -1101872461 -2049703016 -1896445922
            -1597807731 -307883253 209914076 -890336556</internalNodes>
          <leafValues>
            -4.2409348487854004e-01 2.2274757921695709e-01</leafValues></_>
        <_>
          <internalNodes>
            0 -1 17 -676610437 1125656124 -1342824286 -16587768
            -1787237156 -1076531441 -3547180 -381384864</internalNodes>
          <leafValues>
            -2.7123585343360901e-01 3.5515803098678589e-01</leafValues></_>
        <_>
          <internalNodes>
            0 -1 238 392835608 -1094238762 -1861410602 -11267694
            1489451704 -1615691519 -1203567536 1001929792</internalNodes>
          <leafValues>
            -5.1737445592880249e-01 1.7957742512226105e-01</leafValues></_>
        <_>
          <internalNodes>
            0 -1 56 -2052202601 -1370075481 -63838830 1973496361
            -325197970 -906168415 2112216991 -1401952977</internalNodes>
          <leafValues>
            -2.6101490855216980e-01 3.7971135973930359e-01</leafValues></_>
        <_>
          <internalNodes>
            0 -1 154 -399351296 -720150005 1376825501 1194459913
            -181861487 -1312161242 1282113688 1869832733</internalNodes>
          <leafValues>
            -3.6933183670043945e-01 2.7170395851135254e-01</leafValues></_>
        <_>
          <internalNodes>
            0 -1 67 1031668281 743706179 452802837 -1233473821
            1740106971 -2058291504 -312176674 -263129212</internalNodes>
          <leafValues>
            -3.0913525819778442e-01 3.2080030441284180e-01</leafValues></_>
        <_>
          <internalNodes>
            0 -1 65 1667656318 -1894873430 1108890161 -243673881
            2097840359 1841897755 1238405982 -990971087</internalNodes>
          <leafValues>
            -3.5826420783996582e-01 2.7480182051658630e-01</leafValues></_></weakClassifiers></_>
    <!-- stage 3 -->
    <_>
      <maxWeakCount>16</maxWeakCount>
      <stageThreshold>-1.0609282255172729e+00</stageThreshold>
      <weakClassifiers>
        <_>
          <internalNodes>
            0 -1 48 -179308546 -18350436 -1311745 -537919745 -35127302
            -67502085 -8706 -2</internalNodes>
          <leafValues>
            -1.3616652786731720e-01 6.2642121315002441e-01</leafValues></_>
        <_>
          <internalNodes>
            0 -1 147 -2102255790 322068345 -338522115 -145375347
            -1833177121 -1171062789 -1409572897 -607391745</internalNodes>
          <leafValues>
            -3.0419221520423889e-01 3.6788824200630188e-01</leafValues></_>
        <_>
          <internalNodes>
            0 -1 203 -68682245 -1310786 1878771319 -281051563
            -1125102513 -1124090377 519061531 -553363897</internalNodes>
          <leafValues>
            -2.7404549717903137e-01 3.6509424448013306e-01</leafValues></_>
        <_>
          <internalNodes>
            0 -1 55 -668754561 -1971302015 1930002711 1294008705
            -1777622889 -2001829385 -1718644585 -1997931923</internalNodes>
          <leafValues>
            -3.2270213961601257e-01 3.0191078782081604e-01</leafValues></_>
        <_>
          <internalNodes>
            0 -1 163 -287398396 -5232633 -1414971266 -14915178
            1116331445 -1862180187 -928841475 -938456048</internalNodes>
          <leafValues>
            -4.4309833645820618e-01 1.7968621850013733e-01</leafValues></_>
        <_>
          <internalNodes>
            0 -1 145 2063530999 2127888214 762154941 -548381393
            -1830355507 -806079763 -1648355056 -1122750108</internalNodes>
          <leafValues>
            -2.9044532775878906e-01 3.1463411450386047e-01</leafValues></_>
        <_>
          <internalNodes>
            0 -1 134 604406564 55444295 1288955068 -975252934
            -1987171915 -837758781 -1932540700 -809530129</internalNodes>
          <leafValues>
            -4.4092357158660889e-01 1.9729664921760559e-01</leafValues></_>
        <_>
          <internalNodes>
            0 -1 177 1266811236 -1603250859 389520854 -146799841
            634064384 -1586364331 780470664 4148047</internalNodes>
          <leafValues>
            -4.4438418745994568e-01 1.9590291380882263e-01</leafValues></_>
        <_>
          <internalNodes>
            0 -1 242 -975013547 -337813229 -217971499 -671779465
            183501456 -184297077 1357668160 -69716195</internalNodes>
          <leafValues>
            -2.9521414637565613e-01 3.0704373121261597e-01</leafValues></_>
        <_>
          <internalNodes>
            0 -1 6 671611763 -331198206 -2120760447 739860755 2124618675
            -1697017832 -402072952 -1940173183</internalNodes>
          <leafValues>
            -3.1589856743812561e-01 2.9194703698158264e-01</leafValues></_>
        <_>
          <internalNodes>
            0 -1 15 -1782989377 2147350760 409902327 1896304231
            -14696449 -1879146890 241345260 -174074657</internalNodes>
          <leafValues>
            -1.9569656252861023e-01 4.9449265003204346e-01</leafValues></_>
        <_>
          <internalNodes>
            0 -1 204 -42326441 2039615814 -883304036 1527839826
            -1429359651 -612540205 -324174400 -1105076640</internalNodes>
          <leafValues>
            -3.0026435852050781e-01 3.0122780799865723e-01</leafValues></_>
        <_>
          <internalNodes>
            0 -1 194 -949351081 1751126011 1608955135 -18190348
            -1479047919 -1638080691 -646759032 -422453274</internalNodes>
          <leafValues>
            -2.6574537158012390e-01 3.2683876156806946e-01</leafValues></_>
        <_>
          <internalNodes>
            0 -1 148 -262517484 -1690696903 -893500737 -164397914
            -1410483209 -1722843137 -17879554 -104071938</internalNodes>
          <leafValues>
            -1.9947554171085358e-01 4.1637134552001953e-01</leafValues></_>
        <_>
          <internalNodes>
            0 -1 138 1220699086 167823702 -2038160834 -1075139568
            1691058923 1143460049 -1574803724 -534304692</internalNodes>
          <leafValues>
            -3.9701360464096069e-01 2.2146134078502655e-01</leafValues></_>
        <_>
          <internalNodes>
            0 -1 209 -413859209 1748701166 2143108855 -1229137926
            1808672117 -279085602 -1363855416 -1094926548</internalNodes>
          <leafValues>
            -2.7573898434638977e-01 3.3791247010231018e-01</leafValues></_></weakClassifiers></_>
    <!-- stage 4 -->
    <_>
      <maxWeakCount>14</maxWeakCount>
      <stageThreshold>-9.6185487508773804e-01</stageThreshold>
      <weakClassifiers>
        <_>
          <internalNodes>
            0 -1 74 -336663858 1317971204 -456237906 91092775 1609428959
            -272704353 1878851567 -268436497</internalNodes>
          <leafValues>
            -3.9410555362701416e-01 5.6705570220947266e-01</leafValues></_>
        <_>
          <internalNodes>
            0 -1 1 -541347122 1501526390 2080370551 -4194353 -134251850
            670924698 1828712331 -373293205</internalNodes>
          <leafValues>
            -3.3543387055397034e-01 3.9913669228553772e-01</leafValues></_>
        <_>
          <internalNodes>
            0 -1 213 -567296748 1920601079 -59501772 -1159035858
            -81709215 -610944977 926863360 -30741178</internalNodes>
          <leafValues>
            -3.9521518349647522e-01 2.8809088468551636e-01</leafValues></_>
        <_>
          <internalNodes>
            0 -1 57 1828054495 -143386 -1176278015 -1591664125
            2012741244 938991612 -386190137 -713824569</internalNodes>
          <leafValues>
            -2.4228596687316895e-01 4.0559145808219910e-01</leafValues></_>
        <_>
          <internalNodes>
            0 -1 161 -352866812 -999657 -1149023656 -352185730
            -994080283 388127497 -860674832 2094996283</internalNodes>
          <leafValues>
            -4.1272258758544922e-01 2.3681028187274933e-01</leafValues></_>
        <_>
          <internalNodes>
            0 -1 98 923760458 391005480 1233376497 -826412787 2013626618
            -1148207070 1212931166 -272473852</internalNodes>
          <leafValues>
            -3.1793358922004700e-01 2.9366970062255859e-01</leafValues></_>
        <_>
          <internalNodes>
            0 -1 101 -125165681 -1541099504 -74760110 -1121029096
            -801704057 -127778347 2026069852 -1465768394</internalNodes>
          <leafValues>
            -3.4687399864196777e-01 2.8412702679634094e-01</leafValues></_>
        <_>
          <internalNodes>
            0 -1 123 1497602398 -737258677 -964525046 -1368461145
            294191817 -511524859 -701086651 -218932985</internalNodes>
          <leafValues>
            -3.8261622190475464e-01 2.6114231348037720e-01</leafValues></_>
        <_>
          <internalNodes>
            0 -1 137 -1896894810 1157408002 -1400995536 2142167294
            77963501 -401974684 -1927576415 -1154759524</internalNodes>
          <leafValues>
            -3.5643365979194641e-01 2.7575185894966125e-01</leafValues></_>
        <_>
          <internalNodes>
            0 -1 195 -1028765348 -420332035 -875722503 118657026
            -659335312 706720589 1040391088 176343634</internalNodes>
          <leafValues>
            -4.0512239933013916e-01 2.3764155805110931e-01</leafValues></_>
        <_>
          <internalNodes>
            0 -1 121 -228673621 482921115 -1431279556 754811894
            -355847707 -607649281 548448994 -520916162</internalNodes>
          <leafValues>
            -3.0487138032913208e-01 3.0632656812667847e-01</leafValues></_>
        <_>
          <internalNodes>
            0 -1 181 -1011961466 -696800297 1008166901 -537776268
            -1932089127 -1653262467 -856312599 -336867329</internalNodes>
          <leafValues>
            -2.2357971966266632e-01 4.1139861941337585e-01</leafValues></_>
        <_>
          <internalNodes>
            0 -1 214 1364144900 1928774151 -573943504 -1301114960
            -790879503 -754705044 -65902000 -286605444</internalNodes>
          <leafValues>
            -3.8182231783866882e-01 2.6525667309761047e-01</leafValues></_>
        <_>
          <internalNodes>
            0 -1 99 -2102472985 -2108883076 -1382843973 898589446
            1283589797 -1448961297 -1921555521 -1527325338</internalNodes>
          <leafValues>
            -3.0915933847427368e-01 3.0147704482078552e-01</leafValues></_></weakClassifiers></_>
    <!-- stage 5 -->
    <_>
      <maxWeakCount>16</maxWeakCount>
      <stageThreshold>-7.3442393541336060e-01</stageThreshold>
      <weakClassifiers>
        <_>
          <internalNodes>
            0 -1 62 -13636882 -341330204 -139461125 -274333699
            1064171491 1299107789 -1048841 -282066945</internalNodes>
          <leafValues>
            -1.6463415324687958e-01 5.7638889551162720e-01</leafValues></_>
        <_>
          <internalNodes>
            0 -1 86 -8169512 -220471521 1073771776 -36966025 1003361026
            1594067663 -1148511483 -275535033</internalNodes>
          <leafValues>
            -3.6683091521263123e-01 3.2661864161491394e-01</leafValues></_>
        <_>
          <internalNodes>
            0 -1 78 1936709495 577163142 2080869008 -1606262168
            1292576791 1246890902 -282621871 -998537285</internalNodes>
          <leafValues>
            -4.5439064502716064e-01 2.1843788027763367e-01</leafValues></_>
        <_>
          <internalNodes>
            0 -1 117 -874777610 961383404 -670760800 1174604492
            -1583654246 -1692796671 -407379312 -750126783</internalNodes>
          <leafValues>
            -4.2541280388832092e-01 2.0374363660812378e-01</leafValues></_>
        <_>
          <internalNodes>
            0 -1 91 -857481764 1538672116 -1841251682 -583043269
            -1073750460 2122284407 -1531385761 -530055193</internalNodes>
          <leafValues>
            -2.6460456848144531e-01 3.4076839685440063e-01</leafValues></_>
        <_>
          <internalNodes>
            0 -1 181 -891911872 321976951 320179156 -774716464
            -2016893935 -1049469593 -1931038533 863488187</internalNodes>
          <leafValues>
            -3.4968483448028564e-01 2.4856092035770416e-01</leafValues></_>
        <_>
          <internalNodes>
            0 -1 59 1207925198 -1929420889 -26739483 -168165449
            1173662580 -763766443 2112683457 -555385933</internalNodes>
          <leafValues>
            -2.6362189650535583e-01 3.4464883804321289e-01</leafValues></_>
        <_>
          <internalNodes>
            0 -1 206 2053005279 -1565262858 -1086734881 -1105009064
            -671463473 -662433944 -29923796 -100999648</internalNodes>
          <leafValues>
            -2.4064327776432037e-01 3.7401124835014343e-01</leafValues></_>
        <_>
          <internalNodes>
            0 -1 211 636880944 853315707 -774558982 -95501630 1797852417
            -301483653 -470819968 -1158095930</internalNodes>
          <leafValues>
            -3.8473790884017944e-01 2.2818227112293243e-01</leafValues></_>
        <_>
          <internalNodes>
            0 -1 202 -45487777 -692715651 -290215774 -878778880
            2043954331 -1092747810 1864031651 -88735897</internalNodes>
          <leafValues>
            -2.1690025925636292e-01 4.0398907661437988e-01</leafValues></_>
        <_>
          <internalNodes>
            0 -1 24 -681394339 -654541076 299999431 1369532001
            -134365188 -1694540042 1106347167 -772800817</internalNodes>
          <leafValues>
            -2.1565118432044983e-01 4.2722737789154053e-01</leafValues></_>
        <_>
          <internalNodes>
            0 -1 72 -937170398 1962977622 360853779 -587149231
            -2064420437 147063313 28904338 -849155574</internalNodes>
          <leafValues>
            -3.2791289687156677e-01 2.8170877695083618e-01</leafValues></_>
        <_>
          <internalNodes>
            0 -1 163 -289527036 -219272877 -514645426 -816936754
            -829296905 -449291728 1150107820 -82608553</internalNodes>
          <leafValues>
            -3.3261653780937195e-01 2.8599417209625244e-01</leafValues></_>
        <_>
          <internalNodes>
            0 -1 158 -1038744764 -682493353 -1214478148 -8840670
            -998854939 -1065006586 -1482588040 1828694843</internalNodes>
          <leafValues>
            -3.3359590172767639e-01 2.8552171587944031e-01</leafValues></_>
        <_>
          <internalNodes>
            0 -1 219 175895911 1794177765 6055306 914383903 231312253
            91338819 1902854651 -453912989</internalNodes>
          <leafValues>
            -2.9745987057685852e-01 3.1401908397674561e-01</leafValues></_>
        <_>
          <internalNodes>
            0 -1 215 -1055847391 -1389820394 442190482 -1525582910
            1666007364 849512715 937697792 -253370713</internalNodes>
          <leafValues>
            -4.3627619743347168e-01 2.2018337249755859e-01</leafValues></_></weakClassifiers></_>
    <!-- stage 6 -->
    <_>
      <maxWeakCount>18</maxWeakCount>
      <stageThreshold>-7.2308874130249023e-01</stageThreshold>
      <weakClassifiers>
        <_>
          <internalNodes>
            0 -1 31 1789131711 545324577 -160972801 -2011045983
            -1127285250 -2142248969 -455082001 1085009743</internalNodes>
          <leafValues>
            -1.3784202933311462e-01 5.5796211957931519e-01</leafValues></_>
        <_>
          <internalNodes>
            0 -1 94 -1474056529 -1518231209 -786322685 1662218545
            100868545 33645057 -322891509 -269359125</internalNodes>
          <leafValues>
            -3.2267707586288452e-01 3.2044258713722229e-01</leafValues></_>
        <_>
          <internalNodes>
            0 -1 140 -573965201 -719592043 -1174170065 -35684026
            1101251215 1541112095 -1058275257 1918099987</internalNodes>
          <leafValues>
            -3.2192629575729370e-01 3.1412944197654724e-01</leafValues></_>
        <_>
          <internalNodes>
            0 -1 89 -34349126 -29626385 -277340970 1236250399 1710741218
            -823165322 -192896882 -67645617</internalNodes>
          <leafValues>
            -2.1831771731376648e-01 3.9029291272163391e-01</leafValues></_>
        <_>
          <internalNodes>
            0 -1 154 -703356416 1997721427 277709310 -953072262
            -265101467 -703996801 -331436837 2100803631</internalNodes>
          <leafValues>
            -3.3552417159080505e-01 2.5116679072380066e-01</leafValues></_>
        <_>
          <internalNodes>
            0 -1 161 -1905368572 -518903530 -1016175916 -512229074
            -920670939 1142956599 148843741 1831829235</internalNodes>
          <leafValues>
            -4.0226170420646667e-01 2.2512865066528320e-01</leafValues></_>
        <_>
          <internalNodes>
            0 -1 76 1324871583 -295528140 -217382597 1400035154
            1780787776 1821458701 1220760545 -866125119</internalNodes>
          <leafValues>
            -3.1217002868652344e-01 2.8293526172637939e-01</leafValues></_>
        <_>
          <internalNodes>
            0 -1 68 -254819072 -320954103 -1550847513 -1712878905
            -357576403 3113746 -1328291803 1978995125</internalNodes>
          <leafValues>
            -3.3375617861747742e-01 2.6126089692115784e-01</leafValues></_>
        <_>
          <internalNodes>
            0 -1 164 -473725010 -286724244 -1122802 -297874082 800525743
            -114790448 -822465048 -1019519249</internalNodes>
          <leafValues>
            -2.6390111446380615e-01 3.3190068602561951e-01</leafValues></_>
        <_>
          <internalNodes>
            0 -1 205 1212992293 -1067005253 -16781385 -738316328
            17090305 -809551875 1767841037 -41162836</internalNodes>
          <leafValues>
            -2.5330039858818054e-01 3.6199471354484558e-01</leafValues></_>
        <_>
          <internalNodes>
            0 -1 190 -1493695929 509656301 768715916 737987530
            -288239556 -837031805 -569938964 -73977985</internalNodes>
          <leafValues>
            -3.0655002593994141e-01 2.9724326729774475e-01</leafValues></_>
        <_>
          <internalNodes>
            0 -1 66 2010830748 -254684024 1361609895 1965272746 21041363
            -970178454 -606875057 2087821015</internalNodes>
          <leafValues>
            -3.2896238565444946e-01 2.5407332181930542e-01</leafValues></_>
        <_>
          <internalNodes>
            0 -1 227 -145238656 -1936254645 -1320141822 -1978271377
            -762714334 1325562945 -477035920 -16163023</internalNodes>
          <leafValues>
            -3.1907397508621216e-01 2.6744842529296875e-01</leafValues></_>
        <_>
          <internalNodes>
            0 -1 35 1405353711 419483727 687998542 -804607698 -133459039
            2621873 -636894704 1909950102</internalNodes>
          <leafValues>
            -3.1961986422538757e-01 2.8173953294754028e-01</leafValues></_>
        <_>
          <internalNodes>
            0 -1 193 -31077889 1542975063 -72302 -1152459567 1081920463
            -1594531977 -1350708117 -88638121</internalNodes>
          <leafValues>
            -1.9595713913440704e-01 4.5404240489006042e-01</leafValues></_>
        <_>
          <internalNodes>
            0 -1 138 -319886453 1673457402 -268466436 -678531558
            -1360057105 -1075744811 1303282157 -1812742212</internalNodes>
          <leafValues>
            -2.3704884946346283e-01 3.6478114128112793e-01</leafValues></_>
        <_>
          <internalNodes>
            0 -1 127 -421307368 1051515095 1880457552 1544020223
            -1975340440 1493215883 -1990086032 269285732</internalNodes>
          <leafValues>
            -4.9262169003486633e-01 1.7015850543975830e-01</leafValues></_>
        <_>
          <internalNodes>
            0 -1 116 -1487059744 -519502650 104993067 -225492817
            190613907 -1189984160 -1872590739 1153909415</internalNodes>
          <leafValues>
            -3.9250111579895020e-01 2.2801899909973145e-01</leafValues></_></weakClassifiers></_>
    <!-- stage 7 -->
    <_>
      <maxWeakCount>20</maxWeakCount>
      <stageThreshold>-9.2739331722259521e-01</stageThreshold>
      <weakClassifiers>
        <_>
          <internalNodes>
            0 -1 153 -286282500 -1093403451 -574796031 2114661900
            -312162226 -1208488225 -1031167 -336831215</internalNodes>
          <leafValues>
            -1.3529412448406219e-01 5.1860463619232178e-01</leafValues></_>
        <_>
          <internalNodes>
            0 -1 224 214978047 -1625475075 -1086361605 -571646336
            -1898889729 -54594081 -41396783 -281469167</internalNodes>
          <leafValues>
            -2.4545867741107941e-01 3.3301362395286560e-01</leafValues></_>
        <_>
          <internalNodes>
            0 -1 71 1611615 -1659250341 184803719 -12456191 -2013011061
            -1643937536 138566603 -1946051697</internalNodes>
          <leafValues>
            -3.1831845641136169e-01 2.5078824162483215e-01</leafValues></_>
        <_>
          <internalNodes>
            0 -1 130 -1391927844 1560739940 -1167265776 1407015828
            981762556 -1198914991 -139924631 2070727609</internalNodes>
          <leafValues>
            -4.5330896973609924e-01 1.7175585031509399e-01</leafValues></_>
        <_>
          <internalNodes>
            0 -1 26 1947539314 -86851384 -724454316 -573303788
            -1332577392 -1417469949 -1943748892 -143384048</internalNodes>
          <leafValues>
            -4.0757521986961365e-01 2.0523966848850250e-01</leafValues></_>
        <_>
          <internalNodes>
            0 -1 182 -229233913 -753884381 -975779297 -193677378
            -2070077005 -792444606 -853865927 487939998</internalNodes>
          <leafValues>
            -3.0089697241783142e-01 2.7690336108207703e-01</leafValues></_>
        <_>
          <internalNodes>
            0 -1 158 -2109021692 889406759 1632061693 1798376969
            137749557 83920359 1616119976 1316426255</internalNodes>
          <leafValues>
            -4.1748502850532532e-01 1.6836513578891754e-01</leafValues></_>
        <_>
          <internalNodes>
            0 -1 171 1836049673 218828455 1565807003 215052635 183033289
            697891224 1808461033 -1741528831</internalNodes>
          <leafValues>
            -2.8497415781021118e-01 2.6276415586471558e-01</leafValues></_>
        <_>
          <internalNodes>
            0 -1 39 -545268291 -1666183391 -63180820 -310133316
            -379912705 -625213956 1165850354 -1395818808</internalNodes>
          <leafValues>
            -2.4371984601020813e-01 3.2500725984573364e-01</leafValues></_>
        <_>
          <internalNodes>
            0 -1 243 909736753 -613113473 -1225836685 -280388999
            409279604 -582375827 502617205 -1248157820</internalNodes>
          <leafValues>
            -2.4185362458229065e-01 3.1296288967132568e-01</leafValues></_>
        <_>
          <internalNodes>
            0 -1 226 838858711 -638517643 -1092790277 -1308569226
            -1167728501 -858936245 1786636510 -101139820</internalNodes>
          <leafValues>
            -1.9811856746673584e-01 4.1368165612220764e-01</leafValues></_>
        <_>
          <internalNodes>
            0 -1 157 -540803681 1839058532 2111797379 215338317
            -1652663026 -1409450154 -155795945 -23442341</internalNodes>
          <leafValues>
            -1.9457083940505981e-01 3.8086307048797607e-01</leafValues></_>
        <_>
          <internalNodes>
            0 -1 96 -1373455909 -1172556919 1082221527 758773504
            762176834 327352577 705536905 -1947534499</internalNodes>
          <leafValues>
            -3.4674319624900818e-01 2.1763120591640472e-01</leafValues></_>
        <_>
          <internalNodes>
            0 -1 14 693215471 899793956 -1380012365 -146960651
            -319745029 -1708180235 1014492377 1561971012</internalNodes>
          <leafValues>
            -2.3159456253051758e-01 3.1734594702720642e-01</leafValues></_>
        <_>
          <internalNodes>
            0 -1 204 -352425418 1765407571 -509288910 1636948850
            -386150750 -539293049 -667003456 -1205655078</internalNodes>
          <leafValues>
            -2.8990030288696289e-01 2.6496842503547668e-01</leafValues></_>
        <_>
          <internalNodes>
            0 -1 92 -8538177 -661592516 1739517180 -65208324 82971832
            -1881336038 -1252014656 -102849185</internalNodes>
          <leafValues>
            -2.1578411757946014e-01 3.7515765428543091e-01</leafValues></_>
        <_>
          <internalNodes>
            0 -1 110 -1651178022 2097419353 38916337 -1230801836
            1823042510 -1316347354 -2137870188 -1039521599</internalNodes>
          <leafValues>
            -2.8887706995010376e-01 2.6192063093185425e-01</leafValues></_>
        <_>
          <internalNodes>
            0 -1 166 385945326 -652082996 -2121160991 -880287729
            2064721987 -335657784 -1936309089 1020611611</internalNodes>
          <leafValues>
            -2.8212466835975647e-01 2.8445580601692200e-01</leafValues></_>
        <_>
          <internalNodes>
            0 -1 51 -1003797979 2079796975 -1524000791 -249325697
            -364989777 -25715265 -1166702353 -1397024530</internalNodes>
          <leafValues>
            -2.0772263407707214e-01 3.7222510576248169e-01</leafValues></_>
        <_>
          <internalNodes>
            0 -1 133 28562012 671729860 1242644587 1581990149
            -2001729490 -1994391519 -1070755318 1243988590</internalNodes>
          <leafValues>
            -3.3853986859321594e-01 2.4072918295860291e-01</leafValues></_></weakClassifiers></_>
    <!-- stage 8 -->
    <_>
      <maxWeakCount>22</maxWeakCount>
      <stageThreshold>-9.7632914781570435e-01</stageThreshold>
      <weakClassifiers>
        <_>
          <internalNodes>
            0 -1 75 1895529422 -1572914 -1140883712 1846542116
            -268992513 2139029470 -142772229 1464464861</internalNodes>
          <leafValues>
            -1.9157895445823669e-01 4.9683061242103577e-01</leafValues></_>
        <_>
          <internalNodes>
            0 -1 33 -1728218113 -38413122 -243877791 1898034403
            -1744896777 -679477249 -1510479698 -169087553</internalNodes>
          <leafValues>
            -1.5116225183010101e-01 4.3997064232826233e-01</leafValues></_>
        <_>
          <internalNodes>
            0 -1 189 47581012 -1160222369 563689955 1873841037
            -1404361125 -401909757 -350500406 -1343754369</internalNodes>
          <leafValues>
            -3.4489312767982483e-01 2.2130773961544037e-01</leafValues></_>
        <_>
          <internalNodes>
            0 -1 162 -285306964 1937722141 -1563935751 -268539958
            583812029 -643292528 -354366307 -268675289</internalNodes>
          <leafValues>
            -3.0260950326919556e-01 2.3483581840991974e-01</leafValues></_>
        <_>
          <internalNodes>
            0 -1 134 -366483456 -608269340 -273208900 -272642277
            -1107600587 -364211686 -1979987740 -306189057</internalNodes>
          <leafValues>
            -3.2636907696723938e-01 2.2492790222167969e-01</leafValues></_>
        <_>
          <internalNodes>
            0 -1 221 851115747 372476194 -2067197839 386802978
            2026435813 1024312513 -403759328 -1146003356</internalNodes>
          <leafValues>
            -2.8333720564842224e-01 2.6521465182304382e-01</leafValues></_>
        <_>
          <internalNodes>
            0 -1 104 -889993341 -27217613 -1030713087 1843571975
            -743775645 1970934291 -628655791 -328077785</internalNodes>
          <leafValues>
            -2.5521874427795410e-01 2.8245201706886292e-01</leafValues></_>
        <_>
          <internalNodes>
            0 -1 36 -48521052 -1828108598 155550224 790347824 195662716
            269157002 1661584011 651787898</internalNodes>
          <leafValues>
            -2.7071830630302429e-01 2.6691347360610962e-01</leafValues></_>
        <_>
          <internalNodes>
            0 -1 182 1668212502 -1831687818 420668568 -235623538
            -2121424464 -647470995 32066224 1212442078</internalNodes>
          <leafValues>
            -3.7456116080284119e-01 1.9668079912662506e-01</leafValues></_>
        <_>
          <internalNodes>
            0 -1 47 -174337318 1949892985 -1400184326 -1204662056
            -502161232 2494882 1373725584 1617190258</internalNodes>
          <leafValues>
            -4.7953143715858459e-01 1.5028491616249084e-01</leafValues></_>
        <_>
          <internalNodes>
            0 -1 212 99299616 171743933 1366760636 839428322 563949872
            -1953222143 262608384 -1284018398</internalNodes>
          <leafValues>
            -4.8309576511383057e-01 1.5106147527694702e-01</leafValues></_>
        <_>
          <internalNodes>
            0 -1 149 -114048928 -1875681779 -273722002 -13628025
            -1914468495 -1648362119 -488779810 -369258753</internalNodes>
          <leafValues>
            -2.2541394829750061e-01 3.3555477857589722e-01</leafValues></_>
        <_>
          <internalNodes>
            0 -1 95 1247851919 50189633 1394180671 236284311 -165637910
            252817787 -1062202765 1099442753</internalNodes>
          <leafValues>
            -3.2796773314476013e-01 2.3850777745246887e-01</leafValues></_>
        <_>
          <internalNodes>
            0 -1 79 -750054789 -289873451 603980059 184818737 403735085
            -377785356 -1853652159 -861812925</internalNodes>
          <leafValues>
            -2.6846638321876526e-01 2.7496606111526489e-01</leafValues></_>
        <_>
          <internalNodes>
            0 -1 240 1562099477 1027566909 -1213096031 -1346523261
            -1005350455 54294301 -2098977400 1972286815</internalNodes>
          <leafValues>
            -2.2188824415206909e-01 3.3672007918357849e-01</leafValues></_>
        <_>
          <internalNodes>
            0 -1 11 -1537317798 406898588 584324168 1669659028
            -533612485 1918667413 1300276921 6648817</internalNodes>
          <leafValues>
            -3.9433676004409790e-01 1.7724181711673737e-01</leafValues></_>
        <_>
          <internalNodes>
            0 -1 151 -1700654326 -1565369879 -752577087 1979813969
            197765702 -299745131 -641574176 1160076000</internalNodes>
          <leafValues>
            -4.3750503659248352e-01 1.6629120707511902e-01</leafValues></_>
        <_>
          <internalNodes>
            0 -1 159 -346674632 755451223 -887062082 -2143475390
            -1466788260 -1163632616 1208664125 1824357922</internalNodes>
          <leafValues>
            -3.5650297999382019e-01 2.0916946232318878e-01</leafValues></_>
        <_>
          <internalNodes>
            0 -1 135 -1566854660 -1870315295 1039364722 -1416001803
            26477280 -1854463435 6390301 -1733281395</internalNodes>
          <leafValues>
            -2.9019820690155029e-01 2.4819800257682800e-01</leafValues></_>
        <_>
          <internalNodes>
            0 -1 142 -928456940 1920991348 -1317662821 -1565914056
            -1118535788 -1229814911 -1505046304 753151602</internalNodes>
          <leafValues>
            -4.4107270240783691e-01 1.7030753195285797e-01</leafValues></_>
        <_>
          <internalNodes>
            0 -1 200 1256629850 1448258406 -1647582788 855694642
            -459887183 363069451 -58733848 -340940532</internalNodes>
          <leafValues>
            -2.8201469779014587e-01 2.7428305149078369e-01</leafValues></_>
        <_>
          <internalNodes>
            0 -1 8 -718503173 -1670025865 -26261963 -458650187 777264063
            -1090233090 -1233800454 -1964715553</internalNodes>
          <leafValues>
            -2.2011353075504303e-01 3.4973052144050598e-01</leafValues></_></weakClassifiers></_>
    <!-- stage 9 -->
    <_>
      <maxWeakCount>22</maxWeakCount>
      <stageThreshold>-8.6380863189697266e-01</stageThreshold>
      <weakClassifiers>
        <_>
          <internalNodes>
            0 -1 85 -1401760162 -1532451859 -286458131 -505348107
            -960663875 1753085692 -9734153 -1932427529</internalNodes>
          <leafValues>
            -1.5639097988605499e-01 4.7280514240264893e-01</leafValues></_>
        <_>
          <internalNodes>
            0 -1 5 -1123483922 451684564 -2143270032 1440227348
            -16527445 2072830999 -1974666270 -2295170</internalNodes>
          <leafValues>
            -3.8440325856208801e-01 2.0479895174503326e-01</leafValues></_>
        <_>
          <internalNodes>
            0 -1 136 -1648508931 2080374766 -276866747 -271581217
            457655694 -540018729 1951860059 -10527417</internalNodes>
          <leafValues>
            -2.1372005343437195e-01 3.4681251645088196e-01</leafValues></_>
        <_>
          <internalNodes>
            0 -1 80 -168823811 972909500 -202668895 -748082009
            -134742531 -671219972 -85118995 -197931131</internalNodes>
          <leafValues>
            -1.9854672253131866e-01 3.5169243812561035e-01</leafValues></_>
        <_>
          <internalNodes>
            0 -1 192 1795031831 -33368201 -880177077 -246236945
            -1420352671 -259915116 -1016887256 -356848022</internalNodes>
          <leafValues>
            -3.0470591783523560e-01 2.2273869812488556e-01</leafValues></_>
        <_>
          <internalNodes>
            0 -1 173 1359142116 -1795057663 -1072918530 -872166001
            680365814 -919027568 75508207 -1074375852</internalNodes>
          <leafValues>
            -2.4751056730747223e-01 2.7557575702667236e-01</leafValues></_>
        <_>
          <internalNodes>
            0 -1 129 -2073487009 1526834983 -23331954 1767079319
            -554217588 -1552214219 249989127 -548956435</internalNodes>
          <leafValues>
            -2.2180838882923126e-01 3.1304562091827393e-01</leafValues></_>
        <_>
          <internalNodes>
            0 -1 32 2142235981 -40419409 -21381711 -710725983 -524833
            536710615 1691733149 1827663535</internalNodes>
          <leafValues>
            -1.7557086050510406e-01 4.1046333312988281e-01</leafValues></_>
        <_>
          <internalNodes>
            0 -1 179 2134240222 2001935325 -794766230 521758577
            -1075675255 -577836851 1543015658 -277345241</internalNodes>
          <leafValues>
            -2.6510956883430481e-01 2.7496838569641113e-01</leafValues></_>
        <_>
          <internalNodes>
            0 -1 158 -30672094 -1200353723 -1489072324 1966280498
            -926954315 -1061146634 -1519022664 -1476453205</internalNodes>
          <leafValues>
            -2.4327731132507324e-01 2.8412955999374390e-01</leafValues></_>
        <_>
          <internalNodes>
            0 -1 118 -1362459026 552790551 -426809642 -1479343562
            687924585 -318875255 -157243172 -1024070088</internalNodes>
          <leafValues>
            -3.7296250462532043e-01 1.9502216577529907e-01</leafValues></_>
        <_>
          <internalNodes>
            0 -1 20 311210540 -1558284274 -2144291479 -1283520855
            -952489837 -2121021559 -834785638 -1997620740</internalNodes>
          <leafValues>
            -3.2206973433494568e-01 2.1744126081466675e-01</leafValues></_>
        <_>
          <internalNodes>
            0 -1 175 -894052905 1322778449 -541116527 1668453767
            -294531254 -1749614634 -169804357 -1367417849</internalNodes>
          <leafValues>
            -1.6143013536930084e-01 4.1365057229995728e-01</leafValues></_>
        <_>
          <internalNodes>
            0 -1 64 1849312285 3600944 -308164203 -786345592 -1499501723
            -1040625331 -575598074 -859420524</internalNodes>
          <leafValues>
            -3.1894782185554504e-01 2.0923165977001190e-01</leafValues></_>
        <_>
          <internalNodes>
            0 -1 174 1080224222 -1626149009 196001453 1765539619
            1330633179 -185180165 93818761 -247032766</internalNodes>
          <leafValues>
            -2.0755884051322937e-01 3.3115404844284058e-01</leafValues></_>
        <_>
          <internalNodes>
            0 -1 125 -1283360882 -704376362 -749562658 -1420048
            626262201 -1391656943 2090442444 -908783116</internalNodes>
          <leafValues>
            -2.8307598829269409e-01 2.6274529099464417e-01</leafValues></_>
        <_>
          <internalNodes>
            0 -1 150 -181039428 -242823859 1913979409 856056483
            545846041 -1289616717 -1734308239 2088723211</internalNodes>
          <leafValues>
            -2.8176584839820862e-01 2.5576159358024597e-01</leafValues></_>
        <_>
          <internalNodes>
            0 -1 93 -327832323 -1081138883 -172065803 -747201169
            107441910 -1342717962 -780172197 -572729441</internalNodes>
          <leafValues>
            -2.1578256785869598e-01 3.4130558371543884e-01</leafValues></_>
        <_>
          <internalNodes>
            0 -1 244 -1082258891 1595108273 -421349589 -217360911
            239025392 -505485635 301517845 -343115540</internalNodes>
          <leafValues>
            -2.3602306842803955e-01 3.1842401623725891e-01</leafValues></_>
        <_>
          <internalNodes>
            0 -1 124 -275594490 542917975 1701052416 786752576
            -1948790665 -666305852 -1474574303 738370084</internalNodes>
          <leafValues>
            -4.9244657158851624e-01 1.5101979672908783e-01</leafValues></_>
        <_>
          <internalNodes>
            0 -1 21 -970601304 -1415404640 2022850885 -783988188
            765268916 -1690066217 746621215 16272389</internalNodes>
          <leafValues>
            -3.7304219603538513e-01 1.8366222083568573e-01</leafValues></_>
        <_>
          <internalNodes>
            0 -1 197 40274769 -489127117 500557686 -1099795522
            -224250096 1306539489 -1951757560 989572044</internalNodes>
          <leafValues>
            -3.2146602869033813e-01 2.3487204313278198e-01</leafValues></_></weakClassifiers></_>
    <!-- stage 10 -->
    <_>
      <maxWeakCount>23</maxWeakCount>
      <stageThreshold>-7.3295629024505615e-01</stageThreshold>
      <weakClassifiers>
        <_>
          <internalNodes>
            0 -1 107 -566602432 1604536136 1945081693 -37757617
            -16175110 2146393853 1978482527 -1886171555</internalNodes>
          <leafValues>
            -1.6706444323062897e-02 5.2112674713134766e-01</leafValues></_>
        <_>
          <internalNodes>
            0 -1 128 -55592996 -1729643602 -1549799023 1325748620
            -1582421434 -1417574391 736801317 -1689406524</internalNodes>
          <leafValues>
            -3.7329694628715515e-01 2.0979522168636322e-01</leafValues></_>
        <_>
          <internalNodes>
            0 -1 22 -114315393 -1463552053 -1243349001 -712802461
            1054719099 -153 2142895999 -1395695637</internalNodes>
          <leafValues>
            -2.0739917457103729e-01 3.1813007593154907e-01</leafValues></_>
        <_>
          <internalNodes>
            0 -1 45 -1189580858 2097209608 -999553337 -719072243
            721471147 162697358 -1193068348 -263473137</internalNodes>
          <leafValues>
            -2.5226840376853943e-01 2.4688020348548889e-01</leafValues></_>
        <_>
          <internalNodes>
            0 -1 178 325223354 1397799287 36815294 922839042 46845473
            -1774110543 1147538795 1932753519</internalNodes>
          <leafValues>
            -3.6813479661941528e-01 1.5877722203731537e-01</leafValues></_>
        <_>
          <internalNodes>
            0 -1 155 1428127780 1999850277 1748557871 -1203971411
            -113358711 1124073644 1483640613 -73114937</internalNodes>
          <leafValues>
            -2.8969466686248779e-01 2.3772627115249634e-01</leafValues></_>
        <_>
          <internalNodes>
            0 -1 217 -660400773 1909445467 -920959055 -1080890704
            -2010598734 2117128865 1447314644 -1378296400</internalNodes>
          <leafValues>
            -2.6733207702636719e-01 2.3587670922279358e-01</leafValues></_>
        <_>
          <internalNodes>
            0 -1 231 -206607788 2039381681 -289654171 151541541
            1237263872 -1715550285 -448837046 -2705286</internalNodes>
          <leafValues>
            -2.5537395477294922e-01 2.6334717869758606e-01</leafValues></_>
        <_>
          <internalNodes>
            0 -1 132 -369057504 1477330767 -130327302 1233651955
            -1166870107 1785909769 -1648762660 -814242787</internalNodes>
          <leafValues>
            -2.6243257522583008e-01 2.3361191153526306e-01</leafValues></_>
        <_>
          <internalNodes>
            0 -1 228 -872698182 200765327 1593489205 2063265715
            -1682049115 -1384153636 -1688864473 -1950679627</internalNodes>
          <leafValues>
            -2.1780206263065338e-01 3.0086573958396912e-01</leafValues></_>
        <_>
          <internalNodes>
            0 -1 185 -415273561 1073199926 -1916350531 -1347493963
            218450985 -537002246 -598971345 -22819566</internalNodes>
          <leafValues>
            -1.8944746255874634e-01 3.2949432730674744e-01</leafValues></_>
        <_>
          <internalNodes>
            0 -1 61 1564464603 972235639 670440251 2074900953 1626684590
            1340098162 1220291199 1290633444</internalNodes>
          <leafValues>
            -2.3141114413738251e-01 3.0486306548118591e-01</leafValues></_>
        <_>
          <internalNodes>
            0 -1 163 1826533156 1892976190 -1480121563 -859233652
            -1030137387 -727643662 -871379779 1963174426</internalNodes>
          <leafValues>
            -2.8501617908477783e-01 2.3542092740535736e-01</leafValues></_>
        <_>
          <internalNodes>
            0 -1 239 -12877515 494255986 -1515524195 1999351571
            1388180621 -306872386 104480625 -1180003429</internalNodes>
          <leafValues>
            -2.0139531791210175e-01 3.4589141607284546e-01</leafValues></_>
        <_>
          <internalNodes>
            0 -1 46 1255456688 1960104796 1157977438 -1652506113
            1554954646 571808 -359385673 581186355</internalNodes>
          <leafValues>
            -3.4792980551719666e-01 1.9091133773326874e-01</leafValues></_>
        <_>
          <internalNodes>
            0 -1 2 -1811906500 -1595400584 92815628 -1068756922
            956480026 -1332244154 -1786607550 848598158</internalNodes>
          <leafValues>
            -5.3858041763305664e-01 1.4372719824314117e-01</leafValues></_>
        <_>
          <internalNodes>
            0 -1 183 -420599039 826024036 1124778674 -1280300934
            583162065 1109669553 -2115286544 1278798070</internalNodes>
          <leafValues>
            -3.7686574459075928e-01 1.7985065281391144e-01</leafValues></_>
        <_>
          <internalNodes>
            0 -1 126 1270057495 303142602 1395729887 552753411
            1243680895 2044295616 -1763499027 175343516</internalNodes>
          <leafValues>
            -3.1260937452316284e-01 2.2428171336650848e-01</leafValues></_>
        <_>
          <internalNodes>
            0 -1 211 1791295489 644411451 -979695171 1758125232
            666969137 1400981635 1914393344 -492216318</internalNodes>
          <leafValues>
            -3.9647072553634644e-01 1.7256546020507812e-01</leafValues></_>
        <_>
          <internalNodes>
            0 -1 43 559940934 -640051197 1296310106 -1179578043
            789172275 -118889771 -1741869005 -348743196</internalNodes>
          <leafValues>
            -2.7596861124038696e-01 2.5495150685310364e-01</leafValues></_>
        <_>
          <internalNodes>
            0 -1 177 -2085846884 -1463756458 1879819228 -71302585
            -2007957215 -1559011317 -2122084214 307727581</internalNodes>
          <leafValues>
            -3.3485683798789978e-01 2.2196483612060547e-01</leafValues></_>
        <_>
          <internalNodes>
            0 -1 172 -671717982 -121801761 1336751418 -218892167
            1710408700 -38371473 -1514395797 -647534969</internalNodes>
          <leafValues>
            -2.1515075862407684e-01 3.3412894606590271e-01</leafValues></_>
        <_>
          <internalNodes>
            0 -1 181 -835018172 -194983561 1032146884 2018610140
            -1360496511 -750695026 94743568 706448687</internalNodes>
          <leafValues>
            -3.5683009028434753e-01 1.9711686670780182e-01</leafValues></_></weakClassifiers></_>
    <!-- stage 11 -->
    <_>
      <maxWeakCount>24</maxWeakCount>
      <stageThreshold>-8.3451408147811890e-01</stageThreshold>
      <weakClassifiers>
        <_>
          <internalNodes>
            0 -1 180 -6202616 1865056191 935964400 1561508643 -35859456
            -2820227 -557875856 471465817</internalNodes>
          <leafValues>
            -1.9829787313938141e-01 4.6279793977737427e-01</leafValues></_>
        <_>
          <internalNodes>
            0 -1 83 -758702256 1448475222 -1727492131 1436160310
            -1996411911 716906791 -1868029734 -10608681</internalNodes>
          <leafValues>
            -3.1002989411354065e-01 2.4496255815029144e-01</leafValues></_>
        <_>
          <internalNodes>
            0 -1 41 2142951343 -457295166 -772221733 -1109264159
            -815094785 -1895827737 1807176136 1709961007</internalNodes>
          <leafValues>
            -2.2130316495895386e-01 2.9624435305595398e-01</leafValues></_>
        <_>
          <internalNodes>
            0 -1 137 -428940640 1752354198 -531419980 -2032472070
            -434048595 -391709677 -1899790156 1810826232</internalNodes>
          <leafValues>
            -4.0646514296531677e-01 1.5847188234329224e-01</leafValues></_>
        <_>
          <internalNodes>
            0 -1 111 -1976759765 -106108758 -1595725333 335441420
            2138948571 439391967 -1410879573 -1080184107</internalNodes>
          <leafValues>
            -2.3750053346157074e-01 2.7269154787063599e-01</leafValues></_>
        <_>
          <internalNodes>
            0 -1 30 -30984754 1024796928 609421711 -1096973638
            1073897139 -1178139865 -888043022 580387944</internalNodes>
          <leafValues>
            -3.2351592183113098e-01 1.7634820938110352e-01</leafValues></_>
        <_>
          <internalNodes>
            0 -1 141 -804045378 -1345732285 1342305618 394490250
            1959528652 1566540521 883539199 2046647108</internalNodes>
          <leafValues>
            -2.5707399845123291e-01 2.4517099559307098e-01</leafValues></_>
        <_>
          <internalNodes>
            0 -1 198 -564468132 326639923 -2063379171 1250343 -296804063
            -1878762326 -814759352 990473770</internalNodes>
          <leafValues>
            -3.2515272498130798e-01 1.8585678935050964e-01</leafValues></_>
        <_>
          <internalNodes>
            0 -1 152 2084936671 1460358680 -33851549 1460660697
            -1377371058 -285409291 1610336006 -92028927</internalNodes>
          <leafValues>
            -2.1689292788505554e-01 3.0350235104560852e-01</leafValues></_>
        <_>
          <internalNodes>
            0 -1 235 -1854970812 762804369 1392738640 -778726614
            957841107 -1165440822 469434832 1379358296</internalNodes>
          <leafValues>
            -3.3802533149719238e-01 2.0844376087188721e-01</leafValues></_>
        <_>
          <internalNodes>
            0 -1 16 -2063867908 978842575 1862215610 -102236393
            -109793793 -2114916872 -403180285 -252356669</internalNodes>
          <leafValues>
            -2.4748206138610840e-01 2.6955872774124146e-01</leafValues></_>
        <_>
          <internalNodes>
            0 -1 77 1184780925 -286641906 1116942421 -263554682
            1301184641 -1403723109 -238353783 -195299003</internalNodes>
          <leafValues>
            -2.7935826778411865e-01 2.3664344847202301e-01</leafValues></_>
        <_>
          <internalNodes>
            0 -1 168 -229382002 202776921 1318555156 -297200852
            1174628373 679819408 -1607235940 -959093773</internalNodes>
          <leafValues>
            -3.2356369495391846e-01 1.9727106392383575e-01</leafValues></_>
        <_>
          <internalNodes>
            0 -1 69 -1915949688 1042371525 -1031415537 525964689
            -265606320 1639213669 1087465592 1105460833</internalNodes>
          <leafValues>
            -2.9907357692718506e-01 2.1372385323047638e-01</leafValues></_>
        <_>
          <internalNodes>
            0 -1 191 -1606737646 -463767739 68517844 -869131817
            703488881 -1689900927 960044988 -37067163</internalNodes>
          <leafValues>
            -3.2591274380683899e-01 2.0886369049549103e-01</leafValues></_>
        <_>
          <internalNodes>
            0 -1 164 -422146142 -1973031052 -268445040 -843780994
            -2021835587 -366577671 209599933 -2679057</internalNodes>
          <leafValues>
            -2.1876469254493713e-01 2.9946920275688171e-01</leafValues></_>
        <_>
          <internalNodes>
            0 -1 181 -1582923002 376801366 956663171 -1657291406
            80226225 -861663178 1231792553 727400699</internalNodes>
          <leafValues>
            -3.3173236250877380e-01 2.0999474823474884e-01</leafValues></_>
        <_>
          <internalNodes>
            0 -1 54 1468124633 -1187936856 -2075426666 -1567538719
            1565321622 -1684504569 508081810 687016012</internalNodes>
          <leafValues>
            -2.6395893096923828e-01 2.6824158430099487e-01</leafValues></_>
        <_>
          <internalNodes>
            0 -1 234 -454589924 251199799 -1593634604 533485214
            -2004753387 -761943669 -1434166463 -1393653125</internalNodes>
          <leafValues>
            -3.0209678411483765e-01 2.4381814897060394e-01</leafValues></_>
        <_>
          <internalNodes>
            0 -1 40 681477772 689436 -989331387 -788525047 18563083
            -123469815 -1961753815 -2003558911</internalNodes>
          <leafValues>
            -4.5899960398674011e-01 1.5709590911865234e-01</leafValues></_>
        <_>
          <internalNodes>
            0 -1 12 -139422993 -1645388231 -2000688531 298152663
            -1745760513 -1719713970 -399446915 -1347090257</internalNodes>
          <leafValues>
            -1.8185216188430786e-01 3.8748577237129211e-01</leafValues></_>
        <_>
          <internalNodes>
            0 -1 90 2078233538 -285413397 -1982296913 -706216191
            938997133 -1091600530 -1770881851 -216826869</internalNodes>
          <leafValues>
            -2.5094911456108093e-01 2.7071425318717957e-01</leafValues></_>
        <_>
          <internalNodes>
            0 -1 230 837846991 -694128223 1577525553 954095959 228633273
            -593384797 -1593304684 149961747</internalNodes>
          <leafValues>
            -2.6148411631584167e-01 2.6222142577171326e-01</leafValues></_>
        <_>
          <internalNodes>
            0 -1 50 -206613343 -248773472 -318967585 -7392455 -824429474
            2128800854 209643632 -1404400420</internalNodes>
          <leafValues>
            -2.2420038282871246e-01 3.1416541337966919e-01</leafValues></_></weakClassifiers></_>
    <!-- stage 12 -->
    <_>
      <maxWeakCount>23</maxWeakCount>
      <stageThreshold>-8.4009093046188354e-01</stageThreshold>
      <weakClassifiers>
        <_>
          <internalNodes>
            0 -1 73 -928584026 1095413742 -35131401 -1051728659
            -833719811 1340931951 2145056567 1148118987</internalNodes>
          <leafValues>
            -1.1699779331684113e-01 4.6520146727561951e-01</leafValues></_>
        <_>
          <internalNodes>
            0 -1 194 -850426915 -294217737 -1082712070 -888834 -75645479
            -547438737 2129460682 -67385349</internalNodes>
          <leafValues>
            -1.1762148141860962e-01 4.5250800251960754e-01</leafValues></_>
        <_>
          <internalNodes>
            0 -1 105 -834699518 -1745759997 -1768005931 -823693033
            321124615 -1723846653 1692846284 539314275</internalNodes>
          <leafValues>
            -2.9469281435012817e-01 2.1555294096469879e-01</leafValues></_>
        <_>
          <internalNodes>
            0 -1 199 -671271425 -278790283 -88359439 -944298015
            -58978294 -1711442433 -1254234333 -1095893529</internalNodes>
          <leafValues>
            -2.2114247083663940e-01 2.8380104899406433e-01</leafValues></_>
        <_>
          <internalNodes>
            0 -1 119 -800073377 -1866927480 872628249 -1067035888
            289612323 -2070244933 -2129997221 -47011993</internalNodes>
          <leafValues>
            -2.7752032876014709e-01 2.1161010861396790e-01</leafValues></_>
        <_>
          <internalNodes>
            0 -1 147 -2132079296 -799554827 -1066351979 -2015067955
            30923517 541081795 -322907986 13451613</internalNodes>
          <leafValues>
            -3.7656933069229126e-01 1.4690960943698883e-01</leafValues></_>
        <_>
          <internalNodes>
            0 -1 161 -629231360 -1271660170 -795677282 -100728742
            1303095541 -1532750668 17512697 1872691258</internalNodes>
          <leafValues>
            -2.6953300833702087e-01 2.2742049396038055e-01</leafValues></_>
        <_>
          <internalNodes>
            0 -1 144 -645885380 -527382460 537481791 -438543835
            -642292944 1938923514 -1151174053 268043898</internalNodes>
          <leafValues>
            -2.7660885453224182e-01 2.2161290049552917e-01</leafValues></_>
        <_>
          <internalNodes>
            0 -1 60 -1241630756 -1240694753 -665890542 -56798405
            166430950 -768341805 1823841456 -557513838</internalNodes>
          <leafValues>
            -2.5501984357833862e-01 2.4770948290824890e-01</leafValues></_>
        <_>
          <internalNodes>
            0 -1 100 -271642582 1297032837 -821781504 1618856226
            1804022043 2139586593 839455651 -864741477</internalNodes>
          <leafValues>
            -3.0610871315002441e-01 2.0264630019664764e-01</leafValues></_>
        <_>
          <internalNodes>
            0 -1 157 -2083856162 1100853976 -2112733156 477624513
            -1887382322 -375741476 1525364327 -1148042991</internalNodes>
          <leafValues>
            -3.0711644887924194e-01 2.1383805572986603e-01</leafValues></_>
        <_>
          <internalNodes>
            0 -1 53 1488057457 -583879323 66807423 -273023510 1127929015
            -1699906059 511015116 -151152587</internalNodes>
          <leafValues>
            -1.8944637477397919e-01 3.3463081717491150e-01</leafValues></_>
        <_>
          <internalNodes>
            0 -1 34 -773848097 2138259455 569402096 -1511867136
            -178095650 -1608208520 1198962345 -513280141</internalNodes>
          <leafValues>
            -1.9031634926795959e-01 3.2950073480606079e-01</leafValues></_>
        <_>
          <internalNodes>
            0 -1 170 -210046029 1862143507 -1124861165 -97338848
            -1806431831 941225740 1333726222 -44045321</internalNodes>
          <leafValues>
            -1.5307088196277618e-01 3.7563943862915039e-01</leafValues></_>
        <_>
          <internalNodes>
            0 -1 113 -2043925978 -2055107444 -1970964162 -1434396689
            -2020732427 688103535 -976709765 -420671311</internalNodes>
          <leafValues>
            -4.1404989361763000e-01 1.5488806366920471e-01</leafValues></_>
        <_>
          <internalNodes>
            0 -1 186 -1999994096 -1072629760 -770442563 1829273820
            -1039606864 -2082434984 1630294428 -391620252</internalNodes>
          <leafValues>
            -3.0990776419639587e-01 2.1449939906597137e-01</leafValues></_>
        <_>
          <internalNodes>
            0 -1 18 -618026886 -1566932598 -499973240 941074836
            -441347129 -1960902141 760697986 179238626</internalNodes>
          <leafValues>
            -2.9568073153495789e-01 2.1528024971485138e-01</leafValues></_>
        <_>
          <internalNodes>
            0 -1 236 1966625538 -594066063 -2096024350 483788168
            260777401 -1105395533 1107846056 -366136840</internalNodes>
          <leafValues>
            -2.4685452878475189e-01 2.6648500561714172e-01</leafValues></_>
        <_>
          <internalNodes>
            0 -1 218 -553173928 542790546 1208638342 -1341423587
            2016004428 1208517433 1560523010 1146421270</internalNodes>
          <leafValues>
            -3.6715668439865112e-01 1.8274651467800140e-01</leafValues></_>
        <_>
          <internalNodes>
            0 -1 196 -946889767 1115557495 -945056838 1551429630
            -1210075220 -822157474 -1959089399 -744493077</internalNodes>
          <leafValues>
            -1.7357426881790161e-01 3.8745850324630737e-01</leafValues></_>
        <_>
          <internalNodes>
            0 -1 28 -1496415958 561144861 22253996 -1336557147
            1343310303 1344340866 -793071336 764209180</internalNodes>
          <leafValues>
            -4.0334236621856689e-01 1.6944044828414917e-01</leafValues></_>
        <_>
          <internalNodes>
            0 -1 37 -488955756 1024381386 341919389 1415808392
            1822113654 688011520 -740452303 720123924</internalNodes>
          <leafValues>
            -3.3443441987037659e-01 2.0941732823848724e-01</leafValues></_>
        <_>
          <internalNodes>
            0 -1 129 11014168 1359063527 -930587928 1848738119 405947139
            -1565981648 -492011008 239333955</internalNodes>
          <leafValues>
            -4.5259180665016174e-01 1.5335682034492493e-01</leafValues></_></weakClassifiers></_>
    <!-- stage 13 -->
    <_>
      <maxWeakCount>24</maxWeakCount>
      <stageThreshold>-6.7614775896072388e-01</stageThreshold>
      <weakClassifiers>
        <_>
          <internalNodes>
            0 -1 0 -1765923308 1387652926 -1135626 1052667898 -1458250
            987742084 503234418 -268436626</internalNodes>
          <leafValues>
            -1.5202702581882477e-01 4.5265781879425049e-01</leafValues></_>
        <_>
          <internalNodes>
            0 -1 134 651068960 746456911 -298217540 1873690759
            -959847051 1843831545 -1942386460 -805581397</internalNodes>
          <leafValues>
            -3.7933039665222168e-01 1.9278220832347870e-01</leafValues></_>
        <_>
          <internalNodes>
            0 -1 81 353552286 135111815 -1944282982 1432035791
            2016749820 714113410 1621162209 1953849671</internalNodes>
          <leafValues>
            -3.4128651022911072e-01 1.8726350367069244e-01</leafValues></_>
        <_>
          <internalNodes>
            0 -1 160 519458780 -780051037 1394041419 -480296533
            -2109414412 -117406823 -153289151 -366475769</internalNodes>
          <leafValues>
            -2.7732834219932556e-01 2.3119540512561798e-01</leafValues></_>
        <_>
          <internalNodes>
            0 -1 112 -1669493185 -1092194376 1760546239 -1493782802
            1030401449 -151589001 -67263095 -42751159</internalNodes>
          <leafValues>
            -2.2478587925434113e-01 2.9713881015777588e-01</leafValues></_>
        <_>
          <internalNodes>
            0 -1 114 848189662 193400908 861548600 8887404 -1578665454
            1040744597 -1553432399 962071292</internalNodes>
          <leafValues>
            -4.8960351943969727e-01 1.1035726219415665e-01</leafValues></_>
        <_>
          <internalNodes>
            0 -1 87 -326152353 -328678828 1693077137 -1016885546
            17620196 1827110995 1723804069 -437818274</internalNodes>
          <leafValues>
            -2.2802896797657013e-01 2.7909663319587708e-01</leafValues></_>
        <_>
          <internalNodes>
            0 -1 44 -1343623263 543406795 -4303499 -1281507377 -12845074
            -1531867402 1584877152 -1229463148</internalNodes>
          <leafValues>
            -2.3678432404994965e-01 2.7526348829269409e-01</leafValues></_>
        <_>
          <internalNodes>
            0 -1 165 315744619 -1333592053 872422465 98193600 637798413
            2076379417 571757135 978473751</internalNodes>
          <leafValues>
            -3.3563342690467834e-01 1.9264766573905945e-01</leafValues></_>
        <_>
          <internalNodes>
            0 -1 131 1452338035 1280044276 -1091887835 2123189321
            -17396193 -17899523 -1108816219 -477301391</internalNodes>
          <leafValues>
            -2.1867939829826355e-01 2.8477948904037476e-01</leafValues></_>
        <_>
          <internalNodes>
            0 -1 163 -285299200 1438395985 -486559745 -8516532
            -655648779 -1113030729 -1884308235 -12644609</internalNodes>
          <leafValues>
            -2.3613889515399933e-01 2.7060782909393311e-01</leafValues></_>
        <_>
          <internalNodes>
            0 -1 182 -201920986 2032320375 2104946582 -1296520114
            -2061724255 -791906317 -302407752 -654782467</internalNodes>
          <leafValues>
            -2.3523074388504028e-01 2.9350969195365906e-01</leafValues></_>
        <_>
          <internalNodes>
            0 -1 187 1175647624 -850316469 205947906 990262122
            -1761093301 -829488490 -1004043386 -1031511636</internalNodes>
          <leafValues>
            -2.6808312535285950e-01 2.2746340930461884e-01</leafValues></_>
        <_>
          <internalNodes>
            0 -1 38 -253613022 -41222125 102564353 -45940735 -953319420
            1326645250 -707264361 -286449069</internalNodes>
          <leafValues>
            -2.5048121809959412e-01 2.5747212767601013e-01</leafValues></_>
        <_>
          <internalNodes>
            0 -1 233 -2016049264 -1178302358 -1857433248 -536239791
            286229477 -494747609 455086404 805197363</internalNodes>
          <leafValues>
            -2.8962936997413635e-01 2.2195501625537872e-01</leafValues></_>
        <_>
          <internalNodes>
            0 -1 229 -1528454137 -1510101210 -1762419018 782614236
            12101926 520089597 -1896295543 -55785991</internalNodes>
          <leafValues>
            -2.4289353191852570e-01 2.6911047101020813e-01</leafValues></_>
        <_>
          <internalNodes>
            0 -1 10 470113238 1353860050 -891352992 -270302371
            1074374959 -1561850893 94478681 82164252</internalNodes>
          <leafValues>
            -2.6862666010856628e-01 2.4108162522315979e-01</leafValues></_>
        <_>
          <internalNodes>
            0 -1 223 180045587 -1321000666 -712744900 -165524665
            1707862775 -68694623 -157436976 -790220</internalNodes>
          <leafValues>
            -2.6170518994331360e-01 2.6130971312522888e-01</leafValues></_>
        <_>
          <internalNodes>
            0 -1 106 2130269653 -617222375 -1393866161 872855046
            -815397639 -314220697 1012061256 -256344394</internalNodes>
          <leafValues>
            -2.2061674296855927e-01 2.8964251279830933e-01</leafValues></_>
        <_>
          <internalNodes>
            0 -1 25 -2059194921 305264227 -856858501 -1912881372
            133446802 779139071 -2034963849 -1120039786</internalNodes>
          <leafValues>
            -2.1456225216388702e-01 3.1044697761535645e-01</leafValues></_>
        <_>
          <internalNodes>
            0 -1 237 -1024583172 683735495 1430414101 44544323
            -1814114291 432165888 1904548628 292267582</internalNodes>
          <leafValues>
            -2.9560706019401550e-01 2.2524620592594147e-01</leafValues></_>
        <_>
          <internalNodes>
            0 -1 103 1945366390 -977306013 -1796169997 -337662333
            -581042226 -288391170 -269029681 -11014489</internalNodes>
          <leafValues>
            -1.3505025207996368e-01 4.6509203314781189e-01</leafValues></_>
        <_>
          <internalNodes>
            0 -1 7 78125448 228122964 84717944 -329518724 2067155047
            1399353633 -932207894 147589732</internalNodes>
          <leafValues>
            -4.4235584139823914e-01 1.5297201275825500e-01</leafValues></_>
        <_>
          <internalNodes>
            0 -1 169 185587548 -1648160771 -1946501450 522369540
            -166759011 -999426957 1962511304 -121458934</internalNodes>
          <leafValues>
            -2.3999394476413727e-01 2.7428939938545227e-01</leafValues></_></weakClassifiers></_>
    <!-- stage 14 -->
    <_>
      <maxWeakCount>26</maxWeakCount>
      <stageThreshold>-6.7908567190170288e-01</stageThreshold>
      <weakClassifiers>
        <_>
          <internalNodes>
            0 -1 109 -1306060644 1713495885 -4476959 239943677 -16777477
            1744265052 -1080066122 1210666461</internalNodes>
          <leafValues>
            -2.8312571346759796e-02 4.8417571187019348e-01</leafValues></_>
        <_>
          <internalNodes>
            0 -1 23 2110437695 -319361418 -773262851 -238815901
            -1007813121 -34310145 -1443402905 -1122865</internalNodes>
          <leafValues>
            -1.5332907438278198e-01 3.6266481876373291e-01</leafValues></_>
        <_>
          <internalNodes>
            0 -1 158 -167255264 -126514617 -513961991 -30220493
            -1054760623 -2136993673 -2119067484 2041546263</internalNodes>
          <leafValues>
            -2.9875114560127258e-01 2.1630829572677612e-01</leafValues></_>
        <_>
          <internalNodes>
            0 -1 156 -1867505862 -1063099499 1493378977 -687408073
            -1997481436 1765827177 -1021392459 1697112748</internalNodes>
          <leafValues>
            -3.5755062103271484e-01 1.6733299195766449e-01</leafValues></_>
        <_>
          <internalNodes>
            0 -1 225 429919679 1409630521 -1056794409 -652951542
            -888660711 -1076201041 1996556953 2101632273</internalNodes>
          <leafValues>
            -3.7589463591575623e-01 1.3355100154876709e-01</leafValues></_>
        <_>
          <internalNodes>
            0 -1 27 -2056071752 478953945 156679420 888542009 571065046
            69208662 -1333118395 1693656499</internalNodes>
          <leafValues>
            -3.6847487092018127e-01 1.6689246892929077e-01</leafValues></_>
        <_>
          <internalNodes>
            0 -1 200 -991779036 -197865129 66216822 1001573268
            -942955663 -1387449351 -1734539720 439278031</internalNodes>
          <leafValues>
            -3.1113433837890625e-01 1.9613838195800781e-01</leafValues></_>
        <_>
          <internalNodes>
            0 -1 4 262957022 1790313078 541888922 -562412524 -1062925320
            136766394 1091387532 -1351770372</internalNodes>
          <leafValues>
            -4.0788829326629639e-01 1.3817147910594940e-01</leafValues></_>
        <_>
          <internalNodes>
            0 -1 49 -781845201 -576360459 1744003567 -304193 287449055
            -1078763777 -1392974105 -176947329</internalNodes>
          <leafValues>
            -1.3131551444530487e-01 4.6835970878601074e-01</leafValues></_>
        <_>
          <internalNodes>
            0 -1 207 2058616740 1018936721 918171300 133606964
            2138287861 -1115686921 -2113540 2126438178</internalNodes>
          <leafValues>
            -2.3610660433769226e-01 2.5350937247276306e-01</leafValues></_>
        <_>
          <internalNodes>
            0 -1 58 210608037 832020139 2030007286 -700596802 636315917
            -1416300179 -1493835815 -1371732124</internalNodes>
          <leafValues>
            -2.3954693973064423e-01 2.5801572203636169e-01</leafValues></_>
        <_>
          <internalNodes>
            0 -1 139 -1598920137 -1329057473 -2125643533 -1575193472
            1782915138 -1055877109 4333586 -835574669</internalNodes>
          <leafValues>
            -2.7591952681541443e-01 2.3509907722473145e-01</leafValues></_>
        <_>
          <internalNodes>
            0 -1 9 -1474203761 1339649488 -586945541 -1812345095
            305102815 -1716257030 -2090446947 -270009782</internalNodes>
          <leafValues>
            -1.8743456900119781e-01 3.6081999540328979e-01</leafValues></_>
        <_>
          <internalNodes>
            0 -1 82 -635773195 -1067792727 -1367448845 1410752438
            1017366752 1320312498 -1066955344 394609916</internalNodes>
          <leafValues>
            -2.4088104069232941e-01 2.5506028532981873e-01</leafValues></_>
        <_>
          <internalNodes>
            0 -1 161 -1460231676 1450618880 1344423788 -341506274
            -1071668863 -1831847904 -1996764940 139602636</internalNodes>
          <leafValues>
            -4.1415420174598694e-01 1.5267881751060486e-01</leafValues></_>
        <_>
          <internalNodes>
            0 -1 88 -1285721771 1288364810 16863315 -2133761245
            541135232 665649497 16810697 -968797437</internalNodes>
          <leafValues>
            -2.8057101368904114e-01 2.2723104059696198e-01</leafValues></_>
        <_>
          <internalNodes>
            0 -1 210 1109263124 643213781 -2138553300 -675105770
            1377129236 824600642 -960362400 -1371104928</internalNodes>
          <leafValues>
            -4.8553112149238586e-01 1.4230033755302429e-01</leafValues></_>
        <_>
          <internalNodes>
            0 -1 133 -1277562497 -1726649921 1651919177 2084261361
            1508296718 -126060587 134149979 -382056833</internalNodes>
          <leafValues>
            -1.7552039027214050e-01 4.1384443640708923e-01</leafValues></_>
        <_>
          <internalNodes>
            0 -1 149 -239873028 1983065351 935034558 -14488562
            -941103883 -583665795 1523937214 -285638</internalNodes>
          <leafValues>
            -1.5498399734497070e-01 4.2663300037384033e-01</leafValues></_>
        <_>
          <internalNodes>
            0 -1 115 653599238 -1941249404 89541885 1875224174
            1095254439 697338397 192955055 1090635834</internalNodes>
          <leafValues>
            -4.4912472367286682e-01 1.6329354047775269e-01</leafValues></_>
        <_>
          <internalNodes>
            0 -1 245 1625996295 1048276823 1166577932 -1552724442
            1093185333 1810764211 -1130641160 -440047812</internalNodes>
          <leafValues>
            -2.5456750392913818e-01 2.5827425718307495e-01</leafValues></_>
        <_>
          <internalNodes>
            0 -1 220 -1159602235 -1893083591 1568124592 -1267239005
            561364663 -1346650256 -12734981 -554962314</internalNodes>
          <leafValues>
            -1.7679592967033386e-01 3.7223088741302490e-01</leafValues></_>
        <_>
          <internalNodes>
            0 -1 208 -1922825160 -1467143751 50397448 68053050
            -1742533547 715819017 143240064 -1376517252</internalNodes>
          <leafValues>
            -4.3023976683616638e-01 1.5131810307502747e-01</leafValues></_>
        <_>
          <internalNodes>
            0 -1 232 -770979917 -72967209 1609531196 -1095618628
            115680679 -322765100 -268446465 -9189121</internalNodes>
          <leafValues>
            -1.4085794985294342e-01 4.6644744277000427e-01</leafValues></_>
        <_>
          <internalNodes>
            0 -1 146 -599031810 642666523 -239451590 270575497
            2014380424 205646947 1647400512 1342183912</internalNodes>
          <leafValues>
            -4.2232441902160645e-01 1.5830309689044952e-01</leafValues></_>
        <_>
          <internalNodes>
            0 -1 143 -929825425 -1433743331 2146529089 2004346169
            -541526094 -51189802 258276951 -269515225</internalNodes>
          <leafValues>
            -1.4521224796772003e-01 4.5894119143486023e-01</leafValues></_></weakClassifiers></_></stages>
  <features>
    <_>
      <rect>
        0 2 10 9</rect></_>
    <_>
      <rect>
        0 7 10 6</rect></_>
    <_>
      <rect>
        0 8 8 6</rect></_>
    <_>
      <rect>
        0 8 10 7</rect></_>
    <_>
      <rect>
        0 9 8 6</rect></_>
    <_>
      <rect>
        0 9 8 7</rect></_>
    <_>
      <rect>
        0 10 6 3</rect></_>
    <_>
      <rect>
        0 15 3 5</rect></_>
    <_>
      <rect>
        1 3 3 5</rect></_>
    <_>
      <rect>
        1 15 2 3</rect></_>
    <_>
      <rect>
        1 19 4 2</rect></_>
    <_>
      <rect>
        1 19 6 3</rect></_>
    <_>
      <rect>
        2 10 2 3</rect></_>
    <_>
      <rect>
        2 12 9 3</rect></_>
    <_>
      <rect>
        2 13 2 3</rect></_>
    <_>
      <rect>
        2 13 7 4</rect></_>
    <_>
      <rect>
        2 20 5 2</rect></_>
    <_>
      <rect>
        2 21 5 3</rect></_>
    <_>
      <rect>
        3 1 3 8</rect></_>
    <_>
      <rect>
        3 3 8 9</rect></_>
    <_>
      <rect>
        3 4 3 6</rect></_>
    <_>
      <rect>
        3 12 3 4</rect></_>
    <_>
      <rect>
        3 12 5 4</rect></_>
    <_>
      <rect>
        3 12 6 4</rect></_>
    <_>
      <rect>
        3 13 6 4</rect></_>
    <_>
      <rect>
        3 14 1 2</rect></_>
    <_>
      <rect>
        3 18 9 3</rect></_>
    <_>
      <rect>
        3 20 6 2</rect></_>
    <_>
      <rect>
        4 2 8 7</rect></_>
    <_>
      <rect>
        4 9 4 3</rect></_>
    <_>
      <rect>
        4 12 2 3</rect></_>
    <_>
      <rect>
        4 12 4 4</rect></_>
    <_>
      <rect>
        4 15 5 3</rect></_>
    <_>
      <rect>
        4 15 6 3</rect></_>
    <_>
      <rect>
        4 22 2 2</rect></_>
    <_>
      <rect>
        4 22 4 2</rect></_>
    <_>
      <rect>
        5 2 2 7</rect></_>
    <_>
      <rect>
        5 8 2 4</rect></_>
    <_>
      <rect>
        5 8 4 5</rect></_>
    <_>
      <rect>
        5 11 3 4</rect></_>
    <_>
      <rect>
        5 11 4 3</rect></_>
    <_>
      <rect>
        5 12 5 4</rect></_>
    <_>
      <rect>
        5 14 3 5</rect></_>
    <_>
      <rect>
        5 16 1 2</rect></_>
    <_>
      <rect>
        5 18 3 2</rect></_>
    <_>
      <rect>
        5 18 6 2</rect></_>
    <_>
      <rect>
        5 20 4 2</rect></_>
    <_>
      <rect>
        5 21 7 2</rect></_>
    <_>
      <rect>
        6 4 6 8</rect></_>
    <_>
      <rect>
        6 5 3 5</rect></_>
    <_>
      <rect>
        6 6 3 2</rect></_>
    <_>
      <rect>
        6 9 2 3</rect></_>
    <_>
      <rect>
        6 9 4 7</rect></_>
    <_>
      <rect>
        6 11 2 3</rect></_>
    <_>
      <rect>
        6 11 2 4</rect></_>
    <_>
      <rect>
        6 12 3 4</rect></_>
    <_>
      <rect>
        6 13 4 4</rect></_>
    <_>
      <rect>
        6 15 5 3</rect></_>
    <_>
      <rect>
        6 18 1 2</rect></_>
    <_>
      <rect>
        6 19 3 2</rect></_>
    <_>
      <rect>
        6 20 2 2</rect></_>
    <_>
      <rect>
        7 7 3 2</rect></_>
    <_>
      <rect>
        7 9 5 4</rect></_>
    <_>
      <rect>
        7 10 5 4</rect></_>
    <_>
      <rect>
        7 12 2 2</rect></_>
    <_>
      <rect>
        7 12 4 2</rect></_>
    <_>
      <rect>
        7 12 4 4</rect></_>
    <_>
      <rect>
        7 15 1 1</rect></_>
    <_>
      <rect>
        7 19 4 2</rect></_>
    <_>
      <rect>
        7 20 4 1</rect></_>
    <_>
      <rect>
        8 6 5 7</rect></_>
    <_>
      <rect>
        8 7 2 4</rect></_>
    <_>
      <rect>
        8 9 3 3</rect></_>
    <_>
      <rect>
        8 11 3 2</rect></_>
    <_>
      <rect>
        8 12 4 2</rect></_>
    <_>
      <rect>
        8 12 5 3</rect></_>
    <_>
      <rect>
        8 13 2 2</rect></_>
    <_>
      <rect>
        8 14 2 2</rect></_>
    <_>
      <rect>
        8 15 2 1</rect></_>
    <_>
      <rect>
        8 15 2 3</rect></_>
    <_>
      <rect>
        8 15 4 3</rect></_>
    <_>
      <rect>
        8 18 6 3</rect></_>
    <_>
      <rect>
        9 0 4 3</rect></_>
    <_>
      <rect>
        9 5 6 6</rect></_>
    <_>
      <rect>
        9 10 4 4</rect></_>
    <_>
      <rect>
        9 11 2 3</rect></_>
    <_>
      <rect>
        9 11 7 4</rect></_>
    <_>
      <rect>
        9 14 1 1</rect></_>
    <_>
      <rect>
        9 15 2 3</rect></_>
    <_>
      <rect>
        9 15 6 5</rect></_>
    <_>
      <rect>
        9 16 5 3</rect></_>
    <_>
      <rect>
        9 18 5 3</rect></_>
    <_>
      <rect>
        9 22 2 2</rect></_>
    <_>
      <rect>
        10 8 2 2</rect></_>
    <_>
      <rect>
        10 8 2 3</rect></_>
    <_>
      <rect>
        10 8 4 2</rect></_>
    <_>
      <rect>
        10 9 1 5</rect></_>
    <_>
      <rect>
        10 9 2 4</rect></_>
    <_>
      <rect>
        10 9 5 3</rect></_>
    <_>
      <rect>
        10 11 1 1</rect></_>
    <_>
      <rect>
        10 13 2 2</rect></_>
    <_>
      <rect>
        10 15 1 2</rect></_>
    <_>
      <rect>
        10 16 1 1</rect></_>
    <_>
      <rect>
        10 16 2 3</rect></_>
    <_>
      <rect>
        10 18 2 2</rect></_>
    <_>
      <rect>
        10 19 4 2</rect></_>
    <_>
      <rect>
        10 24 3 1</rect></_>
    <_>
      <rect>
        11 7 4 4</rect></_>
    <_>
      <rect>
        11 9 2 4</rect></_>
    <_>
      <rect>
        11 9 3 4</rect></_>
    <_>
      <rect>
        11 10 4 3</rect></_>
    <_>
      <rect>
        11 11 1 1</rect></_>
    <_>
      <rect>
        11 12 1 1</rect></_>
    <_>
      <rect>
        11 12 2 1</rect></_>
    <_>
      <rect>
        11 12 3 3</rect></_>
    <_>
      <rect>
        11 13 2 1</rect></_>
    <_>
      <rect>
        11 13 2 2</rect></_>
    <_>
      <rect>
        11 13 3 3</rect></_>
    <_>
      <rect>
        11 14 1 1</rect></_>
    <_>
      <rect>
        11 15 1 2</rect></_>
    <_>
      <rect>
        11 15 2 2</rect></_>
    <_>
      <rect>
        11 16 1 1</rect></_>
    <_>
      <rect>
        11 16 1 2</rect></_>
    <_>
      <rect>
        11 16 4 3</rect></_>
    <_>
      <rect>
        11 18 2 2</rect></_>
    <_>
      <rect>
        11 21 5 2</rect></_>
    <_>
      <rect>
        12 7 2 2</rect></_>
    <_>
      <rect>
        12 11 3 3</rect></_>
    <_>
      <rect>
        12 11 3 4</rect></_>
    <_>
      <rect>
        12 12 2 2</rect></_>
    <_>
      <rect>
        12 12 2 3</rect></_>
    <_>
      <rect>
        12 12 2 4</rect></_>
    <_>
      <rect>
        12 13 1 1</rect></_>
    <_>
      <rect>
        12 13 2 2</rect></_>
    <_>
      <rect>
        12 14 1 1</rect></_>
    <_>
      <rect>
        12 14 2 1</rect></_>
    <_>
      <rect>
        12 14 6 4</rect></_>
    <_>
      <rect>
        12 15 1 1</rect></_>
    <_>
      <rect>
        12 16 1 1</rect></_>
    <_>
      <rect>
        12 17 1 2</rect></_>
    <_>
      <rect>
        12 17 4 2</rect></_>
    <_>
      <rect>
        12 17 6 4</rect></_>
    <_>
      <rect>
        12 18 1 1</rect></_>
    <_>
      <rect>
        12 18 1 2</rect></_>
    <_>
      <rect>
        12 19 1 1</rect></_>
    <_>
      <rect>
        12 21 1 2</rect></_>
    <_>
      <rect>
        12 22 2 2</rect></_>
    <_>
      <rect>
        13 9 2 3</rect></_>
    <_>
      <rect>
        13 11 1 1</rect></_>
    <_>
      <rect>
        13 12 1 1</rect></_>
    <_>
      <rect>
        13 12 1 3</rect></_>
    <_>
      <rect>
        13 12 2 2</rect></_>
    <_>
      <rect>
        13 12 2 4</rect></_>
    <_>
      <rect>
        13 12 3 4</rect></_>
    <_>
      <rect>
        13 13 1 1</rect></_>
    <_>
      <rect>
        13 13 1 2</rect></_>
    <_>
      <rect>
        13 13 2 2</rect></_>
    <_>
      <rect>
        13 13 2 4</rect></_>
    <_>
      <rect>
        13 14 1 1</rect></_>
    <_>
      <rect>
        13 14 1 2</rect></_>
    <_>
      <rect>
        13 14 1 3</rect></_>
    <_>
      <rect>
        13 15 1 1</rect></_>
    <_>
      <rect>
        13 15 1 2</rect></_>
    <_>
      <rect>
        13 16 1 1</rect></_>
    <_>
      <rect>
        13 17 1 1</rect></_>
    <_>
      <rect>
        13 17 4 2</rect></_>
    <_>
      <rect>
        13 18 3 2</rect></_>
    <_>
      <rect>
        13 19 3 3</rect></_>
    <_>
      <rect>
        13 21 2 1</rect></_>
    <_>
      <rect>
        13 21 4 2</rect></_>
    <_>
      <rect>
        13 22 2 2</rect></_>
    <_>
      <rect>
        14 5 3 3</rect></_>
    <_>
      <rect>
        14 5 5 3</rect></_>
    <_>
      <rect>
        14 8 3 3</rect></_>
    <_>
      <rect>
        14 11 1 2</rect></_>
    <_>
      <rect>
        14 11 3 5</rect></_>
    <_>
      <rect>
        14 12 2 4</rect></_>
    <_>
      <rect>
        14 13 1 1</rect></_>
    <_>
      <rect>
        14 13 1 2</rect></_>
    <_>
      <rect>
        14 13 1 3</rect></_>
    <_>
      <rect>
        14 13 2 2</rect></_>
    <_>
      <rect>
        14 14 1 1</rect></_>
    <_>
      <rect>
        14 15 1 1</rect></_>
    <_>
      <rect>
        14 16 1 1</rect></_>
    <_>
      <rect>
        14 17 1 1</rect></_>
    <_>
      <rect>
        14 17 2 2</rect></_>
    <_>
      <rect>
        14 19 1 1</rect></_>
    <_>
      <rect>
        15 0 5 4</rect></_>
    <_>
      <rect>
        15 8 1 3</rect></_>
    <_>
      <rect>
        15 9 1 2</rect></_>
    <_>
      <rect>
        15 10 1 2</rect></_>
    <_>
      <rect>
        15 11 1 1</rect></_>
    <_>
      <rect>
        15 11 1 2</rect></_>
    <_>
      <rect>
        15 11 3 5</rect></_>
    <_>
      <rect>
        15 12 1 1</rect></_>
    <_>
      <rect>
        15 12 1 2</rect></_>
    <_>
      <rect>
        15 13 1 1</rect></_>
    <_>
      <rect>
        15 14 1 1</rect></_>
    <_>
      <rect>
        15 14 1 2</rect></_>
    <_>
      <rect>
        15 14 3 2</rect></_>
    <_>
      <rect>
        15 15 1 1</rect></_>
    <_>
      <rect>
        15 15 2 3</rect></_>
    <_>
      <rect>
        15 15 3 2</rect></_>
    <_>
      <rect>
        15 15 3 3</rect></_>
    <_>
      <rect>
        15 16 1 1</rect></_>
    <_>
      <rect>
        15 20 1 1</rect></_>
    <_>
      <rect>
        15 24 1 1</rect></_>
    <_>
      <rect>
        16 10 2 2</rect></_>
    <_>
      <rect>
        16 10 2 4</rect></_>
    <_>
      <rect>
        16 11 1 1</rect></_>
    <_>
      <rect>
        16 11 1 2</rect></_>
    <_>
      <rect>
        16 12 1 1</rect></_>
    <_>
      <rect>
        16 13 1 1</rect></_>
    <_>
      <rect>
        16 14 1 1</rect></_>
    <_>
      <rect>
        16 15 1 1</rect></_>
    <_>
      <rect>
        16 15 2 1</rect></_>
    <_>
      <rect>
        16 16 2 2</rect></_>
    <_>
      <rect>
        16 17 1 1</rect></_>
    <_>
      <rect>
        16 17 4 4</rect></_>
    <_>
      <rect>
        16 20 2 1</rect></_>
    <_>
      <rect>
        17 9 2 2</rect></_>
    <_>
      <rect>
        17 10 2 2</rect></_>
    <_>
      <rect>
        17 10 2 4</rect></_>
    <_>
      <rect>
        17 12 1 1</rect></_>
    <_>
      <rect>
        17 12 2 3</rect></_>
    <_>
      <rect>
        17 13 2 3</rect></_>
    <_>
      <rect>
        17 23 2 2</rect></_>
    <_>
      <rect>
        18 3 4 5</rect></_>
    <_>
      <rect>
        18 7 3 4</rect></_>
    <_>
      <rect>
        18 10 1 1</rect></_>
    <_>
      <rect>
        18 10 2 3</rect></_>
    <_>
      <rect>
        18 17 3 3</rect></_>
    <_>
      <rect>
        18 21 1 1</rect></_>
    <_>
      <rect>
        19 4 3 8</rect></_>
    <_>
      <rect>
        19 10 3 2</rect></_>
    <_>
      <rect>
        19 11 3 5</rect></_>
    <_>
      <rect>
        19 18 2 1</rect></_>
    <_>
      <rect>
        19 20 3 3</rect></_>
    <_>
      <rect>
        20 9 2 5</rect></_>
    <_>
      <rect>
        20 12 3 2</rect></_>
    <_>
      <rect>
        20 13 3 3</rect></_>
    <_>
      <rect>
        20 14 3 2</rect></_>
    <_>
      <rect>
        21 12 3 6</rect></_>
    <_>
      <rect>
        22 15 2 1</rect></_>
    <_>
      <rect>
        22 16 2 2</rect></_>
    <_>
      <rect>
        22 20 1 1</rect></_></features></cascade>
</opencv_storage>
