<?xml version="1.0"?>
<opencv_storage>
<cascade>
  <stageType>BOOST</stageType>
  <featureType>LBP</featureType>
  <height>30</height>
  <width>30</width>
  <stageParams>
    <boostType>GAB</boostType>
    <minHitRate>9.9500000476837158e-01</minHitRate>
    <maxFalseAlarm>5.0000000000000000e-01</maxFalseAlarm>
    <weightTrimRate>9.4999999999999996e-01</weightTrimRate>
    <maxDepth>1</maxDepth>
    <maxWeakCount>100</maxWeakCount></stageParams>
  <featureParams>
    <maxCatCount>256</maxCatCount>
    <featSize>1</featSize></featureParams>
  <stageNum>15</stageNum>
  <stages>
    <!-- stage 0 -->
    <_>
      <maxWeakCount>5</maxWeakCount>
      <stageThreshold>-1.1448056697845459e+00</stageThreshold>
      <weakClassifiers>
        <_>
          <internalNodes>
            0 -1 65 -286335488 -65552 -4333636 -2097154 -1114628 -73730
            -131090 -6</internalNodes>
          <leafValues>
            -7.0297032594680786e-01 7.4877423048019409e-01</leafValues></_>
        <_>
          <internalNodes>
            0 -1 100 -387014514 -274727493 -586027629 -3694785
            -2000188533 -285225479 -892605025 -270545991</internalNodes>
          <leafValues>
            -4.7387650609016418e-01 5.3003722429275513e-01</leafValues></_>
        <_>
          <internalNodes>
            0 -1 197 -573606636 -44219938 -1043228521 -1176588008
            -1216153147 -142884113 -1382395983 -822420848</internalNodes>
          <leafValues>
            -5.2036589384078979e-01 3.6321079730987549e-01</leafValues></_>
        <_>
          <internalNodes>
            0 -1 114 619489199 -240320546 -1091699075 -1392641
            -1871889474 -1689649153 184338301 -5858537</internalNodes>
          <leafValues>
            -3.6910545825958252e-01 4.6831366419792175e-01</leafValues></_>
        <_>
          <internalNodes>
            0 -1 27 -706760744 -1014102564 1410433741 -342080308
            -1585196238 -74608336 715775953 -68354052</internalNodes>
          <leafValues>
            -5.3023201227188110e-01 3.0138769745826721e-01</leafValues></_></weakClassifiers></_>
    <!-- stage 1 -->
    <_>
      <maxWeakCount>9</maxWeakCount>
      <stageThreshold>-1.0863953828811646e+00</stageThreshold>
      <weakClassifiers>
        <_>
          <internalNodes>
            0 -1 55 -135270648 2147483638 -33554465 -1 -18 -1384452 -65
            -65</internalNodes>
          <leafValues>
            -4.4504153728485107e-01 7.3640275001525879e-01</leafValues></_>
        <_>
          <internalNodes>
            0 -1 112 -16843764 -3665480 -746367521 -539035977 -755826789
            -167247624 -724174340 -4269457</internalNodes>
          <leafValues>
            -4.7480389475822449e-01 4.7263234853744507e-01</leafValues></_>
        <_>
          <internalNodes>
            0 -1 203 -1073742413 2007095214 -1122650116 1032538451
            -1244120655 -1180699969 -1047975792 -37883940</internalNodes>
          <leafValues>
            -4.1840866208076477e-01 4.0687844157218933e-01</leafValues></_>
        <_>
          <internalNodes>
            0 -1 137 -1602834896 -4374479 -786051085 -574679805
            -470175555 -1474569816 -82891873 -203178150</internalNodes>
          <leafValues>
            -4.5834773778915405e-01 3.6296832561492920e-01</leafValues></_>
        <_>
          <internalNodes>
            0 -1 97 -2012161345 -1007653 1531241927 -1080167523
            1621937661 -1114603489 180208340 -1930647456</internalNodes>
          <leafValues>
            -4.0479040145874023e-01 3.4393185377120972e-01</leafValues></_>
        <_>
          <internalNodes>
            0 -1 157 1518387060 -1145509008 -41365539 -107822183
            1008520956 -1107836205 700320691 210252804</internalNodes>
          <leafValues>
            -5.2001589536666870e-01 2.3536217212677002e-01</leafValues></_>
        <_>
          <internalNodes>
            0 -1 147 -167870467 -17121610 -1057113 -1082885773
            1534450493 -542674946 -23462115 -278369982</internalNodes>
          <leafValues>
            -3.2073014974594116e-01 4.2262101173400879e-01</leafValues></_>
        <_>
          <internalNodes>
            0 -1 196 527777113 -1616045094 -172852897 1908765983
            -1727549783 -58048853 704842730 -1372675059</internalNodes>
          <leafValues>
            -3.7402206659317017e-01 3.6174714565277100e-01</leafValues></_>
        <_>
          <internalNodes>
            0 -1 188 -497074409 2146687361 -1059940570 216842278
            685790608 1245874392 585660272 1086594924</internalNodes>
          <leafValues>
            -5.3488475084304810e-01 2.3929995298385620e-01</leafValues></_></weakClassifiers></_>
    <!-- stage 2 -->
    <_>
      <maxWeakCount>11</maxWeakCount>
      <stageThreshold>-9.6013319492340088e-01</stageThreshold>
      <weakClassifiers>
        <_>
          <internalNodes>
            0 -1 110 -1573516 -139 -1610612867 -427 -37748739 -589825
            -145 -1</internalNodes>
          <leafValues>
            -2.8058168292045593e-01 7.2528672218322754e-01</leafValues></_>
        <_>
          <internalNodes>
            0 -1 119 -290525276 -285593441 -245877876 -52557586
            2127297535 -390266681 -70560900 -9218</internalNodes>
          <leafValues>
            -5.4492247104644775e-01 4.1583356261253357e-01</leafValues></_>
        <_>
          <internalNodes>
            0 -1 215 -1939718796 -1156715330 2064097755 -1109667303
            -1342490448 -548605943 -1578534564 -1079009387</internalNodes>
          <leafValues>
            -4.9912223219871521e-01 2.8343877196311951e-01</leafValues></_>
        <_>
          <internalNodes>
            0 -1 2 -3356472 -152521926 -947533418 -182459320 -1651315812
            -540158066 -27550730 -274931736</internalNodes>
          <leafValues>
            -5.7756054401397705e-01 2.1331255137920380e-01</leafValues></_>
        <_>
          <internalNodes>
            0 -1 138 -1938904318 -1154984578 -545041065 1595601496
            -1431841897 -446275436 -393502552 -274796801</internalNodes>
          <leafValues>
            -4.4794100522994995e-01 2.8627291321754456e-01</leafValues></_>
        <_>
          <internalNodes>
            0 -1 193 956890584 876633508 -115025451 -1118015016
            -1728853765 -1362431095 -247177060 -594007832</internalNodes>
          <leafValues>
            -3.5155710577964783e-01 3.7124693393707275e-01</leafValues></_>
        <_>
          <internalNodes>
            0 -1 180 -766128113 1025280032 -187050627 1847083441
            -882191329 -590870262 -511210501 -95367309</internalNodes>
          <leafValues>
            -3.4746432304382324e-01 3.3825707435607910e-01</leafValues></_>
        <_>
          <internalNodes>
            0 -1 208 1366562135 -671957337 -570560555 -1216904463
            -1141404001 -70017 -1091752961 -1439823276</internalNodes>
          <leafValues>
            -3.1911396980285645e-01 3.6156594753265381e-01</leafValues></_>
        <_>
          <internalNodes>
            0 -1 163 -2096103120 -2035500874 491596149 -821370548
            -935007311 -569670941 -1464997209 -303767801</internalNodes>
          <leafValues>
            -4.3490609526634216e-01 2.6611340045928955e-01</leafValues></_>
        <_>
          <internalNodes>
            0 -1 88 1608048596 467219328 1343674879 266178877 170636809
            895093275 1385124380 181929086</internalNodes>
          <leafValues>
            -3.7861949205398560e-01 3.1266742944717407e-01</leafValues></_>
        <_>
          <internalNodes>
            0 -1 149 -428935035 -365931617 -693892914 -18959668
            -626304195 -1657627861 -959804412 -822189524</internalNodes>
          <leafValues>
            -4.0620738267898560e-01 2.9078984260559082e-01</leafValues></_></weakClassifiers></_>
    <!-- stage 3 -->
    <_>
      <maxWeakCount>14</maxWeakCount>
      <stageThreshold>-9.0645354986190796e-01</stageThreshold>
      <weakClassifiers>
        <_>
          <internalNodes>
            0 -1 79 -288424146 -134217797 -621822065 -302022929
            -286589778 -1077936226 -271089761 -8421393</internalNodes>
          <leafValues>
            -3.6935865879058838e-01 6.0750693082809448e-01</leafValues></_>
        <_>
          <internalNodes>
            0 -1 170 2129377783 -551028757 -1048868 2145906413
            -171987531 -1076002946 1573901796 -33820678</internalNodes>
          <leafValues>
            -3.2784494757652283e-01 4.3274548649787903e-01</leafValues></_>
        <_>
          <internalNodes>
            0 -1 139 -922800607 -470071905 933828447 -35294777
            -811436565 -342649923 -829828673 -110494533</internalNodes>
          <leafValues>
            -3.5729798674583435e-01 3.6717382073402405e-01</leafValues></_>
        <_>
          <internalNodes>
            0 -1 8 1362293016 -804965476 -1354760911 614743944
            1827913471 -386500681 -814743873 -1729762106</internalNodes>
          <leafValues>
            -2.9302215576171875e-01 3.8962844014167786e-01</leafValues></_>
        <_>
          <internalNodes>
            0 -1 116 -856291257 -615343404 89837939 -202718817
            -479471185 -1144290557 1113141979 -860686570</internalNodes>
          <leafValues>
            -3.8019803166389465e-01 2.7606025338172913e-01</leafValues></_>
        <_>
          <internalNodes>
            0 -1 179 215680263 411259009 -1457725953 -1181617864
            -2008925472 -2004303672 -1073723153 -668866014</internalNodes>
          <leafValues>
            -3.9256426692008972e-01 2.8537955880165100e-01</leafValues></_>
        <_>
          <internalNodes>
            0 -1 171 2132760469 -10207246 2147188063 -545587468
            2138552309 2103738212 -1655194115 -348947656</internalNodes>
          <leafValues>
            -3.0166390538215637e-01 3.5771784186363220e-01</leafValues></_>
        <_>
          <internalNodes>
            0 -1 73 1420377051 -582321469 56537579 1062207594
            -1417669957 -1144190745 739923626 -1934098332</internalNodes>
          <leafValues>
            -3.3452582359313965e-01 3.2313111424446106e-01</leafValues></_>
        <_>
          <internalNodes>
            0 -1 4 600735738 -1308458662 1781437565 -1065549696
            -1851028033 -1433894904 -1333630212 -1400372788</internalNodes>
          <leafValues>
            -3.4852772951126099e-01 3.0137622356414795e-01</leafValues></_>
        <_>
          <internalNodes>
            0 -1 217 -872952985 -1048489826 -741567177 -490751095
            -1733738444 -161374032 -1316792647 -576979259</internalNodes>
          <leafValues>
            -3.3053147792816162e-01 3.0352780222892761e-01</leafValues></_>
        <_>
          <internalNodes>
            0 -1 85 -217686668 393725332 -1656581440 -1478520367
            -232058559 1597532187 1174930186 1326648075</internalNodes>
          <leafValues>
            -3.7715253233909607e-01 2.8065055608749390e-01</leafValues></_>
        <_>
          <internalNodes>
            0 -1 57 841479129 34730215 -783036197 -1382059244
            -2118006420 221827250 734642708 -2008479466</internalNodes>
          <leafValues>
            -3.3535173535346985e-01 3.0406767129898071e-01</leafValues></_>
        <_>
          <internalNodes>
            0 -1 192 -414804592 805721360 -1916538373 1372860662
            -2092436568 -545029486 -585259891 -840367976</internalNodes>
          <leafValues>
            -3.2217592000961304e-01 3.2030382752418518e-01</leafValues></_>
        <_>
          <internalNodes>
            0 -1 189 1186089079 868264787 17030511 -1695023035 216550224
            1843028620 -1160233988 -934383020</internalNodes>
          <leafValues>
            -3.6615216732025146e-01 2.7443650364875793e-01</leafValues></_></weakClassifiers></_>
    <!-- stage 4 -->
    <_>
      <maxWeakCount>14</maxWeakCount>
      <stageThreshold>-1.0475262403488159e+00</stageThreshold>
      <weakClassifiers>
        <_>
          <internalNodes>
            0 -1 30 -1049362 -33554741 -269898808 2144336751 -134348850
            -32899 -2 -136315137</internalNodes>
          <leafValues>
            -4.0959408879280090e-01 6.0951071977615356e-01</leafValues></_>
        <_>
          <internalNodes>
            0 -1 98 -285496145 -269500627 -29360321 -2101395 -2065759297
            -2048028808 1295966127 -145758405</internalNodes>
          <leafValues>
            -3.8248005509376526e-01 4.5403620600700378e-01</leafValues></_>
        <_>
          <internalNodes>
            0 -1 187 -701571085 -1970152435 406999984 1829175366
            622452641 -375476645 -836272176 -989858153</internalNodes>
          <leafValues>
            -3.6901190876960754e-01 3.2911890745162964e-01</leafValues></_>
        <_>
          <internalNodes>
            0 -1 140 -327171293 1412491409 399605087 2099110033
            -1022628493 -127202216 -1326781893 -1698707041</internalNodes>
          <leafValues>
            -3.5806763172149658e-01 3.1316187977790833e-01</leafValues></_>
        <_>
          <internalNodes>
            0 -1 104 -225000754 1513919351 -784130250 -1810718402
            17989806 -389939150 -628932466 -654057669</internalNodes>
          <leafValues>
            -3.5927569866180420e-01 3.1059342622756958e-01</leafValues></_>
        <_>
          <internalNodes>
            0 -1 43 1119736733 1461813761 1837236240 2000224392
            -1366557918 -70973399 -1710964734 245444625</internalNodes>
          <leafValues>
            -3.7757357954978943e-01 3.1544670462608337e-01</leafValues></_>
        <_>
          <internalNodes>
            0 -1 154 1399061410 485094001 -104897741 -1150077213
            -1916434528 671473896 1431895722 -36471861</internalNodes>
          <leafValues>
            -2.7324640750885010e-01 3.9510041475296021e-01</leafValues></_>
        <_>
          <internalNodes>
            0 -1 146 -334571706 -2031163378 1448148480 -422783972
            -222080335 572010649 818168332 -50561450</internalNodes>
          <leafValues>
            -4.9567249417304993e-01 2.1864028275012970e-01</leafValues></_>
        <_>
          <internalNodes>
            0 -1 211 -1499756777 -1577406477 1801568191 -1285353603
            -869761379 -1896010369 -631414704 -125944622</internalNodes>
          <leafValues>
            -2.6941791176795959e-01 4.0855598449707031e-01</leafValues></_>
        <_>
          <internalNodes>
            0 -1 184 -1460458672 -659802906 1541500405 929310750
            1950483845 -341176087 539412208 403723654</internalNodes>
          <leafValues>
            -4.5256903767585754e-01 2.3671172559261322e-01</leafValues></_>
        <_>
          <internalNodes>
            0 -1 92 114754111 -1213639593 -16826753 1068760141
            -1514908085 -1144898281 -1560470346 -1157903090</internalNodes>
          <leafValues>
            -2.3865719139575958e-01 4.3458274006843567e-01</leafValues></_>
        <_>
          <internalNodes>
            0 -1 81 -422588985 -500906496 -1949227861 -1491103373
            1615087317 2006109830 1141407768 1169291044</internalNodes>
          <leafValues>
            -4.3246570229530334e-01 2.4478556215763092e-01</leafValues></_>
        <_>
          <internalNodes>
            0 -1 206 1165099973 -1612163784 -1089887268 -209813656
            -893310343 -1680218069 605477627 -1392899724</internalNodes>
          <leafValues>
            -3.7553462386131287e-01 2.7326375246047974e-01</leafValues></_>
        <_>
          <internalNodes>
            0 -1 42 1082189702 -245824742 1360258615 969113601
            1621674431 -645168728 -1991398229 -1470403750</internalNodes>
          <leafValues>
            -3.3144608139991760e-01 3.1309109926223755e-01</leafValues></_></weakClassifiers></_>
    <!-- stage 5 -->
    <_>
      <maxWeakCount>15</maxWeakCount>
      <stageThreshold>-8.9573109149932861e-01</stageThreshold>
      <weakClassifiers>
        <_>
          <internalNodes>
            0 -1 113 -8392925 1999765283 -12585161 -172917097 -16798933
            -208146649 -34603217 -33816773</internalNodes>
          <leafValues>
            -1.8458244204521179e-01 6.6330152750015259e-01</leafValues></_>
        <_>
          <internalNodes>
            0 -1 105 -723881650 1077822303 -256273778 1123736538
            -511212565 285213335 -632610502 -267349</internalNodes>
          <leafValues>
            -4.6394351124763489e-01 3.1680345535278320e-01</leafValues></_>
        <_>
          <internalNodes>
            0 -1 214 -319863264 -353959621 -874253922 -513834490
            -657936460 -1132080571 -2104720880 -335822113</internalNodes>
          <leafValues>
            -4.2136558890342712e-01 2.7413186430931091e-01</leafValues></_>
        <_>
          <internalNodes>
            0 -1 90 -152440864 1950601939 -544388141 1934824215
            -2046631712 301990147 -2141116162 1400101631</internalNodes>
          <leafValues>
            -3.4675735235214233e-01 3.2894369959831238e-01</leafValues></_>
        <_>
          <internalNodes>
            0 -1 190 -755825898 386120482 8849920 1395350734 -95684683
            -548559895 -1935980368 -38799430</internalNodes>
          <leafValues>
            -3.5597929358482361e-01 3.1023365259170532e-01</leafValues></_>
        <_>
          <internalNodes>
            0 -1 82 -841234515 -503697136 -145517125 -217847104
            1300750763 75633072 1402386906 -417793887</internalNodes>
          <leafValues>
            -3.6365321278572083e-01 2.8916904330253601e-01</leafValues></_>
        <_>
          <internalNodes>
            0 -1 6 -863120266 -763194982 -1941926840 -908604914
            -1337408783 1376436536 1495837307 1099681611</internalNodes>
          <leafValues>
            -3.5980024933815002e-01 2.6816615462303162e-01</leafValues></_>
        <_>
          <internalNodes>
            0 -1 168 -962153024 -80314030 -1830910958 -589893094
            808988256 1221378848 -304068348 1920424772</internalNodes>
          <leafValues>
            -4.6015918254852295e-01 2.0752876996994019e-01</leafValues></_>
        <_>
          <internalNodes>
            0 -1 244 -110105086 -1285575381 -240481134 1516572327
            -332372808 -1346982270 -744316798 -288652798</internalNodes>
          <leafValues>
            -2.6348054409027100e-01 3.6042308807373047e-01</leafValues></_>
        <_>
          <internalNodes>
            0 -1 210 -1508970208 -2004085934 269796220 1626725401
            289588933 206418579 421478748 -657997708</internalNodes>
          <leafValues>
            -3.4572550654411316e-01 2.7334702014923096e-01</leafValues></_>
        <_>
          <internalNodes>
            0 -1 95 1564784631 -1623736417 -1363165539 2122221438
            -34267137 -1610805761 -864088899 -912929681</internalNodes>
          <leafValues>
            -2.5275367498397827e-01 3.8891685009002686e-01</leafValues></_>
        <_>
          <internalNodes>
            0 -1 220 -520356126 -1312736566 -717613015 -433897438
            1312770485 746794165 -1407306448 -706494305</internalNodes>
          <leafValues>
            -3.2301422953605652e-01 2.8907436132431030e-01</leafValues></_>
        <_>
          <internalNodes>
            0 -1 182 1416970256 1940376535 -803992829 -573521534
            -369040986 -401686129 -1585164028 688933820</internalNodes>
          <leafValues>
            -5.0357747077941895e-01 1.8647372722625732e-01</leafValues></_>
        <_>
          <internalNodes>
            0 -1 59 -156805122 1148747759 2146144143 -49814013 -331817
            1574207103 1870511779 -245011385</internalNodes>
          <leafValues>
            -2.6935490965843201e-01 3.6698430776596069e-01</leafValues></_>
        <_>
          <internalNodes>
            0 -1 205 438477733 1594024986 -2130233644 -1458507080
            953440464 -792268155 785338392 -1092614796</internalNodes>
          <leafValues>
            -4.8524385690689087e-01 2.0650191605091095e-01</leafValues></_></weakClassifiers></_>
    <!-- stage 6 -->
    <_>
      <maxWeakCount>18</maxWeakCount>
      <stageThreshold>-7.9826945066452026e-01</stageThreshold>
      <weakClassifiers>
        <_>
          <internalNodes>
            0 -1 56 2078146446 -2097537 2146434943 -570441753 -160436337
            -269484681 -276856897 -100663297</internalNodes>
          <leafValues>
            -1.9899749755859375e-01 5.9850186109542847e-01</leafValues></_>
        <_>
          <internalNodes>
            0 -1 142 -353391840 -294411785 1999276851 -59977505
            -260965963 -292912574 -611730639 -41948569</internalNodes>
          <leafValues>
            -4.2180144786834717e-01 3.0148738622665405e-01</leafValues></_>
        <_>
          <internalNodes>
            0 -1 148 -675031051 33648658 -786301090 -278441652 922478197
            -1709965159 1886379376 -268437638</internalNodes>
          <leafValues>
            -3.9762234687805176e-01 2.7280911803245544e-01</leafValues></_>
        <_>
          <internalNodes>
            0 -1 143 -896618590 -286354602 729505827 -558968118
            650376635 1014740099 -1523119958 -138415093</internalNodes>
          <leafValues>
            -3.5146558284759521e-01 2.7344977855682373e-01</leafValues></_>
        <_>
          <internalNodes>
            0 -1 62 -672137386 -43786981 654237147 -1123926469 -26241535
            -1311527557 1787448014 -288362989</internalNodes>
          <leafValues>
            -2.1884818375110626e-01 4.2319437861442566e-01</leafValues></_>
        <_>
          <internalNodes>
            0 -1 127 -792865324 -1062308640 598459752 -730931972
            -1229455379 -802750539 -589859702 -84937473</internalNodes>
          <leafValues>
            -2.8741371631622314e-01 3.2135573029518127e-01</leafValues></_>
        <_>
          <internalNodes>
            0 -1 115 -492311251 -824473768 -1794015751 -2557673
            1099160303 590013679 1142026496 -845024497</internalNodes>
          <leafValues>
            -3.2501277327537537e-01 2.7674287557601929e-01</leafValues></_>
        <_>
          <internalNodes>
            0 -1 19 -1040320529 -467312859 -672272528 -985286047
            2002579171 -313671707 -688081498 -386802745</internalNodes>
          <leafValues>
            -2.6698967814445496e-01 3.4540513157844543e-01</leafValues></_>
        <_>
          <internalNodes>
            0 -1 147 1629288421 -797571830 442376 235029454 1627490860
            1092698242 1084433470 -604576990</internalNodes>
          <leafValues>
            -3.2165780663490295e-01 2.7960231900215149e-01</leafValues></_>
        <_>
          <internalNodes>
            0 -1 167 -342187104 -3149570 752833689 -693701606
            -1162663513 -818866047 -944248878 2138528275</internalNodes>
          <leafValues>
            -3.1691712141036987e-01 2.8907135128974915e-01</leafValues></_>
        <_>
          <internalNodes>
            0 -1 245 -894438653 36395881 -1258837213 382302717 475130815
            554614256 -1766330649 -406857041</internalNodes>
          <leafValues>
            -1.9757005572319031e-01 4.7096487879753113e-01</leafValues></_>
        <_>
          <internalNodes>
            0 -1 247 -771108052 1596258251 -1078036288 -278941786
            827398678 -300655116 1322593951 -149984476</internalNodes>
          <leafValues>
            -2.4609887599945068e-01 3.4901887178421021e-01</leafValues></_>
        <_>
          <internalNodes>
            0 -1 26 -49597253 2113891277 -1964111745 -1995841937
            1945986902 -411298164 -268593503 -489702677</internalNodes>
          <leafValues>
            -2.1268178522586823e-01 4.1098859906196594e-01</leafValues></_>
        <_>
          <internalNodes>
            0 -1 89 24755085 -1050099798 -1343750151 -224264305
            1181683021 167992841 -897284966 -614220927</internalNodes>
          <leafValues>
            -2.5285342335700989e-01 3.4956914186477661e-01</leafValues></_>
        <_>
          <internalNodes>
            0 -1 102 -394337761 -95259307 -1861949869 1227553479
            -1920282471 1462435841 713524111 828969168</internalNodes>
          <leafValues>
            -3.0242115259170532e-01 2.9692032933235168e-01</leafValues></_>
        <_>
          <internalNodes>
            0 -1 198 -461915331 1409122167 -214273353 1085973950
            -219294914 -554238177 -1355548421 -1162094662</internalNodes>
          <leafValues>
            -2.3926524817943573e-01 3.7722772359848022e-01</leafValues></_>
        <_>
          <internalNodes>
            0 -1 172 497966995 2145480300 1072680748 804126590
            -1233986073 -25362433 -1297809764 -470043061</internalNodes>
          <leafValues>
            -2.3755618929862976e-01 3.5786437988281250e-01</leafValues></_>
        <_>
          <internalNodes>
            0 -1 32 1979401711 471273231 2112814010 1159853927
            -830546059 762607587 -51019828 -2071488801</internalNodes>
          <leafValues>
            -2.7684056758880615e-01 3.3459326624870300e-01</leafValues></_></weakClassifiers></_>
    <!-- stage 7 -->
    <_>
      <maxWeakCount>18</maxWeakCount>
      <stageThreshold>-1.0099747180938721e+00</stageThreshold>
      <weakClassifiers>
        <_>
          <internalNodes>
            0 -1 133 -1359532485 -8536265 -4718595 -574619731
            -1937822279 -271181829 -813822262 -577725691</internalNodes>
          <leafValues>
            -1.0615608096122742e-01 5.6362712383270264e-01</leafValues></_>
        <_>
          <internalNodes>
            0 -1 222 -73270861 -1920967722 185855960 657183656 -75379784
            -351730837 948565432 -1073877520</internalNodes>
          <leafValues>
            -3.4768784046173096e-01 3.3694279193878174e-01</leafValues></_>
        <_>
          <internalNodes>
            0 -1 200 -285216907 -637801097 2147434079 -1913163913
            -318767756 -4448811 -1076114273 -604383845</internalNodes>
          <leafValues>
            -2.7571278810501099e-01 3.2185500860214233e-01</leafValues></_>
        <_>
          <internalNodes>
            0 -1 173 -59280019 1993867212 -1392707592 1487851199
            2088718180 -327365124 -17019652 -67210760</internalNodes>
          <leafValues>
            -2.8493860363960266e-01 3.1415531039237976e-01</leafValues></_>
        <_>
          <internalNodes>
            0 -1 107 -687702596 -1320819317 -1639327363 462755899
            452989336 459743459 -2008111713 37355558</internalNodes>
          <leafValues>
            -3.4152802824974060e-01 2.4739715456962585e-01</leafValues></_>
        <_>
          <internalNodes>
            0 -1 160 713667827 -1285849388 -101343363 -2146331 754775775
            2147463109 -1045404255 -309933600</internalNodes>
          <leafValues>
            -2.7294304966926575e-01 3.1955721974372864e-01</leafValues></_>
        <_>
          <internalNodes>
            0 -1 34 -1109661347 -105222280 -50349094 973617290
            -1779360327 -1915211874 -851924840 -1206833540</internalNodes>
          <leafValues>
            -2.7076435089111328e-01 3.0882444977760315e-01</leafValues></_>
        <_>
          <internalNodes>
            0 -1 45 -722883979 593744211 -1856400001 699994678
            2091036925 1000965025 -1916039924 214437912</internalNodes>
          <leafValues>
            -3.0134320259094238e-01 2.7653318643569946e-01</leafValues></_>
        <_>
          <internalNodes>
            0 -1 212 1181252861 -2061776904 -353634185 -552346127
            -991061334 -1109804597 -239264163 -705247780</internalNodes>
          <leafValues>
            -2.2515620291233063e-01 3.6030143499374390e-01</leafValues></_>
        <_>
          <internalNodes>
            0 -1 117 148826863 -1629617781 1477445071 1974919812
            -57171830 -1459740159 1058611789 -1145646109</internalNodes>
          <leafValues>
            -3.2853311300277710e-01 2.6197206974029541e-01</leafValues></_>
        <_>
          <internalNodes>
            0 -1 145 -294912245 -268501010 -1090551941 -541619218
            -1207975979 -805306371 485164079 -1155636182</internalNodes>
          <leafValues>
            -2.5060415267944336e-01 3.3495023846626282e-01</leafValues></_>
        <_>
          <internalNodes>
            0 -1 21 -592452658 -562767537 1927846075 -1077790996
            -134378321 -71959521 2113194975 -32568690</internalNodes>
          <leafValues>
            -2.1044549345970154e-01 4.0747734904289246e-01</leafValues></_>
        <_>
          <internalNodes>
            0 -1 201 -254302441 -1090670593 2147483511 225439231
            -186794880 -117876789 -1196362102 270561124</internalNodes>
          <leafValues>
            -2.7291914820671082e-01 3.1210932135581970e-01</leafValues></_>
        <_>
          <internalNodes>
            0 -1 213 -599921897 559171038 -1459547682 -847422435
            699334656 -1987772239 1621232894 -840965054</internalNodes>
          <leafValues>
            -3.0847087502479553e-01 2.8542393445968628e-01</leafValues></_>
        <_>
          <internalNodes>
            0 -1 31 1377563949 73400581 269074600 -2100866989 676038835
            -1583082975 -897217526 69210992</internalNodes>
          <leafValues>
            -4.7983253002166748e-01 1.8952888250350952e-01</leafValues></_>
        <_>
          <internalNodes>
            0 -1 20 -1844391045 1409848145 202642160 -1294724836
            27431412 176199744 139035076 -799876382</internalNodes>
          <leafValues>
            -3.6472019553184509e-01 2.2940501570701599e-01</leafValues></_>
        <_>
          <internalNodes>
            0 -1 152 806488825 210530523 -1795020046 1063828565
            552806881 458590671 -1563855544 244850968</internalNodes>
          <leafValues>
            -4.5442721247673035e-01 1.9050116837024689e-01</leafValues></_>
        <_>
          <internalNodes>
            0 -1 109 -602342028 2106230801 1131909445 -1633937056
            -1435804533 -1224703360 -492135292 -794797632</internalNodes>
          <leafValues>
            -2.9462394118309021e-01 2.9154965281486511e-01</leafValues></_></weakClassifiers></_>
    <!-- stage 8 -->
    <_>
      <maxWeakCount>20</maxWeakCount>
      <stageThreshold>-8.7585723400115967e-01</stageThreshold>
      <weakClassifiers>
        <_>
          <internalNodes>
            0 -1 120 -17891610 -1329698049 2147364740 1794164478
            -545276001 -1073741826 1610559295 -895493910</internalNodes>
          <leafValues>
            -1.9019986689090729e-01 5.1584625244140625e-01</leafValues></_>
        <_>
          <internalNodes>
            0 -1 135 -17438681 -1208483913 2124906483 -33702213
            -269570119 -943788041 -833356049 -101056721</internalNodes>
          <leafValues>
            -2.7652096748352051e-01 3.9764755964279175e-01</leafValues></_>
        <_>
          <internalNodes>
            0 -1 71 525859679 -113127391 -612295462 -613690441 633570767
            -383680322 27853834 50585355</internalNodes>
          <leafValues>
            -3.0615416169166565e-01 2.8069457411766052e-01</leafValues></_>
        <_>
          <internalNodes>
            0 -1 165 -1932161280 375378383 2002451772 -788283243
            -389711819 -100662633 155316533 -123225965</internalNodes>
          <leafValues>
            -4.4928795099258423e-01 1.7038398981094360e-01</leafValues></_>
        <_>
          <internalNodes>
            0 -1 69 -272192570 1078661449 152240497 1996591360
            1428794767 -996400888 -1606293118 -1006400950</internalNodes>
          <leafValues>
            -3.7038737535476685e-01 1.9221152365207672e-01</leafValues></_>
        <_>
          <internalNodes>
            0 -1 186 453474743 832803358 -1853671432 455935304
            -1896236367 -1693351802 489658872 531566334</internalNodes>
          <leafValues>
            -2.8959041833877563e-01 2.5668993592262268e-01</leafValues></_>
        <_>
          <internalNodes>
            0 -1 25 -136454657 -1687001663 -563459329 -1153418062
            -821324419 -1713808590 -1360065861 -284170053</internalNodes>
          <leafValues>
            -1.8935455381870270e-01 4.4207271933555603e-01</leafValues></_>
        <_>
          <internalNodes>
            0 -1 183 -387459771 337870851 689144298 120537163 -265223520
            -1547034462 949261240 2875647</internalNodes>
          <leafValues>
            -3.1829705834388733e-01 2.2876305878162384e-01</leafValues></_>
        <_>
          <internalNodes>
            0 -1 91 830068048 281854658 1343862352 413829182 -1450691671
            -800423923 1078127230 141478207</internalNodes>
          <leafValues>
            -3.5815525054931641e-01 2.1383196115493774e-01</leafValues></_>
        <_>
          <internalNodes>
            0 -1 47 -1838757266 956593277 268653955 -247136253
            1074381443 -938472759 469864521 1199959855</internalNodes>
          <leafValues>
            -2.5859811902046204e-01 2.9257228970527649e-01</leafValues></_>
        <_>
          <internalNodes>
            0 -1 131 -279534695 -746360400 285299295 -1790212720 610986
            -930011000 1101529887 1132196106</internalNodes>
          <leafValues>
            -2.9187914729118347e-01 2.5029584765434265e-01</leafValues></_>
        <_>
          <internalNodes>
            0 -1 49 -705055926 -129334962 614934567 392155396 -204896380
            143675545 1753383043 1661070114</internalNodes>
          <leafValues>
            -3.0658251047134399e-01 2.5709122419357300e-01</leafValues></_>
        <_>
          <internalNodes>
            0 -1 168 -2044673450 151295958 -670777298 -714018246
            -1166255435 -636992588 1558466656 1501519691</internalNodes>
          <leafValues>
            -3.4376698732376099e-01 2.3010280728340149e-01</leafValues></_>
        <_>
          <internalNodes>
            0 -1 86 -688927083 1714467955 -180993327 -1566549073
            1376409444 171362563 413020180 -528538859</internalNodes>
          <leafValues>
            -3.2242822647094727e-01 2.3654659092426300e-01</leafValues></_>
        <_>
          <internalNodes>
            0 -1 5 -807632690 1264733903 -637749698 -378361237
            1509416087 -402702505 465505214 -1418527542</internalNodes>
          <leafValues>
            -2.3476006090641022e-01 3.2580366730690002e-01</leafValues></_>
        <_>
          <internalNodes>
            0 -1 217 -1971659422 55787901 -771548002 -1969143738
            -1970963787 -762805626 -1582578799 -811476769</internalNodes>
          <leafValues>
            -3.2858774065971375e-01 2.4119997024536133e-01</leafValues></_>
        <_>
          <internalNodes>
            0 -1 236 1981261779 413333657 -1683657657 -1501772270
            1985083367 -1706311817 1559610186 1803844512</internalNodes>
          <leafValues>
            -2.6441746950149536e-01 3.0157420039176941e-01</leafValues></_>
        <_>
          <internalNodes>
            0 -1 194 -845196862 578006821 1912596155 -1284250079
            -1476536401 393145837 -201370638 -710285386</internalNodes>
          <leafValues>
            -2.7014747262001038e-01 3.0618405342102051e-01</leafValues></_>
        <_>
          <internalNodes>
            0 -1 9 1612883620 1006665877 16883778 -452604605 -1844655682
            1311773250 1135435503 71631948</internalNodes>
          <leafValues>
            -3.8416361808776855e-01 2.0541509985923767e-01</leafValues></_>
        <_>
          <internalNodes>
            0 -1 188 2050381943 1236324007 -997158636 -1478438642
            704711100 -289109375 911887845 440294772</internalNodes>
          <leafValues>
            -3.7646898627281189e-01 2.0370839536190033e-01</leafValues></_></weakClassifiers></_>
    <!-- stage 9 -->
    <_>
      <maxWeakCount>21</maxWeakCount>
      <stageThreshold>-7.3067337274551392e-01</stageThreshold>
      <weakClassifiers>
        <_>
          <internalNodes>
            0 -1 134 -822204640 532639529 -859849213 -571480457
            -289673297 -956301328 -285792722 -155977857</internalNodes>
          <leafValues>
            -2.5862067937850952e-01 4.7520661354064941e-01</leafValues></_>
        <_>
          <internalNodes>
            0 -1 202 -793782366 -1815928629 -1052307268 1451835407
            -1142690891 -286577999 -308678156 -67109201</internalNodes>
          <leafValues>
            -3.1062674522399902e-01 2.9550623893737793e-01</leafValues></_>
        <_>
          <internalNodes>
            0 -1 141 -1899581914 -75738658 1397953630 -548109254
            -1316289749 2076901648 -402455733 -71886418</internalNodes>
          <leafValues>
            -3.6082783341407776e-01 2.1213178336620331e-01</leafValues></_>
        <_>
          <internalNodes>
            0 -1 90 -30298144 -1721739791 -883488303 -103546525
            -960575248 -1567952752 -994188566 2075372211</internalNodes>
          <leafValues>
            -2.7657768130302429e-01 2.7815857529640198e-01</leafValues></_>
        <_>
          <internalNodes>
            0 -1 1 -87313264 -1002401950 1361419440 1494667438 269416406
            -2098111794 1352684478 -80152498</internalNodes>
          <leafValues>
            -4.5750156044960022e-01 1.6595348715782166e-01</leafValues></_>
        <_>
          <internalNodes>
            0 -1 68 1732246901 -751044791 -1678807681 1542400814
            729797873 1979184829 -125998884 -1892625872</internalNodes>
          <leafValues>
            -2.2029608488082886e-01 3.3832770586013794e-01</leafValues></_>
        <_>
          <internalNodes>
            0 -1 87 1359640892 -1256570524 -648341109 -350965980
            -2147360337 407020577 141099695 1980055591</internalNodes>
          <leafValues>
            -3.0448269844055176e-01 2.3765848577022552e-01</leafValues></_>
        <_>
          <internalNodes>
            0 -1 219 -360728783 -119799909 -268779280 -17008726
            -2139110768 -840083473 -1206127728 -289947669</internalNodes>
          <leafValues>
            -2.5457257032394409e-01 2.7884370088577271e-01</leafValues></_>
        <_>
          <internalNodes>
            0 -1 158 154601479 383781756 -1898206209 -1214318835
            -1234453443 -507660433 -45387845 -350051986</internalNodes>
          <leafValues>
            -2.1873946487903595e-01 3.2161808013916016e-01</leafValues></_>
        <_>
          <internalNodes>
            0 -1 72 -1507908029 479762429 2109062709 -656169442
            -1266603129 -1707614335 -1929011536 -1932016331</internalNodes>
          <leafValues>
            -2.5555568933486938e-01 2.7378758788108826e-01</leafValues></_>
        <_>
          <internalNodes>
            0 -1 229 1982308659 1707464227 -469769239 -295577751
            650611131 -1075155589 -2015639335 -911607891</internalNodes>
          <leafValues>
            -1.8735386431217194e-01 3.7687990069389343e-01</leafValues></_>
        <_>
          <internalNodes>
            0 -1 189 1424904005 105935695 731294 -1715980924 1519391060
            1134399608 -1683151388 233986736</internalNodes>
          <leafValues>
            -4.0336212515830994e-01 1.7529395222663879e-01</leafValues></_>
        <_>
          <internalNodes>
            0 -1 185 -29893936 -1736904202 1306451632 2008444994
            -1721415272 -905689252 -1541388036 466574851</internalNodes>
          <leafValues>
            -3.1073528528213501e-01 2.5031840801239014e-01</leafValues></_>
        <_>
          <internalNodes>
            0 -1 36 1498838320 891466260 1341389744 -134545706
            -637465283 640186345 -617699992 -901802275</internalNodes>
          <leafValues>
            -2.5159695744514465e-01 3.0134207010269165e-01</leafValues></_>
        <_>
          <internalNodes>
            0 -1 96 -696799333 -1887506625 -18890979 -772358492
            1294669311 -1218099931 48057516 -844010529</internalNodes>
          <leafValues>
            -2.4364274740219116e-01 3.1317359209060669e-01</leafValues></_>
        <_>
          <internalNodes>
            0 -1 235 -1135280641 1084896320 -805454116 -626922508
            1564642539 -27754631 -1585720372 -102772852</internalNodes>
          <leafValues>
            -1.8888351321220398e-01 4.1375917196273804e-01</leafValues></_>
        <_>
          <internalNodes>
            0 -1 50 -282959981 -2065025358 1072672382 -1784665066
            427119791 -1873839313 1322745995 -1503170913</internalNodes>
          <leafValues>
            -2.4802848696708679e-01 3.0171635746955872e-01</leafValues></_>
        <_>
          <internalNodes>
            0 -1 28 -310575602 1964000119 1632750408 453084801 276898335
            -1333591284 -1307272393 1260486017</internalNodes>
          <leafValues>
            -3.0020335316658020e-01 2.6665377616882324e-01</leafValues></_>
        <_>
          <internalNodes>
            0 -1 128 -490210446 -140251257 -151037022 1371511393
            -42675013 778895348 -1116344167 -1144337013</internalNodes>
          <leafValues>
            -2.2220146656036377e-01 3.6788514256477356e-01</leafValues></_>
        <_>
          <internalNodes>
            0 -1 207 1429183161 261398072 -537543703 729475511
            -135028817 -1091256329 -580111955 -344314620</internalNodes>
          <leafValues>
            -2.4586006999015808e-01 3.0246117711067200e-01</leafValues></_>
        <_>
          <internalNodes>
            0 -1 233 1199558171 2088222196 -16609 200440563 -1351101408
            -1115914604 -706394455 -649428994</internalNodes>
          <leafValues>
            -2.5000479817390442e-01 3.1715166568756104e-01</leafValues></_></weakClassifiers></_>
    <!-- stage 10 -->
    <_>
      <maxWeakCount>22</maxWeakCount>
      <stageThreshold>-9.7371637821197510e-01</stageThreshold>
      <weakClassifiers>
        <_>
          <internalNodes>
            0 -1 216 137315360 765947831 805302048 -1457287297 926274836
            -319522827 -1094355616 -1076507000</internalNodes>
          <leafValues>
            -2.5687202811241150e-01 4.5925176143646240e-01</leafValues></_>
        <_>
          <internalNodes>
            0 -1 132 -1366836289 -201498645 -1375756289 -536870913
            -1922056962 -318799873 -1915093505 -919612028</internalNodes>
          <leafValues>
            -2.6642858982086182e-01 3.3180555701255798e-01</leafValues></_>
        <_>
          <internalNodes>
            0 -1 29 -544607746 -1533512757 -778497880 1434556163
            1208090783 -543719396 33329263 -49223771</internalNodes>
          <leafValues>
            -3.0889710783958435e-01 2.4651201069355011e-01</leafValues></_>
        <_>
          <internalNodes>
            0 -1 64 -79972496 831059488 -26501672 502273124 -1278841355
            -1134470316 -2124836648 -586563592</internalNodes>
          <leafValues>
            -2.5730198621749878e-01 2.9600510001182556e-01</leafValues></_>
        <_>
          <internalNodes>
            0 -1 123 1079503668 1078231434 -1719170562 587772544
            842672445 1495138337 188844664 62603826</internalNodes>
          <leafValues>
            -4.2278674244880676e-01 1.7409443855285645e-01</leafValues></_>
        <_>
          <internalNodes>
            0 -1 225 -2096257773 -349716813 -12591341 -1582564954
            553377507 -854342149 160079259 -838928464</internalNodes>
          <leafValues>
            -2.6384931802749634e-01 2.8877419233322144e-01</leafValues></_>
        <_>
          <internalNodes>
            0 -1 226 -377025275 -211121825 -510794714 -542662283
            717679103 -1725251451 -1863510420 -1052904620</internalNodes>
          <leafValues>
            -3.1018221378326416e-01 2.1813042461872101e-01</leafValues></_>
        <_>
          <internalNodes>
            0 -1 240 -577060778 1440697883 1843481526 1962224321
            -1256404776 -814780932 -404700707 -1087591796</internalNodes>
          <leafValues>
            -2.3759552836418152e-01 2.9177415370941162e-01</leafValues></_>
        <_>
          <internalNodes>
            0 -1 224 -440150205 -220332087 1374158319 -134776837
            -934948893 -481464437 -704643877 -478423149</internalNodes>
          <leafValues>
            -1.4648230373859406e-01 4.6364748477935791e-01</leafValues></_>
        <_>
          <internalNodes>
            0 -1 248 -957898106 -134237529 1694346278 1566255932
            -21072212 -54548498 -970307336 -704775425</internalNodes>
          <leafValues>
            -1.8063113093376160e-01 3.8399237394332886e-01</leafValues></_>
        <_>
          <internalNodes>
            0 -1 78 545546499 823418916 -967799745 875442579 206684160
            1905278991 415442183 -517707514</internalNodes>
          <leafValues>
            -4.3635243177413940e-01 1.6955465078353882e-01</leafValues></_>
        <_>
          <internalNodes>
            0 -1 10 1481488530 -657652450 25655222 -438776763 -932453425
            1943289912 -1500786502 72121312</internalNodes>
          <leafValues>
            -3.5793304443359375e-01 1.9323675334453583e-01</leafValues></_>
        <_>
          <internalNodes>
            0 -1 54 1260057204 1070603794 207131508 -1856621736
            1397578955 -1145466731 -1154883357 988586042</internalNodes>
          <leafValues>
            -2.6799800992012024e-01 2.6052206754684448e-01</leafValues></_>
        <_>
          <internalNodes>
            0 -1 12 1083977286 159448447 -1477991555 1743990644
            1559397806 -543174822 -1478040321 -1711538646</internalNodes>
          <leafValues>
            -2.2939139604568481e-01 3.1939873099327087e-01</leafValues></_>
        <_>
          <internalNodes>
            0 -1 156 -565447696 -286527290 -2071787044 -217558128
            1625593839 -431781428 -2143160071 -1916167734</internalNodes>
          <leafValues>
            -2.5343993306159973e-01 2.9373767971992493e-01</leafValues></_>
        <_>
          <internalNodes>
            0 -1 118 -536441054 -420585413 -384659067 2064650525
            1747976709 279569552 2023379689 -809303647</internalNodes>
          <leafValues>
            -4.1810232400894165e-01 1.8131045997142792e-01</leafValues></_>
        <_>
          <internalNodes>
            0 -1 44 -877720763 -714088595 -759190657 -1388508310
            -590872981 683277823 -1929956472 -735379304</internalNodes>
          <leafValues>
            -2.2262774407863617e-01 3.4071445465087891e-01</leafValues></_>
        <_>
          <internalNodes>
            0 -1 124 1897276949 -1618964342 1439798779 -1860411742
            676936289 922798081 860358668 957678640</internalNodes>
          <leafValues>
            -3.5926577448844910e-01 2.1807365119457245e-01</leafValues></_>
        <_>
          <internalNodes>
            0 -1 130 -608964025 -651055574 -194629752 -684385922
            -1388460996 -1501808934 -677721016 -37995069</internalNodes>
          <leafValues>
            -1.9488537311553955e-01 3.9196449518203735e-01</leafValues></_>
        <_>
          <internalNodes>
            0 -1 74 -640053283 389623483 -209792673 -14640330
            -1212656701 2146651516 410976463 774244922</internalNodes>
          <leafValues>
            -2.5548806786537170e-01 3.0681827664375305e-01</leafValues></_>
        <_>
          <internalNodes>
            0 -1 38 -999220544 41487820 1695023565 1427948042 -451759630
            709526041 -1341787477 -50413924</internalNodes>
          <leafValues>
            -3.8505351543426514e-01 1.9742883741855621e-01</leafValues></_>
        <_>
          <internalNodes>
            0 -1 237 246294307 682605235 2080285172 -549989503 719282165
            -807449093 -1703019700 -268505607</internalNodes>
          <leafValues>
            -2.5633990764617920e-01 3.0950367450714111e-01</leafValues></_></weakClassifiers></_>
    <!-- stage 11 -->
    <_>
      <maxWeakCount>23</maxWeakCount>
      <stageThreshold>-6.7312437295913696e-01</stageThreshold>
      <weakClassifiers>
        <_>
          <internalNodes>
            0 -1 67 1087287279 -503585853 -135266305 2136933436
            -772219681 -110100636 -1057161217 -322175153</internalNodes>
          <leafValues>
            3.7546933162957430e-03 5.5259507894515991e-01</leafValues></_>
        <_>
          <internalNodes>
            0 -1 121 1342698990 809156623 -1069087330 -287833890 6308955
            -2123593203 -766032034 2108748594</internalNodes>
          <leafValues>
            -3.9772424101829529e-01 2.0015238225460052e-01</leafValues></_>
        <_>
          <internalNodes>
            0 -1 218 -1613762637 973057915 -117571716 -1912733698
            1314889445 -856721547 -36308579 1543452123</internalNodes>
          <leafValues>
            -2.2347439825534821e-01 2.9451337456703186e-01</leafValues></_>
        <_>
          <internalNodes>
            0 -1 177 -504634414 1310880643 2142420438 -1640634461
            -616040449 67419369 72725981 -926157698</internalNodes>
          <leafValues>
            -2.3972415924072266e-01 2.7323409914970398e-01</leafValues></_>
        <_>
          <internalNodes>
            0 -1 161 -1392565708 1019710357 -926821959 -133644077
            -1027350025 -1870601597 336472323 -997987239</internalNodes>
          <leafValues>
            -4.4670367240905762e-01 1.1258411407470703e-01</leafValues></_>
        <_>
          <internalNodes>
            0 -1 48 -800211460 -1244022869 -1419306341 -170168558
            -664474276 639258461 1079708875 -616050789</internalNodes>
          <leafValues>
            -1.8309549987316132e-01 3.5170805454254150e-01</leafValues></_>
        <_>
          <internalNodes>
            0 -1 243 -672478465 -784508113 -22102313 -43553377
            1477355662 -204702163 -296945745 -123061564</internalNodes>
          <leafValues>
            -1.6364423930644989e-01 3.9442020654678345e-01</leafValues></_>
        <_>
          <internalNodes>
            0 -1 159 -368355038 134337432 -44478319 -1172030934
            -1019036452 389650460 1826882104 697972383</internalNodes>
          <leafValues>
            -3.0966454744338989e-01 2.0577122271060944e-01</leafValues></_>
        <_>
          <internalNodes>
            0 -1 66 -805570187 -549987211 -1997021707 925443766
            1190657265 -1141080716 -1744994084 -72101326</internalNodes>
          <leafValues>
            -1.6975925862789154e-01 3.9502629637718201e-01</leafValues></_>
        <_>
          <internalNodes>
            0 -1 232 -1041802261 -1150211150 -1111803317 -213172469
            -1045901171 -2121392335 -840104708 71819407</internalNodes>
          <leafValues>
            -2.2245350480079651e-01 3.0783727765083313e-01</leafValues></_>
        <_>
          <internalNodes>
            0 -1 58 1897349381 -344780361 -1086801416 -215122290
            272481757 -287591042 -719819240 761837258</internalNodes>
          <leafValues>
            -2.4863825738430023e-01 2.5780129432678223e-01</leafValues></_>
        <_>
          <internalNodes>
            0 -1 0 1721378306 -799761261 -2080111338 -795832130
            -1852968772 1359382666 402840370 -94572580</internalNodes>
          <leafValues>
            -5.1803410053253174e-01 1.3449476659297943e-01</leafValues></_>
        <_>
          <internalNodes>
            0 -1 246 72281719 768665393 1802698694 -873203387
            -1359152244 375275006 -1480410689 -1443188629</internalNodes>
          <leafValues>
            -2.1105861663818359e-01 3.4439876675605774e-01</leafValues></_>
        <_>
          <internalNodes>
            0 -1 166 1343283581 -764406700 -2146967207 860788510
            1367520317 -1046220786 988743207 -14286314</internalNodes>
          <leafValues>
            -2.9484090209007263e-01 2.1594959497451782e-01</leafValues></_>
        <_>
          <internalNodes>
            0 -1 209 1180036578 1642194919 1324996021 -860101970
            -1034881109 88465135 75482863 -980485185</internalNodes>
          <leafValues>
            -2.2314989566802979e-01 3.1398341059684753e-01</leafValues></_>
        <_>
          <internalNodes>
            0 -1 129 -419711401 741570167 -1707952324 1982322541
            266448781 -278474977 435728318 -58928305</internalNodes>
          <leafValues>
            -2.1227404475212097e-01 3.2367318868637085e-01</leafValues></_>
        <_>
          <internalNodes>
            0 -1 51 -1241671824 281554824 -1611990215 -1114342550
            -595617155 -1199966899 1387909337 -574363411</internalNodes>
          <leafValues>
            -2.1141743659973145e-01 3.2978278398513794e-01</leafValues></_>
        <_>
          <internalNodes>
            0 -1 60 -714005423 -269668801 1983217350 345238509
            -1341671515 -807952458 -982229291 -1354429239</internalNodes>
          <leafValues>
            -2.4025362730026245e-01 2.9905116558074951e-01</leafValues></_>
        <_>
          <internalNodes>
            0 -1 151 253860143 55539527 -1560806887 622767645
            -1879181963 -2022953089 -889855988 -1879320701</internalNodes>
          <leafValues>
            -2.0846791565418243e-01 3.2825210690498352e-01</leafValues></_>
        <_>
          <internalNodes>
            0 -1 204 381677011 116454839 -34210843 -1083214105
            1035976590 -1078084163 -1383182870 -1166020865</internalNodes>
          <leafValues>
            -1.4351783692836761e-01 4.8883733153343201e-01</leafValues></_>
        <_>
          <internalNodes>
            0 -1 93 -1620183619 397866858 1710749946 -1314021761
            -1868243035 -327633466 -2135634819 -75908917</internalNodes>
          <leafValues>
            -1.6155295073986053e-01 4.2703539133071899e-01</leafValues></_>
        <_>
          <internalNodes>
            0 -1 14 1676606190 -1854207884 -697176425 9899223 92157037
            -1631971777 1782541377 -1329343782</internalNodes>
          <leafValues>
            -2.3915712535381317e-01 2.9278430342674255e-01</leafValues></_>
        <_>
          <internalNodes>
            0 -1 155 -1886525517 -593993732 1471396143 -338000078
            1318047406 203939659 -1834556164 -907281666</internalNodes>
          <leafValues>
            -1.9740256667137146e-01 3.7984251976013184e-01</leafValues></_></weakClassifiers></_>
    <!-- stage 12 -->
    <_>
      <maxWeakCount>23</maxWeakCount>
      <stageThreshold>-6.4703571796417236e-01</stageThreshold>
      <weakClassifiers>
        <_>
          <internalNodes>
            0 -1 80 1090430895 -2122428419 -1954588905 -446206068
            1153830907 -1929478276 1146732269 -857754257</internalNodes>
          <leafValues>
            -1.2035851180553436e-01 4.9301487207412720e-01</leafValues></_>
        <_>
          <internalNodes>
            0 -1 122 -119542293 1224651167 -332332961 -1234506790
            -501111853 981424474 -634832053 -218698054</internalNodes>
          <leafValues>
            -2.5912767648696899e-01 2.7905824780464172e-01</leafValues></_>
        <_>
          <internalNodes>
            0 -1 199 -832582363 1708878421 1967523899 -971554066
            -1467439102 -939449146 -2147448625 -662656900</internalNodes>
          <leafValues>
            -3.1496301293373108e-01 2.2143647074699402e-01</leafValues></_>
        <_>
          <internalNodes>
            0 -1 83 -134525958 1997717307 -17189 -38082941 -528393
            1870462974 2146762663 -37230845</internalNodes>
          <leafValues>
            -2.1750929951667786e-01 3.0801397562026978e-01</leafValues></_>
        <_>
          <internalNodes>
            0 -1 46 -374034610 1909916496 357370113 -246149119
            -1534868567 -2137717760 -1596355660 -1474711021</internalNodes>
          <leafValues>
            -2.9817265272140503e-01 2.3402920365333557e-01</leafValues></_>
        <_>
          <internalNodes>
            0 -1 40 -759256129 -802015104 -1610794411 -1431686807
            -261821061 1865133694 -1409850305 -1086428933</internalNodes>
          <leafValues>
            -1.5309411287307739e-01 3.8907682895660400e-01</leafValues></_>
        <_>
          <internalNodes>
            0 -1 176 -821559375 154401523 948815545 -207261709 72253354
            1952438079 -704779793 -774261870</internalNodes>
          <leafValues>
            -2.0965658128261566e-01 3.3914247155189514e-01</leafValues></_>
        <_>
          <internalNodes>
            0 -1 33 1995028890 -1210931682 285524059 986773915 16982299
            547554402 1082387092 1551719447</internalNodes>
          <leafValues>
            -2.8310418128967285e-01 2.3223625123500824e-01</leafValues></_>
        <_>
          <internalNodes>
            0 -1 169 -602157102 1613214766 -1715989172 135172906
            -22838700 -902943348 -1851620032 145224448</internalNodes>
          <leafValues>
            -4.7780752182006836e-01 1.2970051169395447e-01</leafValues></_>
        <_>
          <internalNodes>
            0 -1 238 -303063613 -322062801 -445517360 -39749658
            -833784601 -592977985 -1074844939 -1881186863</internalNodes>
          <leafValues>
            -1.8873144686222076e-01 3.6241596937179565e-01</leafValues></_>
        <_>
          <internalNodes>
            0 -1 167 -1347518047 -817431012 -268994755 -675358704
            -285413379 -1346519050 -134912385 -46725373</internalNodes>
          <leafValues>
            -2.3292924463748932e-01 2.9757001996040344e-01</leafValues></_>
        <_>
          <internalNodes>
            0 -1 223 268462433 269654160 537875929 -1920216372
            -1592930834 -1836793853 -1111901507 195256552</internalNodes>
          <leafValues>
            -3.2726898789405823e-01 2.1238625049591064e-01</leafValues></_>
        <_>
          <internalNodes>
            0 -1 16 685865732 1880412318 859310274 426197592 -466906913
            875629815 412342446 1717816122</internalNodes>
          <leafValues>
            -2.7033054828643799e-01 2.6497375965118408e-01</leafValues></_>
        <_>
          <internalNodes>
            0 -1 49 -1138180330 616523571 -1116129225 -1284911565
            -79334641 -254620508 -1068873522 -146580177</internalNodes>
          <leafValues>
            -2.3071020841598511e-01 3.0317729711532593e-01</leafValues></_>
        <_>
          <internalNodes>
            0 -1 111 -2091991215 -1179972 1870122989 -146802180 74300552
            1728018060 1152232669 -989371297</internalNodes>
          <leafValues>
            -2.5370174646377563e-01 2.7502021193504333e-01</leafValues></_>
        <_>
          <internalNodes>
            0 -1 231 -1632701786 110089506 -855428638 1794099174
            194791496 1211836605 1423403445 -2122196753</internalNodes>
          <leafValues>
            -3.1967800855636597e-01 2.1527239680290222e-01</leafValues></_>
        <_>
          <internalNodes>
            0 -1 53 -75580917 820419134 853786447 -723069525 -805710818
            -606584976 -1971374865 -360697543</internalNodes>
          <leafValues>
            -2.1924558281898499e-01 3.3537888526916504e-01</leafValues></_>
        <_>
          <internalNodes>
            0 -1 191 -570330237 296642471 -58738709 -1850705047 37082572
            -430180588 167631245 -87371957</internalNodes>
          <leafValues>
            -2.0140658318996429e-01 3.5648062825202942e-01</leafValues></_>
        <_>
          <internalNodes>
            0 -1 184 -132446320 1305789183 1351659954 -169915361
            1896215516 -310417011 607687210 139951911</internalNodes>
          <leafValues>
            -3.1416353583335876e-01 2.3778754472732544e-01</leafValues></_>
        <_>
          <internalNodes>
            0 -1 241 -138420957 -1971295644 -847298913 -1868929182
            -1661747317 -865601938 -2013831515 -1061816531</internalNodes>
          <leafValues>
            -2.2152358293533325e-01 3.3125078678131104e-01</leafValues></_>
        <_>
          <internalNodes>
            0 -1 101 -1032674743 159796498 1675568829 1364876624
            1208383060 -98266875 1082721508 19183028</internalNodes>
          <leafValues>
            -3.7462136149406433e-01 2.0208227634429932e-01</leafValues></_>
        <_>
          <internalNodes>
            0 -1 17 -164631638 600784931 1346416650 771958419 -359093279
            1804552669 -1626718677 1745324522</internalNodes>
          <leafValues>
            -2.7387359738349915e-01 2.6778030395507812e-01</leafValues></_>
        <_>
          <internalNodes>
            0 -1 174 1730087711 877005181 -264238917 309741371
            1644180496 355174831 -183674212 -2031985840</internalNodes>
          <leafValues>
            -3.3247169852256775e-01 2.2260589897632599e-01</leafValues></_></weakClassifiers></_>
    <!-- stage 13 -->
    <_>
      <maxWeakCount>25</maxWeakCount>
      <stageThreshold>-9.1571873426437378e-01</stageThreshold>
      <weakClassifiers>
        <_>
          <internalNodes>
            0 -1 99 218033902 -227476750 1862205423 -34018578
            -2063740948 -1196363788 215482091 83227319</internalNodes>
          <leafValues>
            -2.1502347290515900e-01 4.5167171955108643e-01</leafValues></_>
        <_>
          <internalNodes>
            0 -1 227 -275781775 -2072543369 -17346625 -536920077
            1945419193 -17178633 -268894737 -16938185</internalNodes>
          <leafValues>
            -2.2976487874984741e-01 3.0011063814163208e-01</leafValues></_>
        <_>
          <internalNodes>
            0 -1 35 1438208272 1548228020 962549873 -2013242350
            671793832 -1329386902 -23415553 -1724157453</internalNodes>
          <leafValues>
            -2.6101216673851013e-01 2.5773009657859802e-01</leafValues></_>
        <_>
          <internalNodes>
            0 -1 52 -706616854 761129120 -1594757505 652602993
            -848969946 951320377 1753050611 -320082498</internalNodes>
          <leafValues>
            -2.4188381433486938e-01 2.6134952902793884e-01</leafValues></_>
        <_>
          <internalNodes>
            0 -1 106 2122227221 -1396932816 -1344707073 2137930532
            -212505481 100431853 758058174 -1957480665</internalNodes>
          <leafValues>
            -2.1314653754234314e-01 2.8994092345237732e-01</leafValues></_>
        <_>
          <internalNodes>
            0 -1 162 1565848437 272646610 1343607959 -418188353
            -2109486603 -1566537415 1364282706 -1430331050</internalNodes>
          <leafValues>
            -2.7850347757339478e-01 2.2386124730110168e-01</leafValues></_>
        <_>
          <internalNodes>
            0 -1 15 -2069692418 -222142213 -1197249588 989306020
            -534799637 -531456069 -1511476502 -20845177</internalNodes>
          <leafValues>
            -2.3204556107521057e-01 2.8395965695381165e-01</leafValues></_>
        <_>
          <internalNodes>
            0 -1 164 -502793184 -167800582 -2092628779 2107151530
            420121275 -1434220503 723059481 -353284756</internalNodes>
          <leafValues>
            -2.9306697845458984e-01 2.2108773887157440e-01</leafValues></_>
        <_>
          <internalNodes>
            0 -1 150 67413622 1510507964 -788390562 103022598 1174997112
            -778429272 1282943196 532900818</internalNodes>
          <leafValues>
            -4.0193778276443481e-01 1.7111518979072571e-01</leafValues></_>
        <_>
          <internalNodes>
            0 -1 230 -407898639 -1561412639 -1952448546 -1154757758
            -1012017671 -1626346041 -1056991927 -352597559</internalNodes>
          <leafValues>
            -1.9205534458160400e-01 3.5226497054100037e-01</leafValues></_>
        <_>
          <internalNodes>
            0 -1 242 -614748226 2009836557 2122296797 2128068119
            -160781226 -144777718 -60961746 -1518099190</internalNodes>
          <leafValues>
            -1.6818885505199432e-01 3.6992219090461731e-01</leafValues></_>
        <_>
          <internalNodes>
            0 -1 76 284690832 336660609 -1878682352 124033309 193862592
            -872343440 -1442156103 -1561292344</internalNodes>
          <leafValues>
            -5.0227403640747070e-01 1.3184285163879395e-01</leafValues></_>
        <_>
          <internalNodes>
            0 -1 77 -871777325 486719695 24118583 584864159 -396881038
            1486487755 545472596 542085256</internalNodes>
          <leafValues>
            -2.9592385888099670e-01 2.2925336658954620e-01</leafValues></_>
        <_>
          <internalNodes>
            0 -1 22 -84466699 -1002969579 133937663 1969748577
            -1351856129 -1377993651 -1471367303 -842332677</internalNodes>
          <leafValues>
            -1.6866429150104523e-01 4.0530222654342651e-01</leafValues></_>
        <_>
          <internalNodes>
            0 -1 75 -535857125 429292088 536803769 -537105359
            -2029650261 -70459694 1288592813 -1888760197</internalNodes>
          <leafValues>
            -1.7308326065540314e-01 3.9555048942565918e-01</leafValues></_>
        <_>
          <internalNodes>
            0 -1 18 -318327178 -1376059979 1559209560 258427117
            -17041962 1442652158 -142805490 970722015</internalNodes>
          <leafValues>
            -2.4498838186264038e-01 2.8497877717018127e-01</leafValues></_>
        <_>
          <internalNodes>
            0 -1 23 -1342407946 -559614473 -432144603 -1616827803
            2113928751 -587399201 1852616559 -102496030</internalNodes>
          <leafValues>
            -2.4658934772014618e-01 2.8028786182403564e-01</leafValues></_>
        <_>
          <internalNodes>
            0 -1 181 -1565389568 -1224812471 -1714715653 -1128194776
            -1022574372 -1671753549 -1122569591 -374236358</internalNodes>
          <leafValues>
            -3.3371213078498840e-01 2.1052183210849762e-01</leafValues></_>
        <_>
          <internalNodes>
            0 -1 41 -3218258 -1820722901 -1448087574 1294384446
            -418396163 2042904493 -1922242778 -38369741</internalNodes>
          <leafValues>
            -2.0056901872158051e-01 3.5615959763526917e-01</leafValues></_>
        <_>
          <internalNodes>
            0 -1 234 1153893122 177066434 1345413891 -778182321
            -2071725723 65575048 1427102957 1171114368</internalNodes>
          <leafValues>
            -3.4193998575210571e-01 2.1221603453159332e-01</leafValues></_>
        <_>
          <internalNodes>
            0 -1 84 1423134063 -521403075 455276079 -623987291 442985013
            -300458492 1655130337 -1268533835</internalNodes>
          <leafValues>
            -2.6517984271049500e-01 2.8625839948654175e-01</leafValues></_>
        <_>
          <internalNodes>
            0 -1 175 648229667 688877757 214556543 -273447109
            -1895922858 212631023 -1177733644 -1075409291</internalNodes>
          <leafValues>
            -2.4424883723258972e-01 2.9996597766876221e-01</leafValues></_>
        <_>
          <internalNodes>
            0 -1 7 74074105 2138864225 318242552 1058080443 1195313880
            -1662161969 -445349953 -1941930669</internalNodes>
          <leafValues>
            -2.2944281995296478e-01 3.1080186367034912e-01</leafValues></_>
        <_>
          <internalNodes>
            0 -1 37 -4260865 -600801297 -134466216 -134807944 -159956282
            -869222916 -338831931 -712263775</internalNodes>
          <leafValues>
            -2.2578071057796478e-01 3.1972405314445496e-01</leafValues></_>
        <_>
          <internalNodes>
            0 -1 221 -1911137023 649042575 -793198480 214237449
            1804717184 -862121599 -2068609440 -417133181</internalNodes>
          <leafValues>
            -3.3942624926567078e-01 2.0537957549095154e-01</leafValues></_></weakClassifiers></_>
    <!-- stage 14 -->
    <_>
      <maxWeakCount>23</maxWeakCount>
      <stageThreshold>-6.6422671079635620e-01</stageThreshold>
      <weakClassifiers>
        <_>
          <internalNodes>
            0 -1 137 -1406260704 -495096265 -1090732037 -541114557
            -1343229663 -1342799960 -831033349 -404590765</internalNodes>
          <leafValues>
            -2.9610389471054077e-01 4.2600381374359131e-01</leafValues></_>
        <_>
          <internalNodes>
            0 -1 94 -639541948 872888084 -2063548091 -184532543
            -206505750 1138825216 -905862981 -1212068556</internalNodes>
          <leafValues>
            -3.6561787128448486e-01 1.9326996803283691e-01</leafValues></_>
        <_>
          <internalNodes>
            0 -1 153 -359671654 -1469448789 -134244385 -235327049
            -1996309105 -896833713 -574892595 -1650459461</internalNodes>
          <leafValues>
            -1.7584000527858734e-01 3.6897838115692139e-01</leafValues></_>
        <_>
          <internalNodes>
            0 -1 178 -635122339 1884638229 -2008529642 -854978541
            3352861 13320392 -656734195 -61399275</internalNodes>
          <leafValues>
            -2.5945812463760376e-01 2.2812755405902863e-01</leafValues></_>
        <_>
          <internalNodes>
            0 -1 144 1146940006 1956151930 1409092 1341314202 177025026
            553779569 -1006170934 -147686866</internalNodes>
          <leafValues>
            -3.7901437282562256e-01 1.6063551604747772e-01</leafValues></_>
        <_>
          <internalNodes>
            0 -1 125 641050167 1507040124 1839345361 1025284775
            863239681 -674101939 -465632953 -1476429105</internalNodes>
          <leafValues>
            -2.2662669420242310e-01 2.8938734531402588e-01</leafValues></_>
        <_>
          <internalNodes>
            0 -1 3 -1402418206 -413629796 -2072841954 -1495523047
            -342109469 -1351974781 -1878724788 -1999973576</internalNodes>
          <leafValues>
            -3.5526782274246216e-01 1.9436711072921753e-01</leafValues></_>
        <_>
          <internalNodes>
            0 -1 108 -772933635 -14899568 1407817401 -1109271044
            -579404119 -675184934 -948249143 -1848945159</internalNodes>
          <leafValues>
            -1.8285341560840607e-01 3.7789362668991089e-01</leafValues></_>
        <_>
          <internalNodes>
            0 -1 13 967540578 -12592019 1643800052 -779012367 2120168709
            309269349 -448815626 745215313</internalNodes>
          <leafValues>
            -2.4097251892089844e-01 2.6733234524726868e-01</leafValues></_>
        <_>
          <internalNodes>
            0 -1 136 -484864079 -373837872 -855529609 -1119487984
            -1885541977 1610687234 -265096880 1411553282</internalNodes>
          <leafValues>
            -2.6395669579505920e-01 2.5044435262680054e-01</leafValues></_>
        <_>
          <internalNodes>
            0 -1 228 1361701383 2038281261 2083288115 -977813927
            1156485030 1686146395 357989339 1769727938</internalNodes>
          <leafValues>
            -2.1979489922523499e-01 2.9859152436256409e-01</leafValues></_>
        <_>
          <internalNodes>
            0 -1 185 -801977101 359820662 -16793711 1038459978
            -1795843652 1509879116 626598578 460025851</internalNodes>
          <leafValues>
            -2.1107040345668793e-01 3.0666434764862061e-01</leafValues></_>
        <_>
          <internalNodes>
            0 -1 24 -809741092 -1125108778 -2129435937 990040733
            862274870 944263849 -532281084 -443793077</internalNodes>
          <leafValues>
            -2.6980331540107727e-01 2.5354322791099548e-01</leafValues></_>
        <_>
          <internalNodes>
            0 -1 103 -918125743 -1254782430 1117426802 -65059503
            2076743871 -620715989 1548682378 1131393287</internalNodes>
          <leafValues>
            -2.5909900665283203e-01 2.5447857379913330e-01</leafValues></_>
        <_>
          <internalNodes>
            0 -1 126 882408924 716959897 1645777867 -1248837015
            -2013013573 694304896 -1050438565 169005126</internalNodes>
          <leafValues>
            -2.9117992520332336e-01 2.2415897250175476e-01</leafValues></_>
        <_>
          <internalNodes>
            0 -1 195 -2106064767 2014414935 151063523 169401999
            1279525515 -69727727 -706545275 756265475</internalNodes>
          <leafValues>
            -2.6940119266510010e-01 2.4386183917522430e-01</leafValues></_>
        <_>
          <internalNodes>
            0 -1 70 -722254747 1812268117 -2122221555 2133813711
            -794289955 -922084990 -1045251879 7667800</internalNodes>
          <leafValues>
            -2.8564450144767761e-01 2.3047357797622681e-01</leafValues></_>
        <_>
          <internalNodes>
            0 -1 63 1475665873 -694743237 -1090568460 -967868725
            -556122679 -1277245448 2062385900 -674168615</internalNodes>
          <leafValues>
            -1.9559019804000854e-01 3.4201169013977051e-01</leafValues></_>
        <_>
          <internalNodes>
            0 -1 184 -84596461 -60330369 -85262998 -102823154 1424334223
            -1090748579 -1191739670 524123866</internalNodes>
          <leafValues>
            -2.0129238069057465e-01 3.1449350714683533e-01</leafValues></_>
        <_>
          <internalNodes>
            0 -1 11 -318779418 1259560047 968866986 -9204014 -26220806
            -718307353 568821198 -845446006</internalNodes>
          <leafValues>
            -1.6946357488632202e-01 3.7325707077980042e-01</leafValues></_>
        <_>
          <internalNodes>
            0 -1 239 -139402685 -187864358 -1609359497 -2038416165
            -71969027 1827665407 1885664507 -591744299</internalNodes>
          <leafValues>
            -2.0427685976028442e-01 3.3594059944152832e-01</leafValues></_>
        <_>
          <internalNodes>
            0 -1 39 2018836809 -1729789822 1155809 1128817683 1536309968
            -133144398 -493229945 798582595</internalNodes>
          <leafValues>
            -2.9744705557823181e-01 2.4101053178310394e-01</leafValues></_>
        <_>
          <internalNodes>
            0 -1 61 761181116 1369864026 220068847 703071992 -251571955
            1544635162 1208151189 -2075623871</internalNodes>
          <leafValues>
            -3.3456292748451233e-01 2.0502205193042755e-01</leafValues></_></weakClassifiers></_></stages>
  <features>
    <_>
      <rect>
        0 1 9 9</rect></_>
    <_>
      <rect>
        0 1 10 9</rect></_>
    <_>
      <rect>
        0 3 10 8</rect></_>
    <_>
      <rect>
        0 4 7 6</rect></_>
    <_>
      <rect>
        0 7 4 6</rect></_>
    <_>
      <rect>
        0 14 3 2</rect></_>
    <_>
      <rect>
        0 15 10 4</rect></_>
    <_>
      <rect>
        0 24 3 2</rect></_>
    <_>
      <rect>
        0 24 9 2</rect></_>
    <_>
      <rect>
        1 4 4 4</rect></_>
    <_>
      <rect>
        1 4 4 7</rect></_>
    <_>
      <rect>
        1 10 2 3</rect></_>
    <_>
      <rect>
        1 14 3 2</rect></_>
    <_>
      <rect>
        2 7 4 4</rect></_>
    <_>
      <rect>
        2 11 2 4</rect></_>
    <_>
      <rect>
        2 14 3 4</rect></_>
    <_>
      <rect>
        2 16 3 2</rect></_>
    <_>
      <rect>
        3 0 6 4</rect></_>
    <_>
      <rect>
        3 1 6 5</rect></_>
    <_>
      <rect>
        3 12 4 3</rect></_>
    <_>
      <rect>
        3 27 8 1</rect></_>
    <_>
      <rect>
        4 3 4 3</rect></_>
    <_>
      <rect>
        4 12 3 3</rect></_>
    <_>
      <rect>
        4 12 6 4</rect></_>
    <_>
      <rect>
        4 14 3 5</rect></_>
    <_>
      <rect>
        4 20 4 3</rect></_>
    <_>
      <rect>
        5 0 5 6</rect></_>
    <_>
      <rect>
        5 2 8 9</rect></_>
    <_>
      <rect>
        5 8 5 7</rect></_>
    <_>
      <rect>
        5 11 5 4</rect></_>
    <_>
      <rect>
        5 12 7 2</rect></_>
    <_>
      <rect>
        5 13 3 3</rect></_>
    <_>
      <rect>
        5 14 3 2</rect></_>
    <_>
      <rect>
        5 15 4 5</rect></_>
    <_>
      <rect>
        5 20 3 2</rect></_>
    <_>
      <rect>
        5 24 6 2</rect></_>
    <_>
      <rect>
        5 27 3 1</rect></_>
    <_>
      <rect>
        5 27 7 1</rect></_>
    <_>
      <rect>
        6 0 8 10</rect></_>
    <_>
      <rect>
        6 3 5 5</rect></_>
    <_>
      <rect>
        6 4 2 3</rect></_>
    <_>
      <rect>
        6 7 2 2</rect></_>
    <_>
      <rect>
        6 8 4 3</rect></_>
    <_>
      <rect>
        6 9 3 4</rect></_>
    <_>
      <rect>
        6 10 2 3</rect></_>
    <_>
      <rect>
        6 11 2 2</rect></_>
    <_>
      <rect>
        6 11 4 2</rect></_>
    <_>
      <rect>
        6 12 4 4</rect></_>
    <_>
      <rect>
        6 17 7 4</rect></_>
    <_>
      <rect>
        6 18 7 4</rect></_>
    <_>
      <rect>
        6 21 4 2</rect></_>
    <_>
      <rect>
        6 27 3 1</rect></_>
    <_>
      <rect>
        7 2 4 7</rect></_>
    <_>
      <rect>
        7 5 2 2</rect></_>
    <_>
      <rect>
        7 8 2 2</rect></_>
    <_>
      <rect>
        7 8 6 4</rect></_>
    <_>
      <rect>
        7 9 6 3</rect></_>
    <_>
      <rect>
        7 10 2 3</rect></_>
    <_>
      <rect>
        7 11 1 2</rect></_>
    <_>
      <rect>
        7 12 4 4</rect></_>
    <_>
      <rect>
        7 13 1 2</rect></_>
    <_>
      <rect>
        7 18 4 3</rect></_>
    <_>
      <rect>
        7 18 5 4</rect></_>
    <_>
      <rect>
        7 21 2 1</rect></_>
    <_>
      <rect>
        7 27 3 1</rect></_>
    <_>
      <rect>
        8 6 5 6</rect></_>
    <_>
      <rect>
        8 8 2 2</rect></_>
    <_>
      <rect>
        8 8 3 3</rect></_>
    <_>
      <rect>
        8 9 2 2</rect></_>
    <_>
      <rect>
        8 10 3 2</rect></_>
    <_>
      <rect>
        8 13 1 2</rect></_>
    <_>
      <rect>
        8 14 7 5</rect></_>
    <_>
      <rect>
        8 18 1 1</rect></_>
    <_>
      <rect>
        8 20 2 3</rect></_>
    <_>
      <rect>
        8 22 2 2</rect></_>
    <_>
      <rect>
        8 23 3 2</rect></_>
    <_>
      <rect>
        9 0 6 10</rect></_>
    <_>
      <rect>
        9 6 4 2</rect></_>
    <_>
      <rect>
        9 7 6 3</rect></_>
    <_>
      <rect>
        9 8 4 4</rect></_>
    <_>
      <rect>
        9 9 3 2</rect></_>
    <_>
      <rect>
        9 11 2 1</rect></_>
    <_>
      <rect>
        9 11 3 1</rect></_>
    <_>
      <rect>
        9 12 3 4</rect></_>
    <_>
      <rect>
        9 13 1 1</rect></_>
    <_>
      <rect>
        9 13 7 5</rect></_>
    <_>
      <rect>
        9 14 1 1</rect></_>
    <_>
      <rect>
        9 14 4 4</rect></_>
    <_>
      <rect>
        9 17 3 4</rect></_>
    <_>
      <rect>
        9 19 7 3</rect></_>
    <_>
      <rect>
        9 21 7 3</rect></_>
    <_>
      <rect>
        9 24 4 2</rect></_>
    <_>
      <rect>
        9 25 1 1</rect></_>
    <_>
      <rect>
        9 27 3 1</rect></_>
    <_>
      <rect>
        10 3 6 7</rect></_>
    <_>
      <rect>
        10 4 3 4</rect></_>
    <_>
      <rect>
        10 7 3 2</rect></_>
    <_>
      <rect>
        10 9 1 3</rect></_>
    <_>
      <rect>
        10 9 3 2</rect></_>
    <_>
      <rect>
        10 10 2 3</rect></_>
    <_>
      <rect>
        10 10 3 2</rect></_>
    <_>
      <rect>
        10 11 1 1</rect></_>
    <_>
      <rect>
        10 11 1 3</rect></_>
    <_>
      <rect>
        10 11 6 6</rect></_>
    <_>
      <rect>
        10 12 2 3</rect></_>
    <_>
      <rect>
        10 13 3 2</rect></_>
    <_>
      <rect>
        10 17 3 2</rect></_>
    <_>
      <rect>
        10 17 3 4</rect></_>
    <_>
      <rect>
        10 27 2 1</rect></_>
    <_>
      <rect>
        11 2 2 2</rect></_>
    <_>
      <rect>
        11 7 4 5</rect></_>
    <_>
      <rect>
        11 8 2 2</rect></_>
    <_>
      <rect>
        11 9 2 4</rect></_>
    <_>
      <rect>
        11 9 4 2</rect></_>
    <_>
      <rect>
        11 10 1 3</rect></_>
    <_>
      <rect>
        11 10 3 1</rect></_>
    <_>
      <rect>
        11 11 1 3</rect></_>
    <_>
      <rect>
        11 12 1 2</rect></_>
    <_>
      <rect>
        11 12 2 1</rect></_>
    <_>
      <rect>
        11 12 2 2</rect></_>
    <_>
      <rect>
        11 13 2 2</rect></_>
    <_>
      <rect>
        11 14 2 2</rect></_>
    <_>
      <rect>
        11 15 1 1</rect></_>
    <_>
      <rect>
        11 15 3 2</rect></_>
    <_>
      <rect>
        11 17 3 2</rect></_>
    <_>
      <rect>
        11 19 1 1</rect></_>
    <_>
      <rect>
        11 19 3 3</rect></_>
    <_>
      <rect>
        11 24 3 2</rect></_>
    <_>
      <rect>
        11 25 4 1</rect></_>
    <_>
      <rect>
        12 3 4 5</rect></_>
    <_>
      <rect>
        12 5 1 1</rect></_>
    <_>
      <rect>
        12 8 2 2</rect></_>
    <_>
      <rect>
        12 9 1 2</rect></_>
    <_>
      <rect>
        12 9 2 2</rect></_>
    <_>
      <rect>
        12 9 2 3</rect></_>
    <_>
      <rect>
        12 9 3 2</rect></_>
    <_>
      <rect>
        12 10 2 1</rect></_>
    <_>
      <rect>
        12 10 2 2</rect></_>
    <_>
      <rect>
        12 11 1 2</rect></_>
    <_>
      <rect>
        12 11 2 1</rect></_>
    <_>
      <rect>
        12 11 3 1</rect></_>
    <_>
      <rect>
        12 12 1 2</rect></_>
    <_>
      <rect>
        12 12 2 1</rect></_>
    <_>
      <rect>
        12 13 1 1</rect></_>
    <_>
      <rect>
        12 13 1 2</rect></_>
    <_>
      <rect>
        12 13 3 5</rect></_>
    <_>
      <rect>
        12 14 1 1</rect></_>
    <_>
      <rect>
        12 14 2 3</rect></_>
    <_>
      <rect>
        12 14 3 2</rect></_>
    <_>
      <rect>
        12 15 1 1</rect></_>
    <_>
      <rect>
        12 16 2 1</rect></_>
    <_>
      <rect>
        12 20 2 1</rect></_>
    <_>
      <rect>
        12 22 1 2</rect></_>
    <_>
      <rect>
        12 22 3 2</rect></_>
    <_>
      <rect>
        12 22 5 2</rect></_>
    <_>
      <rect>
        12 23 2 2</rect></_>
    <_>
      <rect>
        12 23 3 2</rect></_>
    <_>
      <rect>
        12 24 1 2</rect></_>
    <_>
      <rect>
        12 25 1 1</rect></_>
    <_>
      <rect>
        12 25 2 1</rect></_>
    <_>
      <rect>
        13 9 1 1</rect></_>
    <_>
      <rect>
        13 10 2 2</rect></_>
    <_>
      <rect>
        13 11 2 5</rect></_>
    <_>
      <rect>
        13 12 1 1</rect></_>
    <_>
      <rect>
        13 12 1 2</rect></_>
    <_>
      <rect>
        13 12 2 1</rect></_>
    <_>
      <rect>
        13 12 2 5</rect></_>
    <_>
      <rect>
        13 13 1 1</rect></_>
    <_>
      <rect>
        13 14 1 1</rect></_>
    <_>
      <rect>
        13 14 2 1</rect></_>
    <_>
      <rect>
        13 14 3 2</rect></_>
    <_>
      <rect>
        13 15 2 2</rect></_>
    <_>
      <rect>
        13 15 3 2</rect></_>
    <_>
      <rect>
        13 16 1 1</rect></_>
    <_>
      <rect>
        13 17 1 1</rect></_>
    <_>
      <rect>
        13 20 1 1</rect></_>
    <_>
      <rect>
        13 20 3 3</rect></_>
    <_>
      <rect>
        13 23 3 2</rect></_>
    <_>
      <rect>
        14 1 3 6</rect></_>
    <_>
      <rect>
        14 9 2 2</rect></_>
    <_>
      <rect>
        14 9 3 2</rect></_>
    <_>
      <rect>
        14 12 1 1</rect></_>
    <_>
      <rect>
        14 12 1 2</rect></_>
    <_>
      <rect>
        14 12 2 2</rect></_>
    <_>
      <rect>
        14 13 1 1</rect></_>
    <_>
      <rect>
        14 14 1 1</rect></_>
    <_>
      <rect>
        14 14 2 2</rect></_>
    <_>
      <rect>
        14 14 3 2</rect></_>
    <_>
      <rect>
        14 15 1 1</rect></_>
    <_>
      <rect>
        14 16 1 1</rect></_>
    <_>
      <rect>
        14 16 2 1</rect></_>
    <_>
      <rect>
        14 19 5 3</rect></_>
    <_>
      <rect>
        14 21 3 3</rect></_>
    <_>
      <rect>
        14 24 2 2</rect></_>
    <_>
      <rect>
        14 24 3 1</rect></_>
    <_>
      <rect>
        15 4 5 3</rect></_>
    <_>
      <rect>
        15 8 1 2</rect></_>
    <_>
      <rect>
        15 8 2 4</rect></_>
    <_>
      <rect>
        15 10 2 1</rect></_>
    <_>
      <rect>
        15 10 2 2</rect></_>
    <_>
      <rect>
        15 11 2 2</rect></_>
    <_>
      <rect>
        15 13 1 1</rect></_>
    <_>
      <rect>
        15 13 2 2</rect></_>
    <_>
      <rect>
        15 14 2 2</rect></_>
    <_>
      <rect>
        15 15 1 1</rect></_>
    <_>
      <rect>
        15 15 1 2</rect></_>
    <_>
      <rect>
        15 16 1 2</rect></_>
    <_>
      <rect>
        15 17 1 1</rect></_>
    <_>
      <rect>
        15 18 1 2</rect></_>
    <_>
      <rect>
        15 22 3 2</rect></_>
    <_>
      <rect>
        15 23 2 2</rect></_>
    <_>
      <rect>
        15 24 1 1</rect></_>
    <_>
      <rect>
        15 26 1 1</rect></_>
    <_>
      <rect>
        16 10 2 2</rect></_>
    <_>
      <rect>
        16 11 1 2</rect></_>
    <_>
      <rect>
        16 11 1 3</rect></_>
    <_>
      <rect>
        16 12 1 2</rect></_>
    <_>
      <rect>
        16 12 2 2</rect></_>
    <_>
      <rect>
        16 12 2 3</rect></_>
    <_>
      <rect>
        16 13 1 1</rect></_>
    <_>
      <rect>
        16 13 2 2</rect></_>
    <_>
      <rect>
        16 14 1 1</rect></_>
    <_>
      <rect>
        16 14 1 2</rect></_>
    <_>
      <rect>
        16 15 1 2</rect></_>
    <_>
      <rect>
        16 19 4 3</rect></_>
    <_>
      <rect>
        16 21 2 2</rect></_>
    <_>
      <rect>
        17 8 1 3</rect></_>
    <_>
      <rect>
        17 10 1 3</rect></_>
    <_>
      <rect>
        17 18 4 3</rect></_>
    <_>
      <rect>
        17 19 3 3</rect></_>
    <_>
      <rect>
        17 24 1 1</rect></_>
    <_>
      <rect>
        17 25 2 1</rect></_>
    <_>
      <rect>
        18 10 3 6</rect></_>
    <_>
      <rect>
        18 13 1 1</rect></_>
    <_>
      <rect>
        18 19 3 3</rect></_>
    <_>
      <rect>
        18 27 1 1</rect></_>
    <_>
      <rect>
        19 8 2 4</rect></_>
    <_>
      <rect>
        19 23 1 1</rect></_>
    <_>
      <rect>
        19 24 1 1</rect></_>
    <_>
      <rect>
        20 4 3 5</rect></_>
    <_>
      <rect>
        23 6 2 4</rect></_>
    <_>
      <rect>
        23 17 2 3</rect></_>
    <_>
      <rect>
        24 4 2 8</rect></_>
    <_>
      <rect>
        24 9 1 2</rect></_>
    <_>
      <rect>
        24 10 2 5</rect></_>
    <_>
      <rect>
        24 21 1 1</rect></_>
    <_>
      <rect>
        25 12 1 3</rect></_>
    <_>
      <rect>
        26 13 1 1</rect></_>
    <_>
      <rect>
        27 16 1 3</rect></_></features></cascade>
</opencv_storage>
