<?xml version="1.0"?>
<opencv_storage>
<cascade>
  <stageType>BOOST</stageType>
  <featureType>LBP</featureType>
  <height>30</height>
  <width>30</width>
  <stageParams>
    <boostType>GAB</boostType>
    <minHitRate>9.9500000476837158e-01</minHitRate>
    <maxFalseAlarm>5.0000000000000000e-01</maxFalseAlarm>
    <weightTrimRate>9.4999999999999996e-01</weightTrimRate>
    <maxDepth>1</maxDepth>
    <maxWeakCount>100</maxWeakCount></stageParams>
  <featureParams>
    <maxCatCount>256</maxCatCount>
    <featSize>1</featSize></featureParams>
  <stageNum>15</stageNum>
  <stages>
    <!-- stage 0 -->
    <_>
      <maxWeakCount>7</maxWeakCount>
      <stageThreshold>-1.0255143642425537e+00</stageThreshold>
      <weakClassifiers>
        <_>
          <internalNodes>
            0 -1 21 -85808984 -571540280 -81950 -16662 -66568 -20740
            -131090 -2</internalNodes>
          <leafValues>
            -6.9158327579498291e-01 7.3820042610168457e-01</leafValues></_>
        <_>
          <internalNodes>
            0 -1 127 -61014832 -103607552 -1677617648 -2845952
            -339806136 -1712727576 -911549448 -70151</internalNodes>
          <leafValues>
            -5.6513822078704834e-01 4.5425081253051758e-01</leafValues></_>
        <_>
          <internalNodes>
            0 -1 12 -440160734 -1504921536 -247146529 -550401538
            2064214870 -276737980 -628508056 -481380</internalNodes>
          <leafValues>
            -5.6079852581024170e-01 2.6235872507095337e-01</leafValues></_>
        <_>
          <internalNodes>
            0 -1 79 -2072102177 -1877307202 -2012854817 521161034
            25932537 -1275452873 -483360026 -1634450200</internalNodes>
          <leafValues>
            -4.0953546762466431e-01 3.7916418910026550e-01</leafValues></_>
        <_>
          <internalNodes>
            0 -1 131 -1144957477 991737987 1782271499 -1223202813
            -796652337 -34087681 -396065286 -2883893</internalNodes>
          <leafValues>
            -2.6239433884620667e-01 6.1170178651809692e-01</leafValues></_>
        <_>
          <internalNodes>
            0 -1 163 -1480638923 1060208438 1938587263 -147046492
            -9053268 -1074865111 146277764 -1429283360</internalNodes>
          <leafValues>
            -3.5574811697006226e-01 4.0794175863265991e-01</leafValues></_>
        <_>
          <internalNodes>
            0 -1 213 -25205444 -317630764 -416588321 -48805505
            -1635756236 512021612 367096540 -42252684</internalNodes>
          <leafValues>
            -4.3325734138488770e-01 3.4729418158531189e-01</leafValues></_></weakClassifiers></_>
    <!-- stage 1 -->
    <_>
      <maxWeakCount>11</maxWeakCount>
      <stageThreshold>-1.1693369150161743e+00</stageThreshold>
      <weakClassifiers>
        <_>
          <internalNodes>
            0 -1 40 -66392 -572096864 -86074112 -1049184 -131074
            -16912978 -134284290 -6</internalNodes>
          <leafValues>
            -5.5163401365280151e-01 6.3624161481857300e-01</leafValues></_>
        <_>
          <internalNodes>
            0 -1 123 -81141808 -942541391 -1073763087 -8651043
            -603980321 -2339 -2293825 -268443653</internalNodes>
          <leafValues>
            -3.2486656308174133e-01 4.8670491576194763e-01</leafValues></_>
        <_>
          <internalNodes>
            0 -1 17 -1429432618 -1356412762 -334311235 -858791913
            -364318539 -271873073 -1551109260 -1364264306</internalNodes>
          <leafValues>
            -4.2156702280044556e-01 3.1758868694305420e-01</leafValues></_>
        <_>
          <internalNodes>
            0 -1 216 -67281451 -745324403 1611546711 -964765247
            -623684131 -91618805 -1740076451 -1216019</internalNodes>
          <leafValues>
            -3.5579147934913635e-01 3.5779801011085510e-01</leafValues></_>
        <_>
          <internalNodes>
            0 -1 4 -73883656 1385091538 -1744786244 -1677156752
            -67505270 -289951745 1505815124 -1696032536</internalNodes>
          <leafValues>
            -3.6464530229568481e-01 3.3196994662284851e-01</leafValues></_>
        <_>
          <internalNodes>
            0 -1 135 -1588559869 -1156554976 1627555907 -1088335103
            1891385423 -726529401 2093206031 -17540959</internalNodes>
          <leafValues>
            -3.7671080231666565e-01 3.0046752095222473e-01</leafValues></_>
        <_>
          <internalNodes>
            0 -1 266 336944405 -41970064 1216737561 -1658781419
            856566125 2140604545 1678582324 -148356175</internalNodes>
          <leafValues>
            -3.6270821094512939e-01 3.2412001490592957e-01</leafValues></_>
        <_>
          <internalNodes>
            0 -1 128 1034049883 -1616731391 -194777941 -1884558589
            -1644737463 -1514406666 -1003410237 -564136021</internalNodes>
          <leafValues>
            -2.8632017970085144e-01 3.9800950884819031e-01</leafValues></_>
        <_>
          <internalNodes>
            0 -1 207 -601174923 -1116034630 -788474902 -578704391
            -1373350444 -310120313 -1159684712 -7278992</internalNodes>
          <leafValues>
            -3.8349878787994385e-01 2.9913905262947083e-01</leafValues></_>
        <_>
          <internalNodes>
            0 -1 180 104532739 -202166457 536824509 -70058073 -475014659
            -1415809124 -1503891737 -1903432314</internalNodes>
          <leafValues>
            -2.8544110059738159e-01 4.2319571971893311e-01</leafValues></_>
        <_>
          <internalNodes>
            0 -1 82 -1882415312 352465247 1187619158 867178271
            -1014886979 -1089679055 550746873 -1506775520</internalNodes>
          <leafValues>
            -3.7948533892631531e-01 2.7952975034713745e-01</leafValues></_></weakClassifiers></_>
    <!-- stage 2 -->
    <_>
      <maxWeakCount>15</maxWeakCount>
      <stageThreshold>-1.0296277999877930e+00</stageThreshold>
      <weakClassifiers>
        <_>
          <internalNodes>
            0 -1 24 -2097928 -4457104 -274 -34603028 -8388612 -4354
            -16777794 -1048582</internalNodes>
          <leafValues>
            -3.3675214648246765e-01 6.1036515235900879e-01</leafValues></_>
        <_>
          <internalNodes>
            0 -1 55 -1350562596 -1433541242 -426683649 -1462378875
            -314379267 -1353721215 -1148654885 -275780657</internalNodes>
          <leafValues>
            -3.9744845032691956e-01 3.4270614385604858e-01</leafValues></_>
        <_>
          <internalNodes>
            0 -1 129 -584002605 -1759391871 -9417169 -117217023
            -1636774677 -8519713 -319226177 -1310733</internalNodes>
          <leafValues>
            -2.4091686308383942e-01 4.7962933778762817e-01</leafValues></_>
        <_>
          <internalNodes>
            0 -1 77 -798302979 -34471958 -346225359 -243687741
            1967304188 -1642850236 297096433 -304514638</internalNodes>
          <leafValues>
            -2.8512847423553467e-01 3.7537723779678345e-01</leafValues></_>
        <_>
          <internalNodes>
            0 -1 18 -224868132 -51071676 -1676262561 2098734554
            -658314567 -591859404 -644754065 -4403427</internalNodes>
          <leafValues>
            -3.1456971168518066e-01 3.2183253765106201e-01</leafValues></_>
        <_>
          <internalNodes>
            0 -1 81 -826891105 109336720 -1987440483 553412134 754324409
            -1120611093 -756092974 -927706912</internalNodes>
          <leafValues>
            -3.3543074131011963e-01 3.1007322669029236e-01</leafValues></_>
        <_>
          <internalNodes>
            0 -1 240 -1216627830 -1655174257 -1083228248 521617684
            -548331591 -81858885 -1386799925 -273764454</internalNodes>
          <leafValues>
            -2.8419041633605957e-01 3.6879718303680420e-01</leafValues></_>
        <_>
          <internalNodes>
            0 -1 205 1501447630 968782014 -1545943745 -36875775
            1782202226 -1161592375 -1235829983 -1073932207</internalNodes>
          <leafValues>
            -3.3767673373222351e-01 3.1049424409866333e-01</leafValues></_>
        <_>
          <internalNodes>
            0 -1 122 8390667 573905765 170286771 -1342429859 177932969
            1250105371 -1433792663 239017474</internalNodes>
          <leafValues>
            -5.2758038043975830e-01 1.8192127346992493e-01</leafValues></_>
        <_>
          <internalNodes>
            0 -1 264 -550906103 1259304957 -588711361 -1432191115
            1261823632 -101712008 -1163617092 -9504448</internalNodes>
          <leafValues>
            -2.7962076663970947e-01 3.8285979628562927e-01</leafValues></_>
        <_>
          <internalNodes>
            0 -1 10 -85278753 -2046787728 -1095704585 1710292975
            -1642668417 -537919490 1874386798 -843384836</internalNodes>
          <leafValues>
            -2.8592664003372192e-01 3.6335223913192749e-01</leafValues></_>
        <_>
          <internalNodes>
            0 -1 128 1372610047 -2085488350 -30701017 636730375
            -1795881785 -4456842 1009878155 -1225263974</internalNodes>
          <leafValues>
            -2.6111871004104614e-01 3.7576195597648621e-01</leafValues></_>
        <_>
          <internalNodes>
            0 -1 112 -871464412 -1284013260 1024481790 -1617391202
            -392314747 -984972541 -2096166748 341841336</internalNodes>
          <leafValues>
            -4.8097255825996399e-01 2.2029566764831543e-01</leafValues></_>
        <_>
          <internalNodes>
            0 -1 46 1528400035 1234171181 -1780678385 1005324572
            272706439 856883954 -1469078102 2003386524</internalNodes>
          <leafValues>
            -3.4329414367675781e-01 2.8156521916389465e-01</leafValues></_>
        <_>
          <internalNodes>
            0 -1 214 -993264783 598184240 -1243657249 -237509087
            -1999999003 -1203543407 1649424117 -182393901</internalNodes>
          <leafValues>
            -3.2784724235534668e-01 3.1471511721611023e-01</leafValues></_></weakClassifiers></_>
    <!-- stage 3 -->
    <_>
      <maxWeakCount>18</maxWeakCount>
      <stageThreshold>-8.4619551897048950e-01</stageThreshold>
      <weakClassifiers>
        <_>
          <internalNodes>
            0 -1 70 -50268808 -278413332 -1208287745 -7475233 -6356993
            -210239875 -1773569 -5529717</internalNodes>
          <leafValues>
            -1.5074905753135681e-01 6.0093170404434204e-01</leafValues></_>
        <_>
          <internalNodes>
            0 -1 201 -134217899 -547357157 -16793619 1735523905
            -1091043979 -66082 -172608223 -67112907</internalNodes>
          <leafValues>
            -3.2390752434730530e-01 3.7814134359359741e-01</leafValues></_>
        <_>
          <internalNodes>
            0 -1 90 2136699290 1461675869 -149538989 1599820125
            -1637961541 -136506145 -95077989 -581971751</internalNodes>
          <leafValues>
            -2.7307653427124023e-01 3.6763051152229309e-01</leafValues></_>
        <_>
          <internalNodes>
            0 -1 27 -876155142 -1886699322 -125049620 -490356159
            -337793049 -585385822 -99770756 -824065146</internalNodes>
          <leafValues>
            -4.0929648280143738e-01 2.3289118707180023e-01</leafValues></_>
        <_>
          <internalNodes>
            0 -1 267 -686198411 -549236363 -150908491 1573612213
            -937682931 -1720520326 289413376 1817450276</internalNodes>
          <leafValues>
            -3.7740832567214966e-01 2.3399832844734192e-01</leafValues></_>
        <_>
          <internalNodes>
            0 -1 84 1919858652 -201702887 -887680418 -570762473
            -992970723 -79770379 -339126044 -281486372</internalNodes>
          <leafValues>
            -3.0512601137161255e-01 2.7270802855491638e-01</leafValues></_>
        <_>
          <internalNodes>
            0 -1 131 352325835 -1985839102 -661060473 -1492156416
            -2002779922 -427095165 -598194485 -299130494</internalNodes>
          <leafValues>
            -3.3405813574790955e-01 2.6561114192008972e-01</leafValues></_>
        <_>
          <internalNodes>
            0 -1 111 1111400700 -11095073 -913573481 395881246
            -718796085 -39871777 -1557716165 -1929506616</internalNodes>
          <leafValues>
            -3.3780321478843689e-01 2.4873387813568115e-01</leafValues></_>
        <_>
          <internalNodes>
            0 -1 199 -275832015 -1501544289 -582881801 -13211204
            2130863665 298830400 -1414842468 -1171854303</internalNodes>
          <leafValues>
            -2.8294390439987183e-01 2.9317218065261841e-01</leafValues></_>
        <_>
          <internalNodes>
            0 -1 177 -366817498 1070773883 -1302688038 -595064062
            -1068842985 -1081589717 -1158488212 -2138770670</internalNodes>
          <leafValues>
            -3.8733369112014771e-01 2.0478975772857666e-01</leafValues></_>
        <_>
          <internalNodes>
            0 -1 98 -573449253 -1111135341 -20517365 -575942871
            -2056188753 -1082204251 -274733889 -17844569</internalNodes>
          <leafValues>
            -1.5005241334438324e-01 5.3467053174972534e-01</leafValues></_>
        <_>
          <internalNodes>
            0 -1 249 -1934089345 2078568429 -143381 -1080387381
            -1107739153 -1141604381 -1509473057 -272982247</internalNodes>
          <leafValues>
            -2.2216567397117615e-01 3.7102580070495605e-01</leafValues></_>
        <_>
          <internalNodes>
            0 -1 155 -855846725 1241321440 -1141080283 -76292203
            1048166382 -271097864 -5668888 -1464229735</internalNodes>
          <leafValues>
            -2.7808076143264771e-01 3.1232196092605591e-01</leafValues></_>
        <_>
          <internalNodes>
            0 -1 73 -2007593530 431792990 -250391363 769575445 547992107
            -921964541 -1987731074 -1091970926</internalNodes>
          <leafValues>
            -3.1825867295265198e-01 2.6374241709709167e-01</leafValues></_>
        <_>
          <internalNodes>
            0 -1 169 -186202859 410209083 -33607779 -650458318
            1230923988 -543277761 -151005816 -608323269</internalNodes>
          <leafValues>
            -2.1353714168071747e-01 4.0734055638313293e-01</leafValues></_>
        <_>
          <internalNodes>
            0 -1 220 2146946770 -80314473 1036918334 1547681009
            763840206 -730607803 -17802209 -10526802</internalNodes>
          <leafValues>
            -2.0664210617542267e-01 3.9546397328376770e-01</leafValues></_>
        <_>
          <internalNodes>
            0 -1 157 1544608987 2014968416 832763951 -1621508247
            -2073690072 -1653309529 -1166274869 -1144260917</internalNodes>
          <leafValues>
            -2.0392444729804993e-01 4.2883822321891785e-01</leafValues></_>
        <_>
          <internalNodes>
            0 -1 262 -1449359820 -1273855344 1376997907 1552667173
            1234459088 -217193982 -485698514 -1747943624</internalNodes>
          <leafValues>
            -3.4913462400436401e-01 2.6419568061828613e-01</leafValues></_></weakClassifiers></_>
    <!-- stage 4 -->
    <_>
      <maxWeakCount>16</maxWeakCount>
      <stageThreshold>-9.6478146314620972e-01</stageThreshold>
      <weakClassifiers>
        <_>
          <internalNodes>
            0 -1 15 -67764754 -1052882 1223085614 -5373969 -169869313
            -9707521 -1051473 -4194357</internalNodes>
          <leafValues>
            -3.1986531615257263e-01 6.0929352045059204e-01</leafValues></_>
        <_>
          <internalNodes>
            0 -1 69 -837551414 -665644223 -286740677 -2015412839
            -813958469 -648091809 -75563810 -463472993</internalNodes>
          <leafValues>
            -2.5475120544433594e-01 4.4996830821037292e-01</leafValues></_>
        <_>
          <internalNodes>
            0 -1 105 -1921655297 -1720717316 -587943499 -1241940747
            -983256898 -865206992 13648051 -1929515597</internalNodes>
          <leafValues>
            -2.5198248028755188e-01 4.2795553803443909e-01</leafValues></_>
        <_>
          <internalNodes>
            0 -1 129 -240007989 -8275040 -25756017 -344441728 -832910134
            -268566562 -17500473 -8130597</internalNodes>
          <leafValues>
            -2.3345793783664703e-01 4.2020347714424133e-01</leafValues></_>
        <_>
          <internalNodes>
            0 -1 189 -470833246 -2001496041 -1030237652 -459103329
            -919898352 -831322243 -1431370492 -352341994</internalNodes>
          <leafValues>
            -4.9497407674789429e-01 1.8045881390571594e-01</leafValues></_>
        <_>
          <internalNodes>
            0 -1 138 -423186651 539014422 -416231237 -1364806793
            -953442515 -327124956 -1474451028 -1133459855</internalNodes>
          <leafValues>
            -3.4145361185073853e-01 2.6442644000053406e-01</leafValues></_>
        <_>
          <internalNodes>
            0 -1 119 -966268993 -1770737996 -268506404 406875898
            1285534603 -1903365217 -1296224978 320708026</internalNodes>
          <leafValues>
            -2.8414031863212585e-01 3.1784829497337341e-01</leafValues></_>
        <_>
          <internalNodes>
            0 -1 247 901749642 -1075135051 1069315856 -40197688
            -1372238903 1992085316 -1147950419 804199962</internalNodes>
          <leafValues>
            -2.7882274985313416e-01 3.1516757607460022e-01</leafValues></_>
        <_>
          <internalNodes>
            0 -1 54 -1963849925 -1175923345 -1811889885 -1715424933
            -1442763851 -2000777179 -1480609337 -1477513257</internalNodes>
          <leafValues>
            -2.9135340452194214e-01 2.9881837964057922e-01</leafValues></_>
        <_>
          <internalNodes>
            0 -1 59 -1588073988 -1623985891 -1685449328 285225986
            -1979264151 -270859739 944097864 -788356342</internalNodes>
          <leafValues>
            -3.4888780117034912e-01 2.4436567723751068e-01</leafValues></_>
        <_>
          <internalNodes>
            0 -1 224 -572919906 -988970567 -234813136 -48785276
            -1248906720 901869812 287605514 1060312710</internalNodes>
          <leafValues>
            -3.0248764157295227e-01 2.9253846406936646e-01</leafValues></_>
        <_>
          <internalNodes>
            0 -1 86 112651344 -233002754 -1546137345 -570926323
            303766000 -296384560 -480347535 -1148286351</internalNodes>
          <leafValues>
            -3.2440617680549622e-01 2.7054190635681152e-01</leafValues></_>
        <_>
          <internalNodes>
            0 -1 196 1482613366 277299778 1350899035 160628995
            -2121722235 973094950 1275349310 593753147</internalNodes>
          <leafValues>
            -3.5273891687393188e-01 2.4190947413444519e-01</leafValues></_>
        <_>
          <internalNodes>
            0 -1 143 2052819236 -140135162 333518454 -234749662
            1075485271 -854441853 -2019848835 744549235</internalNodes>
          <leafValues>
            -3.9762204885482788e-01 2.2266016900539398e-01</leafValues></_>
        <_>
          <internalNodes>
            0 -1 195 1143406383 -1071370475 -1418875139 -1943343521
            409538413 2130706424 -167917972 -1411187360</internalNodes>
          <leafValues>
            -2.6793155074119568e-01 3.1592518091201782e-01</leafValues></_>
        <_>
          <internalNodes>
            0 -1 110 -2065822170 403234095 -1583819526 -1265053076
            -1163011781 -105778711 -778949868 -1594641984</internalNodes>
          <leafValues>
            -3.3947387337684631e-01 2.5968676805496216e-01</leafValues></_></weakClassifiers></_>
    <!-- stage 5 -->
    <_>
      <maxWeakCount>18</maxWeakCount>
      <stageThreshold>-8.1973731517791748e-01</stageThreshold>
      <weakClassifiers>
        <_>
          <internalNodes>
            0 -1 26 -219174198 -135212 -877649920 -51514744 -25296908
            -671350794 1534963946 -143134977</internalNodes>
          <leafValues>
            -3.0144166946411133e-01 5.4984354972839355e-01</leafValues></_>
        <_>
          <internalNodes>
            0 -1 92 -209759486 1360162821 -1664890561 1565470879
            -127552868 -1824522031 -389957381 -176557813</internalNodes>
          <leafValues>
            -3.2357719540596008e-01 3.2720378041267395e-01</leafValues></_>
        <_>
          <internalNodes>
            0 -1 104 -1603276808 -2041339805 -1197570991 -1242285069
            555868620 941295624 280056227 1710482931</internalNodes>
          <leafValues>
            -3.6383140087127686e-01 2.5175836682319641e-01</leafValues></_>
        <_>
          <internalNodes>
            0 -1 42 -528488505 116133870 1209522326 -1058871606
            -1952277117 1263711010 -1640003117 -1001261186</internalNodes>
          <leafValues>
            -4.0625986456871033e-01 2.1213874220848083e-01</leafValues></_>
        <_>
          <internalNodes>
            0 -1 124 -426791125 1718001807 542927678 -1359019429
            -1364458750 -1795978944 2022625832 -8554966</internalNodes>
          <leafValues>
            -3.1203192472457886e-01 2.8386908769607544e-01</leafValues></_>
        <_>
          <internalNodes>
            0 -1 245 -1434257985 -747311529 -4305153 -1390042205
            -1129314305 -281223682 -558934969 -362407373</internalNodes>
          <leafValues>
            -2.3318456113338470e-01 3.7233188748359680e-01</leafValues></_>
        <_>
          <internalNodes>
            0 -1 23 -758976266 1233582579 1687310364 -744890678
            -251062720 1362410258 -1540968248 -168971290</internalNodes>
          <leafValues>
            -3.1217837333679199e-01 2.7012366056442261e-01</leafValues></_>
        <_>
          <internalNodes>
            0 -1 142 -1504755968 -1627598369 -865728514 -1224863234
            -1546665659 -549711148 1805121588 -755114328</internalNodes>
          <leafValues>
            -3.4701964259147644e-01 2.4385623633861542e-01</leafValues></_>
        <_>
          <internalNodes>
            0 -1 203 1601832740 -1825355565 -1949595651 -107194858
            1533377441 -1464843758 -5975452 -386959855</internalNodes>
          <leafValues>
            -3.7742963433265686e-01 2.3793816566467285e-01</leafValues></_>
        <_>
          <internalNodes>
            0 -1 67 -993531489 968425168 -1885669336 -1398437102
            -806909268 1170496885 -1501576033 -196099559</internalNodes>
          <leafValues>
            -2.3013171553611755e-01 3.6456838250160217e-01</leafValues></_>
        <_>
          <internalNodes>
            0 -1 250 573449237 -1223769572 -1470912370 -1707296710
            -391992457 -1081409561 -2131000484 -360808664</internalNodes>
          <leafValues>
            -2.9281517863273621e-01 2.7889636158943176e-01</leafValues></_>
        <_>
          <internalNodes>
            0 -1 85 215551263 1047712627 1367318841 -456463125
            1834749191 -1858306571 1870436097 -320822256</internalNodes>
          <leafValues>
            -2.7073803544044495e-01 3.0851542949676514e-01</leafValues></_>
        <_>
          <internalNodes>
            0 -1 101 -114952705 -1323207029 777301551 -299238067
            -722697097 -46792714 -1528066581 -658514209</internalNodes>
          <leafValues>
            -2.0217245817184448e-01 4.2340353131294250e-01</leafValues></_>
        <_>
          <internalNodes>
            0 -1 176 -321224654 -586779562 414599127 2000086796
            -770273321 -842506327 -2131694273 -136122405</internalNodes>
          <leafValues>
            -2.5564256310462952e-01 3.2934880256652832e-01</leafValues></_>
        <_>
          <internalNodes>
            0 -1 187 -1001102204 478023444 -614998660 1059072778
            -1061797344 -894036436 -214810580 -84850928</internalNodes>
          <leafValues>
            -3.8424888253211975e-01 2.1862325072288513e-01</leafValues></_>
        <_>
          <internalNodes>
            0 -1 222 896503573 -1057655109 -740827483 1140388027
            -169402431 -536871824 -830665284 -1080828831</internalNodes>
          <leafValues>
            -2.8463760018348694e-01 3.0645540356636047e-01</leafValues></_>
        <_>
          <internalNodes>
            0 -1 228 -862267152 -1234147095 -918379756 -153047200
            -491684941 -970199759 -777573394 243761203</internalNodes>
          <leafValues>
            -3.2149824500083923e-01 2.7635946869850159e-01</leafValues></_>
        <_>
          <internalNodes>
            0 -1 38 -423385434 -1467733648 -283092479 -983837887
            1619238973 687970560 -83304440 -469368837</internalNodes>
          <leafValues>
            -3.8109382987022400e-01 2.3943446576595306e-01</leafValues></_></weakClassifiers></_>
    <!-- stage 6 -->
    <_>
      <maxWeakCount>19</maxWeakCount>
      <stageThreshold>-1.0177892446517944e+00</stageThreshold>
      <weakClassifiers>
        <_>
          <internalNodes>
            0 -1 29 -605032722 -816844914 2091806254 -68161873 -1048581
            1331672911 -192940321 -134217761</internalNodes>
          <leafValues>
            -2.4420677125453949e-01 5.5848968029022217e-01</leafValues></_>
        <_>
          <internalNodes>
            0 -1 108 2063695328 423317554 -720662240 2039209890
            -936660736 78422056 -508202640 1960301427</internalNodes>
          <leafValues>
            -5.7609921693801880e-01 2.1464590728282928e-01</leafValues></_>
        <_>
          <internalNodes>
            0 -1 68 -984964630 1549615967 -19324798 1868386395
            1444880810 -780306476 1029452975 -286296385</internalNodes>
          <leafValues>
            -2.5055387616157532e-01 3.8333037495613098e-01</leafValues></_>
        <_>
          <internalNodes>
            0 -1 165 -380138713 1514733659 -1538386819 422302042
            -555013810 -116471803 -1012125845 665261347</internalNodes>
          <leafValues>
            -3.3157479763031006e-01 2.4879209697246552e-01</leafValues></_>
        <_>
          <internalNodes>
            0 -1 82 -2098010786 -1726597841 1330647176 287310634
            -268131333 355617303 33162856 120819750</internalNodes>
          <leafValues>
            -3.8447964191436768e-01 2.1959008276462555e-01</leafValues></_>
        <_>
          <internalNodes>
            0 -1 106 -173952337 -1977503871 1861461647 -1904384243
            -2076913990 -539840649 2096489679 -335421913</internalNodes>
          <leafValues>
            -2.5077947974205017e-01 3.3420708775520325e-01</leafValues></_>
        <_>
          <internalNodes>
            0 -1 139 311763686 -1473183439 279176837 -359744655
            -534934911 -1607183807 2024478895 -424642748</internalNodes>
          <leafValues>
            -3.8595247268676758e-01 1.8912674486637115e-01</leafValues></_>
        <_>
          <internalNodes>
            0 -1 39 1038089212 -479725758 822625312 232890116
            -2142683066 144811076 -1262050175 550440642</internalNodes>
          <leafValues>
            -3.5920420289039612e-01 2.2393268346786499e-01</leafValues></_>
        <_>
          <internalNodes>
            0 -1 65 2017707520 -646850924 -1769536507 -1177117903
            -1299488331 823308384 781777653 1031517983</internalNodes>
          <leafValues>
            -2.9784524440765381e-01 2.7451685070991516e-01</leafValues></_>
        <_>
          <internalNodes>
            0 -1 53 637797903 15029068 -384707137 -386223871 45662237
            1620693954 1821371936 -1374896806</internalNodes>
          <leafValues>
            -3.9351406693458557e-01 2.0868717133998871e-01</leafValues></_>
        <_>
          <internalNodes>
            0 -1 173 467929322 1631716305 1395622200 -2108716597
            1241342023 -1575157728 -1469544447 -1871980277</internalNodes>
          <leafValues>
            -3.8497370481491089e-01 2.0824322104454041e-01</leafValues></_>
        <_>
          <internalNodes>
            0 -1 208 -881342715 1076977751 1343578261 -603586486
            -1853826385 1512661646 436290700 2030077218</internalNodes>
          <leafValues>
            -2.8481984138488770e-01 2.7771252393722534e-01</leafValues></_>
        <_>
          <internalNodes>
            0 -1 256 980598018 -144627349 -1702912082 -1553331870
            -1604325457 -488654852 -1642139505 -675197030</internalNodes>
          <leafValues>
            -2.3693989217281342e-01 3.4553301334381104e-01</leafValues></_>
        <_>
          <internalNodes>
            0 -1 244 -1040832734 -1357180709 303881108 -1134585297
            -1777765629 694878476 -1163390394 1077657151</internalNodes>
          <leafValues>
            -3.2957339286804199e-01 2.3862870037555695e-01</leafValues></_>
        <_>
          <internalNodes>
            0 -1 156 -627318752 1534651898 193266086 -1895084433
            1370864111 1463259757 1228363004 -38803793</internalNodes>
          <leafValues>
            -2.3732522130012512e-01 3.4608593583106995e-01</leafValues></_>
        <_>
          <internalNodes>
            0 -1 58 -959668225 -965999934 1895874804 1256203488
            -1777855699 130862600 2085213131 -855745234</internalNodes>
          <leafValues>
            -3.0966362357139587e-01 2.6929521560668945e-01</leafValues></_>
        <_>
          <internalNodes>
            0 -1 20 491056338 -1686917762 -806359491 -840492321
            786708885 1711660998 -816363966 1166372843</internalNodes>
          <leafValues>
            -2.8364276885986328e-01 2.9629346728324890e-01</leafValues></_>
        <_>
          <internalNodes>
            0 -1 2 -991575920 684200069 1476583594 1954895112
            -1912040867 1231126663 -1256211875 1150386409</internalNodes>
          <leafValues>
            -3.4679070115089417e-01 2.4931558966636658e-01</leafValues></_>
        <_>
          <internalNodes>
            0 -1 212 -52040409 828490595 -151144478 -346882958
            1436370420 -2040924843 1778026706 -575144334</internalNodes>
          <leafValues>
            -2.6903077960014343e-01 3.1622710824012756e-01</leafValues></_></weakClassifiers></_>
    <!-- stage 7 -->
    <_>
      <maxWeakCount>21</maxWeakCount>
      <stageThreshold>-7.9464346170425415e-01</stageThreshold>
      <weakClassifiers>
        <_>
          <internalNodes>
            0 -1 152 -1090520068 -1493270971 1337662641 -302383403
            -572784900 -536871432 -169388815 -1073742319</internalNodes>
          <leafValues>
            -1.0514285415410995e-01 5.1388233900070190e-01</leafValues></_>
        <_>
          <internalNodes>
            0 -1 95 -1792975681 713808555 -198771793 -1405092129
            -184552065 2098724583 -1610888007 -264213</internalNodes>
          <leafValues>
            -2.0491172373294830e-01 3.8749206066131592e-01</leafValues></_>
        <_>
          <internalNodes>
            0 -1 129 -38169141 -6169824 -76349533 -2262591 -17655426
            -16777219 -268898993 -117772805</internalNodes>
          <leafValues>
            -2.0333856344223022e-01 3.8763725757598877e-01</leafValues></_>
        <_>
          <internalNodes>
            0 -1 11 -861230338 -989937281 -1777987184 -145910330
            -2105408882 -1433368255 -7020165 -254869562</internalNodes>
          <leafValues>
            -3.5940650105476379e-01 2.0724062621593475e-01</leafValues></_>
        <_>
          <internalNodes>
            0 -1 265 -75540683 -108625809 -2063425161 -577998057
            1879288248 -35414005 -888026056 -167759324</internalNodes>
          <leafValues>
            -2.9019400477409363e-01 2.5366267561912537e-01</leafValues></_>
        <_>
          <internalNodes>
            0 -1 200 -382901469 1813500253 -1761667042 316160658
            1486378513 -1147142066 -1425425887 -145273018</internalNodes>
          <leafValues>
            -3.7448844313621521e-01 1.9325408339500427e-01</leafValues></_>
        <_>
          <internalNodes>
            0 -1 88 1447806394 1650346319 101257485 483381541 -869727300
            687800520 1229230762 1752137788</internalNodes>
          <leafValues>
            -2.7529892325401306e-01 2.5268989801406860e-01</leafValues></_>
        <_>
          <internalNodes>
            0 -1 238 -1543332465 1392128830 -1367421815 -785490161
            1090826143 119234492 -572088826 -1908773601</internalNodes>
          <leafValues>
            -2.5018766522407532e-01 3.0343288183212280e-01</leafValues></_>
        <_>
          <internalNodes>
            0 -1 171 1650942112 805455709 92606750 367665170 151003777
            971095015 -1945419669 -72668069</internalNodes>
          <leafValues>
            -3.2401958107948303e-01 2.3533228039741516e-01</leafValues></_>
        <_>
          <internalNodes>
            0 -1 99 -823265825 1006501881 -60785251 -907026971 -42605633
            -623676813 -173474321 -70255125</internalNodes>
          <leafValues>
            -1.2887142598628998e-01 6.1709463596343994e-01</leafValues></_>
        <_>
          <internalNodes>
            0 -1 79 -1905817893 414323869 -1328810541 87688392 315302715
            -3239761 1010088619 -662261768</internalNodes>
          <leafValues>
            -2.8147152066230774e-01 2.7234166860580444e-01</leafValues></_>
        <_>
          <internalNodes>
            0 -1 141 -1420937724 -1249115329 895779022 -1283416102
            -2004156016 638227797 969395956 1062100</internalNodes>
          <leafValues>
            -5.6069868803024292e-01 1.3061484694480896e-01</leafValues></_>
        <_>
          <internalNodes>
            0 -1 149 105054724 282970469 -1537923119 609738946
            1813675531 437803176 -876369427 -612636526</internalNodes>
          <leafValues>
            -3.6966717243194580e-01 1.9961653649806976e-01</leafValues></_>
        <_>
          <internalNodes>
            0 -1 185 -1504665088 -1843773067 -353199111 268580114
            -2113335503 1068518275 1871913259 1267927608</internalNodes>
          <leafValues>
            -4.1428324580192566e-01 1.6830088198184967e-01</leafValues></_>
        <_>
          <internalNodes>
            0 -1 223 1878517130 -286855188 -4196101 -446728663
            -1391839448 -1347229706 -216161389 -311670960</internalNodes>
          <leafValues>
            -2.6905402541160583e-01 2.7966263890266418e-01</leafValues></_>
        <_>
          <internalNodes>
            0 -1 130 1525506013 -1354891301 704298799 -1962100823
            -277100593 -277357399 1274982315 -687997619</internalNodes>
          <leafValues>
            -1.6782097518444061e-01 4.6048495173454285e-01</leafValues></_>
        <_>
          <internalNodes>
            0 -1 243 -1962361409 -1088785655 -808772309 -1192735706
            627160493 503492247 -1448817492 -2110596457</internalNodes>
          <leafValues>
            -2.4375833570957184e-01 3.0319181084632874e-01</leafValues></_>
        <_>
          <internalNodes>
            0 -1 30 -395060761 1744980114 -1475276559 776235076
            1501809774 1238678073 205718512 -839530151</internalNodes>
          <leafValues>
            -3.1912371516227722e-01 2.4182726442813873e-01</leafValues></_>
        <_>
          <internalNodes>
            0 -1 93 -1005813333 -567562434 2130673469 243260974
            2004820409 -1891230588 830468046 -392829151</internalNodes>
          <leafValues>
            -2.5270965695381165e-01 2.8941938281059265e-01</leafValues></_>
        <_>
          <internalNodes>
            0 -1 89 -1254885742 1447514177 330187832 -1491970695
            340500914 -668741504 1208098877 -24563447</internalNodes>
          <leafValues>
            -3.2737883925437927e-01 2.1884733438491821e-01</leafValues></_>
        <_>
          <internalNodes>
            0 -1 103 -319859851 -1859129714 938737057 -370212937
            389528269 223247886 1347774347 -460530422</internalNodes>
          <leafValues>
            -2.0734961330890656e-01 3.5798093676567078e-01</leafValues></_></weakClassifiers></_>
    <!-- stage 8 -->
    <_>
      <maxWeakCount>21</maxWeakCount>
      <stageThreshold>-6.4735108613967896e-01</stageThreshold>
      <weakClassifiers>
        <_>
          <internalNodes>
            0 -1 28 -9178114 -341643444 -1574242629 -1962217726
            2147319611 -50855951 904461811 -1574796546</internalNodes>
          <leafValues>
            -1.1475409567356110e-01 4.9433621764183044e-01</leafValues></_>
        <_>
          <internalNodes>
            0 -1 68 -686296069 -715434675 -90474435 -111149219 -67231493
            -1073867908 -144788037 -1622169765</internalNodes>
          <leafValues>
            -1.3174930214881897e-01 5.0106745958328247e-01</leafValues></_>
        <_>
          <internalNodes>
            0 -1 213 -76421804 1359675849 -1568579413 2063941685
            1320128628 -1106366031 -812397836 -138467500</internalNodes>
          <leafValues>
            -3.4752899408340454e-01 2.1728335320949554e-01</leafValues></_>
        <_>
          <internalNodes>
            0 -1 97 -1123953433 -1349927552 -1291923740 -72882659
            -732109697 -1180161 -1174471525 -354288073</internalNodes>
          <leafValues>
            -2.1997386217117310e-01 3.1725659966468811e-01</leafValues></_>
        <_>
          <internalNodes>
            0 -1 120 -822366277 -1654178569 -1074087041 -48222497
            -1468723714 -1141989389 -4661866 -1464758737</internalNodes>
          <leafValues>
            -2.1700741350650787e-01 3.2467174530029297e-01</leafValues></_>
        <_>
          <internalNodes>
            0 -1 239 136469279 110772535 -452915169 1331835401 213133803
            1458693141 -368159644 160700264</internalNodes>
          <leafValues>
            -3.8824653625488281e-01 1.6096258163452148e-01</leafValues></_>
        <_>
          <internalNodes>
            0 -1 113 106606461 1411267347 2052215517 -1120368674
            813775809 -105223118 -1949117171 716308998</internalNodes>
          <leafValues>
            -3.2158237695693970e-01 2.1425840258598328e-01</leafValues></_>
        <_>
          <internalNodes>
            0 -1 135 -1861093921 2033405696 -407572921 -173316827
            -934008637 -43057159 -50975741 -272713987</internalNodes>
          <leafValues>
            -1.7801292240619659e-01 3.7674915790557861e-01</leafValues></_>
        <_>
          <internalNodes>
            0 -1 43 -16976168 -204947690 -1086370467 -2026358816
            -2064032403 -37835265 -386220641 -17301673</internalNodes>
          <leafValues>
            -2.2095981240272522e-01 3.2393959164619446e-01</leafValues></_>
        <_>
          <internalNodes>
            0 -1 60 -1017194587 -2138455876 -1442447085 664937989
            -798378307 -401471478 -1809168227 543224835</internalNodes>
          <leafValues>
            -2.7998054027557373e-01 2.5440460443496704e-01</leafValues></_>
        <_>
          <internalNodes>
            0 -1 181 -1057876188 2016524351 377670749 -6781877
            -707065503 591487052 -725614468 948137955</internalNodes>
          <leafValues>
            -3.9201784133911133e-01 1.7137268185615540e-01</leafValues></_>
        <_>
          <internalNodes>
            0 -1 96 782106624 171821037 2131834424 -292109160 -796913637
            1437710474 -489428078 -325539147</internalNodes>
          <leafValues>
            -4.4251459836959839e-01 1.6108091175556183e-01</leafValues></_>
        <_>
          <internalNodes>
            0 -1 137 246328552 873390185 -1532772061 -1187919123
            -1073659254 -302710712 785089803 -34087006</internalNodes>
          <leafValues>
            -2.9287385940551758e-01 2.4631129205226898e-01</leafValues></_>
        <_>
          <internalNodes>
            0 -1 218 -113150206 -610434239 -380546965 694620531
            -1127940791 -1685053349 428157637 -851116028</internalNodes>
          <leafValues>
            -3.0829346179962158e-01 2.3587448894977570e-01</leafValues></_>
        <_>
          <internalNodes>
            0 -1 100 1625712552 -1816952549 -1540897645 -1344346217
            1380706333 -339893982 -39718454 -294796490</internalNodes>
          <leafValues>
            -2.8091949224472046e-01 2.5913792848587036e-01</leafValues></_>
        <_>
          <internalNodes>
            0 -1 87 249418591 878767287 934121388 1279061491 1585160020
            -1802062353 -908982344 -1128999622</internalNodes>
          <leafValues>
            -2.3671624064445496e-01 3.0328252911567688e-01</leafValues></_>
        <_>
          <internalNodes>
            0 -1 74 -1317938753 -919106136 -726664061 1207955177
            209099903 926670693 913690341 -1365260864</internalNodes>
          <leafValues>
            -2.0881783962249756e-01 3.4439998865127563e-01</leafValues></_>
        <_>
          <internalNodes>
            0 -1 163 -1210637953 2008215548 1944878647 -312420303
            -1246234296 1590467961 -69912919 -872484530</internalNodes>
          <leafValues>
            -1.7620962858200073e-01 3.8671475648880005e-01</leafValues></_>
        <_>
          <internalNodes>
            0 -1 9 -202801673 -432505119 -806801793 -1816596674
            1512621928 -1171135160 -588433908 -269205444</internalNodes>
          <leafValues>
            -2.2507247328758240e-01 3.2561752200126648e-01</leafValues></_>
        <_>
          <internalNodes>
            0 -1 190 -1328810720 1960019820 -1575321128 -1745566828
            -404725325 -923484238 -1449811394 -563042716</internalNodes>
          <leafValues>
            -3.3195367455482483e-01 2.2242276370525360e-01</leafValues></_>
        <_>
          <internalNodes>
            0 -1 199 -1507129068 624075231 -250818583 -860296347
            -170057059 802187803 -1124353692 -161153878</internalNodes>
          <leafValues>
            -2.8851929306983948e-01 2.5999620556831360e-01</leafValues></_></weakClassifiers></_>
    <!-- stage 9 -->
    <_>
      <maxWeakCount>24</maxWeakCount>
      <stageThreshold>-6.3919574022293091e-01</stageThreshold>
      <weakClassifiers>
        <_>
          <internalNodes>
            0 -1 57 -101892610 -72533197 -35293920 -38404685 1877851918
            2145976131 -134900513 -1266941997</internalNodes>
          <leafValues>
            -4.9823854118585587e-02 5.2305006980895996e-01</leafValues></_>
        <_>
          <internalNodes>
            0 -1 56 -1936986162 144147223 -150974446 -2142090862
            -822009493 -1431588222 1813844649 -864188029</internalNodes>
          <leafValues>
            -3.6680001020431519e-01 2.1266153454780579e-01</leafValues></_>
        <_>
          <internalNodes>
            0 -1 170 -707817570 1599722817 -504284896 -171998699
            -873709565 -905822112 -527708650 -270664977</internalNodes>
          <leafValues>
            -2.6891434192657471e-01 2.6582664251327515e-01</leafValues></_>
        <_>
          <internalNodes>
            0 -1 135 -240517757 -612360391 825420711 2133456801
            284461263 -163840078 -61493621 -16913295</internalNodes>
          <leafValues>
            -2.1010312438011169e-01 3.1372356414794922e-01</leafValues></_>
        <_>
          <internalNodes>
            0 -1 215 -524564563 -1274836457 19073434 1629421827
            1210279413 1994098969 1354055685 1088930531</internalNodes>
          <leafValues>
            -3.7116402387619019e-01 1.5336211025714874e-01</leafValues></_>
        <_>
          <internalNodes>
            0 -1 51 -132584024 972238953 -1059516363 812725542
            -1867938896 983769232 -2065389299 1368729884</internalNodes>
          <leafValues>
            -3.1261765956878662e-01 2.1098946034908295e-01</leafValues></_>
        <_>
          <internalNodes>
            0 -1 34 -142673666 -85659794 -823674211 -235670727
            -596799800 -1332580604 618330348 -1119520181</internalNodes>
          <leafValues>
            -2.0540864765644073e-01 3.2843574881553650e-01</leafValues></_>
        <_>
          <internalNodes>
            0 -1 246 -71306246 -672023538 -855808648 1665138599
            -54892188 -2115380417 -134504335 -3433846</internalNodes>
          <leafValues>
            -2.0397615432739258e-01 3.4515717625617981e-01</leafValues></_>
        <_>
          <internalNodes>
            0 -1 32 -562870785 -1133318537 -1632653401 1686172965
            -18788497 -350427297 -826900906 -1575205</internalNodes>
          <leafValues>
            -1.6116558015346527e-01 3.8399824500083923e-01</leafValues></_>
        <_>
          <internalNodes>
            0 -1 179 464337719 -1783189749 -17975566 -574841169
            -570706543 -1907196088 -445656092 -459279702</internalNodes>
          <leafValues>
            -2.0350913703441620e-01 3.2860028743743896e-01</leafValues></_>
        <_>
          <internalNodes>
            0 -1 132 1865509599 -945033309 -411670694 -340788295
            801906398 524812254 -1311264133 2146237863</internalNodes>
          <leafValues>
            -1.7979212105274200e-01 3.7600421905517578e-01</leafValues></_>
        <_>
          <internalNodes>
            0 -1 158 -1059926482 503743014 -1036500034 -1423963394
            1720712596 455380861 -846729793 -1082421621</internalNodes>
          <leafValues>
            -2.3391462862491608e-01 3.0348834395408630e-01</leafValues></_>
        <_>
          <internalNodes>
            0 -1 8 -332369194 243982361 1377672370 -1075603320 185777915
            101286532 -2082746661 2548334</internalNodes>
          <leafValues>
            -3.1522521376609802e-01 2.0693849027156830e-01</leafValues></_>
        <_>
          <internalNodes>
            0 -1 37 -1694430240 1377093560 -805277531 -61625955
            -749702898 633829376 -1264831069 -672097524</internalNodes>
          <leafValues>
            -3.2420369982719421e-01 2.0108103752136230e-01</leafValues></_>
        <_>
          <internalNodes>
            0 -1 171 1995596208 1383360349 -707445937 1898578450
            352457728 152247246 1261765291 1609281451</internalNodes>
          <leafValues>
            -2.9358816146850586e-01 2.3515999317169189e-01</leafValues></_>
        <_>
          <internalNodes>
            0 -1 140 1777346358 -58851282 -636448450 407823594 974762897
            -53747436 -351163528 -1079789903</internalNodes>
          <leafValues>
            -2.7673012018203735e-01 2.6864370703697205e-01</leafValues></_>
        <_>
          <internalNodes>
            0 -1 91 1179165888 1091125581 1829728880 -574215099
            -1532357919 -1553399586 -1432657204 1692758848</internalNodes>
          <leafValues>
            -4.4199940562248230e-01 1.6694912314414978e-01</leafValues></_>
        <_>
          <internalNodes>
            0 -1 255 179121091 977193086 -56808607 36180910 -1294971503
            -273222665 -1093494362 -537723687</internalNodes>
          <leafValues>
            -2.2567227482795715e-01 3.0478745698928833e-01</leafValues></_>
        <_>
          <internalNodes>
            0 -1 191 -1047352562 586548038 321491719 -878967872
            1812638225 1775526228 -997784689 1491859127</internalNodes>
          <leafValues>
            -2.7147313952445984e-01 2.5730961561203003e-01</leafValues></_>
        <_>
          <internalNodes>
            0 -1 229 609291009 77476909 817938776 790516238 1321826658
            610707847 201411395 558993184</internalNodes>
          <leafValues>
            -4.1430774331092834e-01 1.7462232708930969e-01</leafValues></_>
        <_>
          <internalNodes>
            0 -1 183 -313284826 -1565491897 -1717935742 -402466438
            117656341 1596544229 -391495032 1028889020</internalNodes>
          <leafValues>
            -3.8021484017372131e-01 1.7859479784965515e-01</leafValues></_>
        <_>
          <internalNodes>
            0 -1 186 -456479100 2044447063 234554356 -510493936 36058769
            192778505 1482769482 -580170949</internalNodes>
          <leafValues>
            -3.0017858743667603e-01 2.4847365915775299e-01</leafValues></_>
        <_>
          <internalNodes>
            0 -1 175 1686774784 358371827 1086661679 1451429174
            541280271 -2082930552 -344323522 -1378528674</internalNodes>
          <leafValues>
            -3.0517935752868652e-01 2.3843809962272644e-01</leafValues></_>
        <_>
          <internalNodes>
            0 -1 252 -663515506 1275888037 -176003913 1628641531
            103327829 1707248777 2082557837 1803554660</internalNodes>
          <leafValues>
            -2.9526427388191223e-01 2.3390018939971924e-01</leafValues></_></weakClassifiers></_>
    <!-- stage 10 -->
    <_>
      <maxWeakCount>25</maxWeakCount>
      <stageThreshold>-6.4750546216964722e-01</stageThreshold>
      <weakClassifiers>
        <_>
          <internalNodes>
            0 -1 148 1601920786 1079078747 1597619868 -1641070697
            -671254755 -1088857033 -17459393 -596111589</internalNodes>
          <leafValues>
            -6.7983731627464294e-02 4.9474176764488220e-01</leafValues></_>
        <_>
          <internalNodes>
            0 -1 133 425449983 1073944577 -756870344 2008283553
            -1224044806 -2147286389 -118126544 1692878009</internalNodes>
          <leafValues>
            -2.8003969788551331e-01 2.5139945745468140e-01</leafValues></_>
        <_>
          <internalNodes>
            0 -1 1 449451743 20975890 -1441393213 -1519451833 -26179429
            -1431699053 -377814289 -1953595205</internalNodes>
          <leafValues>
            -2.6179844141006470e-01 2.3947994410991669e-01</leafValues></_>
        <_>
          <internalNodes>
            0 -1 131 333544399 -1380865904 -1699623409 -51384446
            -119256049 -273162505 -84124213 -2640659</internalNodes>
          <leafValues>
            -2.1109081804752350e-01 2.9394221305847168e-01</leafValues></_>
        <_>
          <internalNodes>
            0 -1 106 -239503473 -551530173 -696066033 -1673668155
            -1608482573 -1214207731 1961429019 -122148111</internalNodes>
          <leafValues>
            -2.5200584530830383e-01 2.5563967227935791e-01</leafValues></_>
        <_>
          <internalNodes>
            0 -1 161 111052548 -1086422729 -1127155945 -878305738
            -117199497 -931347968 -88107776 -1398620381</internalNodes>
          <leafValues>
            -2.5993099808692932e-01 2.4618561565876007e-01</leafValues></_>
        <_>
          <internalNodes>
            0 -1 227 -237825778 2043793815 1997918626 -35940902
            1493240204 -1941950073 -983840151 2134332428</internalNodes>
          <leafValues>
            -2.7511733770370483e-01 2.3007771372795105e-01</leafValues></_>
        <_>
          <internalNodes>
            0 -1 120 -969044033 -1649198682 1332427710 -1090221350
            -85518418 -1846018055 -1536685032 -713568602</internalNodes>
          <leafValues>
            -1.9351695477962494e-01 3.2290637493133545e-01</leafValues></_>
        <_>
          <internalNodes>
            0 -1 261 687475216 -1797504714 -607774437 -1109121786
            -507259317 -1704997877 -276952705 -1333899272</internalNodes>
          <leafValues>
            -3.0773502588272095e-01 1.9160714745521545e-01</leafValues></_>
        <_>
          <internalNodes>
            0 -1 25 -965052225 -676659590 -1831929927 -375216267
            1264876757 745865215 -1962969346 -1830689289</internalNodes>
          <leafValues>
            -2.3104166984558105e-01 2.8710138797760010e-01</leafValues></_>
        <_>
          <internalNodes>
            0 -1 188 565176100 -1973796833 828342280 2029212115
            -158865135 1226082432 738147860 -211617165</internalNodes>
          <leafValues>
            -4.4061344861984253e-01 1.5448129177093506e-01</leafValues></_>
        <_>
          <internalNodes>
            0 -1 150 -1279567617 680081523 -1074696377 -371191837
            -1076229042 -4719109 -598825 -841635845</internalNodes>
          <leafValues>
            -1.8748143315315247e-01 3.8475084304809570e-01</leafValues></_>
        <_>
          <internalNodes>
            0 -1 5 1410391120 -1751037092 1861736573 -80324155
            1296527339 1149654700 -1370962916 1485330891</internalNodes>
          <leafValues>
            -2.3649273812770844e-01 2.8809377551078796e-01</leafValues></_>
        <_>
          <internalNodes>
            0 -1 177 74108710 -138649082 -2008374891 -593881030
            1543114121 2007505057 683952216 -1592722574</internalNodes>
          <leafValues>
            -3.6049085855484009e-01 1.9276711344718933e-01</leafValues></_>
        <_>
          <internalNodes>
            0 -1 197 -1023531212 743102743 1145700541 440471122
            1533214399 -1869889306 513964414 569573947</internalNodes>
          <leafValues>
            -3.5546365380287170e-01 1.7972601950168610e-01</leafValues></_>
        <_>
          <internalNodes>
            0 -1 221 -1734881481 -1277689865 -1207992459 -1489699650
            1295861244 -17335947 1283247436 -1779386414</internalNodes>
          <leafValues>
            -2.2826766967773438e-01 2.7653849124908447e-01</leafValues></_>
        <_>
          <internalNodes>
            0 -1 45 -272696578 -673089003 -1103236354 -605534317
            1566296793 -468813992 -1252016888 -1564511313</internalNodes>
          <leafValues>
            -1.9460581243038177e-01 3.4455442428588867e-01</leafValues></_>
        <_>
          <internalNodes>
            0 -1 115 -1398644387 149600773 631660347 795970720
            -1971546240 -1650070433 813305085 688186005</internalNodes>
          <leafValues>
            -2.4321737885475159e-01 2.7047875523567200e-01</leafValues></_>
        <_>
          <internalNodes>
            0 -1 192 1479165740 -1839454955 1082173974 -304979638
            38539013 -1614552103 1506104626 1365329446</internalNodes>
          <leafValues>
            -3.5920798778533936e-01 1.7824907600879669e-01</leafValues></_>
        <_>
          <internalNodes>
            0 -1 263 -681339847 -1139734517 1853828894 -1676034270
            -2040613953 2119874280 -1638812196 -179057285</internalNodes>
          <leafValues>
            -2.0048731565475464e-01 3.2971063256263733e-01</leafValues></_>
        <_>
          <internalNodes>
            0 -1 168 1637263371 487800661 554738881 643023030
            -1539274161 2125381891 948809073 -486239612</internalNodes>
          <leafValues>
            -2.8327518701553345e-01 2.3649886250495911e-01</leafValues></_>
        <_>
          <internalNodes>
            0 -1 117 -1999319332 -235311735 -831347010 1971236349
            -25939009 -164161681 -281547347 -1792046549</internalNodes>
          <leafValues>
            -2.0530655980110168e-01 3.3168911933898926e-01</leafValues></_>
        <_>
          <internalNodes>
            0 -1 253 -1468154377 -1158054063 -3163049 1605151531
            -510235505 -310431808 -1457779378 -1599425645</internalNodes>
          <leafValues>
            -1.7704552412033081e-01 3.6444437503814697e-01</leafValues></_>
        <_>
          <internalNodes>
            0 -1 125 -328382720 -1294038048 571555859 1278919053
            -325899333 -1994911723 -1054747809 -314651917</internalNodes>
          <leafValues>
            -3.0064144730567932e-01 2.2776642441749573e-01</leafValues></_>
        <_>
          <internalNodes>
            0 -1 217 -295296172 -402646443 -798604787 -1388101246
            -1509886316 -1001831988 945363017 2064670727</internalNodes>
          <leafValues>
            -3.3709704875946045e-01 2.0964053273200989e-01</leafValues></_></weakClassifiers></_>
    <!-- stage 11 -->
    <_>
      <maxWeakCount>24</maxWeakCount>
      <stageThreshold>-8.7171119451522827e-01</stageThreshold>
      <weakClassifiers>
        <_>
          <internalNodes>
            0 -1 7 -689786130 -1695613970 -156242010 -152371714 -51212
            1063712764 -33833174 -536920402</internalNodes>
          <leafValues>
            -2.1584159135818481e-01 4.4448897242546082e-01</leafValues></_>
        <_>
          <internalNodes>
            0 -1 151 -1129281318 -1145454559 -11048032 -674557648
            -266598390 1217528291 -1318543035 -2595920</internalNodes>
          <leafValues>
            -3.6568051576614380e-01 1.9585046172142029e-01</leafValues></_>
        <_>
          <internalNodes>
            0 -1 102 -1651156517 -677327942 -1094975829 -413722837
            -388608945 -65605 -142934853 1205600091</internalNodes>
          <leafValues>
            -1.6947433352470398e-01 3.5656091570854187e-01</leafValues></_>
        <_>
          <internalNodes>
            0 -1 206 -1966209244 -1067704163 -2129192128 -1516763896
            -344915440 -2143597904 729024256 -69113792</internalNodes>
          <leafValues>
            -4.7203651070594788e-01 1.3944458961486816e-01</leafValues></_>
        <_>
          <internalNodes>
            0 -1 153 -352419328 282297073 -1581563910 -1181305235
            -1817757192 829485015 116100522 -310669649</internalNodes>
          <leafValues>
            -2.5109246373176575e-01 2.5875875353813171e-01</leafValues></_>
        <_>
          <internalNodes>
            0 -1 76 -417489409 -612651073 -663454341 -303169845
            -148015185 -1385025742 -1983844917 -285484661</internalNodes>
          <leafValues>
            -1.4770625531673431e-01 4.8613923788070679e-01</leafValues></_>
        <_>
          <internalNodes>
            0 -1 167 1616791332 308271391 -1937440499 9654288
            -2088775235 73157724 316244669 -1424947964</internalNodes>
          <leafValues>
            -3.0282667279243469e-01 1.9603118300437927e-01</leafValues></_>
        <_>
          <internalNodes>
            0 -1 36 -322965841 -1146634391 -1610702977 -571798872
            -1881349151 -1363894287 -2074268509 -1349870193</internalNodes>
          <leafValues>
            -1.9826257228851318e-01 3.0577185750007629e-01</leafValues></_>
        <_>
          <internalNodes>
            0 -1 114 -912453716 668160319 927126108 -1322233034
            -134126607 1770061873 -1993440792 597695268</internalNodes>
          <leafValues>
            -3.9667585492134094e-01 1.5559865534305573e-01</leafValues></_>
        <_>
          <internalNodes>
            0 -1 13 -806064130 -1362565122 -1922187362 2080354558
            -1767099226 984200842 -1097553766 -628972382</internalNodes>
          <leafValues>
            -2.3712891340255737e-01 2.6350313425064087e-01</leafValues></_>
        <_>
          <internalNodes>
            0 -1 175 -656423958 -652976332 -1209480769 -114219986
            1204743100 -1690444362 -986599669 -1142717413</internalNodes>
          <leafValues>
            -1.8171550333499908e-01 3.4918391704559326e-01</leafValues></_>
        <_>
          <internalNodes>
            0 -1 259 -2139846681 1422264891 736176759 -1636508777
            -138961263 -1259794881 -1224787363 -1473737274</internalNodes>
          <leafValues>
            -2.3631587624549866e-01 2.6877880096435547e-01</leafValues></_>
        <_>
          <internalNodes>
            0 -1 202 813272852 -2033004257 -1748808369 -1223550874
            199805361 2016399067 1811861760 -641735750</internalNodes>
          <leafValues>
            -2.5464904308319092e-01 2.4865244328975677e-01</leafValues></_>
        <_>
          <internalNodes>
            0 -1 126 -1859564089 -3153567 -1677803967 -569016861
            -1753231889 -1353449561 -46809945 -18234080</internalNodes>
          <leafValues>
            -1.9870358705520630e-01 3.2687744498252869e-01</leafValues></_>
        <_>
          <internalNodes>
            0 -1 164 274376488 1218400021 -1660777131 430276684
            1094754656 130881557 1615661125 -210292237</internalNodes>
          <leafValues>
            -2.9943144321441650e-01 2.1494747698307037e-01</leafValues></_>
        <_>
          <internalNodes>
            0 -1 237 -1562694161 706527143 -554527365 -172040370
            -82202697 -537788935 655670183 -1474309212</internalNodes>
          <leafValues>
            -1.9411413371562958e-01 3.4191718697547913e-01</leafValues></_>
        <_>
          <internalNodes>
            0 -1 260 -741879536 -1726807645 1099634703 1552853007
            -1844840568 -1283454830 170372552 240135712</internalNodes>
          <leafValues>
            -3.2947656512260437e-01 1.9619190692901611e-01</leafValues></_>
        <_>
          <internalNodes>
            0 -1 186 -511720124 -1672163721 2011103603 -1080510442
            1835478484 1868103678 2073337026 -546588286</internalNodes>
          <leafValues>
            -2.3571617901325226e-01 2.8190320730209351e-01</leafValues></_>
        <_>
          <internalNodes>
            0 -1 118 750776183 -147599469 263663396 1407752858
            -824996713 657823151 267947096 -360905604</internalNodes>
          <leafValues>
            -2.2974503040313721e-01 2.9188758134841919e-01</leafValues></_>
        <_>
          <internalNodes>
            0 -1 44 -158111915 -774756857 -1157759269 -1861049649
            746561469 1859995150 687154163 -1246794951</internalNodes>
          <leafValues>
            -1.8308107554912567e-01 3.3738005161285400e-01</leafValues></_>
        <_>
          <internalNodes>
            0 -1 64 2077808566 -79493540 -157371783 1351554787
            -1292610921 -1982489731 871593726 2061480448</internalNodes>
          <leafValues>
            -2.1344153583049774e-01 3.0036818981170654e-01</leafValues></_>
        <_>
          <internalNodes>
            0 -1 233 -484483545 -303979423 -171161 -730989090 1565118900
            749358996 2019860457 -1160061318</internalNodes>
          <leafValues>
            -1.8386939167976379e-01 3.4069773554801941e-01</leafValues></_>
        <_>
          <internalNodes>
            0 -1 178 -830521804 -172605804 1072414396 -539443680
            -721557640 -1615431938 -1318658834 -241701109</internalNodes>
          <leafValues>
            -2.1054287254810333e-01 3.0957370996475220e-01</leafValues></_>
        <_>
          <internalNodes>
            0 -1 139 -1838024969 -768512319 -165500549 2134375331
            -988484421 -33887917 -119236225 -341442573</internalNodes>
          <leafValues>
            -1.4178478717803955e-01 4.4858366250991821e-01</leafValues></_></weakClassifiers></_>
    <!-- stage 12 -->
    <_>
      <maxWeakCount>26</maxWeakCount>
      <stageThreshold>-7.5168997049331665e-01</stageThreshold>
      <weakClassifiers>
        <_>
          <internalNodes>
            0 -1 0 -756897138 -222318678 -138494046 -1633043202
            1979413976 -453902339 -84279688 -608518470</internalNodes>
          <leafValues>
            -1.7624881863594055e-01 4.4280219078063965e-01</leafValues></_>
        <_>
          <internalNodes>
            0 -1 75 -142371875 -413288486 232797555 -673021965
            1819195134 -1387475704 -1791183429 -210049617</internalNodes>
          <leafValues>
            -1.4866521954536438e-01 4.0956422686576843e-01</leafValues></_>
        <_>
          <internalNodes>
            0 -1 48 -353375017 -754240993 -1496582341 1035837435
            -1416647958 1056923644 1049624294 -1381180279</internalNodes>
          <leafValues>
            -2.0607276260852814e-01 2.9891151189804077e-01</leafValues></_>
        <_>
          <internalNodes>
            0 -1 62 -1575057633 928264531 387069791 1497396194
            -1517776810 261563733 1233187622 1393752658</internalNodes>
          <leafValues>
            -2.6641175150871277e-01 2.0725116133689880e-01</leafValues></_>
        <_>
          <internalNodes>
            0 -1 98 -1960616616 -373329504 -1047942993 1708909897
            -1546321905 1076264993 820482120 -782310215</internalNodes>
          <leafValues>
            -3.1255307793617249e-01 1.6837371885776520e-01</leafValues></_>
        <_>
          <internalNodes>
            0 -1 166 1239592230 944965023 281631071 155553379 1628932525
            552051208 -913808911 -1957476338</internalNodes>
          <leafValues>
            -2.8404954075813293e-01 2.0174993574619293e-01</leafValues></_>
        <_>
          <internalNodes>
            0 -1 194 773205321 812790399 1039105887 -310071426
            -1371237160 -1458053580 -202508963 -36050257</internalNodes>
          <leafValues>
            -2.1743272244930267e-01 2.7910041809082031e-01</leafValues></_>
        <_>
          <internalNodes>
            0 -1 172 1325410711 1397252500 -1492024301 -274225351
            -331035629 -1551837482 -599147385 -1616911157</internalNodes>
          <leafValues>
            -1.9708810746669769e-01 2.9039660096168518e-01</leafValues></_>
        <_>
          <internalNodes>
            0 -1 147 -888619598 -169824251 -870673996 -1902212938
            -1476216667 2088913193 1401142085 -1270918389</internalNodes>
          <leafValues>
            -2.4934710562229156e-01 2.2542914748191833e-01</leafValues></_>
        <_>
          <internalNodes>
            0 -1 94 1717807618 -1466350366 556878657 -1944481655
            -112149829 1065947562 -1030002559 -4228735</internalNodes>
          <leafValues>
            -3.1941318511962891e-01 1.8297509849071503e-01</leafValues></_>
        <_>
          <internalNodes>
            0 -1 232 -900797505 -1302299056 1063546871 723871045
            -1745533446 -781463724 -411089572 -934486249</internalNodes>
          <leafValues>
            -1.9601464271545410e-01 3.0067816376686096e-01</leafValues></_>
        <_>
          <internalNodes>
            0 -1 47 49333314 651792601 -1777284717 214761680 1091307060
            60654131 2015027143 543635948</internalNodes>
          <leafValues>
            -3.8384303450584412e-01 1.4776657521724701e-01</leafValues></_>
        <_>
          <internalNodes>
            0 -1 22 1880573703 -1407702456 281493907 85592738
            -1458872381 1394746032 1073825303 -27946145</internalNodes>
          <leafValues>
            -2.3909597098827362e-01 2.5476729869842529e-01</leafValues></_>
        <_>
          <internalNodes>
            0 -1 16 -1612965247 -1509666384 -74747018 1934148949
            -668615449 1712506035 1770601897 -662431376</internalNodes>
          <leafValues>
            -2.3495040833950043e-01 2.6115271449089050e-01</leafValues></_>
        <_>
          <internalNodes>
            0 -1 146 -1512586754 1892306327 -1579480946 -1880225610
            -1020798809 379437203 -1404553712 1131217884</internalNodes>
          <leafValues>
            -2.6936647295951843e-01 2.2656506299972534e-01</leafValues></_>
        <_>
          <internalNodes>
            0 -1 210 -361094608 550981111 16977278 -687135741 -972983929
            1023541250 -1161769064 394789680</internalNodes>
          <leafValues>
            -3.6312764883041382e-01 1.8119421601295471e-01</leafValues></_>
        <_>
          <internalNodes>
            0 -1 251 -1235506586 -195466790 1343595647 -1655909567
            -1287189772 197349761 298003358 -322391012</internalNodes>
          <leafValues>
            -2.6218488812446594e-01 2.3509219288825989e-01</leafValues></_>
        <_>
          <internalNodes>
            0 -1 162 22004013 17973765 357893139 80093458 -69381547
            -350058066 2082144320 78995506</internalNodes>
          <leafValues>
            -4.1987332701683044e-01 1.4741119742393494e-01</leafValues></_>
        <_>
          <internalNodes>
            0 -1 254 -899863152 -1645268762 1234871252 659469892
            -318227603 423625184 -1037330422 613023744</internalNodes>
          <leafValues>
            -3.8584566116333008e-01 1.6903840005397797e-01</leafValues></_>
        <_>
          <internalNodes>
            0 -1 129 1433522587 -527172861 -1426919753 -614989849
            2096142458 -403308588 -277023609 1987833435</internalNodes>
          <leafValues>
            -1.8429537117481232e-01 3.5100445151329041e-01</leafValues></_>
        <_>
          <internalNodes>
            0 -1 248 -402737733 346693075 2125569471 -1724205305
            -826213208 1954315769 1634319663 -274227317</internalNodes>
          <leafValues>
            -1.5846146643161774e-01 4.0335988998413086e-01</leafValues></_>
        <_>
          <internalNodes>
            0 -1 171 1253892518 822305695 381628375 -1108197776
            1459646384 993278838 -1893531476 -538268184</internalNodes>
          <leafValues>
            -2.3541797697544098e-01 2.7419570088386536e-01</leafValues></_>
        <_>
          <internalNodes>
            0 -1 219 1684952613 1311932623 -1664757649 -510868602
            861758349 1007420042 -115062648 -16244746</internalNodes>
          <leafValues>
            -2.6524800062179565e-01 2.3991070687770844e-01</leafValues></_>
        <_>
          <internalNodes>
            0 -1 159 -1795653506 -600822724 -1168072449 -1576891374
            1896649147 -522178359 -384177064 -2044854854</internalNodes>
          <leafValues>
            -2.8754341602325439e-01 2.3830083012580872e-01</leafValues></_>
        <_>
          <internalNodes>
            0 -1 14 152996666 650833730 717245636 36611336 21349975
            -1861058414 -644094592 12982704</internalNodes>
          <leafValues>
            -5.7418543100357056e-01 1.1702870577573776e-01</leafValues></_>
        <_>
          <internalNodes>
            0 -1 236 649842676 -483902599 705968426 -325955650
            1308618074 1341680691 -459328037 -1549818398</internalNodes>
          <leafValues>
            -2.4170176684856415e-01 2.7572739124298096e-01</leafValues></_></weakClassifiers></_>
    <!-- stage 13 -->
    <_>
      <maxWeakCount>27</maxWeakCount>
      <stageThreshold>-7.8604513406753540e-01</stageThreshold>
      <weakClassifiers>
        <_>
          <internalNodes>
            0 -1 71 2135146713 -69551265 892851443 -101205513 2121310971
            -28115124 -1806665285 -548514626</internalNodes>
          <leafValues>
            1.5166261792182922e-01 6.2538027763366699e-01</leafValues></_>
        <_>
          <internalNodes>
            0 -1 72 -1397883818 -1943452874 1988499478 -1435770597
            -385412957 -1208875008 -1304118649 -290508261</internalNodes>
          <leafValues>
            -2.8303679823875427e-01 2.1840053796768188e-01</leafValues></_>
        <_>
          <internalNodes>
            0 -1 132 2146555359 -2021007583 -424253489 -1077952719
            -1879700257 -2018770985 -77808705 -4801111</internalNodes>
          <leafValues>
            -1.6884359717369080e-01 3.4376779198646545e-01</leafValues></_>
        <_>
          <internalNodes>
            0 -1 172 1964058883 -797875440 -2108318705 -1363047888
            1684078659 -99041271 -565854457 -11552673</internalNodes>
          <leafValues>
            -2.5275257229804993e-01 2.4083191156387329e-01</leafValues></_>
        <_>
          <internalNodes>
            0 -1 83 -464442002 -1089130479 -645661588 521298762
            -1601605139 467214391 -3526116 728834838</internalNodes>
          <leafValues>
            -3.0865702033042908e-01 2.0176897943019867e-01</leafValues></_>
        <_>
          <internalNodes>
            0 -1 174 -319380446 -1848356345 -2019818597 1061102141
            1735376801 -2013986884 387007643 -336640554</internalNodes>
          <leafValues>
            -2.3170179128646851e-01 2.4770629405975342e-01</leafValues></_>
        <_>
          <internalNodes>
            0 -1 204 -1226841328 -638867465 1874466783 -1160110488
            -1879947295 -82453189 -1099545463 -90743797</internalNodes>
          <leafValues>
            -2.0761731266975403e-01 2.8977283835411072e-01</leafValues></_>
        <_>
          <internalNodes>
            0 -1 2 -1643395850 986453068 1376194875 1574951304 772520651
            -661577488 -341673297 -1466129176</internalNodes>
          <leafValues>
            -2.5227376818656921e-01 2.3478448390960693e-01</leafValues></_>
        <_>
          <internalNodes>
            0 -1 234 1669314355 2142613352 1996125460 1604115890
            -393952736 163606000 -1930433327 -1461782877</internalNodes>
          <leafValues>
            -2.3556350171566010e-01 2.5741538405418396e-01</leafValues></_>
        <_>
          <internalNodes>
            0 -1 121 -967204305 1243431682 -1055537121 -1135009473
            -116619230 -106290808 -335483518 2067901003</internalNodes>
          <leafValues>
            -2.4245400726795197e-01 2.6687997579574585e-01</leafValues></_>
        <_>
          <internalNodes>
            0 -1 6 2125461247 -554824475 225439615 939130879 954656238
            -293638153 -1400574137 -120920836</internalNodes>
          <leafValues>
            -1.7314195632934570e-01 3.6404067277908325e-01</leafValues></_>
        <_>
          <internalNodes>
            0 -1 268 -1524488192 1316502677 -639909580 -114785496
            -125711966 -1649180480 -1911899224 -272704596</internalNodes>
          <leafValues>
            -2.4559202790260315e-01 2.3605188727378845e-01</leafValues></_>
        <_>
          <internalNodes>
            0 -1 109 821415020 1371450913 -1363542121 -231092245
            105172199 -1351225955 -302981141 -63847215</internalNodes>
          <leafValues>
            -2.2834746539592743e-01 2.6074522733688354e-01</leafValues></_>
        <_>
          <internalNodes>
            0 -1 154 1317745362 -333920853 -1198951252 -1400665728
            1696934080 -66442737 -99052477 -320871919</internalNodes>
          <leafValues>
            -2.6406216621398926e-01 2.2528614103794098e-01</leafValues></_>
        <_>
          <internalNodes>
            0 -1 107 -608568837 -117609557 -1258461591 -1141243923
            -193411377 -1645822186 745852655 2045738151</internalNodes>
          <leafValues>
            -1.4713974297046661e-01 4.2945381999015808e-01</leafValues></_>
        <_>
          <internalNodes>
            0 -1 145 -98406427 -1655161270 913124437 -1784019294
            -1309549347 1065008765 -2076370499 547833499</internalNodes>
          <leafValues>
            -2.1125759184360504e-01 2.8750300407409668e-01</leafValues></_>
        <_>
          <internalNodes>
            0 -1 160 214880106 419709416 -804073453 1001066609
            2112539057 -117407583 679630104 -132066878</internalNodes>
          <leafValues>
            -2.8486463427543640e-01 2.0924064517021179e-01</leafValues></_>
        <_>
          <internalNodes>
            0 -1 49 -347211273 -815978017 -1079026385 -1016399779
            -1409768218 -203758663 -1626623013 -2367681</internalNodes>
          <leafValues>
            -1.0234754532575607e-01 5.6774473190307617e-01</leafValues></_>
        <_>
          <internalNodes>
            0 -1 209 -371374223 -1152083367 -988182417 -196556772
            1282023987 507185555 1452868888 -132356633</internalNodes>
          <leafValues>
            -2.4238936603069305e-01 2.5082817673683167e-01</leafValues></_>
        <_>
          <internalNodes>
            0 -1 66 309252668 -152927254 -763125291 -213921483
            1227125344 -442427206 -1704729019 1891291860</internalNodes>
          <leafValues>
            -2.5574544072151184e-01 2.4262653291225433e-01</leafValues></_>
        <_>
          <internalNodes>
            0 -1 52 1876695680 -1244651368 -660586352 439353788
            -1047434333 958300304 -519017000 1284621728</internalNodes>
          <leafValues>
            -4.6774670481681824e-01 1.3233272731304169e-01</leafValues></_>
        <_>
          <internalNodes>
            0 -1 182 1251084800 919791451 25024470 -583352054 -901616639
            1648529504 -13939968 2052653624</internalNodes>
          <leafValues>
            -4.1532468795776367e-01 1.5525513887405396e-01</leafValues></_>
        <_>
          <internalNodes>
            0 -1 134 1856327139 1441791856 -587925664 -831332938
            -362948133 300170321 489243922 -1967536781</internalNodes>
          <leafValues>
            -2.3195818066596985e-01 2.6962342858314514e-01</leafValues></_>
        <_>
          <internalNodes>
            0 -1 231 45534640 68225237 -1754660405 1510195211 677591961
            -509083448 -1300110709 224625011</internalNodes>
          <leafValues>
            -2.9328477382659912e-01 2.1006733179092407e-01</leafValues></_>
        <_>
          <internalNodes>
            0 -1 19 1177300656 -2112679545 352743679 111743937
            2017661045 1491883430 -972830344 42836239</internalNodes>
          <leafValues>
            -3.4905251860618591e-01 1.8336844444274902e-01</leafValues></_>
        <_>
          <internalNodes>
            0 -1 61 1222574403 1465853309 1115882912 -1625544599
            -1056678876 -59068764 933474234 287187795</internalNodes>
          <leafValues>
            -2.5791215896606445e-01 2.4257272481918335e-01</leafValues></_>
        <_>
          <internalNodes>
            0 -1 193 1869547301 602957300 402579051 -154727378 53386090
            14882429 1743137679 -1414683482</internalNodes>
          <leafValues>
            -2.1550200879573822e-01 2.9610720276832581e-01</leafValues></_></weakClassifiers></_>
    <!-- stage 14 -->
    <_>
      <maxWeakCount>25</maxWeakCount>
      <stageThreshold>-8.0869072675704956e-01</stageThreshold>
      <weakClassifiers>
        <_>
          <internalNodes>
            0 -1 140 754855684 208938548 -151093282 10528446 1861148533
            -562266252 -10621044 1097236</internalNodes>
          <leafValues>
            -3.2168850302696228e-01 4.1803124547004700e-01</leafValues></_>
        <_>
          <internalNodes>
            0 -1 31 -858266689 1719090863 1005408031 -1184174177
            -874644485 -394593923 -805968321 -67127457</internalNodes>
          <leafValues>
            -1.5461821854114532e-01 3.8687863945960999e-01</leafValues></_>
        <_>
          <internalNodes>
            0 -1 136 -675198480 -1391914623 1905398692 -1615154415
            192184330 68682287 -1716490053 -2102130271</internalNodes>
          <leafValues>
            -3.7597349286079407e-01 1.6541966795921326e-01</leafValues></_>
        <_>
          <internalNodes>
            0 -1 74 -1180608167 -1447364216 -152064925 -1015022744
            -1259974657 -134578180 -285413437 -290990933</internalNodes>
          <leafValues>
            -2.2218817472457886e-01 2.8517970442771912e-01</leafValues></_>
        <_>
          <internalNodes>
            0 -1 242 -995381313 -833421545 -5310531 -1147926060
            -2023414369 438619982 -1350516833 -38330419</internalNodes>
          <leafValues>
            -2.2020046412944794e-01 3.1093570590019226e-01</leafValues></_>
        <_>
          <internalNodes>
            0 -1 144 -1368184972 -1615005761 2126487414 -896486802
            -536922221 -1143064707 -293748888 -1396718278</internalNodes>
          <leafValues>
            -2.0641355216503143e-01 2.8099790215492249e-01</leafValues></_>
        <_>
          <internalNodes>
            0 -1 225 -580672828 -1387286399 583087452 1064374536
            2115223106 610177906 487024548 1804011730</internalNodes>
          <leafValues>
            -3.0433183908462524e-01 1.9184046983718872e-01</leafValues></_>
        <_>
          <internalNodes>
            0 -1 50 -704490504 1180093207 136917252 889196568 342303633
            1640106033 1680856125 810550108</internalNodes>
          <leafValues>
            -3.3944678306579590e-01 1.9371367990970612e-01</leafValues></_>
        <_>
          <internalNodes>
            0 -1 184 1861106996 91275287 -1876078386 1142009867
            1315576131 142706703 -933222400 -1193161567</internalNodes>
          <leafValues>
            -4.4204035401344299e-01 1.2962037324905396e-01</leafValues></_>
        <_>
          <internalNodes>
            0 -1 41 -795911689 2129575886 -1069888267 -830736943
            -1090846865 1056906642 -581316438 -38273783</internalNodes>
          <leafValues>
            -1.7818802595138550e-01 3.5253560543060303e-01</leafValues></_>
        <_>
          <internalNodes>
            0 -1 258 -203491570 -1281767561 -1350595805 163642979
            -1562924067 -1611300929 -456020214 -307253202</internalNodes>
          <leafValues>
            -1.8316136300563812e-01 3.5569223761558533e-01</leafValues></_>
        <_>
          <internalNodes>
            0 -1 257 539035183 -1002041041 1637257723 80140377 731494008
            1594957883 -591973324 -1130975327</internalNodes>
          <leafValues>
            -2.8262802958488464e-01 2.2792078554630280e-01</leafValues></_>
        <_>
          <internalNodes>
            0 -1 226 1914137091 -2074916847 -384194348 1968403253
            1154432944 -839040315 -1960890956 -440671436</internalNodes>
          <leafValues>
            -2.5110116600990295e-01 2.4472475051879883e-01</leafValues></_>
        <_>
          <internalNodes>
            0 -1 3 1646060734 1978789882 -1277619260 -90841673 685130995
            -753045011 -2122889548 -54954514</internalNodes>
          <leafValues>
            -2.0915246009826660e-01 3.0968758463859558e-01</leafValues></_>
        <_>
          <internalNodes>
            0 -1 78 1826794939 -1271867271 -270688641 2032023798
            2092748767 -1460615969 -34607599 -1394784722</internalNodes>
          <leafValues>
            -2.2448155283927917e-01 2.9568693041801453e-01</leafValues></_>
        <_>
          <internalNodes>
            0 -1 116 -1904621619 131083264 786165421 1982159927
            1583969781 100532191 74828180 -925020889</internalNodes>
          <leafValues>
            -2.4023324251174927e-01 2.7089586853981018e-01</leafValues></_>
        <_>
          <internalNodes>
            0 -1 211 -363371705 209712433 -4464065 -199080076
            -2021092474 1228928311 -1049327943 -1420561118</internalNodes>
          <leafValues>
            -2.2810573875904083e-01 2.8825688362121582e-01</leafValues></_>
        <_>
          <internalNodes>
            0 -1 230 -583026081 532413391 1701811935 -1687122205
            -2001532501 -1832962245 307613647 -272965847</internalNodes>
          <leafValues>
            -1.4152641594409943e-01 4.4095456600189209e-01</leafValues></_>
        <_>
          <internalNodes>
            0 -1 35 -263981974 1083253284 -2086643695 827011927
            197878143 -1862252397 296278593 -1010373898</internalNodes>
          <leafValues>
            -2.5029319524765015e-01 2.5800067186355591e-01</leafValues></_>
        <_>
          <internalNodes>
            0 -1 63 811662302 -690487939 709610993 -4968657 -550215752
            -195815434 -1519632532 -319078613</internalNodes>
          <leafValues>
            -1.8117909133434296e-01 3.5074722766876221e-01</leafValues></_>
        <_>
          <internalNodes>
            0 -1 198 -898722251 -526926025 536190001 1559301395
            -812335642 -355483778 58395564 -1436061834</internalNodes>
          <leafValues>
            -2.0197105407714844e-01 3.1669417023658752e-01</leafValues></_>
        <_>
          <internalNodes>
            0 -1 241 -1433692873 616535920 -251576043 1058707798
            1007204758 -831971310 -1996104760 1198864798</internalNodes>
          <leafValues>
            -2.4813438951969147e-01 2.5760087370872498e-01</leafValues></_>
        <_>
          <internalNodes>
            0 -1 33 -414912866 1291981579 -1031748835 143762503
            -427062296 1342279696 -1309835072 1628304</internalNodes>
          <leafValues>
            -3.4878185391426086e-01 1.9065539538860321e-01</leafValues></_>
        <_>
          <internalNodes>
            0 -1 235 666798325 1261744889 1324092847 -139189703
            -1905553439 1283009986 1668632381 -996445771</internalNodes>
          <leafValues>
            -2.2797958552837372e-01 2.9585751891136169e-01</leafValues></_>
        <_>
          <internalNodes>
            0 -1 80 1760623797 273551510 -782532550 1437876746
            -1576492828 -450735225 -2132557131 -97340902</internalNodes>
          <leafValues>
            -2.8239077329635620e-01 2.3121175169944763e-01</leafValues></_></weakClassifiers></_></stages>
  <features>
    <_>
      <rect>
        0 5 10 8</rect></_>
    <_>
      <rect>
        0 8 7 5</rect></_>
    <_>
      <rect>
        0 14 4 4</rect></_>
    <_>
      <rect>
        0 17 4 3</rect></_>
    <_>
      <rect>
        0 18 7 4</rect></_>
    <_>
      <rect>
        1 0 7 4</rect></_>
    <_>
      <rect>
        1 5 7 5</rect></_>
    <_>
      <rect>
        1 6 9 7</rect></_>
    <_>
      <rect>
        1 20 8 3</rect></_>
    <_>
      <rect>
        2 6 1 2</rect></_>
    <_>
      <rect>
        2 8 6 5</rect></_>
    <_>
      <rect>
        3 0 6 10</rect></_>
    <_>
      <rect>
        3 5 9 7</rect></_>
    <_>
      <rect>
        3 21 9 3</rect></_>
    <_>
      <rect>
        4 9 6 6</rect></_>
    <_>
      <rect>
        4 13 7 2</rect></_>
    <_>
      <rect>
        5 10 1 1</rect></_>
    <_>
      <rect>
        5 10 5 3</rect></_>
    <_>
      <rect>
        5 16 3 4</rect></_>
    <_>
      <rect>
        6 0 5 4</rect></_>
    <_>
      <rect>
        6 2 5 3</rect></_>
    <_>
      <rect>
        6 5 6 7</rect></_>
    <_>
      <rect>
        6 14 2 3</rect></_>
    <_>
      <rect>
        6 21 5 3</rect></_>
    <_>
      <rect>
        7 7 6 6</rect></_>
    <_>
      <rect>
        7 10 2 3</rect></_>
    <_>
      <rect>
        7 10 6 5</rect></_>
    <_>
      <rect>
        7 11 4 2</rect></_>
    <_>
      <rect>
        7 12 4 4</rect></_>
    <_>
      <rect>
        7 12 5 2</rect></_>
    <_>
      <rect>
        7 14 2 1</rect></_>
    <_>
      <rect>
        7 14 2 2</rect></_>
    <_>
      <rect>
        7 14 2 3</rect></_>
    <_>
      <rect>
        7 19 6 3</rect></_>
    <_>
      <rect>
        7 21 6 3</rect></_>
    <_>
      <rect>
        8 3 4 6</rect></_>
    <_>
      <rect>
        8 7 4 2</rect></_>
    <_>
      <rect>
        8 8 7 7</rect></_>
    <_>
      <rect>
        8 10 3 2</rect></_>
    <_>
      <rect>
        8 10 4 6</rect></_>
    <_>
      <rect>
        8 10 5 4</rect></_>
    <_>
      <rect>
        8 12 7 6</rect></_>
    <_>
      <rect>
        8 15 2 1</rect></_>
    <_>
      <rect>
        8 16 1 4</rect></_>
    <_>
      <rect>
        8 17 2 3</rect></_>
    <_>
      <rect>
        8 21 2 2</rect></_>
    <_>
      <rect>
        9 1 6 6</rect></_>
    <_>
      <rect>
        9 2 5 2</rect></_>
    <_>
      <rect>
        9 4 3 5</rect></_>
    <_>
      <rect>
        9 4 6 5</rect></_>
    <_>
      <rect>
        9 4 7 5</rect></_>
    <_>
      <rect>
        9 5 5 4</rect></_>
    <_>
      <rect>
        9 8 6 7</rect></_>
    <_>
      <rect>
        9 10 3 1</rect></_>
    <_>
      <rect>
        9 11 1 3</rect></_>
    <_>
      <rect>
        9 11 3 2</rect></_>
    <_>
      <rect>
        9 12 2 2</rect></_>
    <_>
      <rect>
        9 12 5 3</rect></_>
    <_>
      <rect>
        9 14 1 1</rect></_>
    <_>
      <rect>
        9 17 3 2</rect></_>
    <_>
      <rect>
        9 17 5 3</rect></_>
    <_>
      <rect>
        9 18 1 2</rect></_>
    <_>
      <rect>
        9 18 2 2</rect></_>
    <_>
      <rect>
        9 23 1 1</rect></_>
    <_>
      <rect>
        10 0 6 4</rect></_>
    <_>
      <rect>
        10 1 6 3</rect></_>
    <_>
      <rect>
        10 3 2 2</rect></_>
    <_>
      <rect>
        10 4 4 3</rect></_>
    <_>
      <rect>
        10 5 6 5</rect></_>
    <_>
      <rect>
        10 7 5 4</rect></_>
    <_>
      <rect>
        10 8 3 5</rect></_>
    <_>
      <rect>
        10 9 6 4</rect></_>
    <_>
      <rect>
        10 10 2 3</rect></_>
    <_>
      <rect>
        10 11 1 2</rect></_>
    <_>
      <rect>
        10 11 3 2</rect></_>
    <_>
      <rect>
        10 11 6 3</rect></_>
    <_>
      <rect>
        10 11 6 5</rect></_>
    <_>
      <rect>
        10 12 6 3</rect></_>
    <_>
      <rect>
        10 14 1 1</rect></_>
    <_>
      <rect>
        10 14 1 2</rect></_>
    <_>
      <rect>
        10 15 1 2</rect></_>
    <_>
      <rect>
        10 16 1 1</rect></_>
    <_>
      <rect>
        10 17 2 2</rect></_>
    <_>
      <rect>
        10 18 2 2</rect></_>
    <_>
      <rect>
        10 19 1 3</rect></_>
    <_>
      <rect>
        10 21 1 1</rect></_>
    <_>
      <rect>
        10 21 1 2</rect></_>
    <_>
      <rect>
        10 24 1 1</rect></_>
    <_>
      <rect>
        11 2 5 6</rect></_>
    <_>
      <rect>
        11 4 5 6</rect></_>
    <_>
      <rect>
        11 5 5 5</rect></_>
    <_>
      <rect>
        11 6 5 5</rect></_>
    <_>
      <rect>
        11 8 4 3</rect></_>
    <_>
      <rect>
        11 9 2 1</rect></_>
    <_>
      <rect>
        11 10 2 1</rect></_>
    <_>
      <rect>
        11 10 2 3</rect></_>
    <_>
      <rect>
        11 11 2 1</rect></_>
    <_>
      <rect>
        11 11 2 3</rect></_>
    <_>
      <rect>
        11 11 3 2</rect></_>
    <_>
      <rect>
        11 11 5 6</rect></_>
    <_>
      <rect>
        11 12 1 2</rect></_>
    <_>
      <rect>
        11 12 2 2</rect></_>
    <_>
      <rect>
        11 12 3 2</rect></_>
    <_>
      <rect>
        11 12 5 2</rect></_>
    <_>
      <rect>
        11 12 5 3</rect></_>
    <_>
      <rect>
        11 12 5 4</rect></_>
    <_>
      <rect>
        11 13 2 2</rect></_>
    <_>
      <rect>
        11 13 3 2</rect></_>
    <_>
      <rect>
        11 14 4 2</rect></_>
    <_>
      <rect>
        11 15 2 1</rect></_>
    <_>
      <rect>
        11 16 1 1</rect></_>
    <_>
      <rect>
        11 16 1 2</rect></_>
    <_>
      <rect>
        11 16 2 2</rect></_>
    <_>
      <rect>
        11 17 1 2</rect></_>
    <_>
      <rect>
        11 17 2 2</rect></_>
    <_>
      <rect>
        11 19 4 2</rect></_>
    <_>
      <rect>
        11 22 4 2</rect></_>
    <_>
      <rect>
        12 2 4 3</rect></_>
    <_>
      <rect>
        12 5 2 2</rect></_>
    <_>
      <rect>
        12 5 3 2</rect></_>
    <_>
      <rect>
        12 6 2 2</rect></_>
    <_>
      <rect>
        12 6 3 2</rect></_>
    <_>
      <rect>
        12 7 2 2</rect></_>
    <_>
      <rect>
        12 7 3 5</rect></_>
    <_>
      <rect>
        12 9 2 1</rect></_>
    <_>
      <rect>
        12 10 2 1</rect></_>
    <_>
      <rect>
        12 10 2 3</rect></_>
    <_>
      <rect>
        12 10 3 4</rect></_>
    <_>
      <rect>
        12 11 2 2</rect></_>
    <_>
      <rect>
        12 11 2 3</rect></_>
    <_>
      <rect>
        12 11 3 2</rect></_>
    <_>
      <rect>
        12 12 2 2</rect></_>
    <_>
      <rect>
        12 12 2 3</rect></_>
    <_>
      <rect>
        12 12 3 5</rect></_>
    <_>
      <rect>
        12 12 5 4</rect></_>
    <_>
      <rect>
        12 13 2 2</rect></_>
    <_>
      <rect>
        12 13 2 3</rect></_>
    <_>
      <rect>
        12 14 2 1</rect></_>
    <_>
      <rect>
        12 15 1 1</rect></_>
    <_>
      <rect>
        12 15 2 1</rect></_>
    <_>
      <rect>
        12 16 1 1</rect></_>
    <_>
      <rect>
        12 16 1 2</rect></_>
    <_>
      <rect>
        12 17 1 1</rect></_>
    <_>
      <rect>
        12 17 2 1</rect></_>
    <_>
      <rect>
        12 18 1 1</rect></_>
    <_>
      <rect>
        12 19 4 3</rect></_>
    <_>
      <rect>
        13 4 2 2</rect></_>
    <_>
      <rect>
        13 6 3 1</rect></_>
    <_>
      <rect>
        13 7 3 4</rect></_>
    <_>
      <rect>
        13 10 2 1</rect></_>
    <_>
      <rect>
        13 10 2 3</rect></_>
    <_>
      <rect>
        13 11 2 3</rect></_>
    <_>
      <rect>
        13 11 3 4</rect></_>
    <_>
      <rect>
        13 12 1 1</rect></_>
    <_>
      <rect>
        13 12 2 1</rect></_>
    <_>
      <rect>
        13 12 2 5</rect></_>
    <_>
      <rect>
        13 13 1 1</rect></_>
    <_>
      <rect>
        13 13 2 2</rect></_>
    <_>
      <rect>
        13 14 1 1</rect></_>
    <_>
      <rect>
        13 15 1 1</rect></_>
    <_>
      <rect>
        13 15 2 1</rect></_>
    <_>
      <rect>
        13 17 1 1</rect></_>
    <_>
      <rect>
        13 17 3 2</rect></_>
    <_>
      <rect>
        13 19 1 1</rect></_>
    <_>
      <rect>
        14 1 5 4</rect></_>
    <_>
      <rect>
        14 7 2 2</rect></_>
    <_>
      <rect>
        14 8 2 2</rect></_>
    <_>
      <rect>
        14 8 3 2</rect></_>
    <_>
      <rect>
        14 9 2 1</rect></_>
    <_>
      <rect>
        14 11 1 1</rect></_>
    <_>
      <rect>
        14 11 2 2</rect></_>
    <_>
      <rect>
        14 12 1 1</rect></_>
    <_>
      <rect>
        14 12 1 2</rect></_>
    <_>
      <rect>
        14 12 2 2</rect></_>
    <_>
      <rect>
        14 13 1 1</rect></_>
    <_>
      <rect>
        14 14 1 1</rect></_>
    <_>
      <rect>
        14 15 1 1</rect></_>
    <_>
      <rect>
        14 16 1 1</rect></_>
    <_>
      <rect>
        14 17 1 1</rect></_>
    <_>
      <rect>
        14 18 1 1</rect></_>
    <_>
      <rect>
        15 9 1 1</rect></_>
    <_>
      <rect>
        15 9 2 2</rect></_>
    <_>
      <rect>
        15 11 1 1</rect></_>
    <_>
      <rect>
        15 11 2 1</rect></_>
    <_>
      <rect>
        15 11 2 2</rect></_>
    <_>
      <rect>
        15 12 1 1</rect></_>
    <_>
      <rect>
        15 13 1 1</rect></_>
    <_>
      <rect>
        15 14 1 1</rect></_>
    <_>
      <rect>
        15 14 2 1</rect></_>
    <_>
      <rect>
        15 15 2 1</rect></_>
    <_>
      <rect>
        15 16 1 1</rect></_>
    <_>
      <rect>
        15 19 3 3</rect></_>
    <_>
      <rect>
        15 19 5 3</rect></_>
    <_>
      <rect>
        15 20 3 2</rect></_>
    <_>
      <rect>
        15 22 2 2</rect></_>
    <_>
      <rect>
        15 26 1 1</rect></_>
    <_>
      <rect>
        16 7 3 3</rect></_>
    <_>
      <rect>
        16 8 1 2</rect></_>
    <_>
      <rect>
        16 9 1 1</rect></_>
    <_>
      <rect>
        16 11 1 1</rect></_>
    <_>
      <rect>
        16 11 2 1</rect></_>
    <_>
      <rect>
        16 11 2 3</rect></_>
    <_>
      <rect>
        16 12 1 1</rect></_>
    <_>
      <rect>
        16 12 1 2</rect></_>
    <_>
      <rect>
        16 13 1 1</rect></_>
    <_>
      <rect>
        16 13 1 2</rect></_>
    <_>
      <rect>
        16 15 1 1</rect></_>
    <_>
      <rect>
        16 15 1 2</rect></_>
    <_>
      <rect>
        17 5 2 3</rect></_>
    <_>
      <rect>
        17 6 3 2</rect></_>
    <_>
      <rect>
        17 8 1 2</rect></_>
    <_>
      <rect>
        17 9 1 1</rect></_>
    <_>
      <rect>
        17 11 3 3</rect></_>
    <_>
      <rect>
        17 14 1 2</rect></_>
    <_>
      <rect>
        17 15 2 1</rect></_>
    <_>
      <rect>
        17 15 2 2</rect></_>
    <_>
      <rect>
        18 8 1 5</rect></_>
    <_>
      <rect>
        18 9 1 2</rect></_>
    <_>
      <rect>
        18 9 4 4</rect></_>
    <_>
      <rect>
        18 10 1 2</rect></_>
    <_>
      <rect>
        18 10 4 5</rect></_>
    <_>
      <rect>
        18 11 2 3</rect></_>
    <_>
      <rect>
        18 13 1 2</rect></_>
    <_>
      <rect>
        18 13 4 4</rect></_>
    <_>
      <rect>
        18 14 4 5</rect></_>
    <_>
      <rect>
        18 15 4 4</rect></_>
    <_>
      <rect>
        18 16 1 1</rect></_>
    <_>
      <rect>
        18 16 4 2</rect></_>
    <_>
      <rect>
        18 18 3 3</rect></_>
    <_>
      <rect>
        19 1 1 2</rect></_>
    <_>
      <rect>
        19 5 2 3</rect></_>
    <_>
      <rect>
        19 6 2 4</rect></_>
    <_>
      <rect>
        19 7 2 7</rect></_>
    <_>
      <rect>
        19 12 1 2</rect></_>
    <_>
      <rect>
        19 14 1 1</rect></_>
    <_>
      <rect>
        19 18 3 4</rect></_>
    <_>
      <rect>
        19 19 2 3</rect></_>
    <_>
      <rect>
        19 20 1 1</rect></_>
    <_>
      <rect>
        20 9 2 5</rect></_>
    <_>
      <rect>
        20 10 2 4</rect></_>
    <_>
      <rect>
        20 11 3 4</rect></_>
    <_>
      <rect>
        20 13 2 2</rect></_>
    <_>
      <rect>
        20 14 2 2</rect></_>
    <_>
      <rect>
        20 14 2 3</rect></_>
    <_>
      <rect>
        20 17 3 2</rect></_>
    <_>
      <rect>
        21 7 1 7</rect></_>
    <_>
      <rect>
        21 7 3 6</rect></_>
    <_>
      <rect>
        21 8 3 5</rect></_>
    <_>
      <rect>
        21 13 2 3</rect></_>
    <_>
      <rect>
        21 15 1 3</rect></_>
    <_>
      <rect>
        21 20 1 1</rect></_>
    <_>
      <rect>
        22 7 2 3</rect></_>
    <_>
      <rect>
        22 9 2 2</rect></_>
    <_>
      <rect>
        22 13 1 2</rect></_>
    <_>
      <rect>
        22 14 2 3</rect></_>
    <_>
      <rect>
        22 16 1 1</rect></_>
    <_>
      <rect>
        22 16 2 1</rect></_>
    <_>
      <rect>
        22 17 1 1</rect></_>
    <_>
      <rect>
        23 8 2 4</rect></_>
    <_>
      <rect>
        23 9 1 2</rect></_>
    <_>
      <rect>
        23 12 2 3</rect></_>
    <_>
      <rect>
        23 16 1 2</rect></_>
    <_>
      <rect>
        24 3 2 5</rect></_>
    <_>
      <rect>
        24 6 2 2</rect></_>
    <_>
      <rect>
        24 8 2 2</rect></_>
    <_>
      <rect>
        24 9 2 3</rect></_>
    <_>
      <rect>
        24 12 2 4</rect></_>
    <_>
      <rect>
        24 14 2 4</rect></_>
    <_>
      <rect>
        24 16 1 1</rect></_></features></cascade>
</opencv_storage>
